{"learner":{"attributes":{"scikit_learn":"{\"_estimator_type\": \"classifier\"}"},"feature_names":[],"feature_types":[],"gradient_booster":{"gbtree":{"model":{"gbtree_model_param":{"num_parallel_tree":"1","num_trees":"100"},"iteration_indptr":[0,1,2,3,4,5,6,7,8,9,10,11,12,13,14,15,16,17,18,19,20,21,22,23,24,25,26,27,28,29,30,31,32,33,34,35,36,37,38,39,40,41,42,43,44,45,46,47,48,49,50,51,52,53,54,55,56,57,58,59,60,61,62,63,64,65,66,67,68,69,70,71,72,73,74,75,76,77,78,79,80,81,82,83,84,85,86,87,88,89,90,91,92,93,94,95,96,97,98,99,100],"tree_info":[0,0,0,0,0,0,0,0,0,0,0,0,0,0,0,0,0,0,0,0,0,0,0,0,0,0,0,0,0,0,0,0,0,0,0,0,0,0,0,0,0,0,0,0,0,0,0,0,0,0,0,0,0,0,0,0,0,0,0,0,0,0,0,0,0,0,0,0,0,0,0,0,0,0,0,0,0,0,0,0,0,0,0,0,0,0,0,0,0,0,0,0,0,0,0,0,0,0,0,0],"trees":[{"base_weights":[8.235078E-3,9.62793E-2,-8.5283667E-1,-1.2612021E-2,1.0880332E0,1.737367E0,2.2102407E-1,-2.346546E-1,2.5255707E-1,8.780187E-1,-1.1210176E-1,-3.2966226E-1,9.8046106E-1,1.6086329E0,4.2067772E-1,1.0573107E-1,-5.140255E-1,2.127026E0,1.9481596E-1,1.5408062E0,-9.6545374E-1,8.8131315E-1,-4.696261E-1,-7.093229E-2,1.8117809E0,-6.5487E-1,2.5098097E0,1.6802139E0,-1.0203955E0,4.9878735E-2,-7.4577343E-1,-8.4796935E-1,1.3320017E0,-3.638034E-1,-1.3082726E0,-6.678827E-1,2.3865941E-1,-4.1767505E-1,1.0454308E0,1.7119503E0,-1.1108425E0,-2.1918474E-1,1.0417585E0,7.573196E-1,2.1628177E0,-8.209709E-1,2.774161E-1,8.2986134E-1,-9.241392E-2,-4.2265275E-1,-1.303796E0,-6.960427E-1,6.3887364E-1,-2.912537E-1,9.668353E-1,1.2943549E0,1.8287621E-2,-5.6292516E-1,2.487265E-1,-4.6353114E-1,4.9280587E-1,2.0076784E-1,1.2593755E0,1.1148136E0,7.972925E-2,1.9719179E0,3.8762055E-2,-9.95829E-1,6.7359847E-1,-1.2589153E-2,1.3964905E0,8.898633E-1,-8.0491465E-1,1.2144339E0,-9.231826E-2,-4.9407783E-1,1.8993055E0,2.8128614E0,1.3452799E0,2.718699E0,-7.049699E-3,2.1003978E0,3.3015066E-1,-8.714852E-1,5.3764683E-1,-1.1108421E-1,1.3776813E0,-6.0328748E-2,2.1432903E0,2.746089E-1,-3.3647633E-1,8.8871914E-1,-5.1527905E-1,1.822451E0,-3.0355918E-1,2.1704562E0,8.742332E-2,-1.9238733E-1,1.3320017E0,-1.459142E-1,-1.1362164E0,7.029451E-1,-7.986937E-1,4.1883928E-1,1.6973084E0,-9.46151E-1,4.5406193E-1,8.4499806E-1,-4.9407783E-1,-4.1473106E-1,5.5348027E-1,1.0789216E0,-3.2109246E-1,1.7526361E0,2.069418E-1,-5.8809376E-1,-2.1339089E-1,2.659427E-2,-1.2153199E0,-8.594549E-1,-3.9670092E-1,6.4444554E-1,1.5824944E0,-4.536935E-1,-1.063146E0,6.014437E-1,-6.1008507E-1,2.3346794E0,1.2094262E0,-7.074229E-3,1.5268276E0,1.4446065E0,2.6387553E0,-5.567029E-1,2.7678633E-1,1.5806309E0,1.6973622E0,1.5755736E0,3.1233025E-1,1.3473341E-1,-1.3403163E0,4.1885152E-1,1.3905157E0,-1.451012E0,-5.1939506E-2,2.7678633E-1,1.2526549E0,-4.0815765E-1,6.4444554E-1,-5.1844025E-1,6.014437E-1,-5.72745E-1,3.0738342E-1,-1.2893683E-1,-7.2249544E-1,-3.4041724E-1,4.1882393E-1,1.4132098E0,1.0142169E0,-1.2879884E-1,1.1291039E0,-9.436755E-1,-8.5949546E-1,-1.2281872E0,-4.1472602E-1,-1.0794829E0,3.6071616E-1,8.449735E-1,-2.5061107E-1,-1.6211355E-1,-6.912648E-1,7.840832E-1,-1.2887768E-1,1.1028805E-1,-4.6272692E-1,2.8041298E0,8.449735E-1,-7.1125335E-1,5.3525258E-2,5.3525258E-2,-1.3025792E0,-8.5939825E-1,-5.1939506E-2,-6.414712E-1,-7.049699E-3,9.8140323E-1,1.6972805E0,-2.7828848E-1,4.1882393E-1,-2.5774866E-1,-1.3943046E0,1.3320541E0,6.967956E-1,1.4749986E0,8.4499806E-1,1.1859006E0,1.6690032E0,-5.1851386E-1,-8.594975E-1,-3.4801355E-1,-8.594141E-1,-3.1143832E-1,-8.594041E-1,-1.0631177E0,-8.5947365E-1,-1.2502337E0,-2.5061107E-1,-3.1143832E-1,-1.4262686E0,-4.0815765E-1,-7.742459E-1,-5.397574E-1,-8.594994E-1,-5.1844025E-1,-8.594384E-1,2.5546434E0,1.6973951E0,1.2711568E0,1.6972805E0,1.3320017E0,1.6973332E0,-6.1589E-1,-8.594476E-1,-6.889038E-1,-8.5946065E-1],"categories":[],"categories_nodes":[],"categories_segments":[],"categories_sizes":[],"default_left":[0,0,0,0,0,0,0,0,0,0,0,0,0,0,0,0,0,0,0,0,0,0,0,0,0,0,0,0,0,0,0,0,0,0,0,0,0,0,0,0,0,0,0,0,0,0,0,0,0,0,0,0,0,0,0,0,0,0,0,0,0,0,0,0,0,0,0,0,0,0,0,0,0,0,0,0,0,0,0,0,0,0,0,0,0,0,0,0,0,0,0,0,0,0,0,0,0,0,0,0,0,0,0,0,0,0,0,0,0,0,0,0,0,0,0,0,0,0,0,0,0,0,0,0,0,0,0,0,0,0,0,0,0,0,0,0,0,0,0,0,0,0,0,0,0,0,0,0,0,0,0,0,0,0,0,0,0,0,0,0,0,0,0,0,0,0,0,0,0,0,0,0,0,0,0,0,0,0,0,0,0,0,0,0,0,0,0,0,0,0,0,0,0,0,0,0,0,0,0,0,0,0,0,0,0,0,0,0,0,0,0,0,0,0,0,0,0,0,0,0,0,0,0,0,0],"id":0,"left_children":[1,3,67,7,5,65,69,15,9,13,11,29,17,43,21,55,33,135,19,157,179,23,71,27,25,-1,121,141,177,41,31,123,-1,35,143,49,37,83,39,73,201,45,81,111,77,133,47,-1,-1,51,189,115,53,-1,-1,75,57,119,59,125,61,89,63,-1,-1,87,149,99,97,91,-1,-1,117,-1,-1,-1,79,215,95,219,-1,193,109,169,85,-1,-1,-1,127,-1,-1,93,105,103,-1,185,-1,-1,-1,101,161,-1,181,-1,-1,139,107,-1,-1,-1,-1,113,-1,191,147,-1,-1,187,209,-1,151,-1,-1,155,183,-1,173,131,129,-1,-1,145,175,-1,-1,137,-1,-1,-1,-1,221,-1,-1,211,-1,-1,-1,-1,-1,-1,-1,153,171,-1,-1,-1,-1,-1,159,-1,-1,163,-1,203,165,199,167,-1,-1,-1,-1,-1,-1,-1,-1,195,-1,-1,-1,-1,213,-1,-1,-1,-1,-1,-1,-1,-1,-1,197,-1,-1,-1,-1,-1,-1,-1,-1,-1,-1,-1,-1,205,-1,207,-1,-1,223,-1,-1,-1,-1,-1,-1,217,-1,-1,-1,-1,-1,-1,-1,-1,-1],"loss_changes":[7.8785194E1,1.0181919E2,2.104177E1,5.002E1,5.2511665E1,2.124678E1,2.0778015E1,4.3969086E1,8.830634E1,4.764473E1,5.813459E1,3.2212482E1,3.6582584E1,2.5896362E1,3.596617E1,2.1661953E1,3.0297928E1,7.644867E0,3.7638485E1,5.496111E0,4.62298E0,5.1211147E1,2.0343739E1,4.749054E1,6.039086E1,0E0,8.60434E0,7.1873283E0,4.66753E0,2.8467825E1,3.062545E1,7.9880066E0,0E0,3.912324E1,7.0164948E0,2.2130997E1,3.7930508E1,1.712404E1,4.618339E1,1.9155174E1,1.6929607E0,2.5075375E1,1.7145E1,9.1897955E0,1.7666473E1,7.6647873E0,2.377359E1,0E0,0E0,2.9725464E1,3.0444946E0,8.776882E0,2.5449257E1,0E0,0E0,1.8665028E1,2.6002035E1,8.641203E0,2.4168991E1,7.8910294E0,2.3178598E1,1.6624956E1,2.220623E1,0E0,0E0,1.6687088E1,6.2247915E0,1.0516159E1,1.3862288E1,1.6378788E1,0E0,0E0,8.758511E0,0E0,0E0,0E0,1.7479671E1,7.697449E-1,1.4485449E1,7.637329E-1,0E0,2.7433205E0,9.20665E0,5.346571E0,1.7484665E1,0E0,0E0,0E0,7.7344666E0,0E0,0E0,1.7170822E1,9.693462E0,9.7914505E0,0E0,3.148594E0,0E0,0E0,0E0,1.1239622E1,5.38871E0,0E0,4.244006E0,0E0,0E0,7.488391E0,9.679412E0,0E0,0E0,0E0,0E0,1.0223669E1,0E0,3.0333004E0,6.4554296E0,0E0,0E0,3.085489E0,1.2147427E0,0E0,5.8087726E0,0E0,0E0,5.643621E0,3.9088821E0,0E0,5.2222824E0,9.720261E0,1.3196734E1,0E0,0E0,6.5885143E0,5.1239014E0,0E0,0E0,1.2247519E1,0E0,0E0,0E0,0E0,5.1947594E-1,0E0,0E0,1.007927E0,0E0,0E0,0E0,0E0,0E0,0E0,0E0,9.014243E0,5.332577E0,0E0,0E0,0E0,0E0,0E0,8.542532E0,0E0,0E0,7.4875298E0,0E0,1.4831696E0,8.9730215E0,1.8760614E0,7.1993E0,0E0,0E0,0E0,0E0,0E0,0E0,0E0,0E0,2.0518951E0,0E0,0E0,0E0,0E0,7.856903E-1,0E0,0E0,0E0,0E0,0E0,0E0,0E0,0E0,0E0,1.9401093E0,0E0,0E0,0E0,0E0,0E0,0E0,0E0,0E0,0E0,0E0,0E0,0E0,2.369215E0,0E0,1.9352875E0,0E0,0E0,2.1650314E-1,0E0,0E0,0E0,0E0,0E0,0E0,9.757004E-1,0E0,0E0,0E0,0E0,0E0,0E0,0E0,0E0,0E0],"parents":[2147483647,0,0,1,1,4,4,3,3,8,8,10,10,9,9,7,7,12,12,18,18,14,14,21,21,24,24,23,23,11,11,30,30,16,16,33,33,36,36,38,38,29,29,13,13,41,41,46,46,35,35,49,49,52,52,15,15,56,56,58,58,60,60,62,62,5,5,2,2,6,6,22,22,39,39,55,55,44,44,76,76,42,42,37,37,84,84,65,65,61,61,69,69,91,91,78,78,68,68,67,67,99,99,93,93,92,92,106,106,82,82,43,43,111,111,51,51,72,72,57,57,26,26,31,31,59,59,88,88,128,128,127,127,45,45,17,17,135,135,105,105,27,27,34,34,131,131,114,114,66,66,120,120,151,151,123,123,19,19,158,158,100,100,161,161,164,164,166,166,83,83,152,152,126,126,132,132,28,28,20,20,102,102,124,124,95,95,117,117,50,50,113,113,81,81,175,175,190,190,165,165,40,40,163,163,203,203,205,205,118,118,143,143,180,180,77,77,215,215,79,79,140,140,208,208],"right_children":[2,4,68,8,6,66,70,16,10,14,12,30,18,44,22,56,34,136,20,158,180,24,72,28,26,-1,122,142,178,42,32,124,-1,36,144,50,38,84,40,74,202,46,82,112,78,134,48,-1,-1,52,190,116,54,-1,-1,76,58,120,60,126,62,90,64,-1,-1,88,150,100,98,92,-1,-1,118,-1,-1,-1,80,216,96,220,-1,194,110,170,86,-1,-1,-1,128,-1,-1,94,106,104,-1,186,-1,-1,-1,102,162,-1,182,-1,-1,140,108,-1,-1,-1,-1,114,-1,192,148,-1,-1,188,210,-1,152,-1,-1,156,184,-1,174,132,130,-1,-1,146,176,-1,-1,138,-1,-1,-1,-1,222,-1,-1,212,-1,-1,-1,-1,-1,-1,-1,154,172,-1,-1,-1,-1,-1,160,-1,-1,164,-1,204,166,200,168,-1,-1,-1,-1,-1,-1,-1,-1,196,-1,-1,-1,-1,214,-1,-1,-1,-1,-1,-1,-1,-1,-1,198,-1,-1,-1,-1,-1,-1,-1,-1,-1,-1,-1,-1,206,-1,208,-1,-1,224,-1,-1,-1,-1,-1,-1,218,-1,-1,-1,-1,-1,-1,-1,-1,-1],"split_conditions":[5.7100546E-1,8.7978154E-2,-2.0267579E-1,-2.898476E-1,1.5879229E-2,2.3733778E0,-3.25954E-1,-2.2646554E-1,-3.0802837E-1,-2.2576804E-1,1.3486027E0,-5.3643808E-2,-2.4579166E-1,1.5017295E-1,-8.949319E-3,-2.4751215E0,-2.9875323E-1,3.8119638E-1,-5.9198684E-1,-7.538867E-1,-3.0646238E-1,1.1219139E-1,-3.1810325E-1,-7.587259E-1,-2.0027953E-1,-6.5487E-1,-3.1944755E-1,-9.85302E-2,5.163706E-2,1.3187191E0,3.2782073E0,8.2521105E-1,1.3320017E0,-3.3990335E-1,-2.3710117E-1,-3.5310826E-1,1.1219139E-1,1.6261439E-1,-2.6712498E-1,-3.066179E-1,1.1468092E0,-2.3271503E-1,-2.9583776E-1,-2.4579166E-1,-2.1599124E-1,-2.7894704E-2,-7.1124893E-1,8.2986134E-1,-9.241392E-2,-3.6119497E-1,-3.264654E-1,-3.750652E-1,1.4004135E-1,-2.912537E-1,9.668353E-1,-8.005056E-1,4.9239925E-1,-7.4790543E-1,-3.7614003E-1,-1.5999631E0,-2.0473312E-1,-2.42239E-1,-1.8158855E-1,1.1148136E0,7.972925E-2,-2.4460743E-1,-7.4790543E-1,-2.1737032E-1,-4.7119353E-2,-2.3271503E-1,1.3964905E0,8.898633E-1,5.8392245E-1,1.2144339E0,-9.231826E-2,-4.9407783E-1,-2.4413656E-1,-3.2021898E-1,1.2064402E0,-3.9201173E-1,-7.049699E-3,-2.1599124E-1,7.920068E-3,-6.508582E-1,-1.315553E-1,-1.1108421E-1,1.3776813E0,-6.0328748E-2,1.743932E0,2.746089E-1,-3.3647633E-1,-6.668864E-1,-6.543801E-1,-7.877405E-2,-3.0355918E-1,-1.9910406E-1,8.742332E-2,-1.9238733E-1,1.3320017E0,-2.385075E-1,5.4057634E-1,7.029451E-1,-3.9815274E-1,4.1883928E-1,1.6973084E0,1.0312775E-1,2.5938922E-1,8.4499806E-1,-4.9407783E-1,-4.1473106E-1,5.5348027E-1,-3.2243547E-1,-3.2109246E-1,-5.698399E-1,-3.152823E-1,-5.8809376E-1,-2.1339089E-1,-2.030556E-1,4.0919852E-1,-8.594549E-1,-1.8784593E-1,6.4444554E-1,1.5824944E0,2.4980342E0,7.2403085E-1,6.014437E-1,-3.8049048E-1,-2.3513366E-1,-3.397498E-1,-7.074229E-3,1.5268276E0,-6.2447375E-1,-2.8248774E-2,-5.567029E-1,2.7678633E-1,-2.8677034E-1,1.6973622E0,1.5755736E0,3.1233025E-1,1.3473341E-1,-7.613846E-1,4.1885152E-1,1.3905157E0,-3.3251035E-1,-5.1939506E-2,2.7678633E-1,1.2526549E0,-4.0815765E-1,6.4444554E-1,-5.1844025E-1,6.014437E-1,5.579438E-1,-1.4844249E-1,-1.2893683E-1,-7.2249544E-1,-3.4041724E-1,4.1882393E-1,1.4132098E0,-2.0473312E-1,-1.2879884E-1,1.1291039E0,4.0434653E-1,-8.5949546E-1,-6.489426E-1,-6.5601134E-1,1.0433161E0,8.2521105E-1,8.449735E-1,-2.5061107E-1,-1.6211355E-1,-6.912648E-1,7.840832E-1,-1.2887768E-1,1.1028805E-1,-4.6272692E-1,-7.8759927E-1,8.449735E-1,-7.1125335E-1,5.3525258E-2,5.3525258E-2,-3.5314158E-1,-8.5939825E-1,-5.1939506E-2,-6.414712E-1,-7.049699E-3,9.8140323E-1,1.6972805E0,-2.7828848E-1,4.1882393E-1,-2.5774866E-1,6.484493E-1,1.3320541E0,6.967956E-1,1.4749986E0,8.4499806E-1,1.1859006E0,1.6690032E0,-5.1851386E-1,-8.594975E-1,-3.4801355E-1,-8.594141E-1,-3.1143832E-1,-8.594041E-1,-6.6851765E-1,-8.5947365E-1,-7.906304E-1,-2.5061107E-1,-3.1143832E-1,-7.659424E-1,-4.0815765E-1,-7.742459E-1,-5.397574E-1,-8.594994E-1,-5.1844025E-1,-8.594384E-1,9.6069956E-1,1.6973951E0,1.2711568E0,1.6972805E0,1.3320017E0,1.6973332E0,-6.1589E-1,-8.594476E-1,-6.889038E-1,-8.5946065E-1],"split_indices":[8,0,3,11,8,0,10,13,8,11,6,11,1,3,7,2,11,11,3,10,7,3,8,3,11,0,7,11,11,13,7,12,0,11,8,11,3,6,7,8,3,6,8,1,0,1,3,0,0,11,8,11,10,0,0,3,2,10,11,13,0,1,8,0,0,1,10,1,0,6,0,0,3,0,0,0,0,8,3,7,0,0,8,3,0,0,0,0,6,0,0,10,10,11,0,0,0,0,0,0,11,0,13,0,0,8,8,0,0,0,0,8,0,13,8,0,0,3,10,0,0,0,0,15,10,0,11,1,11,0,0,10,8,0,0,8,0,0,0,0,3,0,0,8,0,0,0,0,0,0,0,6,0,0,0,0,0,0,0,0,0,1,0,10,10,8,12,0,0,0,0,0,0,0,0,10,0,0,0,0,10,0,0,0,0,0,0,0,0,0,10,0,0,0,0,0,0,0,0,0,0,0,0,10,0,3,0,0,3,0,0,0,0,0,0,3,0,0,0,0,0,0,0,0,0],"split_type":[0,0,0,0,0,0,0,0,0,0,0,0,0,0,0,0,0,0,0,0,0,0,0,0,0,0,0,0,0,0,0,0,0,0,0,0,0,0,0,0,0,0,0,0,0,0,0,0,0,0,0,0,0,0,0,0,0,0,0,0,0,0,0,0,0,0,0,0,0,0,0,0,0,0,0,0,0,0,0,0,0,0,0,0,0,0,0,0,0,0,0,0,0,0,0,0,0,0,0,0,0,0,0,0,0,0,0,0,0,0,0,0,0,0,0,0,0,0,0,0,0,0,0,0,0,0,0,0,0,0,0,0,0,0,0,0,0,0,0,0,0,0,0,0,0,0,0,0,0,0,0,0,0,0,0,0,0,0,0,0,0,0,0,0,0,0,0,0,0,0,0,0,0,0,0,0,0,0,0,0,0,0,0,0,0,0,0,0,0,0,0,0,0,0,0,0,0,0,0,0,0,0,0,0,0,0,0,0,0,0,0,0,0,0,0,0,0,0,0,0,0,0,0,0,0],"sum_hessian":[1.0392212E3,9.4281934E2,9.640188E1,8.4954156E2,9.327775E1,5.3333447E1,3.9944298E1,4.6237198E2,3.871696E2,1.4259445E2,2.4457515E2,2.039614E2,4.0613754E1,5.4895515E1,8.769894E1,2.0842444E2,2.5394756E2,1.6513285E1,2.410047E1,1.1157625E1,1.2942845E1,5.7796497E1,2.9902435E1,2.856352E1,2.9232979E1,5.5788126E0,2.3654165E1,1.00418625E1,1.8521658E1,1.0666689E2,9.7294495E1,9.417036E1,3.124135E0,2.1355695E2,4.0390602E1,1.4192499E2,7.163195E1,3.9497993E1,3.213396E1,2.4546776E1,7.587185E0,8.390534E1,2.2761555E1,2.1645792E1,3.324972E1,3.7935925E1,4.5969418E1,1.249654E1,3.3472874E1,1.02427E2,3.9497993E1,8.145066E1,2.0976336E1,1.00418625E1,1.0934473E1,1.428176E1,1.9414268E2,5.5118668E1,1.39024E2,3.5481247E1,1.0354276E2,7.497924E1,2.856352E1,1.7629047E1,1.0934473E1,4.6862026E1,6.4714227E0,8.814524E1,8.256642E0,3.6150707E1,3.7935925E0,4.2398977E0,2.5662539E1,2.0083725E1,4.46305E0,3.124135E0,1.1157625E1,1.8521658E1,1.47280655E1,7.8103375E0,3.3472877E0,9.149253E0,1.3612303E1,2.6778301E1,1.2719692E1,9.149253E0,3.57044E0,3.57044E0,4.3291584E1,5.534182E1,1.963742E1,1.2942845E1,2.320786E1,7.8103375E0,5.132508E0,8.702948E0,6.0251174E0,5.132508E0,3.124135E0,1.249654E1,7.56487E1,4.016745E0,8.479795E0,4.016745E0,3.7935925E0,1.606698E1,7.14088E0,4.016745E0,3.124135E0,5.132508E0,8.479795E0,1.7405895E1,4.2398977E0,9.81871E0,7.587185E0,3.9944298E1,4.1506367E1,8.479795E0,1.7182743E1,8.256642E0,4.6862026E1,3.7935925E0,1.9860573E1,3.324972E1,6.0920635E1,3.124135E0,3.2357113E1,3.592755E1,7.3640327E0,4.016745E0,3.3472877E0,9.149253E0,2.6778301E1,3.391918E1,4.016745E0,1.00418625E1,6.4714227E0,4.6862025E0,5.35566E0,4.016745E0,1.2050235E1,4.46305E0,5.5788126E0,3.6150707E1,4.2398977E0,4.016745E0,5.132508E0,3.7935925E0,3.7935925E0,3.3472877E0,3.124135E0,3.748962E1,9.372405E0,2.499308E1,1.249654E1,2.9679283E1,3.57044E0,4.016745E0,7.14088E0,3.124135E0,4.016745E0,4.976301E1,2.588569E1,3.2357113E1,1.7405895E1,9.372405E0,8.03349E0,3.3472877E0,4.6862025E0,9.81871E0,1.695959E1,3.124135E0,6.24827E0,6.4714227E0,2.588569E1,2.3431013E1,3.3472877E0,1.5397523E1,3.124135E0,3.124135E0,9.81871E0,4.2398977E0,4.2398977E0,5.7573345E1,3.3472877E0,5.5788126E0,3.124135E0,4.909355E0,3.57044E0,3.7935925E0,3.57044E1,4.6862025E0,5.132508E0,5.132508E0,4.016745E0,3.3472877E0,2.0083725E1,6.6945753E0,2.9009825E1,4.46305E0,4.909355E0,3.124135E0,4.46305E0,2.0306877E1,1.2050235E1,1.5620675E1,4.6862025E0,3.124135E0,1.249654E1,3.7935925E0,1.3389151E1,3.57044E0,3.2580265E1,3.3472877E0,6.4714227E0,7.14088E0,1.1380777E1,4.016745E0,3.124135E0,3.124135E0,4.6862025E0,4.6862025E0,7.3640327E0,3.3472877E0,9.149253E0],"tree_param":{"num_deleted":"0","num_feature":"19","num_nodes":"225","size_leaf_vector":"1"}},{"base_weights":[-7.892552E-2,-1.0786316E-1,1.2271913E0,-5.892339E-2,-6.831958E-1,2.4257597E-1,-1.603781E-1,-7.201986E-1,-4.0528808E-2,-4.166734E-1,5.3606606E-1,-8.284104E-1,1.3962561E0,1.3388062E0,2.119184E-1,-1.1607722E0,9.168092E-3,1.6918156E-1,-4.0054452E-1,-7.708679E-1,4.565151E-1,7.911746E-1,-8.360623E-1,1.6857488E0,-6.55839E-1,5.3146534E-2,6.9467884E-1,4.690451E-1,-1.9990398E-1,-4.2251468E-1,1.0591337E-1,1.1603279E0,-2.3033503E-1,9.59603E-1,1.7811263E-1,1.7409811E0,3.0812857E-1,-8.226033E-1,3.6194903E-1,1.0721827E0,-1.06516756E-1,1.0755577E0,-3.1156376E-1,-1.1107198E-1,9.983306E-1,-3.7965208E-1,-1.1520122E0,1.0018106E0,3.5620818E-1,-8.996542E-1,5.393589E-1,-6.8389887E-1,4.4379538E-1,7.029084E-1,-1.7733736E-1,-8.4166604E-1,2.6800546E-1,-5.1239616E-1,-1.4691982E0,-1.9463502E-2,-1.2007377E0,-2.3834117E-1,8.388939E-1,-7.109602E-1,9.539805E-2,-1.295592E-1,-8.4621435E-1,1.99265E-1,5.9174067E-1,-4.291652E-1,-1.0471224E0,-9.0767884E-1,8.7281454E-1,-3.258632E-1,1.4015561E0,7.689748E-1,-2.9556525E-1,-7.665773E-1,5.4363894E-1,7.8363943E-1,-1.6447803E-1,4.3594804E-1,-6.107703E-1,6.7018546E-2,-9.471353E-1,1.9440603E0,5.18839E-1,-5.032719E-1,4.424638E-1,1.1221378E0,-9.863902E-2,-9.7624844E-1,1.8083306E-2,-7.8065865E-2,-7.086753E-1,-8.156261E-1,-1.2791264E0,-5.675881E-1,2.7459773E-1,-7.9201096E-1,-4.6121353E-1,1.6306854E0,2.425637E0,-9.315701E-1,-5.016512E-1,7.9429105E-2,-6.126788E-1,2.9893464E-1,1.6906525E0,-2.0595121E-1,-1.4293468E0,1.315904E0,2.137163E0,-3.0250922E-1,3.9176702E-1,-1.0112505E0,-2.0587698E-1,6.943007E-1,1.121727E0,4.219217E-1,9.2369497E-1,-1.2805654E0,-3.120837E-1,-8.83203E-1,-1.2647891E0,-7.592258E-1,-7.4715394E-1,-3.8371027E-1,-9.1619235E-1,-5.081676E-1,1.6278419E-1,-2.1042342E-1,-6.5385556E-1,-8.196849E-1,-6.0003364E-1,1.0437434E0,1.4280844E0,-5.112497E-1,-1.3608701E0,-1.5418612E0,-1.1753148E0,-1.6369205E0,-1.3174702E0,1.4696335E0,1.231789E0,-8.327138E-1,-5.87677E-1,-8.765331E-1,-6.7695606E-1,-1.0468589E0,-8.538163E-1,-6.928766E-1,-8.3618116E-1,-7.3923576E-1,-5.795268E-1,-9.665473E-1,-8.1477696E-1,1.0417124E0,9.144184E-1],"categories":[],"categories_nodes":[],"categories_segments":[],"categories_sizes":[],"default_left":[0,0,0,0,0,0,0,0,0,0,0,0,0,0,0,0,0,0,0,0,0,0,0,0,0,0,0,0,0,0,0,0,0,0,0,0,0,0,0,0,0,0,0,0,0,0,0,0,0,0,0,0,0,0,0,0,0,0,0,0,0,0,0,0,0,0,0,0,0,0,0,0,0,0,0,0,0,0,0,0,0,0,0,0,0,0,0,0,0,0,0,0,0,0,0,0,0,0,0,0,0,0,0,0,0,0,0,0,0,0,0,0,0,0,0,0,0,0,0,0,0,0,0,0,0,0,0,0,0,0,0,0,0,0,0,0,0,0,0,0,0,0,0,0,0,0,0,0,0,0,0,0,0,0,0,0,0,0,0],"id":1,"left_children":[1,3,23,5,55,9,7,21,15,11,13,57,107,35,37,121,17,25,19,45,39,-1,49,111,-1,27,31,33,29,-1,-1,47,63,-1,-1,85,79,103,51,43,41,-1,-1,-1,-1,65,99,-1,-1,69,-1,-1,53,67,61,83,75,59,141,87,109,-1,-1,-1,-1,-1,-1,-1,-1,71,95,93,73,-1,-1,-1,77,-1,-1,-1,81,-1,-1,113,115,101,-1,91,89,-1,-1,-1,-1,-1,-1,97,133,-1,-1,-1,-1,117,143,-1,105,-1,-1,-1,157,-1,147,119,135,-1,-1,123,-1,-1,-1,-1,-1,137,-1,125,151,-1,127,129,131,-1,-1,-1,-1,-1,-1,-1,-1,-1,139,155,153,149,145,-1,-1,-1,-1,-1,-1,-1,-1,-1,-1,-1,-1,-1,-1,-1,-1],"loss_changes":[3.472765E1,2.5310211E1,2.1704556E1,2.5341297E1,1.0622959E1,4.035784E1,4.1589256E1,2.668068E1,2.842579E1,4.7961544E1,3.7554703E1,1.060149E1,3.0520382E0,1.7207169E1,1.59576235E1,1.5932426E0,3.2050655E1,2.1437065E1,4.357969E1,1.4295174E1,1.4361089E1,0E0,1.1736305E1,2.784256E0,0E0,3.0308943E1,2.73905E1,2.072596E1,3.7315044E1,0E0,0E0,1.3498035E1,8.597492E0,0E0,0E0,5.041252E0,5.8679013E0,3.3835344E0,1.1468193E1,1.6985233E1,1.8938532E1,0E0,0E0,0E0,0E0,7.964939E0,3.937996E0,0E0,0E0,6.93943E0,0E0,0E0,1.3732151E1,7.1142883E0,9.944989E0,5.790085E0,6.123948E0,1.1897962E1,4.3753052E-1,4.567096E0,2.8077698E0,0E0,0E0,0E0,0E0,0E0,0E0,0E0,0E0,1.487375E1,4.0887146E0,4.498086E0,1.4670759E1,0E0,0E0,0E0,8.648765E0,0E0,0E0,0E0,6.7898507E0,0E0,0E0,2.324265E0,2.0335197E0,3.6185837E0,0E0,6.4506454E0,9.805408E0,0E0,0E0,0E0,0E0,0E0,0E0,8.856279E0,1.360321E0,0E0,0E0,0E0,0E0,2.0146294E0,3.7456512E-1,0E0,3.4204805E0,0E0,0E0,0E0,1.027565E-1,0E0,2.9615974E-1,1.600627E0,8.426666E-1,0E0,0E0,1.5820808E0,0E0,0E0,0E0,0E0,0E0,5.5844307E-1,0E0,1.9714985E0,1.6349602E-1,0E0,1.5262518E0,2.677427E0,2.1325006E0,0E0,0E0,0E0,0E0,0E0,0E0,0E0,0E0,0E0,5.017319E-1,1.2888718E-1,1.4033127E-1,2.2536278E-1,3.6845684E-1,0E0,0E0,0E0,0E0,0E0,0E0,0E0,0E0,0E0,0E0,0E0,0E0,0E0,0E0,0E0,0E0],"parents":[2147483647,0,0,1,1,3,3,6,6,5,5,9,9,10,10,8,8,16,16,18,18,7,7,2,2,17,17,25,25,28,28,26,26,27,27,13,13,14,14,20,20,40,40,39,39,19,19,31,31,22,22,38,38,52,52,4,4,11,11,57,57,54,54,32,32,45,45,53,53,49,49,69,69,72,72,56,56,76,76,36,36,80,80,55,55,35,35,59,59,88,88,87,87,71,71,70,70,95,95,46,46,85,85,37,37,104,104,12,12,60,60,23,23,83,83,84,84,101,101,111,111,15,15,115,115,123,123,126,126,127,127,128,128,96,96,112,112,121,121,138,138,58,58,102,102,142,142,110,110,141,141,124,124,140,140,139,139,108,108],"right_children":[2,4,24,6,56,10,8,22,16,12,14,58,108,36,38,122,18,26,20,46,40,-1,50,112,-1,28,32,34,30,-1,-1,48,64,-1,-1,86,80,104,52,44,42,-1,-1,-1,-1,66,100,-1,-1,70,-1,-1,54,68,62,84,76,60,142,88,110,-1,-1,-1,-1,-1,-1,-1,-1,72,96,94,74,-1,-1,-1,78,-1,-1,-1,82,-1,-1,114,116,102,-1,92,90,-1,-1,-1,-1,-1,-1,98,134,-1,-1,-1,-1,118,144,-1,106,-1,-1,-1,158,-1,148,120,136,-1,-1,124,-1,-1,-1,-1,-1,138,-1,126,152,-1,128,130,132,-1,-1,-1,-1,-1,-1,-1,-1,-1,140,156,154,150,146,-1,-1,-1,-1,-1,-1,-1,-1,-1,-1,-1,-1,-1,-1,-1,-1],"split_conditions":[3.4432669E0,6.077788E-1,3.5770714E-2,-7.1124893E-1,-1.3455333E-1,-5.0189036E-1,-2.4413656E-1,-5.0985575E-1,-6.930178E-1,5.579438E-1,-2.4579166E-1,-6.280444E-1,-7.9358053E-1,1.5067239E0,-2.4413656E-1,2.88596E-1,1.0830002E0,8.497934E-1,2.055708E0,-2.1036218E-1,2.3625991E0,7.911746E-1,9.635821E0,-2.8248774E-2,-6.55839E-1,-5.5438507E-1,1.6261439E-1,-2.3287843E-1,1.1219139E-1,-4.2251468E-1,1.0591337E-1,9.5880044E-1,-3.3990335E-1,9.59603E-1,1.7811263E-1,-2.6118013E-1,-1.0849015E0,-9.1321427E-1,-3.3543205E-1,-3.7614003E-1,5.579438E-1,1.0755577E0,-3.1156376E-1,-1.1107198E-1,9.983306E-1,-2.3631787E-1,1.6261439E-1,1.0018106E0,3.5620818E-1,-6.59594E-1,5.393589E-1,-6.8389887E-1,1.7105754E-2,-4.0061575E-1,-7.613846E-1,-2.3276521E-1,-4.9506286E-1,1.5067239E0,-1.7709419E-1,-7.3920536E-1,-3.2445043E-1,-2.3834117E-1,8.388939E-1,-7.109602E-1,9.539805E-2,-1.295592E-1,-8.4621435E-1,1.99265E-1,5.9174067E-1,-6.713683E-1,-3.284804E-1,-3.5065153E-1,-3.2968938E-1,-3.258632E-1,1.4015561E0,7.689748E-1,-4.7119353E-2,-7.665773E-1,5.4363894E-1,7.8363943E-1,-8.2063586E-1,4.3594804E-1,-6.107703E-1,-6.755864E-1,4.602832E-1,-3.2173023E-1,5.18839E-1,-2.4413656E-1,-7.283303E-1,1.1221378E0,-9.863902E-2,-9.7624844E-1,1.8083306E-2,-7.8065865E-2,-7.086753E-1,-3.0776122E-1,-2.7485135E-1,-5.675881E-1,2.7459773E-1,-7.9201096E-1,-4.6121353E-1,-7.3376787E-1,-7.201741E-1,-9.315701E-1,-2.2646554E-1,7.9429105E-2,-6.126788E-1,2.9893464E-1,-2.4992584E-1,-2.0595121E-1,-5.698399E-1,-6.9909483E-1,-6.4857936E-1,-3.0250922E-1,3.9176702E-1,6.0818744E-1,-2.0587698E-1,6.943007E-1,1.121727E0,4.219217E-1,9.2369497E-1,-3.1699502E-1,-3.120837E-1,8.4725887E-1,1.16908826E-1,-7.592258E-1,-2.3271503E-1,9.217301E-2,-5.698399E-1,-5.081676E-1,1.6278419E-1,-2.1042342E-1,-6.5385556E-1,-8.196849E-1,-6.0003364E-1,1.0437434E0,1.4280844E0,-5.112497E-1,-1.8881482E-1,-2.9112715E-1,-3.9815274E-1,-7.5171167E-1,-2.3710117E-1,1.4696335E0,1.231789E0,-8.327138E-1,-5.87677E-1,-8.765331E-1,-6.7695606E-1,-1.0468589E0,-8.538163E-1,-6.928766E-1,-8.3618116E-1,-7.3923576E-1,-5.795268E-1,-9.665473E-1,-8.1477696E-1,1.0417124E0,9.144184E-1],"split_indices":[4,8,11,3,10,4,0,4,3,6,1,6,10,5,0,13,3,3,3,0,3,0,16,8,0,3,6,0,3,0,0,3,11,0,0,8,13,13,8,11,6,0,0,0,0,1,6,0,0,3,0,0,1,4,3,1,4,5,11,10,8,0,0,0,0,0,0,0,0,3,8,11,8,0,0,0,0,0,0,0,3,0,0,10,13,8,0,0,10,0,0,0,0,0,0,11,11,0,0,0,0,10,10,0,13,0,0,0,11,0,13,3,3,0,0,11,0,0,0,0,0,8,0,8,13,0,6,11,13,0,0,0,0,0,0,0,0,0,11,11,13,10,8,0,0,0,0,0,0,0,0,0,0,0,0,0,0,0,0],"split_type":[0,0,0,0,0,0,0,0,0,0,0,0,0,0,0,0,0,0,0,0,0,0,0,0,0,0,0,0,0,0,0,0,0,0,0,0,0,0,0,0,0,0,0,0,0,0,0,0,0,0,0,0,0,0,0,0,0,0,0,0,0,0,0,0,0,0,0,0,0,0,0,0,0,0,0,0,0,0,0,0,0,0,0,0,0,0,0,0,0,0,0,0,0,0,0,0,0,0,0,0,0,0,0,0,0,0,0,0,0,0,0,0,0,0,0,0,0,0,0,0,0,0,0,0,0,0,0,0,0,0,0,0,0,0,0,0,0,0,0,0,0,0,0,0,0,0,0,0,0,0,0,0,0,0,0,0,0,0,0],"sum_hessian":[9.1884546E2,8.9892993E2,1.9915556E1,8.284598E2,7.047013E1,2.0858528E2,6.198745E2,1.0930406E2,5.1057047E2,6.42535E1,1.4433177E2,5.236198E1,1.1891526E1,4.1516068E1,1.02815704E2,2.1688826E1,4.8888162E2,3.5157568E2,1.3730594E2,9.5879E1,4.142695E1,5.6974807E0,1.0360658E2,1.669472E1,3.2208364E0,2.8798697E2,6.3588734E1,1.0894119E2,1.7904576E2,7.4534996E1,1.04510765E2,4.2297325E1,2.1291409E1,1.2478624E1,9.646257E1,2.9862679E1,1.1653389E1,1.3021496E1,8.979421E1,1.9789232E1,2.1637718E1,3.9116626E0,1.7726055E1,6.894795E0,1.2894438E1,4.731549E1,4.8563503E1,2.003823E1,2.2259094E1,1.00035866E2,3.5707154E0,4.4742875E0,8.531992E1,6.0205753E1,2.511417E1,6.0407192E1,1.0062938E1,3.5068676E1,1.7293303E1,2.0435637E1,1.4633039E1,2.1917078E1,3.1970925E0,5.98979E0,1.5301619E1,4.1567806E1,5.747685E0,2.9249695E1,3.0956059E1,2.3873774E1,7.6162094E1,1.7458101E1,6.4156723E0,3.3554688E0,3.0602036E0,3.4517255E0,6.6112123E0,3.5944939E0,3.0167186E0,3.581813E0,8.071576E0,3.9856682E0,4.085908E0,6.2813334E0,5.412586E1,2.4001064E1,5.861614E0,9.9823265E0,1.0453311E1,3.0068545E0,7.4464564E0,3.0649245E0,6.917402E0,5.2819433E0,1.2176158E1,3.812462E1,3.803747E1,3.3498764E1,4.625854E0,2.8789434E1,1.977407E1,1.454078E1,9.460284E0,3.6944695E0,9.327026E0,4.398498E0,4.9285283E0,3.001235E0,8.890291E0,3.1318803E0,1.150116E1,9.17749E0,7.5172286E0,3.1977582E0,3.0835752E0,4.8789207E1,5.3366513E0,6.5081596E0,8.032621E0,3.1624775E0,6.0150127E0,1.8146053E1,3.5427723E0,3.2419453E1,1.6369757E1,7.5581927E0,2.486126E1,7.893922E0,1.6967339E1,4.4918346E0,3.4020875E0,5.0169024E0,1.1950436E1,2.2479593E1,1.5557879E1,4.082012E0,3.4352164E0,3.136533E0,1.5009521E1,7.595855E0,7.4136653E0,8.211026E0,9.082275E0,6.0539384E0,3.4063458E0,6.0788236E0,3.0034518E0,7.9856205E0,3.5155392E0,3.4085212E0,4.8025055E0,1.3083352E1,3.286404E0,4.2256017E0,3.1880636E0,3.2496114E0,4.346244E0,3.5057392E0,5.3845525E0],"tree_param":{"num_deleted":"0","num_feature":"19","num_nodes":"159","size_leaf_vector":"1"}},{"base_weights":[-7.353091E-2,-1.8239565E-1,6.477651E-2,-1.3602372E-1,-7.0578843E-1,-2.0986013E-1,5.971313E-1,1.0383284E0,-2.157774E-1,-4.456422E-1,1.23106465E-1,-2.2846223E-1,7.050156E-1,1.2844195E0,9.7148225E-2,-8.139912E-3,3.7131238E-1,6.815626E-2,1.4221417E0,3.4029132E-1,-7.3681015E-1,-9.8732814E-2,5.708124E-1,1.7534322E0,-2.0695636E-1,-8.4129393E-1,5.265396E-1,4.844512E-2,-4.416773E-1,2.063294E-1,-6.362054E-1,-6.621894E-1,3.144066E-1,9.630818E-2,5.923294E-1,-1.8405864E-1,-7.5381106E-1,-2.2048542E-1,1.7221924E0,-1.432139E-1,-6.619192E-1,-1.9341846E-1,6.864087E-1,9.525027E-1,-5.475672E-1,-4.8638947E-2,-4.0707153E-1,4.3856797E-1,-7.848814E-1,6.2296796E-1,-6.9006E-1,-1.6257309E0,-4.2979038E-1,5.5298996E-1,-5.2601373E-1,-6.644958E-1,5.379306E-1,1.4164776E-1,-7.342245E-1,9.28068E-3,9.5983225E-1,1.706866E0,2.5034055E-1,-8.7758756E-1,1.7317837E-2,2.6372102E-1,-1.0281961E0,-6.4806986E-1,3.36096E-1,-5.9884693E-2,-5.611004E-1,-1.2924291E-1,-9.191201E-1,8.771371E-2,-7.727027E-1,-4.766565E-1,-1.3197756E0,5.3420085E-1,-3.5047886E-1,1.0820959E0,8.146665E-1,-8.872183E-2,1.1221981E0,-1.772056E-1,6.2127286E-1,-5.356086E-1,3.6124918E-1,1.8475096E-1,7.944322E-1,3.258043E-1,-1.9194722E-1,-4.9237627E-1,1.47844E-1,6.541136E-1,-1.934946E-1,-1.5390827E-1,-8.012536E-1,-7.718496E-1,-3.3321875E-1,-4.3266997E-2,-1.0786419E0,-3.7663814E-1,7.8075767E-1,-6.998325E-2,5.3437525E-1,6.014642E-1,1.3924357E0,-8.568625E-1,-1.0204393E-1,-4.5481357E-1,2.5355178E-1,3.2865003E-2,-6.763488E-1,-1.1816047E0,-1.7730358E-1,3.3108857E-1,-2.420988E-1,-4.506677E-2,6.76672E-1,-2.9740697E-1,3.2186085E-1,-2.2091272E-1,-7.877026E-1,-6.549185E-2,-4.3899634E-1,-4.4348124E-1,4.7058043E-1,9.293011E-1,9.392181E-1,2.0208886E0,1.4403919E0,9.4738024E-1,1.5283425E0,3.4637412E-1,7.440473E-1,1.090505E0,6.337175E-1,-2.1710494E-1,-5.6585276E-1,-7.487904E-1,-1.1662166E0,9.3289983E-1,5.281194E-1,-1.305621E0,-7.969479E-1,-1.6935788E-1,-6.806497E-1,8.2227683E-1,1.1680139E0,-9.0953124E-1,-6.796939E-1,-7.195073E-1,-5.0593704E-1,-7.292865E-1,-5.7470113E-1,-8.0143744E-1,-6.857648E-1],"categories":[],"categories_nodes":[],"categories_segments":[],"categories_sizes":[],"default_left":[0,0,0,0,0,0,0,0,0,0,0,0,0,0,0,0,0,0,0,0,0,0,0,0,0,0,0,0,0,0,0,0,0,0,0,0,0,0,0,0,0,0,0,0,0,0,0,0,0,0,0,0,0,0,0,0,0,0,0,0,0,0,0,0,0,0,0,0,0,0,0,0,0,0,0,0,0,0,0,0,0,0,0,0,0,0,0,0,0,0,0,0,0,0,0,0,0,0,0,0,0,0,0,0,0,0,0,0,0,0,0,0,0,0,0,0,0,0,0,0,0,0,0,0,0,0,0,0,0,0,0,0,0,0,0,0,0,0,0,0,0,0,0,0,0,0,0,0,0,0,0,0,0,0,0,0,0],"id":2,"left_children":[1,3,9,5,75,11,7,79,49,71,13,35,-1,141,15,21,17,19,23,25,65,27,59,129,-1,121,87,29,53,31,107,95,33,-1,-1,37,51,39,105,41,47,45,43,-1,-1,-1,-1,-1,91,-1,63,139,55,-1,67,57,-1,77,-1,85,61,147,83,-1,-1,-1,143,69,93,-1,-1,73,113,115,-1,97,149,-1,-1,-1,81,-1,127,-1,-1,111,-1,89,103,-1,-1,-1,-1,-1,-1,-1,-1,-1,99,101,151,123,-1,-1,-1,-1,-1,137,109,-1,-1,-1,-1,153,-1,117,-1,119,-1,-1,-1,-1,-1,125,-1,-1,-1,133,-1,131,135,-1,-1,-1,-1,-1,-1,-1,-1,-1,-1,-1,-1,155,145,-1,-1,-1,-1,-1,-1,-1,-1,-1,-1,-1,-1],"loss_changes":[1.2115469E1,1.0927156E1,1.0551009E1,2.2389626E1,5.1535816E0,1.0102825E1,1.3572925E1,4.705662E0,8.255383E0,5.4438143E0,9.586632E0,8.653418E0,0E0,8.724623E-1,8.980513E0,1.1788726E1,2.7498425E1,1.4675874E1,1.1429394E1,1.1018604E1,5.9140177E0,9.810525E0,6.6425076E0,1.3618698E0,0E0,1.6677804E0,3.9595318E0,1.4700131E1,6.9442987E0,1.0373139E1,3.0028162E0,3.560011E0,1.0356384E1,0E0,0E0,2.3752148E1,8.166321E0,1.1448912E1,3.0742226E0,1.1897648E1,8.79554E0,1.5151371E1,2.637218E1,0E0,0E0,0E0,0E0,0E0,3.752079E0,0E0,5.969319E0,1.0235901E0,6.7903156E0,0E0,5.7955427E0,9.031475E0,0E0,4.7100463E0,0E0,4.2311125E0,9.519804E0,7.8803635E-1,4.334307E0,0E0,0E0,0E0,8.718033E-1,8.784813E0,3.7371778E0,0E0,0E0,5.791402E0,2.3233995E0,2.3062625E0,0E0,3.351913E0,3.4867096E-1,0E0,0E0,0E0,5.806533E0,0E0,1.490881E0,0E0,0E0,2.5614667E0,0E0,3.8261108E0,3.1603918E0,0E0,0E0,0E0,0E0,0E0,0E0,0E0,0E0,0E0,4.9555235E0,7.768994E0,2.2289753E-1,1.6314874E0,0E0,0E0,0E0,0E0,0E0,1.1570749E0,2.8299701E0,0E0,0E0,0E0,0E0,1.6919994E-1,0E0,4.0352597E0,0E0,2.5268693E0,0E0,0E0,0E0,0E0,0E0,4.7227764E0,0E0,0E0,0E0,1.302495E0,0E0,2.0802727E0,1.1636667E0,0E0,0E0,0E0,0E0,0E0,0E0,0E0,0E0,0E0,0E0,0E0,0E0,6.1302185E-2,1.4697399E0,0E0,0E0,0E0,0E0,0E0,0E0,0E0,0E0,0E0,0E0,0E0,0E0],"parents":[2147483647,0,0,1,1,3,3,6,6,2,2,5,5,10,10,14,14,16,16,17,17,15,15,18,18,19,19,21,21,27,27,29,29,32,32,11,11,35,35,37,37,39,39,42,42,41,41,40,40,8,8,36,36,28,28,52,52,55,55,22,22,60,60,50,50,20,20,54,54,67,67,9,9,71,71,4,4,57,57,7,7,80,80,62,62,59,59,26,26,87,87,48,48,68,68,31,31,75,75,98,98,99,99,88,88,38,38,30,30,108,108,85,85,72,72,73,73,115,115,117,117,25,25,101,101,123,123,82,82,23,23,129,129,127,127,130,130,107,107,51,51,13,13,66,66,144,144,61,61,76,76,100,100,113,113,143,143],"right_children":[2,4,10,6,76,12,8,80,50,72,14,36,-1,142,16,22,18,20,24,26,66,28,60,130,-1,122,88,30,54,32,108,96,34,-1,-1,38,52,40,106,42,48,46,44,-1,-1,-1,-1,-1,92,-1,64,140,56,-1,68,58,-1,78,-1,86,62,148,84,-1,-1,-1,144,70,94,-1,-1,74,114,116,-1,98,150,-1,-1,-1,82,-1,128,-1,-1,112,-1,90,104,-1,-1,-1,-1,-1,-1,-1,-1,-1,100,102,152,124,-1,-1,-1,-1,-1,138,110,-1,-1,-1,-1,154,-1,118,-1,120,-1,-1,-1,-1,-1,126,-1,-1,-1,134,-1,132,136,-1,-1,-1,-1,-1,-1,-1,-1,-1,-1,-1,-1,156,146,-1,-1,-1,-1,-1,-1,-1,-1,-1,-1,-1,-1],"split_conditions":[1.6261439E-1,1.0830002E0,-3.745022E-1,8.497934E-1,-1.8784593E-1,1.223631E1,-2.2396839E-1,-3.6037606E-1,9.5880044E-1,-3.3170435E-1,-2.4751215E0,6.8609285E-1,7.050156E-1,-3.3038354E-1,-1.315553E-1,1.4140519E0,-6.3262707E-1,2.5938922E-1,4.1001326E-1,-3.8742873E-1,-2.3276521E-1,6.136492E-1,4.9239925E-1,-5.043046E-1,-2.0695636E-1,-2.9563114E-1,9.5327324E-1,-2.1500187E-1,-3.9468515E-1,-3.6037606E-1,-4.921071E-2,-5.717298E-1,3.3687952E-1,9.630818E-2,5.923294E-1,6.6216445E-1,-2.2724937E-1,2.5938922E-1,8.724751E-1,1.1219139E-1,-2.385075E-1,-5.2172095E-1,-2.2724937E-1,9.525027E-1,-5.475672E-1,-4.8638947E-2,-4.0707153E-1,4.3856797E-1,2.4980342E0,6.2296796E-1,9.625986E-1,-2.9076886E-1,1.0801883E0,5.5298996E-1,2.2730151E-2,6.136492E-1,5.379306E-1,-3.1699502E-1,-7.342245E-1,-2.0473312E-1,-2.4460743E-1,1.8044658E0,-1.8881482E-1,-8.7758756E-1,1.7317837E-2,2.6372102E-1,1.5067239E0,-3.215287E-1,-1.6516885E-1,-5.9884693E-2,-5.611004E-1,-3.755893E-1,-3.17801E-1,8.2521105E-1,-7.727027E-1,1.1361743E0,-3.2263696E-1,5.3420085E-1,-3.5047886E-1,1.0820959E0,-3.374978E-1,-8.872183E-2,-2.6026455E-1,-1.772056E-1,6.2127286E-1,1.9969538E0,3.6124918E-1,-6.375238E-1,-3.4435618E-1,3.258043E-1,-1.9194722E-1,-4.9237627E-1,1.47844E-1,6.541136E-1,-1.934946E-1,-1.5390827E-1,-8.012536E-1,-7.718496E-1,1.4506617E0,1.299864E0,-2.898476E-1,-2.6712498E-1,7.8075767E-1,-6.998325E-2,5.3437525E-1,6.014642E-1,1.3924357E0,-2.9684526E-1,-2.9004E-1,-4.5481357E-1,2.5355178E-1,3.2865003E-2,-6.763488E-1,-2.216203E-1,-1.7730358E-1,-3.793645E-1,-2.420988E-1,2.2133672E0,6.76672E-1,-2.9740697E-1,3.2186085E-1,-2.2091272E-1,-7.877026E-1,-3.4236255E-1,-4.3899634E-1,-4.4348124E-1,4.7058043E-1,9.6069956E-1,9.392181E-1,-2.873909E-1,-2.2290187E-1,9.4738024E-1,1.5283425E0,3.4637412E-1,7.440473E-1,1.090505E0,6.337175E-1,-2.1710494E-1,-5.6585276E-1,-7.487904E-1,-1.1662166E0,9.3289983E-1,5.281194E-1,5.488407E-1,-4.555709E-2,-1.6935788E-1,-6.806497E-1,8.2227683E-1,1.1680139E0,-9.0953124E-1,-6.796939E-1,-7.195073E-1,-5.0593704E-1,-7.292865E-1,-5.7470113E-1,-8.0143744E-1,-6.857648E-1],"split_indices":[6,3,11,3,0,18,7,11,3,8,2,3,0,11,0,10,3,8,7,7,1,10,2,10,0,11,6,1,7,11,1,10,10,0,0,3,0,8,10,3,0,3,0,0,0,0,0,0,15,0,3,11,10,0,8,10,0,8,0,0,1,10,11,0,0,0,5,8,11,0,0,7,8,12,0,3,8,0,0,0,11,0,11,0,0,10,0,10,11,0,0,0,0,0,0,0,0,0,3,10,11,7,0,0,0,0,0,8,7,0,0,0,0,0,0,11,0,10,0,0,0,0,0,7,0,0,0,3,0,11,11,0,0,0,0,0,0,0,0,0,0,0,0,8,11,0,0,0,0,0,0,0,0,0,0,0,0],"split_type":[0,0,0,0,0,0,0,0,0,0,0,0,0,0,0,0,0,0,0,0,0,0,0,0,0,0,0,0,0,0,0,0,0,0,0,0,0,0,0,0,0,0,0,0,0,0,0,0,0,0,0,0,0,0,0,0,0,0,0,0,0,0,0,0,0,0,0,0,0,0,0,0,0,0,0,0,0,0,0,0,0,0,0,0,0,0,0,0,0,0,0,0,0,0,0,0,0,0,0,0,0,0,0,0,0,0,0,0,0,0,0,0,0,0,0,0,0,0,0,0,0,0,0,0,0,0,0,0,0,0,0,0,0,0,0,0,0,0,0,0,0,0,0,0,0,0,0,0,0,0,0,0,0,0,0,0,0],"sum_hessian":[8.046441E2,4.5024936E2,3.543947E2,4.1360605E2,3.6643326E1,3.7576385E2,3.7842194E1,2.4529917E1,1.3312276E1,3.6344635E1,3.1805008E2,3.7099002E2,4.7738323E0,6.9530506E0,3.1109702E2,2.2477342E2,8.63236E1,6.699646E1,1.9327139E1,5.007027E1,1.6926188E1,1.9436172E2,3.0411707E1,1.63018E1,3.0253394E0,6.817086E0,4.3253185E1,1.3599544E2,5.8366276E1,1.1051201E2,2.5483437E1,1.2229176E1,9.828283E1,8.182033E1,1.6462503E1,3.4207846E2,2.8911564E1,3.3566464E2,6.413803E0,2.8566235E2,5.000229E1,2.693629E2,1.6299437E1,1.02057495E1,6.093687E0,2.2297874E2,4.6384186E1,3.9572053E0,4.6045082E1,3.54289E0,9.769386E0,7.8323965E0,2.1079166E1,3.2916315E0,5.5074642E1,1.8001543E1,3.077623E0,7.8416395E0,1.01599045E1,1.244711E1,1.7964596E1,8.750185E0,9.214411E0,4.487951E0,5.2814355E0,3.308666E0,1.3617521E1,4.824517E1,6.8294735E0,1.8416538E1,2.9828632E1,2.1787241E1,1.4557394E1,1.8508476E1,3.2787654E0,2.6685902E1,9.957422E0,3.8235364E0,4.0181026E0,5.070837E0,1.945908E1,4.682999E0,1.477608E1,5.5204573E0,3.6939533E0,6.643204E0,5.803906E0,1.900677E1,2.4246414E1,1.091726E1,8.089509E0,4.2843193E1,3.2018898E0,3.1048172E0,3.724656E0,7.9996014E0,4.2295737E0,3.7536967E0,2.2932205E1,1.6510984E1,6.42122E0,1.3357109E1,3.1538763E0,3.2520478E0,2.0994368E1,3.3233454E0,3.0904577E0,1.8032684E1,7.450751E0,3.2800388E0,4.170712E0,3.4719856E0,3.1712186E0,1.0168718E1,4.3886757E0,1.2546429E1,5.9620476E0,8.711873E0,3.8345554E0,4.8904953E0,3.8213775E0,3.7013614E0,3.1157248E0,7.4539E0,5.9032087E0,4.142715E0,3.311185E0,1.080061E1,3.975471E0,8.789466E0,7.512334E0,5.6779532E0,3.1115131E0,5.8078613E0,4.9927483E0,3.093343E0,4.418991E0,3.9794981E0,1.4053186E1,4.4779778E0,3.354419E0,3.5159814E0,3.437069E0,6.1889706E0,7.4285507E0,3.283335E0,4.1452155E0,4.9136715E0,3.8365138E0,3.175977E0,6.7814455E0,3.2907012E0,3.1305187E0,6.5427237E0,3.6259947E0,3.1637297E0,3.025241E0],"tree_param":{"num_deleted":"0","num_feature":"19","num_nodes":"157","size_leaf_vector":"1"}},{"base_weights":[-6.553328E-2,-8.544695E-2,8.589299E-1,-9.4020896E-2,5.668319E-1,1.1806769E0,-2.2278395E-1,-7.345851E-2,-5.065618E-1,1.7894505E-2,-9.833755E-1,-8.636485E-2,7.317808E-1,1.4435923E-1,1.0036609E0,3.901679E-1,-1.0500578E-1,-8.1139797E-1,6.603462E-1,-4.3882963E-1,-7.658445E-2,-5.6034714E-1,-5.5620175E-2,6.960205E-1,-6.5195344E-2,-9.58577E-3,-1.5746327E-1,6.95017E-1,-4.9349406E-1,5.008331E-1,-3.6867973E-1,4.4435522E-1,7.98534E-1,1.20198384E-1,7.3628E-1,4.1547123E-1,-5.199114E-1,-3.5768414E-1,-6.9359285E-1,-4.5161375E-1,5.0255847E-1,-4.008668E-1,-7.553524E-1,4.8481226E-2,7.983591E-1,1.8005988E-1,-3.0756605E-1,-6.94947E-1,-5.2983303E-2,-1.495336E-1,-6.6770107E-1,-5.908773E-1,-1.1962173E0,1.4446298E0,5.16413E-1,-1.7293511E-1,-5.014757E-1,9.2469424E-1,7.262513E-1,-6.503414E-1,-7.549647E-1],"categories":[],"categories_nodes":[],"categories_segments":[],"categories_sizes":[],"default_left":[0,0,0,0,0,0,0,0,0,0,0,0,0,0,0,0,0,0,0,0,0,0,0,0,0,0,0,0,0,0,0,0,0,0,0,0,0,0,0,0,0,0,0,0,0,0,0,0,0,0,0,0,0,0,0,0,0,0,0,0,0],"id":3,"left_children":[1,3,5,7,-1,53,-1,11,9,27,51,15,13,29,-1,17,19,-1,31,37,21,41,23,-1,25,-1,-1,43,47,-1,-1,33,-1,35,-1,-1,-1,39,-1,45,-1,49,-1,-1,-1,-1,-1,-1,-1,-1,-1,55,59,57,-1,-1,-1,-1,-1,-1,-1],"loss_changes":[1.3103199E1,6.444616E0,6.0338507E0,5.863672E0,0E0,8.663082E-1,0E0,6.8428307E0,8.207748E0,5.411623E0,1.4345951E0,5.7567816E0,6.2656302E0,3.831307E0,0E0,1.1943997E1,5.917027E0,0E0,3.3879013E0,3.0827913E0,5.8285904E0,2.9050574E0,6.726858E0,0E0,5.577195E0,0E0,0E0,2.887597E0,2.5828128E0,0E0,0E0,4.5048685E0,0E0,7.448865E0,0E0,0E0,0E0,5.153499E0,0E0,2.7620735E0,0E0,2.1074512E0,0E0,0E0,0E0,0E0,0E0,0E0,0E0,0E0,0E0,5.00087E-1,7.771683E-2,1.8178654E-1,0E0,0E0,0E0,0E0,0E0,0E0,0E0],"parents":[2147483647,0,0,1,1,2,2,3,3,8,8,7,7,12,12,11,11,15,15,16,16,20,20,22,22,24,24,9,9,13,13,18,18,31,31,33,33,19,19,37,37,21,21,27,27,39,39,28,28,41,41,10,10,5,5,51,51,53,53,52,52],"right_children":[2,4,6,8,-1,54,-1,12,10,28,52,16,14,30,-1,18,20,-1,32,38,22,42,24,-1,26,-1,-1,44,48,-1,-1,34,-1,36,-1,-1,-1,40,-1,46,-1,50,-1,-1,-1,-1,-1,-1,-1,-1,-1,56,60,58,-1,-1,-1,-1,-1,-1,-1],"split_conditions":[3.410267E0,1.223631E1,7.559012E-2,2.2894192E0,5.668319E-1,1.6134378E0,-2.2278395E-1,1.8638384E0,-7.321388E-1,-7.415271E-1,2.6660697E0,-8.156982E-1,-2.9583776E-1,-3.3684254E-1,1.0036609E0,-3.3069685E-1,-4.1416287E-1,-8.1139797E-1,3.7506038E-1,5.5637217E-1,-7.9708725E-1,1.16908826E-1,-7.9252946E-1,6.960205E-1,1.0005802E0,-9.58577E-3,-1.5746327E-1,-3.1656447E-1,-3.2449764E-1,5.008331E-1,-3.6867973E-1,1.9161916E-1,7.98534E-1,-2.6118013E-1,7.3628E-1,4.1547123E-1,-5.199114E-1,-1.3344976E-2,-6.9359285E-1,-5.0871783E-1,5.0255847E-1,1.157678E-1,-7.553524E-1,4.8481226E-2,7.983591E-1,1.8005988E-1,-3.0756605E-1,-6.94947E-1,-5.2983303E-2,-1.495336E-1,-6.6770107E-1,-6.429613E-1,-1.897404E-2,-4.9397328E-1,5.16413E-1,-1.7293511E-1,-5.014757E-1,9.2469424E-1,7.262513E-1,-6.503414E-1,-7.549647E-1],"split_indices":[4,18,11,4,0,1,0,4,3,13,4,3,8,8,0,8,7,0,0,4,3,13,3,0,3,0,0,11,11,0,0,11,0,8,0,0,0,0,0,4,0,11,0,0,0,0,0,0,0,0,0,10,0,10,0,0,0,0,0,0,0],"split_type":[0,0,0,0,0,0,0,0,0,0,0,0,0,0,0,0,0,0,0,0,0,0,0,0,0,0,0,0,0,0,0,0,0,0,0,0,0,0,0,0,0,0,0,0,0,0,0,0,0,0,0,0,0,0,0,0,0,0,0,0,0],"sum_hessian":[7.118009E2,6.9679236E2,1.5008528E1,6.9129926E2,5.4931154E0,1.1935509E1,3.073019E0,6.584805E2,3.2818733E1,1.562771E1,1.7191023E1,6.48094E2,1.0386551E1,6.6083283E0,3.7782223E0,2.4395906E1,6.2369806E2,3.1648338E0,2.1231073E1,4.8932228E1,5.747658E2,2.387169E1,5.5089417E2,4.1042485E0,5.467899E2,4.446878E2,1.021021E2,6.7249656E0,8.902744E0,3.4285607E0,3.1797678E0,1.643084E1,4.800234E0,1.1880013E1,4.5508256E0,7.4748306E0,4.405183E0,4.4304848E1,4.6273804E0,4.1182117E1,3.1227317E0,1.97477E1,4.12399E0,3.603934E0,3.1210315E0,4.2115335E0,3.6970585E1,3.16945E0,5.7332945E0,1.6730394E1,3.0173051E0,6.045912E0,1.1145112E1,6.0952673E0,5.8402414E0,3.0254946E0,3.020417E0,3.008882E0,3.0863853E0,7.7187443E0,3.4263673E0],"tree_param":{"num_deleted":"0","num_feature":"19","num_nodes":"61","size_leaf_vector":"1"}},{"base_weights":[-1.4839899E-2,-2.4474572E-2,7.5424165E-1,-1.911451E-2,-6.720659E-1,-2.8553281E-2,5.920794E-1,-2.6835058E-2,7.8123844E-1,-4.9988642E-2,2.3830359E-1,-5.227269E-1,-2.9115131E-2,-3.48071E-1,4.19086E-1,-7.642791E-1,4.3986097E-1,6.855092E-2,-9.7139545E-2,-5.6011286E-3,5.402197E-1,3.866013E-2,-1.0101646E0,1.4338186E0,3.1743738E-1,-1.10915646E-1,5.12778E-1,7.041802E-2,-1.9374323E-1,-1.4712162E-1,2.1697316E-1,-5.677903E-2,-8.7855536E-1,1.3078626E0,-8.207535E-2,-5.8571626E-2,6.861584E-1,-5.768355E-2,-6.3324165E-1,2.2838886E-1,-2.1934587E-1,7.8310406E-1,1.3949758E-1,-4.6994165E-1,7.3748463E-1,-2.2778301E-1,1.2076924E0,2.6124403E-1,1.3212801E0,5.4162943E-1,-3.8913333E-1,1.9803862E-1,1.093541E0,2.7153945E-1,-8.6399144E-1,-6.27526E-2,7.056133E-1,-9.1098845E-1,-1.5932494E-1,5.3395534E-1,1.2097121E0,-1.3884045E-1,-8.145039E-1,-5.748743E-1,5.433642E-1,2.451414E-2,-7.687004E-1,-1.2767792E-1,-8.2751405E-1,-1.1789781E0,-3.1634322E-1,-5.119364E-1,1.5314676E-1,-7.419659E-1,-2.7173126E-1,5.99518E-1,1.0434943E0,5.4028374E-1,8.463088E-1,-5.5473715E-1,-7.542593E-1],"categories":[],"categories_nodes":[],"categories_segments":[],"categories_sizes":[],"default_left":[0,0,0,0,0,0,0,0,0,0,0,0,0,0,0,0,0,0,0,0,0,0,0,0,0,0,0,0,0,0,0,0,0,0,0,0,0,0,0,0,0,0,0,0,0,0,0,0,0,0,0,0,0,0,0,0,0,0,0,0,0,0,0,0,0,0,0,0,0,0,0,0,0,0,0,0,0,0,0,0,0],"id":4,"left_children":[1,3,55,5,-1,9,7,-1,-1,11,13,61,17,15,41,57,-1,19,29,21,23,27,73,75,25,-1,-1,-1,-1,31,33,35,37,59,39,-1,-1,-1,-1,-1,-1,47,43,53,45,-1,77,49,51,-1,-1,-1,-1,-1,67,-1,-1,-1,-1,-1,-1,63,69,65,-1,-1,-1,-1,-1,79,71,-1,-1,-1,-1,-1,-1,-1,-1,-1,-1],"loss_changes":[5.0758877E0,4.1819706E0,3.534309E0,3.8848772E0,0E0,3.7937884E0,5.0875273E0,0E0,0E0,6.0577617E0,5.227457E0,2.9069777E0,3.9064095E0,5.4113784E0,3.835393E0,3.4176588E0,0E0,8.44323E0,5.4414454E0,9.2757435E0,6.5274153E0,6.4040112E0,1.3625193E0,9.8776436E-1,7.8104086E0,0E0,0E0,0E0,0E0,1.9758026E1,1.5522066E1,1.5373495E1,5.908722E0,3.0910645E0,5.445421E0,0E0,0E0,0E0,0E0,0E0,0E0,4.596958E0,7.7700324E0,3.9354308E0,5.7526903E0,0E0,5.4497814E-1,5.394991E0,4.6715574E0,0E0,0E0,0E0,0E0,0E0,2.796361E0,0E0,0E0,0E0,0E0,0E0,0E0,5.33395E0,2.6765308E0,3.8238876E0,0E0,0E0,0E0,0E0,0E0,2.496624E-1,2.1174083E0,0E0,0E0,0E0,0E0,0E0,0E0,0E0,0E0,0E0,0E0],"parents":[2147483647,0,0,1,1,3,3,6,6,5,5,9,9,10,10,13,13,12,12,17,17,19,19,20,20,24,24,21,21,18,18,29,29,30,30,31,31,32,32,34,34,14,14,42,42,44,44,41,41,47,47,48,48,43,43,2,2,15,15,33,33,11,11,61,61,63,63,54,54,62,62,70,70,22,22,23,23,46,46,69,69],"right_children":[2,4,56,6,-1,10,8,-1,-1,12,14,62,18,16,42,58,-1,20,30,22,24,28,74,76,26,-1,-1,-1,-1,32,34,36,38,60,40,-1,-1,-1,-1,-1,-1,48,44,54,46,-1,78,50,52,-1,-1,-1,-1,-1,68,-1,-1,-1,-1,-1,-1,64,70,66,-1,-1,-1,-1,-1,80,72,-1,-1,-1,-1,-1,-1,-1,-1,-1,-1],"split_conditions":[3.127414E0,5.195711E0,8.2521105E-1,3.410267E0,-6.720659E-1,1.743932E0,-2.3237056E-1,-2.6835058E-2,7.8123844E-1,1.8264535E-1,-7.446429E-1,-3.2162946E-1,-3.160883E-1,5.0663817E-1,-5.9198684E-1,-9.1321427E-1,4.3986097E-1,-1.17795564E-1,7.2511834E-1,-1.4491165E-1,-5.698399E-1,2.4980342E0,-3.646753E-1,-7.310491E-1,8.036576E-1,-1.10915646E-1,5.12778E-1,7.041802E-2,-1.9374323E-1,5.588546E-1,9.061877E-1,1.585289E-1,-2.3046097E-1,1.6261439E-1,-4.916491E-1,-5.8571626E-2,6.861584E-1,-5.768355E-2,-6.3324165E-1,2.2838886E-1,-2.1934587E-1,-6.489426E-1,2.88596E-1,-3.066179E-1,-2.8068608E-1,-2.2778301E-1,2.0909783E-1,-3.9815274E-1,-1.8158855E-1,5.4162943E-1,-3.8913333E-1,1.9803862E-1,1.093541E0,2.7153945E-1,-2.3452012E-1,-6.27526E-2,7.056133E-1,-9.1098845E-1,-1.5932494E-1,5.3395534E-1,1.2097121E0,-3.3281258E-1,-4.6950448E-1,-3.9815274E-1,5.433642E-1,2.451414E-2,-7.687004E-1,-1.2767792E-1,-8.2751405E-1,-2.3271503E-1,-9.1321427E-1,-5.119364E-1,1.5314676E-1,-7.419659E-1,-2.7173126E-1,5.99518E-1,1.0434943E0,5.4028374E-1,8.463088E-1,-5.5473715E-1,-7.542593E-1],"split_indices":[10,1,12,4,0,6,7,0,0,9,10,8,8,7,3,13,0,7,10,7,13,15,11,10,13,0,0,0,0,3,10,3,7,6,4,0,0,0,0,0,0,10,13,8,11,0,10,13,8,0,0,0,0,0,11,0,0,0,0,0,0,8,10,13,0,0,0,0,0,6,13,0,0,0,0,0,0,0,0,0,0],"split_type":[0,0,0,0,0,0,0,0,0,0,0,0,0,0,0,0,0,0,0,0,0,0,0,0,0,0,0,0,0,0,0,0,0,0,0,0,0,0,0,0,0,0,0,0,0,0,0,0,0,0,0,0,0,0,0,0,0,0,0,0,0,0,0,0,0,0,0,0,0,0,0,0,0,0,0,0,0,0,0,0,0],"sum_hessian":[6.85104E2,6.7662866E2,8.4753475E0,6.7349945E2,3.129213E0,6.6325806E2,1.0241393E1,5.619016E0,4.6223774E0,6.139459E2,4.9312157E1,2.5960365E1,5.8798553E2,1.1619405E1,3.7692753E1,8.469761E0,3.1496432E0,2.4139293E2,3.4659262E2,2.085971E2,3.2795822E1,1.9979332E2,8.803791E0,6.543882E0,2.625194E1,1.395877E1,1.229317E1,1.6321983E2,3.657348E1,2.9901556E2,4.7577045E1,2.661441E2,3.2871445E1,1.02369375E1,3.734011E1,2.5679095E2,9.353157E0,7.536617E0,2.5334827E1,1.4386232E1,2.2953876E1,1.6372728E1,2.1320024E1,1.0558189E1,1.0761835E1,3.148572E0,7.613263E0,8.313183E0,8.0595455E0,4.807476E0,3.5057063E0,3.0572402E0,5.0023055E0,3.1044407E0,7.4537487E0,3.035466E0,5.4398813E0,3.1179433E0,5.3518176E0,7.0215883E0,3.2153492E0,1.1211945E1,1.4748422E1,8.011279E0,3.2006655E0,4.450169E0,3.5611095E0,3.5636718E0,3.8900769E0,8.516025E0,6.232397E0,3.1273181E0,3.1050787E0,5.7028165E0,3.1009746E0,3.322914E0,3.220968E0,3.912694E0,3.7005692E0,3.483009E0,5.0330153E0],"tree_param":{"num_deleted":"0","num_feature":"19","num_nodes":"81","size_leaf_vector":"1"}},{"base_weights":[-1.2096162E-2,-7.156847E-2,1.347767E-1,2.6209465E-1,-2.1546006E-1,3.8781682E-1,-1.9205423E-1,1.3217806E0,3.1538752E-1,-5.494599E-1,4.0995884E-1,1.3211731E0,3.068921E-1,-6.6564965E-1,3.4204412E-1,-4.5224035E-1,3.0430734E-1,-4.9227502E-2,-9.2500526E-1,2.0527092E-1,8.777089E-1,7.7607596E-1,2.6594141E-2,2.6921847E-1,-4.2377532E-1,8.094349E-2,-9.9956346E-1,2.5414884E-2,-1.6477208E-1,1.1597566E-1,-3.9346015E-1,-7.3402405E-1,-1.4102177E-1,-7.219605E-1,7.631489E-2,7.607793E-1,-7.284333E-1,8.749852E-2,6.6914994E-1,2.997922E-1,-4.9149282E-2,-3.677067E-1,5.1192975E-1,4.0877235E-1,1.2189635E0,1.32705E-1,-4.0706E-1,9.700377E-3,8.330558E-1,3.1772906E-1,-5.817335E-1,1.0233423E0,2.3532581E-1,6.3683015E-1,-1.584807E-1,-2.024448E-1,3.224184E-1,4.6758595E-1,-1.1152753E-1,7.610799E-2,-3.740966E-1,-7.3390996E-1,1.490922E-1,8.281175E-1,-1.69437E-1,-3.8623187E-1,-8.6754695E-2,4.2494008E-1,-1.3874124E-1,-3.8090467E-1,1.4006534E0,3.38415E-1,-2.0362669E-1,-1.0579312E0,-1.3233864E-1,2.0362757E-1,-1.22146904E-1,-4.7038212E-1,3.5100052E-1,3.1935546E-1,-5.826092E-1,-2.4287197E-1,-9.657777E-1,-5.427267E-1,6.122736E-1,8.14181E-1,-1.154214E-1,6.214448E-1,-2.4994828E-1,5.2952164E-1,-3.842477E-1,1.849356E-1,8.4465915E-1,-6.391075E-1,2.2346966E-1,-2.4617112E-1,2.0940566E-1,-7.088511E-1,3.9184857E-2,-2.4660654E-1,1.9566514E-1,-9.676067E-2,-8.104085E-1,1.1781065E0,2.8464324E-3,-7.437767E-1,-3.1046247E-1,5.997734E-1,1.2123744E-1,2.189867E-1,-3.843815E-1,2.9533067E-1,-3.4239346E-1,-5.525798E-1,-2.7217096E-1,2.8151184E-1,-3.5786623E-1,-5.8318007E-1,-7.905691E-1,-8.564548E-1,-4.1484022E-1,-5.7357645E-1,-1.510911E-1,2.1615387E-1,-5.206913E-1,-7.5683504E-1,1.22496925E-1,1.078663E0,4.6056765E-1,1.7347692E-1,7.793381E-1,-2.2912455E-1,2.6728886E-1,-1.2635897E-1,-7.080393E-1,-1.583925E-1,-8.0879986E-1,3.122769E-1,-5.0135714E-1,4.1908374E-1,8.4307754E-1,-1.0022873E-2,-4.6585566E-1,-3.208298E-1,-9.5898366E-1,1.7357436E-1,-5.398874E-1,5.5393404E-1,9.3896085E-1,-3.0335668E-1,-6.5785205E-1,6.847523E-1,2.9159564E-1,-4.028743E-1,-6.693929E-1,8.1765413E-1,5.458576E-1,-1.1188918E0,-3.764171E-1,-6.8896407E-1,-3.9031532E-1,-5.308038E-1,-7.3520666E-1],"categories":[],"categories_nodes":[],"categories_segments":[],"categories_sizes":[],"default_left":[0,0,0,0,0,0,0,0,0,0,0,0,0,0,0,0,0,0,0,0,0,0,0,0,0,0,0,0,0,0,0,0,0,0,0,0,0,0,0,0,0,0,0,0,0,0,0,0,0,0,0,0,0,0,0,0,0,0,0,0,0,0,0,0,0,0,0,0,0,0,0,0,0,0,0,0,0,0,0,0,0,0,0,0,0,0,0,0,0,0,0,0,0,0,0,0,0,0,0,0,0,0,0,0,0,0,0,0,0,0,0,0,0,0,0,0,0,0,0,0,0,0,0,0,0,0,0,0,0,0,0,0,0,0,0,0,0,0,0,0,0,0,0,0,0,0,0,0,0,0,0,0,0,0,0,0,0,0,0,0,0,0,0],"id":5,"left_children":[1,27,3,5,15,7,13,-1,9,17,11,147,19,25,21,81,63,115,-1,23,103,-1,131,99,-1,-1,153,29,31,37,33,-1,53,117,35,151,133,39,-1,41,45,93,43,51,-1,47,49,55,91,-1,61,139,95,-1,65,59,57,-1,-1,-1,-1,105,-1,129,109,77,67,69,71,141,127,89,73,101,75,-1,-1,79,-1,87,97,83,157,135,85,-1,-1,-1,-1,107,-1,-1,-1,143,-1,-1,-1,113,111,-1,-1,-1,-1,155,-1,-1,-1,-1,-1,-1,-1,-1,-1,-1,-1,-1,-1,119,-1,-1,121,-1,123,-1,125,-1,-1,-1,-1,-1,-1,-1,-1,-1,-1,137,149,-1,-1,-1,-1,-1,-1,145,159,-1,-1,-1,-1,-1,-1,-1,-1,-1,-1,-1,-1,161,-1,-1,-1,-1,-1],"loss_changes":[5.709394E0,4.205633E0,8.400441E0,7.8888273E0,6.1810613E0,1.5113977E1,7.576988E0,0E0,8.530017E0,5.509249E0,8.828E0,1.0835285E0,4.8984323E0,4.281784E0,4.519635E0,3.708921E0,3.9008436E0,2.198049E0,0E0,4.3459797E0,3.344924E0,0E0,2.0332594E0,3.4720788E0,0E0,0E0,5.706978E-1,8.648582E0,6.3191442E0,5.6405163E0,6.2550297E0,0E0,5.098428E0,2.1948204E0,9.186118E0,9.8728704E-1,1.9899988E0,5.2959313E0,0E0,1.0123331E1,7.2288985E0,3.5532079E0,9.088471E0,5.4365063E0,0E0,6.3431864E0,6.300265E0,4.1557813E0,3.622264E0,0E0,4.064543E0,1.4711332E0,3.492801E0,0E0,3.742971E0,5.6803236E0,6.5184226E0,0E0,0E0,0E0,0E0,2.8997736E0,0E0,2.1023397E0,2.3021746E0,4.624466E0,4.6356373E0,1.2637187E1,4.897898E0,1.3920678E0,2.1108227E0,3.6615207E0,8.480506E0,3.4511566E0,5.139497E0,0E0,0E0,4.487279E0,0E0,3.672655E0,3.4802103E0,6.2855735E0,4.6675396E-1,1.8551908E0,4.2234774E0,0E0,0E0,0E0,0E0,2.633131E0,0E0,0E0,0E0,1.2920337E0,0E0,0E0,0E0,2.2164917E0,2.2874465E0,0E0,0E0,0E0,0E0,5.3383255E-1,0E0,0E0,0E0,0E0,0E0,0E0,0E0,0E0,0E0,0E0,0E0,0E0,0E0,3.046319E0,0E0,0E0,2.5948806E0,0E0,2.2571692E0,0E0,4.023977E0,0E0,0E0,0E0,0E0,0E0,0E0,0E0,0E0,0E0,0E0,3.7748864E0,1.0213137E0,0E0,0E0,0E0,0E0,0E0,0E0,2.4896307E0,4.3102646E-1,0E0,0E0,0E0,0E0,0E0,0E0,0E0,0E0,0E0,0E0,0E0,0E0,2.111044E-1,0E0,0E0,0E0,0E0,0E0],"parents":[2147483647,0,0,2,2,3,3,5,5,8,8,10,10,6,6,4,4,9,9,12,12,14,14,19,19,13,13,1,1,27,27,28,28,30,30,34,34,29,29,37,37,39,39,42,42,40,40,45,45,46,46,43,43,32,32,47,47,56,56,55,55,50,50,16,16,54,54,66,66,67,67,68,68,72,72,74,74,65,65,77,77,15,15,81,81,84,84,79,79,71,71,48,48,41,41,52,52,80,80,23,23,73,73,20,20,61,61,89,89,64,64,98,98,97,97,17,17,33,33,117,117,120,120,122,122,124,124,70,70,63,63,22,22,36,36,83,83,135,135,51,51,69,69,93,93,143,143,11,11,136,136,35,35,26,26,103,103,82,82,144,144,157,157],"right_children":[2,28,4,6,16,8,14,-1,10,18,12,148,20,26,22,82,64,116,-1,24,104,-1,132,100,-1,-1,154,30,32,38,34,-1,54,118,36,152,134,40,-1,42,46,94,44,52,-1,48,50,56,92,-1,62,140,96,-1,66,60,58,-1,-1,-1,-1,106,-1,130,110,78,68,70,72,142,128,90,74,102,76,-1,-1,80,-1,88,98,84,158,136,86,-1,-1,-1,-1,108,-1,-1,-1,144,-1,-1,-1,114,112,-1,-1,-1,-1,156,-1,-1,-1,-1,-1,-1,-1,-1,-1,-1,-1,-1,-1,120,-1,-1,122,-1,124,-1,126,-1,-1,-1,-1,-1,-1,-1,-1,-1,-1,138,150,-1,-1,-1,-1,-1,-1,146,160,-1,-1,-1,-1,-1,-1,-1,-1,-1,-1,-1,-1,162,-1,-1,-1,-1,-1],"split_conditions":[-1.8221687E-1,-3.1689426E-1,2.5938922E-1,-5.5438507E-1,4.3987322E-1,-1.7095874E-1,1.6261439E-1,1.3217806E0,-1.2565887E0,9.5327324E-1,-3.0712163E-1,-6.0326743E-1,-6.3262707E-1,-4.9051118E-1,4.9239925E-1,-6.353488E-1,1.9296253E0,-1.4282758E0,-9.2500526E-1,-4.9397328E-1,-5.477836E-2,7.7607596E-1,-3.366338E-1,-2.7286702E-1,-4.2377532E-1,8.094349E-2,-3.9815274E-1,-2.1036218E-1,-7.9956186E-1,2.4216242E0,-4.8937327E-1,-7.3402405E-1,-8.175973E-1,1.1563046E0,-4.711666E-1,8.2521105E-1,-3.4885514E-1,-5.657485E-1,6.6914994E-1,-4.0919796E-1,-4.859595E-1,5.579438E-1,-5.8151734E-1,-3.7253398E-1,1.2189635E0,-4.9051118E-1,-1.0849015E0,-3.4236255E-1,6.343118E-1,3.1772906E-1,1.5067239E0,-3.9201173E-1,-3.332156E-1,6.3683015E-1,-5.041662E-1,-3.264654E-1,-2.7170798E-1,4.6758595E-1,-1.1152753E-1,7.610799E-2,-3.740966E-1,-4.007958E-1,1.490922E-1,-1.3455333E-1,2.8665417E-1,1.3486027E0,-5.0189036E-1,1.052843E-2,-7.5074977E-1,2.2976041E-1,2.2898476E-1,-6.842864E-1,-7.00599E-1,1.5067239E0,-3.958309E-1,2.0362757E-1,-1.22146904E-1,-3.6986056E-1,3.5100052E-1,-7.002343E-1,8.539875E-1,-6.7721766E-1,1.16908826E-1,-7.500804E-1,3.542213E-3,8.14181E-1,-1.154214E-1,6.214448E-1,-2.4994828E-1,1.6261439E-1,-3.842477E-1,1.849356E-1,8.4465915E-1,-4.1313285E-1,2.2346966E-1,-2.4617112E-1,2.0940566E-1,-2.9130405E-1,-2.216203E-1,-2.4660654E-1,1.9566514E-1,-9.676067E-2,-8.104085E-1,-1.1466811E-1,2.8464324E-3,-7.437767E-1,-3.1046247E-1,5.997734E-1,1.2123744E-1,2.189867E-1,-3.843815E-1,2.9533067E-1,-3.4239346E-1,-5.525798E-1,-2.7217096E-1,2.8151184E-1,-3.5786623E-1,-5.978299E-1,-7.905691E-1,-8.564548E-1,-4.996145E-1,-5.7357645E-1,8.2521105E-1,2.1615387E-1,-3.4389022E-1,-7.5683504E-1,1.22496925E-1,1.078663E0,4.6056765E-1,1.7347692E-1,7.793381E-1,-2.2912455E-1,2.6728886E-1,-1.2635897E-1,-7.080393E-1,6.077788E-1,-4.8026487E-2,3.122769E-1,-5.0135714E-1,4.1908374E-1,8.4307754E-1,-1.0022873E-2,-4.6585566E-1,-3.3785003E-1,-3.3774927E-1,1.7357436E-1,-5.398874E-1,5.5393404E-1,9.3896085E-1,-3.0335668E-1,-6.5785205E-1,6.847523E-1,2.9159564E-1,-4.028743E-1,-6.693929E-1,8.1765413E-1,5.458576E-1,2.0421292E-1,-3.764171E-1,-6.8896407E-1,-3.9031532E-1,-5.308038E-1,-7.3520666E-1],"split_indices":[0,8,8,3,1,0,6,0,13,6,8,10,3,4,2,10,1,13,0,10,13,0,7,8,0,0,13,0,10,10,4,0,3,3,4,12,7,10,0,7,4,6,10,7,0,4,13,7,10,0,5,7,8,0,4,8,7,0,0,0,0,7,0,10,7,6,4,7,3,10,7,10,10,5,7,0,0,7,0,3,10,10,13,10,0,0,0,0,0,6,0,0,0,4,0,0,0,8,0,0,0,0,0,0,0,0,0,0,0,0,0,0,0,0,0,0,0,10,0,0,4,0,12,0,7,0,0,0,0,0,0,0,0,0,0,8,1,0,0,0,0,0,0,8,8,0,0,0,0,0,0,0,0,0,0,0,0,1,0,0,0,0,0],"split_type":[0,0,0,0,0,0,0,0,0,0,0,0,0,0,0,0,0,0,0,0,0,0,0,0,0,0,0,0,0,0,0,0,0,0,0,0,0,0,0,0,0,0,0,0,0,0,0,0,0,0,0,0,0,0,0,0,0,0,0,0,0,0,0,0,0,0,0,0,0,0,0,0,0,0,0,0,0,0,0,0,0,0,0,0,0,0,0,0,0,0,0,0,0,0,0,0,0,0,0,0,0,0,0,0,0,0,0,0,0,0,0,0,0,0,0,0,0,0,0,0,0,0,0,0,0,0,0,0,0,0,0,0,0,0,0,0,0,0,0,0,0,0,0,0,0,0,0,0,0,0,0,0,0,0,0,0,0,0,0,0,0,0,0],"sum_hessian":[6.5363885E2,4.6525284E2,1.8838602E2,1.3816338E2,5.0222637E1,1.0820959E2,2.9953796E1,3.9161355E0,1.0429345E2,1.0279459E1,9.401399E1,9.552434E0,8.4461555E1,1.5876983E1,1.4076814E1,3.4505363E1,1.5717275E1,7.008753E0,3.2707067E0,7.1698715E1,1.2762842E1,3.3292496E0,1.0747563E1,6.7168594E1,4.530118E0,4.6439247E0,1.1233058E1,2.279987E2,2.3725412E2,1.874698E2,4.0528904E1,4.9187694E0,2.3233536E2,2.3851835E1,1.667707E1,9.012619E0,7.664452E0,1.8255128E2,4.918515E0,7.149077E1,1.1106052E2,1.7240093E1,5.4250675E1,5.1011696E1,3.2389827E0,7.364109E1,3.7419422E1,6.2640583E1,1.1000512E1,5.7399054E0,3.1679516E1,1.1226845E1,3.978485E1,3.1818266E0,2.2915353E2,3.7320152E1,2.5320429E1,1.2920763E1,1.2399666E1,2.1434443E1,1.5885711E1,2.6836277E1,4.843239E0,7.465089E0,8.252185E0,5.488033E1,1.742732E2,1.6071135E1,1.5820206E2,8.80126E0,7.269874E0,1.8936085E1,1.3926598E2,1.072517E1,1.285408E2,1.8399548E1,1.1014126E2,5.0626823E1,4.2535057E0,6.2982926E0,4.4328533E1,2.4513092E1,9.9922695E0,1.8149887E1,6.363205E0,3.1819794E0,3.1812255E0,3.1242182E0,3.1740744E0,1.5928504E1,3.0075812E0,6.159038E0,4.8414745E0,1.2701559E1,4.538534E0,6.5599985E0,3.322485E1,3.6848606E1,7.479928E0,6.3853474E0,6.078325E1,3.1080618E0,7.617108E0,9.493955E0,3.2688875E0,6.7061357E0,2.013014E1,6.0204763E0,9.908028E0,3.9340496E0,4.3181357E0,4.2789836E0,3.2009444E0,1.738286E1,1.9465744E1,3.6141937E0,3.3945591E0,1.9727312E1,4.1245227E0,3.0566747E0,1.6670637E1,5.1466875E0,1.152395E1,4.7340894E0,6.7898602E0,3.240536E0,3.549324E0,3.9820998E0,3.2877746E0,3.781308E0,3.6837811E0,5.457395E0,5.290169E0,3.853655E0,3.810797E0,7.426209E0,1.0723679E1,3.7504947E0,3.6757145E0,6.8636246E0,4.36322E0,4.7994328E0,4.0018277E0,6.3680406E0,6.3335185E0,3.1841698E0,3.1838706E0,4.593874E0,4.9585605E0,5.9413457E0,4.782333E0,3.2653282E0,5.747291E0,4.1766095E0,7.0564485E0,4.4119444E0,5.08201E0,6.6585574E0,3.3337119E0,3.3251653E0,3.008353E0,3.1550064E0,3.503551E0],"tree_param":{"num_deleted":"0","num_feature":"19","num_nodes":"163","size_leaf_vector":"1"}},{"base_weights":[-1.5020178E-2,-4.5907915E-2,2.1798657E-1,3.0967882E-1,-7.3610765E-1,-1.4007214E-1,5.179189E-1,1.3067969E0,3.5210663E-1,-4.1743535E-1,-1.7333953E-2,-2.1315199E-1,-1.238086E0,1.344669E-1,-8.3065934E-2,-4.85E-1,-6.515952E-3,6.072275E-2,8.7349486E-1,-4.8505936E-2,3.8804734E-1,1.6436193E-2,1.3786227E0,5.621899E-1,-4.4965294E-1,-7.067751E-2,-7.213843E-1,-6.556524E-1,-3.2961998E-2,-2.8359087E-2,-6.5874785E-1,1.5433548E-1,-4.8301336E-1,-1.688775E-1,7.2761077E-1,-2.0618576E-1,1.7369358E-1,6.403601E-2,-5.811954E-1,3.9003214E-1,-5.83283E-1,-6.541571E-1,8.41056E-2,-4.8447873E-2,6.171739E-1,-5.910153E-1,5.175376E-1,-7.437268E-1,7.202033E-2,4.2377758E-1,9.784543E-1,-1.4269489E-1,3.011682E-1,-9.2988414E-1,1.1515521E-1,1.4967528E-1,7.2261363E-1,4.0837595E-1,8.408522E-1,6.821289E-1,4.832967E-4,-1.2540583E-2,-7.619342E-1,-8.902525E-2,4.652875E-1,1.0117989E0,2.1643724E-2,7.840416E-2,-4.5625633E-1,-2.730095E-1,-9.0314895E-1,-6.0457444E-1,2.3648703E-1,-2.1247147E-1,5.9300786E-1,6.40129E-1,-2.2273865E-1,-3.579245E-1,3.7538952E-1,2.7933675E-1,-7.591251E-1,-8.824635E-1,-4.4531506E-2,1.8437688E-1,-3.9959618E-1,6.50445E-2,7.5738627E-1,1.1347162E-1,-3.910844E-1,-3.9457557E-1,4.3089283E-1,9.3230414E-1,3.6906883E-2,-8.409603E-1,4.542437E-2,7.893622E-1,8.287713E-3,4.5006943E-1,-2.4665982E-1,-7.661934E-2,1.6044375E-1,-6.683618E-2,3.4496891E-1,6.43267E-1,4.9961705E-2,5.432579E-1,7.8639984E-2,-3.384243E-1,4.0892407E-1,-2.218046E-2,-6.8114424E-1,1.1767503E0,5.188977E-1,7.7407074E-1,5.060301E-1,-1.1089323E-1,-7.690219E-1,6.1201817E-1,1.2981166E-2,6.782691E-1,9.674254E-2,-1.4646664E-1,-1.1304775E0,2.3039305E-1,-3.1001246E-1,4.618712E-1,1.0415174E0,-1.2318487E0,-7.05166E-1,1.5196282E-1,1.0719236E0,-5.251194E-1,-6.9251394E-1,-4.6887004E-1,1.2906206E-1,9.075453E-2,-3.4970325E-1,4.7911882E-1,-2.7311367E-1,-1.6656733E-1,-6.8185896E-1,-2.9762056E-1,-7.2951E-1,2.5462013E-1,-1.5604073E-1,-3.988348E-1,-5.140819E-2,8.0224085E-1,4.3526E-1,-7.282947E-1,-5.2496064E-1,-5.8631235E-1,-7.912021E-1,-7.538713E-1,-6.547635E-1],"categories":[],"categories_nodes":[],"categories_segments":[],"categories_sizes":[],"default_left":[0,0,0,0,0,0,0,0,0,0,0,0,0,0,0,0,0,0,0,0,0,0,0,0,0,0,0,0,0,0,0,0,0,0,0,0,0,0,0,0,0,0,0,0,0,0,0,0,0,0,0,0,0,0,0,0,0,0,0,0,0,0,0,0,0,0,0,0,0,0,0,0,0,0,0,0,0,0,0,0,0,0,0,0,0,0,0,0,0,0,0,0,0,0,0,0,0,0,0,0,0,0,0,0,0,0,0,0,0,0,0,0,0,0,0,0,0,0,0,0,0,0,0,0,0,0,0,0,0,0,0,0,0,0,0,0,0,0,0,0,0,0,0,0,0,0,0,0,0,0,0,0,0,0,0],"id":6,"left_children":[1,9,3,5,139,31,7,125,43,11,13,25,151,17,15,29,19,35,113,27,21,23,111,85,41,87,-1,-1,61,77,69,33,-1,135,-1,37,51,39,93,105,109,-1,143,45,49,47,-1,-1,-1,95,-1,53,55,141,75,63,57,59,-1,-1,-1,99,115,67,65,-1,-1,-1,-1,71,127,-1,73,-1,-1,119,83,79,-1,-1,81,-1,-1,-1,-1,-1,-1,89,-1,145,91,-1,123,121,-1,129,97,-1,-1,101,103,-1,-1,-1,-1,-1,107,-1,-1,-1,-1,-1,-1,-1,117,-1,-1,-1,-1,-1,-1,-1,149,-1,-1,-1,-1,153,131,-1,147,133,-1,-1,-1,137,-1,-1,-1,-1,-1,-1,-1,-1,-1,-1,-1,-1,-1,-1,-1,-1,-1,-1,-1],"loss_changes":[4.2902064E0,5.5874248E0,6.1034E0,5.961946E0,1.2454884E0,4.190173E0,5.6899767E0,1.9463272E0,3.817904E0,6.30028E0,4.8769617E0,4.506194E0,2.3219872E-1,8.047991E0,1.0493954E1,4.3286743E0,4.746598E0,4.049149E0,2.3770752E0,4.429031E0,1.0142589E1,5.097565E0,2.408945E0,3.1648004E0,4.0206137E0,3.0009553E0,0E0,0E0,3.800672E0,3.4014583E0,3.725193E0,5.151618E0,0E0,1.2725087E0,0E0,4.047107E0,3.8056183E0,4.8972454E0,2.8716173E0,2.700706E0,2.582005E0,0E0,7.925327E-1,7.421558E0,4.591385E0,4.6671762E0,0E0,0E0,0E0,2.7937658E0,0E0,5.50061E0,4.2934556E0,9.502053E-1,3.620753E0,3.7277017E0,4.1951714E0,4.0207195E0,0E0,0E0,0E0,2.7532933E0,2.3120546E0,4.5330486E0,1.1908398E1,0E0,0E0,0E0,0E0,6.144611E0,1.5727825E0,0E0,4.5481052E0,0E0,0E0,2.0623379E0,3.2372673E0,3.4553885E0,0E0,0E0,3.6979141E0,0E0,0E0,0E0,0E0,0E0,0E0,3.2889771E0,0E0,7.2611296E-1,5.9485426E0,0E0,2.0129638E0,2.0298023E0,0E0,1.4449916E0,2.9616518E0,0E0,0E0,5.0021634E0,4.730307E0,0E0,0E0,0E0,0E0,0E0,4.2576914E0,0E0,0E0,0E0,0E0,0E0,0E0,0E0,2.0831501E0,0E0,0E0,0E0,0E0,0E0,0E0,0E0,2.4459648E-1,0E0,0E0,0E0,0E0,6.63929E-2,1.3810711E0,0E0,6.54017E-1,2.4860058E0,0E0,0E0,0E0,2.9691806E0,0E0,0E0,0E0,0E0,0E0,0E0,0E0,0E0,0E0,0E0,0E0,0E0,0E0,0E0,0E0,0E0,0E0,0E0,0E0],"parents":[2147483647,0,0,2,2,3,3,6,6,1,1,9,9,10,10,14,14,13,13,16,16,20,20,21,21,11,11,19,19,15,15,5,5,31,31,17,17,35,35,37,37,24,24,8,8,43,43,45,45,44,44,36,36,51,51,52,52,56,56,57,57,28,28,55,55,64,64,63,63,30,30,69,69,72,72,54,54,29,29,77,77,80,80,76,76,23,23,25,25,87,87,90,90,38,38,49,49,96,96,61,61,99,99,100,100,39,39,106,106,40,40,22,22,18,18,62,62,114,114,75,75,93,93,92,92,7,7,70,70,95,95,128,128,131,131,33,33,135,135,4,4,53,53,42,42,89,89,130,130,122,122,12,12,127,127],"right_children":[2,10,4,6,140,32,8,126,44,12,14,26,152,18,16,30,20,36,114,28,22,24,112,86,42,88,-1,-1,62,78,70,34,-1,136,-1,38,52,40,94,106,110,-1,144,46,50,48,-1,-1,-1,96,-1,54,56,142,76,64,58,60,-1,-1,-1,100,116,68,66,-1,-1,-1,-1,72,128,-1,74,-1,-1,120,84,80,-1,-1,82,-1,-1,-1,-1,-1,-1,90,-1,146,92,-1,124,122,-1,130,98,-1,-1,102,104,-1,-1,-1,-1,-1,108,-1,-1,-1,-1,-1,-1,-1,118,-1,-1,-1,-1,-1,-1,-1,150,-1,-1,-1,-1,154,132,-1,148,134,-1,-1,-1,138,-1,-1,-1,-1,-1,-1,-1,-1,-1,-1,-1,-1,-1,-1,-1,-1,-1,-1,-1],"split_conditions":[1.3187191E0,-3.770613E-1,6.2579614E-1,-3.3281463E-1,9.168134E-2,-3.0037147E-1,-3.0646238E-1,1.6261439E-1,-3.097411E-1,-2.4460743E-1,-7.085902E-1,-3.2162946E-1,-2.216203E-1,-7.1884525E-1,-2.4413656E-1,-3.3452532E-1,2.4980342E0,-5.0189036E-1,-3.4503597E-1,-7.299616E-1,-7.175784E-2,-2.6026455E-1,-2.1036218E-1,-1.2592624E-1,-1.1751863E-1,-2.1599124E-1,-7.213843E-1,-6.556524E-1,1.1470319E0,-3.371448E-1,-4.9733868E-1,-3.152823E-1,-4.8301336E-1,-4.848216E-1,7.2761077E-1,1.5067239E0,-3.3621827E-1,-6.280444E-1,1.6261439E-1,-3.2708588E-1,-2.4751215E0,-6.541571E-1,-2.4342321E-1,-1.1751863E-1,1.5067239E0,-4.9051118E-1,5.175376E-1,-7.437268E-1,7.202033E-2,-1.9132273E-1,9.784543E-1,-7.740055E-1,-7.613846E-1,-8.065826E-1,-3.669785E-1,-7.0789695E-2,-1.5821481E-1,-7.5568736E-1,8.408522E-1,6.821289E-1,4.832967E-4,4.602832E-1,1.6261439E-1,7.3948435E-2,-7.415271E-1,1.0117989E0,2.1643724E-2,7.840416E-2,-4.5625633E-1,-5.041662E-1,-4.916491E-1,-6.0457444E-1,-6.222987E-1,-2.1247147E-1,5.9300786E-1,-3.9430323E-1,-7.587259E-1,-4.1378096E-1,3.7538952E-1,2.7933675E-1,-3.646753E-1,-8.824635E-1,-4.4531506E-2,1.8437688E-1,-3.9959618E-1,6.50445E-2,7.5738627E-1,-4.1148946E-1,-3.910844E-1,-6.184925E-1,-3.3835378E-1,9.3230414E-1,-4.9733868E-1,-2.4751215E0,4.542437E-2,-2.1036218E-1,-2.1599124E-1,4.5006943E-1,-2.4665982E-1,1.9251786E0,-6.168612E-1,-6.683618E-2,3.4496891E-1,6.43267E-1,4.9961705E-2,5.432579E-1,-7.425707E-2,-3.384243E-1,4.0892407E-1,-2.218046E-2,-6.8114424E-1,1.1767503E0,5.188977E-1,7.7407074E-1,-2.4413656E-1,-1.1089323E-1,-7.690219E-1,6.1201817E-1,1.2981166E-2,6.782691E-1,9.674254E-2,-1.4646664E-1,8.2521105E-1,2.3039305E-1,-3.1001246E-1,4.618712E-1,1.0415174E0,-3.17801E-1,-3.4552905E-1,1.5196282E-1,2.1657096E-1,-5.47261E-1,-6.9251394E-1,-4.6887004E-1,1.2906206E-1,-3.9277557E-1,-3.4970325E-1,4.7911882E-1,-2.7311367E-1,-1.6656733E-1,-6.8185896E-1,-2.9762056E-1,-7.2951E-1,2.5462013E-1,-1.5604073E-1,-3.988348E-1,-5.140819E-2,8.0224085E-1,4.3526E-1,-7.282947E-1,-5.2496064E-1,-5.8631235E-1,-7.912021E-1,-7.538713E-1,-6.547635E-1],"split_indices":[13,11,7,7,3,8,7,6,8,1,3,8,0,3,0,8,15,4,7,10,4,11,0,0,11,0,0,0,13,8,4,8,0,4,0,5,11,6,6,7,2,0,1,11,5,4,0,0,0,11,0,10,3,3,11,11,8,3,0,0,0,13,6,1,13,0,0,0,0,4,4,0,10,0,0,7,3,7,0,0,11,0,0,0,0,0,0,7,0,10,8,0,4,2,0,0,0,0,0,10,10,0,0,0,0,0,7,0,0,0,0,0,0,0,0,0,0,0,0,0,0,0,12,0,0,0,0,8,10,0,8,10,0,0,0,7,0,0,0,0,0,0,0,0,0,0,0,0,0,0,0,0,0,0,0],"split_type":[0,0,0,0,0,0,0,0,0,0,0,0,0,0,0,0,0,0,0,0,0,0,0,0,0,0,0,0,0,0,0,0,0,0,0,0,0,0,0,0,0,0,0,0,0,0,0,0,0,0,0,0,0,0,0,0,0,0,0,0,0,0,0,0,0,0,0,0,0,0,0,0,0,0,0,0,0,0,0,0,0,0,0,0,0,0,0,0,0,0,0,0,0,0,0,0,0,0,0,0,0,0,0,0,0,0,0,0,0,0,0,0,0,0,0,0,0,0,0,0,0,0,0,0,0,0,0,0,0,0,0,0,0,0,0,0,0,0,0,0,0,0,0,0,0,0,0,0,0,0,0,0,0,0,0],"sum_hessian":[5.9612683E2,5.2635596E2,6.977086E1,6.365433E1,6.116531E0,2.0143917E1,4.351041E1,7.5560584E0,3.5954353E1,3.75885E1,4.887675E2,3.009744E1,7.491059E0,1.4768709E2,3.4108038E2,5.456574E1,2.8651465E2,1.3428825E2,1.3398832E1,2.5895813E2,2.7556505E1,2.0039589E1,7.516916E0,9.231769E0,1.0807821E1,2.6505571E1,3.59187E0,3.605691E0,2.5535245E2,1.5040789E1,3.952495E1,1.4217571E1,5.926346E0,1.1034778E1,3.182794E0,3.9933186E1,9.435507E1,2.3207901E1,1.6725285E1,1.5435678E1,7.772223E0,4.688614E0,6.1192074E0,1.4316628E1,2.1637726E1,9.131927E0,5.1847024E0,4.5819535E0,4.5499725E0,1.8397068E1,3.2406566E0,2.7096226E1,6.725885E1,6.6864734E0,2.0409752E1,4.9476173E1,1.7782675E1,1.2537913E1,5.244761E0,4.2763786E0,8.261535E0,2.483951E2,6.9573517E0,2.8168974E1,2.1307198E1,5.246813E0,1.6060385E1,2.1360998E1,6.8079753E0,1.5331216E1,2.4193733E1,6.0276117E0,9.303604E0,5.290285E0,4.013319E0,7.993338E0,1.2416413E1,1.0161918E1,4.878871E0,3.264324E0,6.8975935E0,3.1983938E0,3.6992E0,5.793118E0,6.6232953E0,5.8224697E0,3.4092984E0,2.0394672E1,6.110898E0,7.841413E0,1.2553261E1,3.0963538E0,9.456906E0,1.2006709E1,4.718576E0,9.7851515E0,8.6119175E0,3.1079955E0,5.5039215E0,1.8125691E2,6.713819E1,1.710827E2,1.0174203E1,4.7050204E0,6.2433167E1,5.5019093E0,9.933769E0,4.8383384E0,5.0954304E0,4.109148E0,3.663075E0,3.0584664E0,4.4584494E0,5.7874794E0,7.6113524E0,3.5344508E0,3.422901E0,3.5029123E0,4.1084404E0,3.6899266E0,4.3034115E0,3.9792573E0,8.0274515E0,5.794541E0,3.662366E0,3.8577247E0,3.6983335E0,9.092919E0,1.5100814E1,3.4331884E0,6.3519635E0,1.1153465E1,3.947348E0,7.9973526E0,3.1561131E0,6.9618587E0,4.072919E0,3.007557E0,3.9543018E0,3.1090417E0,3.007489E0,3.0809112E0,3.6055622E0,3.0414345E0,3.0777729E0,3.9197295E0,3.9216833E0,3.0513825E0,3.3005807E0,4.738195E0,3.2892566E0,3.1014276E0,4.3896313E0,4.4097075E0,4.683212E0],"tree_param":{"num_deleted":"0","num_feature":"19","num_nodes":"155","size_leaf_vector":"1"}},{"base_weights":[-2.3188867E-2,-1.1814327E-2,-6.328019E-1,-3.0252084E-2,3.1274164E-1,-2.3442492E-1,-4.2581717E-3,-4.0153754E-1,2.3578647E-1,8.9299446E-1,-2.6795968E-1,2.4180548E-1,-5.832057E-1,-3.180992E-1,-6.7428863E-1,4.1686547E-1,-3.211443E-1,2.9881418E-1,7.5307584E-1,4.346112E-2,-1.2100808E-1,-3.1603787E-2,3.660726E-1,1.0756803E-2,-9.395807E-1,4.498821E-1,-4.5017096E-1,-6.178814E-1,-4.011897E-2,-3.613944E-1,5.564521E-1,-2.0885174E-1,6.732126E-1,4.503852E-1,-8.0038506E-1,4.851899E-1,7.3801495E-2,-2.30225E-1,1.41753E-1,-4.269351E-1,4.1864613E-1,1.5325644E0,2.1383369E-1,-6.714119E-1,-4.821223E-4,2.2994573E-1,-8.630828E-1,6.042978E-1,-1.5019324E-2,2.3938763E-1,-7.5005656E-1,1.8247345E-1,-4.8656628E-1,1.6544195E-1,-8.5683125E-1,-8.1475616E-2,-9.5070904E-1,8.041403E-2,-1.5042669E-1,5.2235648E-2,5.686753E-1,4.670562E-1,9.010681E-3,-4.7562605E-1,2.4515547E-2,-4.595445E-1,8.6703315E-2,-3.560229E-1,3.3190668E-1,-4.079227E-1,2.7333468E-1,6.6712075E-1,3.1851668E-2,1.065179E-1,6.8731153E-1,-5.090888E-1,-2.1811616E-2,-5.09968E-1,2.5913292E-1,6.6293585E-1,-3.2808617E-1,-6.3283896E-1,1.2773392E-1,1.5683732E-3,-8.9692956E-1,-2.7745357E-1,-6.892071E-1,-6.413156E-1,-1.6946918E-1,4.523019E-1,-1.6326092E-1,2.3470068E-1,8.3259606E-1,-4.970134E-1,9.489108E-2,-4.335765E-1,1.23775326E-1,-5.7506686E-1,-1.6970067E-1,-1.6104546E-1,2.9597917E-1,1.1310734E-1,-4.2452753E-1,-7.141925E-1,-3.1671402E-1,3.309327E-1,-1.6479798E-1,1.6556066E-1,5.927821E-1,-6.626453E-1,-3.0758792E-1,-6.84737E-1,-2.859364E-1,-6.293064E-1,-3.6100972E-1,9.533179E-1,7.972954E-1],"categories":[],"categories_nodes":[],"categories_segments":[],"categories_sizes":[],"default_left":[0,0,0,0,0,0,0,0,0,0,0,0,0,0,0,0,0,0,0,0,0,0,0,0,0,0,0,0,0,0,0,0,0,0,0,0,0,0,0,0,0,0,0,0,0,0,0,0,0,0,0,0,0,0,0,0,0,0,0,0,0,0,0,0,0,0,0,0,0,0,0,0,0,0,0,0,0,0,0,0,0,0,0,0,0,0,0,0,0,0,0,0,0,0,0,0,0,0,0,0,0,0,0,0,0,0,0,0,0,0,0,0,0,0,0,0,0],"id":7,"left_children":[1,3,85,5,15,7,19,13,9,91,11,-1,-1,75,-1,17,-1,71,-1,21,27,23,25,57,109,29,-1,55,37,93,31,33,35,-1,-1,-1,-1,43,39,49,41,115,51,53,45,47,111,-1,-1,89,103,-1,-1,-1,97,69,113,59,63,61,-1,-1,-1,67,65,-1,-1,-1,-1,-1,-1,73,99,-1,-1,81,77,-1,79,107,-1,83,-1,-1,87,95,-1,-1,-1,-1,-1,-1,-1,-1,-1,-1,-1,-1,-1,101,-1,105,-1,-1,-1,-1,-1,-1,-1,-1,-1,-1,-1,-1,-1,-1,-1],"loss_changes":[3.8630261E0,3.2729545E0,2.084064E0,2.7467377E0,2.680278E0,4.593008E0,2.5580027E0,2.806076E0,5.074026E0,1.8119931E0,4.525774E0,0E0,0E0,2.204174E0,0E0,2.799584E0,0E0,2.2844033E0,0E0,7.892903E0,5.3537164E0,1.0170014E1,5.9551315E0,2.8361118E0,1.0452995E0,4.9593945E0,0E0,3.32865E0,3.9612997E0,1.7915303E0,4.5309067E0,7.997402E0,4.2367153E0,0E0,0E0,0E0,0E0,5.6774645E0,9.219666E0,4.128189E0,8.982471E0,1.11647606E-1,3.7589045E0,3.419588E0,7.322715E0,6.1778984E0,9.458356E-1,0E0,0E0,1.8206594E0,1.2613597E0,0E0,0E0,0E0,1.3573456E0,2.5359464E0,5.5547905E-1,4.5529947E0,4.336723E0,4.7783146E0,0E0,0E0,0E0,4.181609E0,5.2408075E0,0E0,0E0,0E0,0E0,0E0,0E0,2.520134E0,1.2658159E0,0E0,0E0,2.1488705E0,3.741705E0,0E0,3.8902755E0,1.0896249E0,0E0,3.4026098E0,0E0,0E0,1.9489079E0,1.5049566E0,0E0,0E0,0E0,0E0,0E0,0E0,0E0,0E0,0E0,0E0,0E0,0E0,0E0,1.5428056E0,0E0,1.2316676E0,0E0,0E0,0E0,0E0,0E0,0E0,0E0,0E0,0E0,0E0,0E0,0E0,0E0,0E0,0E0],"parents":[2147483647,0,0,1,1,3,3,5,5,8,8,10,10,7,7,4,4,15,15,6,6,19,19,21,21,22,22,20,20,25,25,30,30,31,31,32,32,28,28,38,38,40,40,37,37,44,44,45,45,39,39,42,42,43,43,27,27,23,23,57,57,59,59,58,58,64,64,63,63,55,55,17,17,71,71,13,13,76,76,78,78,75,75,81,81,2,2,84,84,49,49,9,9,29,29,85,85,54,54,72,72,99,99,50,50,101,101,79,79,24,24,46,46,56,56,41,41],"right_children":[2,4,86,6,16,8,20,14,10,92,12,-1,-1,76,-1,18,-1,72,-1,22,28,24,26,58,110,30,-1,56,38,94,32,34,36,-1,-1,-1,-1,44,40,50,42,116,52,54,46,48,112,-1,-1,90,104,-1,-1,-1,98,70,114,60,64,62,-1,-1,-1,68,66,-1,-1,-1,-1,-1,-1,74,100,-1,-1,82,78,-1,80,108,-1,84,-1,-1,88,96,-1,-1,-1,-1,-1,-1,-1,-1,-1,-1,-1,-1,-1,102,-1,106,-1,-1,-1,-1,-1,-1,-1,-1,-1,-1,-1,-1,-1,-1,-1],"split_conditions":[1.9022002E0,3.9757663E-1,1.2914664E0,-7.468179E-1,-5.347547E-1,-2.2646554E-1,6.484493E-1,-3.9815274E-1,1.16908826E-1,-4.996145E-1,-7.740055E-1,2.4180548E-1,-5.832057E-1,-9.1321427E-1,-6.7428863E-1,3.410267E0,-3.211443E-1,6.0448015E-1,7.5307584E-1,-6.9360495E-2,7.2511834E-1,-3.5764056E-1,4.1001326E-1,-1.4783767E-1,-3.008752E-1,-5.06442E-1,-4.5017096E-1,-3.2031974E-1,-3.4236255E-1,-3.137495E-1,-3.9430323E-1,1.6261439E-1,1.1470319E0,4.503852E-1,-8.0038506E-1,4.851899E-1,7.3801495E-2,1.1215134E0,4.602832E-1,9.8340046E-1,-3.1219113E-1,1.2064402E0,2.3625991E0,-3.9277557E-1,-2.9875323E-1,1.3977394E0,1.6674403E0,6.042978E-1,-1.5019324E-2,-2.1036218E-1,-3.0760813E-1,1.8247345E-1,-4.8656628E-1,1.6544195E-1,-2.898476E-1,8.036576E-1,-2.992632E-1,1.1340288E0,-2.537579E-1,-7.364866E-1,5.686753E-1,4.670562E-1,9.010681E-3,1.3486027E0,-3.0776122E-1,-4.595445E-1,8.6703315E-2,-3.560229E-1,3.3190668E-1,-4.079227E-1,2.7333468E-1,6.5088445E-1,-6.5601134E-1,1.065179E-1,6.8731153E-1,-3.1635653E-2,-3.475806E-1,-5.09968E-1,3.441702E-2,-7.783555E-1,-3.2808617E-1,-3.250549E-1,1.2773392E-1,1.5683732E-3,-7.5568736E-1,-3.5861228E-2,-6.892071E-1,-6.413156E-1,-1.6946918E-1,4.523019E-1,-1.6326092E-1,2.3470068E-1,8.3259606E-1,-4.970134E-1,9.489108E-2,-4.335765E-1,1.23775326E-1,-5.7506686E-1,-1.6970067E-1,-7.3376787E-1,2.9597917E-1,-7.415271E-1,-4.2452753E-1,-7.141925E-1,-3.1671402E-1,3.309327E-1,-1.6479798E-1,1.6556066E-1,5.927821E-1,-6.626453E-1,-3.0758792E-1,-6.84737E-1,-2.859364E-1,-6.293064E-1,-3.6100972E-1,9.533179E-1,7.972954E-1],"split_indices":[8,0,4,10,10,13,10,13,13,4,10,0,0,13,0,4,0,1,0,3,10,3,7,8,8,4,0,8,7,11,7,6,13,0,0,0,0,10,13,10,7,3,3,7,11,10,10,0,0,0,7,0,0,0,11,13,8,11,7,10,0,0,0,6,11,0,0,0,0,0,0,0,10,0,0,11,11,0,8,10,0,8,0,0,3,0,0,0,0,0,0,0,0,0,0,0,0,0,0,10,0,13,0,0,0,0,0,0,0,0,0,0,0,0,0,0,0],"split_type":[0,0,0,0,0,0,0,0,0,0,0,0,0,0,0,0,0,0,0,0,0,0,0,0,0,0,0,0,0,0,0,0,0,0,0,0,0,0,0,0,0,0,0,0,0,0,0,0,0,0,0,0,0,0,0,0,0,0,0,0,0,0,0,0,0,0,0,0,0,0,0,0,0,0,0,0,0,0,0,0,0,0,0,0,0,0,0,0,0,0,0,0,0,0,0,0,0,0,0,0,0,0,0,0,0,0,0,0,0,0,0,0,0,0,0,0,0],"sum_hessian":[5.5718854E2,5.46984E2,1.0204553E1,5.175832E2,2.9400814E1,5.8449574E1,4.5913364E2,4.3124874E1,1.53246975E1,6.650237E0,8.674459E0,4.5238395E0,4.15062E0,3.8959473E1,4.1654015E0,2.6276917E1,3.1238973E0,2.3239553E1,3.0373626E0,3.259148E2,1.3321884E2,2.6439334E2,6.152145E1,2.526073E2,1.1786046E1,5.736012E1,4.1613317E0,1.8649689E1,1.14569145E2,6.659072E0,5.070105E1,6.710412E0,4.3990635E1,3.6543474E0,3.0560646E0,3.3182743E1,1.0807893E1,5.6018852E1,5.8550297E1,1.9171797E1,3.9378498E1,6.1152315E0,3.3263268E1,1.9180948E1,3.6837902E1,2.9071096E1,7.7668076E0,6.86464E0,2.2206455E1,6.260035E0,1.2911761E1,3.025796E1,3.0053084E0,3.1005569E0,1.608039E1,7.1419187E0,1.150777E1,1.7638565E2,7.622165E1,1.7112373E2,5.261919E0,7.7676473E0,1.6335608E2,2.6662947E1,4.95587E1,6.5962133E0,4.2962486E1,2.3383348E1,3.2795968E0,3.3535767E0,3.788342E0,9.764723E0,1.3474832E1,5.156618E0,4.6081047E0,2.3687433E1,1.5272041E1,3.7223568E0,1.1549685E1,7.7829666E0,3.7667181E0,2.0266802E1,3.4206314E0,5.948135E0,1.4318666E1,6.308177E0,3.8963757E0,1.0386713E1,3.931953E0,3.0501912E0,3.2098439E0,3.5941594E0,3.0560777E0,3.3882737E0,3.2707982E0,3.193587E0,3.1145897E0,1.2661028E1,3.4193635E0,9.649832E0,3.8249998E0,6.562299E0,3.0875328E0,3.6129851E0,9.298776E0,3.0368576E0,3.525441E0,3.9091504E0,3.8738163E0,7.5845413E0,4.2015047E0,4.0210295E0,3.7457778E0,7.7811565E0,3.726613E0,3.0215313E0,3.0937004E0],"tree_param":{"num_deleted":"0","num_feature":"19","num_nodes":"117","size_leaf_vector":"1"}},{"base_weights":[-2.9275082E-2,-1.3454946E-2,-2.8314987E-1,3.7606618E-1,-4.5345303E-1,-8.261797E-1,-2.8979534E-1,-2.2633253E-2,5.10605E-1,-4.1541436E-1,-1.4158861E-2,-6.99429E-1,-4.282205E-2,4.7943178E-1,-5.628511E-1,6.593319E-1,-1.9746003E-1,1.2429062E-2,-1.5156083E-1,-8.951456E-2,-7.2737825E-1,-5.222877E-3,7.1961087E-1,8.27775E-3,-5.513288E-1,-2.7021758E-2,-7.8325915E-1,-9.4956085E-2,4.9734613E-1,-5.069994E-2,1.3594058E-1,5.554053E-2,8.895476E-1,-7.1017747E-3,-5.595711E-1,-1.5929257E-3,5.250055E-1,-1.449457E-2,5.271006E-1,1.0009551E-1,-4.5560303E-1,8.634215E-1,2.679738E-1,-1.7855169E-1,4.450313E-1,-4.5324292E-2,7.682801E-1,1.0282418E-1,-1.6706747E-1,6.8064666E-1,1.5129408E-1,-1.5637212E-1,-6.6266805E-1,-3.6483128E-2,-5.864557E-1,-2.934717E-1,-6.0033906E-1],"categories":[],"categories_nodes":[],"categories_segments":[],"categories_sizes":[],"default_left":[0,0,0,0,0,0,0,0,0,0,0,0,0,0,0,0,0,0,0,0,0,0,0,0,0,0,0,0,0,0,0,0,0,0,0,0,0,0,0,0,0,0,0,0,0,0,0,0,0,0,0,0,0,0,0,0,0],"id":8,"left_children":[1,7,3,-1,5,-1,11,9,-1,-1,17,51,13,15,53,-1,-1,21,19,25,-1,23,49,29,-1,27,55,43,-1,33,31,35,41,37,39,-1,-1,-1,-1,-1,-1,-1,-1,47,45,-1,-1,-1,-1,-1,-1,-1,-1,-1,-1,-1,-1],"loss_changes":[2.0889134E0,4.0814815E0,4.895541E0,0E0,4.2040963E0,0E0,2.2442193E0,2.8972232E0,0E0,0E0,1.7500483E0,1.6385255E0,3.7600417E0,3.8553598E0,1.6084301E0,0E0,0E0,5.0106025E0,5.411602E0,3.1902683E0,0E0,5.0811415E0,2.1011758E0,2.9074214E0,0E0,4.1214848E0,4.3836665E-1,2.8335483E0,0E0,5.859161E0,7.3925867E0,5.5615044E0,3.0785627E0,4.14368E0,3.66014E0,0E0,0E0,0E0,0E0,0E0,0E0,0E0,0E0,2.2282329E0,3.9791164E0,0E0,0E0,0E0,0E0,0E0,0E0,0E0,0E0,0E0,0E0,0E0,0E0],"parents":[2147483647,0,0,2,2,4,4,1,1,7,7,6,6,12,12,13,13,10,10,18,18,17,17,21,21,19,19,25,25,23,23,30,30,29,29,31,31,33,33,34,34,32,32,27,27,44,44,43,43,22,22,11,11,14,14,26,26],"right_children":[2,8,4,-1,6,-1,12,10,-1,-1,18,52,14,16,54,-1,-1,22,20,26,-1,24,50,30,-1,28,56,44,-1,34,32,36,42,38,40,-1,-1,-1,-1,-1,-1,-1,-1,48,46,-1,-1,-1,-1,-1,-1,-1,-1,-1,-1,-1,-1],"split_conditions":[8.415251E-1,3.410267E0,-2.992632E-1,3.7606618E-1,9.807394E-1,-8.261797E-1,1.6261439E-1,-1.4187033E0,5.10605E-1,-4.1541436E-1,1.0830002E0,-4.9733868E-1,-6.599738E-1,-6.755864E-1,-5.477836E-2,6.593319E-1,-1.9746003E-1,9.625986E-1,-1.7095874E-1,1.3486027E0,-7.2737825E-1,9.5880044E-1,6.319704E-1,-4.5373565E-1,-5.513288E-1,3.6358218E0,1.1128134E0,1.5067239E0,4.9734613E-1,-5.2714217E-1,-1.7095874E-1,1.3327196E-1,-3.0238643E-1,-5.347547E-1,-4.053788E-1,-1.5929257E-3,5.250055E-1,-1.449457E-2,5.271006E-1,1.0009551E-1,-4.5560303E-1,8.634215E-1,2.679738E-1,-5.053041E-1,-2.2724937E-1,-4.5324292E-2,7.682801E-1,1.0282418E-1,-1.6706747E-1,6.8064666E-1,1.5129408E-1,-1.5637212E-1,-6.6266805E-1,-3.6483128E-2,-5.864557E-1,-2.934717E-1,-6.0033906E-1],"split_indices":[11,4,8,0,11,0,6,6,0,0,3,4,3,10,13,0,0,3,0,6,0,3,13,10,0,10,10,5,0,10,0,11,8,10,7,0,0,0,0,0,0,0,0,4,0,0,0,0,0,0,0,0,0,0,0,0,0],"split_type":[0,0,0,0,0,0,0,0,0,0,0,0,0,0,0,0,0,0,0,0,0,0,0,0,0,0,0,0,0,0,0,0,0,0,0,0,0,0,0,0,0,0,0,0,0,0,0,0,0,0,0,0,0,0,0,0,0],"sum_hessian":[5.201683E2,4.8965872E2,3.0509546E1,4.669522E0,2.5840025E1,3.6507201E0,2.2189304E1,4.8476135E2,4.8973875E0,5.753307E0,4.7900803E2,8.344874E0,1.3844431E1,6.9066114E0,6.9378195E0,3.7974672E0,3.109144E0,4.0134048E2,7.766754E1,7.360254E1,4.065006E0,3.9156543E2,9.775071E0,3.8613995E2,5.4254813E0,6.752142E1,6.0811133E0,6.277675E1,4.7446775E0,2.6411658E2,1.2202337E2,1.1026109E2,1.1762278E1,2.4327534E2,2.0841223E1,1.0329107E2,6.970022E0,2.3858572E2,4.6896234E0,5.111626E0,1.5729596E1,4.732024E0,7.0302534E0,5.4362476E1,8.414272E0,5.318782E0,3.0954905E0,1.3128475E1,4.1234E1,4.787492E0,4.9875793E0,4.345363E0,3.9995112E0,3.3475924E0,3.590227E0,3.041869E0,3.0392444E0],"tree_param":{"num_deleted":"0","num_feature":"19","num_nodes":"57","size_leaf_vector":"1"}},{"base_weights":[-1.7623864E-2,-4.4197994E-1,-7.990077E-3,-1.4189105E-1,-6.960145E-1,2.0524466E-1,-3.175388E-1,2.0578193E-2,-9.591944E-2,4.4823377E-3,6.128237E-1,-7.4420914E-2,-4.932354E-1,-1.535796E-1,3.111052E-1,-9.060802E-2,-8.782702E-1,6.7880355E-2,-2.549811E-1,-5.4803737E-2,6.31818E-1,-1.8755849E-1,3.9645097E-1,-1.6982144E-2,-6.2539285E-1,-5.1113605E-1,-1.1209444E-2,-9.198982E-2,-1.0703598E0,-5.620681E-1,1.4936475E-1,2.5829768E-1,-4.374339E-1,2.8106408E-2,7.1761197E-1,4.7073942E-1,-2.6336524E-1,-2.051964E-1,3.300207E-1,1.3663236E-2,-3.2002753E-1,-7.319772E-1,-1.7570075E-1,-3.2412123E-2,1.20716475E-1,4.192595E-1,2.9668378E-2,-2.5945574E-1,2.645598E-1,1.7314352E-1,1.1333038E0,1.1669947E0,1.02106266E-1,5.5192083E-1,-4.313444E-2,-1.6757917E-1,4.5586878E-1,-1.5087469E-1,4.0148717E-1,5.9323597E-1,-1.757065E-3,-1.3416855E-1,-8.669024E-1,-1.9698669E-1,4.0475386E-1,-4.7424373E-1,1.2162653E-1,5.4324764E-1,-5.0673645E-2,6.0572344E-1,-1.3159163E-1,7.070083E-2,-1.3355361E-1,-8.5805964E-1,-3.4536675E-2,-8.442719E-2,5.1428795E-1,1.3523921E-1,-9.5052265E-2,5.1442266E-1,5.04388E-2,-9.804892E-3,-3.7968484E-1,-6.0565996E-1,-2.4060513E-1,-4.5312425E-1,-9.044908E-1,6.474338E-1,1.9988042E-1,1.5568128E-1,4.9620083E-1,-4.1601387E-1,-5.6669605E-1,3.291467E-1,2.0470053E-1],"categories":[],"categories_nodes":[],"categories_segments":[],"categories_sizes":[],"default_left":[0,0,0,0,0,0,0,0,0,0,0,0,0,0,0,0,0,0,0,0,0,0,0,0,0,0,0,0,0,0,0,0,0,0,0,0,0,0,0,0,0,0,0,0,0,0,0,0,0,0,0,0,0,0,0,0,0,0,0,0,0,0,0,0,0,0,0,0,0,0,0,0,0,0,0,0,0,0,0,0,0,0,0,0,0,0,0,0,0,0,0,0,0,0,0],"id":9,"left_children":[1,3,7,5,-1,-1,-1,9,11,39,-1,13,-1,15,33,17,41,19,25,21,89,23,-1,-1,-1,27,29,37,85,-1,31,-1,-1,35,87,93,-1,-1,-1,43,-1,-1,-1,67,45,49,47,61,53,59,51,-1,-1,57,55,-1,-1,-1,-1,-1,65,63,91,-1,-1,-1,-1,69,71,-1,-1,75,73,83,77,81,79,-1,-1,-1,-1,-1,-1,-1,-1,-1,-1,-1,-1,-1,-1,-1,-1,-1,-1],"loss_changes":[2.0646307E0,2.6156464E0,1.240766E0,1.6827754E0,0E0,0E0,0E0,6.3199954E0,2.0004377E0,1.9053298E0,0E0,3.59584E0,0E0,4.4605017E0,2.3083172E0,2.3433871E0,1.8018198E0,3.1685658E0,2.7568197E0,3.7420523E0,6.97577E-1,4.579282E0,0E0,0E0,0E0,5.0454564E0,3.5390084E0,2.2078347E0,1.3094883E0,0E0,5.396314E0,0E0,0E0,2.565023E0,1.2604728E0,7.3066235E-2,0E0,0E0,0E0,1.7822384E0,0E0,0E0,0E0,2.6548858E0,2.954843E0,4.4636774E0,5.6581564E0,2.8412519E0,4.065116E0,2.8645582E0,5.665018E0,0E0,0E0,2.9445505E0,4.68321E0,0E0,0E0,0E0,0E0,0E0,2.8027287E0,5.5118256E0,1.0960674E-1,0E0,0E0,0E0,0E0,3.1153762E0,2.4628534E0,0E0,0E0,6.8360367E0,1.0436142E1,1.5512877E0,4.589598E0,2.8747277E0,4.2445803E0,0E0,0E0,0E0,0E0,0E0,0E0,0E0,0E0,0E0,0E0,0E0,0E0,0E0,0E0,0E0,0E0,0E0,0E0],"parents":[2147483647,0,0,1,1,3,3,2,2,7,7,8,8,11,11,13,13,15,15,17,17,19,19,21,21,18,18,25,25,26,26,30,30,14,14,33,33,27,27,9,9,16,16,39,39,44,44,46,46,45,45,50,50,48,48,54,54,53,53,49,49,47,47,61,61,60,60,43,43,67,67,68,68,72,72,71,71,74,74,76,76,75,75,73,73,28,28,34,34,20,20,62,62,35,35],"right_children":[2,4,8,6,-1,-1,-1,10,12,40,-1,14,-1,16,34,18,42,20,26,22,90,24,-1,-1,-1,28,30,38,86,-1,32,-1,-1,36,88,94,-1,-1,-1,44,-1,-1,-1,68,46,50,48,62,54,60,52,-1,-1,58,56,-1,-1,-1,-1,-1,66,64,92,-1,-1,-1,-1,70,72,-1,-1,76,74,84,78,82,80,-1,-1,-1,-1,-1,-1,-1,-1,-1,-1,-1,-1,-1,-1,-1,-1,-1,-1],"split_conditions":[-1.4282758E0,-6.375238E-1,6.8609285E-1,-1.5999631E0,-6.960145E-1,2.0524466E-1,-3.175388E-1,6.7052037E-1,-4.028916E-1,7.523059E-1,6.128237E-1,-4.7571826E-1,-4.932354E-1,-4.848216E-1,8.036576E-1,-2.1599124E-1,-2.2724937E-1,1.790872E0,4.9239925E-1,-4.9051118E-1,-3.3583507E-1,-2.216203E-1,3.9645097E-1,-1.6982144E-2,-6.2539285E-1,1.1563046E0,5.902679E-1,-1.9910406E-1,-3.231407E-1,-5.620681E-1,1.4987522E-1,2.5829768E-1,-4.374339E-1,4.9239925E-1,-2.52415E-1,-3.3170435E-1,-2.6336524E-1,-2.051964E-1,3.300207E-1,5.579438E-1,-3.2002753E-1,-7.319772E-1,-1.7570075E-1,-7.9956186E-1,-3.1558454E-1,1.16908826E-1,-2.0473312E-1,2.2976041E-1,-1.6763297E-1,-7.283303E-1,4.9239925E-1,1.1669947E0,1.02106266E-1,-2.7599022E-1,2.88596E-1,-1.6757917E-1,4.5586878E-1,-1.5087469E-1,4.0148717E-1,5.9323597E-1,-9.1321427E-1,-4.3512297E-1,4.9239925E-1,-1.9698669E-1,4.0475386E-1,-4.7424373E-1,1.2162653E-1,-8.156982E-1,-6.280444E-1,6.0572344E-1,-1.3159163E-1,-6.136363E-1,-4.996145E-1,4.602832E-1,-4.3361536E-1,6.319704E-1,-5.0189036E-1,1.3523921E-1,-9.5052265E-2,5.1442266E-1,5.04388E-2,-9.804892E-3,-3.7968484E-1,-6.0565996E-1,-2.4060513E-1,-4.5312425E-1,-9.044908E-1,6.474338E-1,1.9988042E-1,1.5568128E-1,4.9620083E-1,-4.1601387E-1,-5.6669605E-1,3.291467E-1,2.0470053E-1],"split_indices":[13,10,3,13,0,0,0,3,4,10,0,4,0,4,13,0,0,10,2,4,8,0,0,0,0,3,10,0,8,0,8,0,0,2,8,8,0,0,0,6,0,0,0,10,8,13,0,10,1,10,2,0,0,8,13,0,0,0,0,0,13,3,2,0,0,0,0,3,6,0,0,3,4,13,4,13,4,0,0,0,0,0,0,0,0,0,0,0,0,0,0,0,0,0,0],"split_type":[0,0,0,0,0,0,0,0,0,0,0,0,0,0,0,0,0,0,0,0,0,0,0,0,0,0,0,0,0,0,0,0,0,0,0,0,0,0,0,0,0,0,0,0,0,0,0,0,0,0,0,0,0,0,0,0,0,0,0,0,0,0,0,0,0,0,0,0,0,0,0,0,0,0,0,0,0,0,0,0,0,0,0,0,0,0,0,0,0,0,0,0,0,0,0],"sum_hessian":[5.0512244E2,1.1210811E1,4.9391162E2,8.090573E0,3.1202364E0,3.6603148E0,4.430259E0,3.7278415E2,1.2112747E2,3.6717477E2,5.6093707E0,1.1783232E2,3.2951505E0,9.776154E1,2.0070782E1,8.994685E1,7.8146877E0,4.5790466E1,4.4156384E1,3.7607468E1,8.183E0,3.1950289E1,5.6571784E0,2.722287E1,4.7274203E0,2.1529583E1,2.26268E1,1.2306917E1,9.222666E0,3.203501E0,1.94233E1,1.4592229E1,4.831071E0,1.1834237E1,8.236545E0,6.2165937E0,5.617644E0,8.796434E0,3.510483E0,3.6130893E2,5.8658504E0,4.5708485E0,3.243839E0,2.5258788E2,1.0872105E2,2.5406075E1,8.331497E1,3.734452E1,4.597045E1,1.8894686E1,6.5113897E0,3.3292298E0,3.1821601E0,2.3772089E1,2.2198362E1,1.7108696E1,5.0896664E0,3.7246814E0,2.0047407E1,3.1740084E0,1.5720677E1,3.0960312E1,6.3842096E0,2.4764782E1,6.1955295E0,3.2361157E0,1.2484562E1,7.7649612E0,2.448229E2,4.6509514E0,3.1140099E0,9.9337135E1,1.4548578E2,1.7491549E1,1.2799423E2,7.359728E1,2.5739847E1,4.187457E1,8.611967E1,1.3480041E1,1.2259807E1,6.596421E1,7.6330757E0,1.1929233E1,5.5623155E0,6.0032916E0,3.2193744E0,3.8559413E0,4.380604E0,3.26224E0,4.92076E0,3.055929E0,3.328281E0,3.1880505E0,3.028543E0],"tree_param":{"num_deleted":"0","num_feature":"19","num_nodes":"95","size_leaf_vector":"1"}},{"base_weights":[-1.179699E-2,-5.2937184E-2,1.467716E-1,3.3808565E-1,-4.9657486E-2,-4.7285795E-1,3.2182418E-2,1.3626328E-1,5.931962E-1,1.383627E-3,6.460996E-1,1.8258101E-1,-4.1323453E-1,4.9327603E-1,-3.723675E-1,-1.4947316E-1,8.083339E-1,-5.548649E-1,1.557887E-1,3.2900494E-1,-1.6017242E-1,-1.6898696E-1,6.518932E-1,1.0804971E0,1.8844986E-1,5.176802E-1,-2.8800297E-1,2.616845E-1,-3.2368898E-1,-3.5611965E-2,-3.7347025E-1,-6.21726E-1,3.3329996E-1,-1.8562345E-1,-1.0926342E0,-4.68933E-1,4.240651E-1,-8.644816E-3,-3.0760595E-1,-8.2554054E-1,1.0537416E-3,-4.2154375E-2,2.1951027E-1,1.2292491E-1,6.648934E-1,-3.601383E-1,3.1641153E-1,2.3380587E-2,-2.1100333E-1,-6.0596275E-1,-1.6152821E-1,4.4932467E-1,-2.5185046E-1,-1.2012144E-1,7.595079E-1,-1.7540972E-1,-6.7523056E-1,8.592595E-1,3.18602E-1,6.8109316E-1,1.18498355E-1,9.323533E-1,3.258196E-1,7.008596E-1,-1.6542871E-1,5.807579E-1,8.933645E-1,3.615438E-1,-1.4622681E-1,-4.3402318E-2,-3.643254E-1,-3.1552836E-1,3.6516342E-1,-5.0481968E-2,-5.204587E-1,3.1416935E-1,-2.4151099E-1,-1.595709E-1,-7.109033E-1,-6.019377E-1,4.0761057E-2,1.6500866E-1,6.90102E-1,-1.0675414E-1,-6.6454196E-1,-3.5046795E-1,3.6441866E-1,-6.2430286E-1,-9.3885034E-2,-4.24354E-1,4.5570605E-3,-3.53589E-2,1.5015064E-1,4.815802E-2,-3.5247114E-1,-1.0969247E0,1.0728217E-2,3.5803667E-1,-1.1113185E-1,2.3948823E-1,-2.6421577E-1,-6.4730453E-1,1.1829968E-1,1.5006179E-1,7.4090403E-1,1.7574926E-1,-3.981658E-1,7.818719E-1,1.6531362E-1,-3.5505924E-1,7.179159E-2,6.722282E-2,-1.9134165E-1,-4.3717965E-1,-2.504291E-3,-2.4386951E-1,3.2109743E-1,-4.2976096E-1,5.968449E-2,6.2080406E-2,-3.5809425E-1,-2.4287473E-1,6.027317E-2,2.381293E-1,-1.8961771E-1,5.2961123E-1,1.1883086E-1,-2.1044865E-1,1.0700694E-1,-4.9963763E-1,-7.4405384E-1,-5.252763E-1,-6.9571126E-1],"categories":[],"categories_nodes":[],"categories_segments":[],"categories_sizes":[],"default_left":[0,0,0,0,0,0,0,0,0,0,0,0,0,0,0,0,0,0,0,0,0,0,0,0,0,0,0,0,0,0,0,0,0,0,0,0,0,0,0,0,0,0,0,0,0,0,0,0,0,0,0,0,0,0,0,0,0,0,0,0,0,0,0,0,0,0,0,0,0,0,0,0,0,0,0,0,0,0,0,0,0,0,0,0,0,0,0,0,0,0,0,0,0,0,0,0,0,0,0,0,0,0,0,0,0,0,0,0,0,0,0,0,0,0,0,0,0,0,0,0,0,0,0,0,0,0,0,0,0,0,0,0,0],"id":10,"left_children":[1,29,3,7,5,-1,19,9,61,11,-1,13,-1,15,17,-1,59,-1,-1,21,27,-1,23,-1,25,-1,-1,-1,83,37,31,33,-1,35,129,-1,-1,41,39,55,67,47,43,45,-1,89,51,91,49,-1,69,53,-1,127,57,-1,-1,-1,-1,-1,-1,65,63,81,-1,125,-1,-1,113,71,77,73,75,-1,-1,-1,-1,121,79,-1,-1,-1,-1,85,87,119,-1,-1,-1,-1,-1,93,99,109,95,131,97,-1,-1,103,101,-1,123,105,107,-1,-1,-1,-1,-1,111,-1,-1,-1,115,117,-1,-1,-1,-1,-1,-1,-1,-1,-1,-1,-1,-1,-1,-1,-1,-1,-1],"loss_changes":[3.1331828E0,2.1174712E0,3.7183082E0,2.5800986E0,3.1129937E0,0E0,2.522203E0,3.759014E0,2.0063825E0,3.2404127E0,0E0,3.4010978E0,0E0,3.0096018E0,2.742078E0,0E0,2.0643864E0,0E0,0E0,3.5068874E0,2.7117233E0,0E0,6.590928E0,0E0,4.1575055E0,0E0,0E0,0E0,1.5669603E0,2.6535625E0,4.6485023E0,3.187934E0,0E0,4.764912E0,3.405161E-1,0E0,0E0,2.516521E0,5.217659E0,2.2582445E0,1.9053594E0,3.1762288E0,3.8493342E0,3.57476E0,0E0,1.5449616E0,2.7506993E0,1.5397699E0,3.3779902E0,0E0,1.8166419E0,4.1047344E0,0E0,6.270234E-1,2.2566137E0,0E0,0E0,0E0,0E0,0E0,0E0,2.170865E0,2.8592544E0,1.6097622E0,0E0,8.111017E-1,0E0,0E0,1.4770169E0,5.329179E0,1.9802413E0,3.8966334E0,2.8016033E0,0E0,0E0,0E0,0E0,1.2387128E0,2.7908301E0,0E0,0E0,0E0,0E0,2.3536046E0,1.7696488E0,1.2432783E0,0E0,0E0,0E0,0E0,0E0,3.7422698E0,2.4237657E0,1.7715026E0,7.965529E0,2.065754E-1,2.5094373E0,0E0,0E0,2.414484E0,3.8659177E0,0E0,1.0868514E0,6.1216736E0,2.3131852E0,0E0,0E0,0E0,0E0,0E0,2.0239043E0,0E0,0E0,0E0,1.8366609E0,1.6753353E0,0E0,0E0,0E0,0E0,0E0,0E0,0E0,0E0,0E0,0E0,0E0,0E0,0E0,0E0,0E0,0E0,0E0],"parents":[2147483647,0,0,2,2,4,4,3,3,7,7,9,9,11,11,13,13,14,14,6,6,19,19,22,22,24,24,20,20,1,1,30,30,31,31,33,33,29,29,38,38,37,37,42,42,43,43,41,41,48,48,46,46,51,51,39,39,54,54,16,16,8,8,62,62,61,61,40,40,50,50,69,69,71,71,72,72,70,70,78,78,63,63,28,28,83,83,84,84,45,45,47,47,91,91,94,94,96,96,92,92,100,100,99,99,103,103,104,104,93,93,110,110,68,68,114,114,115,115,85,85,77,77,102,102,65,65,53,53,34,34,95,95],"right_children":[2,30,4,8,6,-1,20,10,62,12,-1,14,-1,16,18,-1,60,-1,-1,22,28,-1,24,-1,26,-1,-1,-1,84,38,32,34,-1,36,130,-1,-1,42,40,56,68,48,44,46,-1,90,52,92,50,-1,70,54,-1,128,58,-1,-1,-1,-1,-1,-1,66,64,82,-1,126,-1,-1,114,72,78,74,76,-1,-1,-1,-1,122,80,-1,-1,-1,-1,86,88,120,-1,-1,-1,-1,-1,94,100,110,96,132,98,-1,-1,104,102,-1,124,106,108,-1,-1,-1,-1,-1,112,-1,-1,-1,116,118,-1,-1,-1,-1,-1,-1,-1,-1,-1,-1,-1,-1,-1,-1,-1,-1,-1],"split_conditions":[1.0688272E-3,-2.731691E-1,8.2521105E-1,-5.698399E-1,-3.3402157E-1,-4.7285795E-1,-2.3271503E-1,-4.9397328E-1,1.2914664E0,4.5763656E-1,6.460996E-1,1.5067239E0,-4.1323453E-1,-3.3069685E-1,-3.0760813E-1,-1.4947316E-1,-8.00005E-2,-5.548649E-1,1.557887E-1,-3.618403E-1,9.5515914E-2,-1.6898696E-1,-2.7170798E-1,1.0804971E0,-5.698399E-1,5.176802E-1,-2.8800297E-1,2.616845E-1,-1.5407155E-1,-2.1500187E-1,2.88596E-1,-6.5927386E-1,3.3329996E-1,7.3948435E-2,-2.6924005E-1,-4.68933E-1,4.240651E-1,-2.375021E-1,-2.2724937E-1,-4.007958E-1,-3.889564E-1,-2.1036218E-1,2.9734784E-1,-7.1310526E-1,6.648934E-1,-2.0778325E-1,1.8337806E0,-4.8823535E-1,-6.793927E-1,-6.0596275E-1,6.136492E-1,8.2521105E-1,-2.5185046E-1,-5.51611E-1,-5.9511113E-1,-1.7540972E-1,-6.7523056E-1,8.592595E-1,3.18602E-1,6.8109316E-1,1.18498355E-1,1.6065535E-1,-1.9074164E-1,-3.5420197E-1,-1.6542871E-1,-1.9176418E-1,8.933645E-1,3.615438E-1,-3.457998E-1,-4.5373565E-1,-2.3237056E-1,-6.523775E-1,-4.8709744E-1,-5.0481968E-2,-5.204587E-1,3.1416935E-1,-2.4151099E-1,-4.9051118E-1,1.0801883E0,-6.019377E-1,4.0761057E-2,1.6500866E-1,6.90102E-1,5.6984764E-2,4.0434653E-1,-2.4579166E-1,3.6441866E-1,-6.2430286E-1,-9.3885034E-2,-4.24354E-1,4.5570605E-3,-4.9733868E-1,6.136492E-1,-7.9956186E-1,3.3687952E-1,-3.9815274E-1,-2.3271503E-1,3.5803667E-1,-1.1113185E-1,-1.1759708E-1,4.602832E-1,-6.4730453E-1,-2.720899E-1,-4.363356E-1,-3.163905E-1,1.7574926E-1,-3.981658E-1,7.818719E-1,1.6531362E-1,-3.5505924E-1,2.4980342E0,6.722282E-2,-1.9134165E-1,-4.3717965E-1,8.234909E-2,-7.201741E-1,3.2109743E-1,-4.2976096E-1,5.968449E-2,6.2080406E-2,-3.5809425E-1,-2.4287473E-1,6.027317E-2,2.381293E-1,-1.8961771E-1,5.2961123E-1,1.1883086E-1,-2.1044865E-1,1.0700694E-1,-4.9963763E-1,-7.4405384E-1,-5.252763E-1,-6.9571126E-1],"split_indices":[4,4,12,13,8,0,6,10,4,1,0,5,0,8,7,0,1,0,0,7,4,0,7,0,13,0,0,0,0,1,13,10,0,1,8,0,0,1,0,7,7,0,7,10,0,8,13,4,10,0,10,12,0,10,10,0,0,0,0,0,0,8,7,7,0,8,0,0,7,10,7,3,4,0,0,0,0,4,10,0,0,0,0,8,1,1,0,0,0,0,0,4,10,10,10,13,6,0,0,3,13,0,7,10,8,0,0,0,0,0,15,0,0,0,0,10,0,0,0,0,0,0,0,0,0,0,0,0,0,0,0,0,0],"split_type":[0,0,0,0,0,0,0,0,0,0,0,0,0,0,0,0,0,0,0,0,0,0,0,0,0,0,0,0,0,0,0,0,0,0,0,0,0,0,0,0,0,0,0,0,0,0,0,0,0,0,0,0,0,0,0,0,0,0,0,0,0,0,0,0,0,0,0,0,0,0,0,0,0,0,0,0,0,0,0,0,0,0,0,0,0,0,0,0,0,0,0,0,0,0,0,0,0,0,0,0,0,0,0,0,0,0,0,0,0,0,0,0,0,0,0,0,0,0,0,0,0,0,0,0,0,0,0,0,0,0,0,0,0],"sum_hessian":[4.8030096E2,3.8136285E2,9.893811E1,5.012387E1,4.8814243E1,4.641444E0,4.4172802E1,2.7986582E1,2.2137287E1,2.4649609E1,3.3369749E0,1.9725079E1,4.9245286E0,1.2646391E1,7.078688E0,3.7218494E0,8.924541E0,3.6688433E0,3.4098449E0,1.7371439E1,2.6801361E1,5.9154496E0,1.145599E1,3.1130342E0,8.342956E0,4.0963836E0,4.246572E0,5.600856E0,2.1200504E1,3.618093E2,1.9553556E1,1.55286875E1,4.0248685E0,8.063246E0,7.465442E0,4.785959E0,3.2772865E0,3.2917593E2,3.2633347E1,1.2186707E1,2.044664E1,2.87024E2,4.215196E1,3.824693E1,3.90503E0,1.093697E1,2.730996E1,2.067669E2,8.025708E1,4.408686E0,7.58484E1,2.3235695E1,4.0742645E0,8.19261E0,1.5043085E1,4.979456E0,7.20725E0,3.1923006E0,1.1850785E1,5.435899E0,3.4886427E0,9.757296E0,1.2379991E1,7.694688E0,4.6853027E0,6.275049E0,3.4822469E0,3.8625698E0,1.658407E1,4.7932682E1,2.7915712E1,2.8771488E1,1.9161196E1,2.0841282E1,7.9302053E0,1.5513478E1,3.6477177E0,1.7549906E1,1.0365807E1,7.2004867E0,3.1653202E0,4.253486E0,3.441202E0,1.2956752E1,8.243753E0,9.765207E0,3.1915443E0,4.433145E0,3.8106081E0,5.357258E0,5.579712E0,1.4129185E2,6.547504E1,1.1183538E2,2.9456478E1,9.659557E0,1.979692E1,4.9486403E0,1.4848281E1,5.3864017E1,1.1611022E1,3.5460155E0,8.065007E0,4.5712933E1,8.151082E0,3.8535206E1,7.1777267E0,3.402622E0,4.7484603E0,3.8068953E0,1.0802849E2,9.7059265E1,1.0969224E1,3.1199305E0,1.3464139E1,9.436307E0,4.027832E0,3.8344464E0,5.601861E0,3.673681E0,6.0915265E0,8.762038E0,8.787868E0,4.849021E0,3.2159863E0,3.2456067E0,3.0294423E0,4.5319138E0,3.6606958E0,3.6858397E0,3.7796028E0,3.9598067E0,5.699751E0],"tree_param":{"num_deleted":"0","num_feature":"19","num_nodes":"133","size_leaf_vector":"1"}},{"base_weights":[-2.4331173E-2,-2.7847686E-1,2.662396E-3,-3.6474976E-1,2.6522234E-1,2.8401988E-2,-2.297566E-1,-6.1857665E-1,-1.4919014E-1,2.749556E-1,-2.8667802E-1,5.986464E-1,-1.0240764E-1,5.2576467E-2,-1.5204234E-1,9.1948354E-4,2.5753257E-1,-3.0755797E-1,2.4845931E-1,-5.608576E-1,2.0586294E-1,7.435961E-1,-4.114017E-1,-7.813002E-1,-3.912251E-1,-1.37126725E-2,3.8215432E-1,7.193137E-1,1.7696948E-1,-5.8763933E-1,2.7442056E-1,-2.1138005E-2,5.5442476E-1,4.143289E-1,8.4542763E-1,3.0299234E-1,-3.982982E-1,6.835626E-1,6.2441576E-2,1.434649E-1,-4.214752E-1,4.5364815E-1,7.738185E-2,-5.65268E-1,2.0531183E-1,-4.0376745E-2,-1.0237015E0,-9.583638E-1,-3.1980005E-1,2.4327363E-1,-4.831657E-2,5.11273E-1,-1.686355E-1,3.063711E-1,7.063402E-1,4.307328E-1,-2.6495168E-1,-4.8541972E-1,2.2487646E-1,-6.9776434E-1,1.0455538E-1,3.0124974E-2,4.904551E-1,-4.5658934E-1,-1.7684169E-1,-2.0826739E-1,-4.187909E-3,-5.9848152E-2,-1.0187606E0,2.4158362E-2,-3.892312E-1,-2.6147723E-1,4.8456196E-2,-4.3464506E-1,1.2952211E-2,5.055721E-1,1.2794297E-2,-8.142369E-1,-2.7589694E-1,-2.5276873E-1,-7.180754E-1,-1.051292E-1,-4.9711272E-1,9.0638794E-2,-5.318597E-1,3.6122933E-1,-2.405094E-1,7.9310596E-1,-8.6289756E-2,-4.356725E-1,2.1320511E-1,-1.0533305E0,-5.417713E-2,-2.1560775E-2,-5.829324E-1,-3.462504E-1,-3.54634E-2,-3.26163E-1,2.166605E-1,5.344237E-1,-2.068461E-1,6.9072944E-1,1.7266992E-1,4.0949974E-2,3.3668026E-1,-2.2687384E-1,2.781329E-1,1.6718182E-1,-2.3747186E-1,-5.0976115E-1,-1.4717574E-1,4.403832E-1,1.2572603E-1,-7.1915704E-1,-4.837327E-1],"categories":[],"categories_nodes":[],"categories_segments":[],"categories_sizes":[],"default_left":[0,0,0,0,0,0,0,0,0,0,0,0,0,0,0,0,0,0,0,0,0,0,0,0,0,0,0,0,0,0,0,0,0,0,0,0,0,0,0,0,0,0,0,0,0,0,0,0,0,0,0,0,0,0,0,0,0,0,0,0,0,0,0,0,0,0,0,0,0,0,0,0,0,0,0,0,0,0,0,0,0,0,0,0,0,0,0,0,0,0,0,0,0,0,0,0,0,0,0,0,0,0,0,0,0,0,0,0,0,0,0,0,0,0,0],"id":11,"left_children":[1,3,5,79,-1,13,7,-1,9,11,63,-1,-1,15,17,25,27,19,103,23,21,101,-1,-1,43,49,-1,37,29,109,31,35,33,41,-1,61,39,-1,-1,-1,-1,-1,-1,45,-1,107,47,-1,-1,51,65,53,57,55,-1,-1,-1,59,-1,-1,-1,-1,-1,-1,95,67,71,69,77,-1,-1,73,75,-1,-1,-1,-1,-1,-1,81,91,83,-1,85,93,87,-1,-1,89,-1,-1,113,-1,-1,-1,-1,97,-1,99,111,-1,-1,-1,105,-1,-1,-1,-1,-1,-1,-1,-1,-1,-1,-1],"loss_changes":[3.1637702E0,2.8393695E0,2.49362E0,1.5689411E0,0E0,1.6370192E0,2.8595123E0,0E0,2.2147372E0,3.271223E0,1.6169953E0,0E0,0E0,3.503819E0,2.7614224E0,2.5875456E0,2.4776754E0,4.15359E0,8.7833405E-1,2.9313455E0,5.258035E0,1.3735807E0,0E0,0E0,2.310988E0,2.3002198E0,0E0,2.8874679E0,4.226484E0,6.453395E-1,4.1643543E0,2.9922252E0,3.3548746E0,2.3811727E0,0E0,1.8320352E0,2.5024147E0,0E0,0E0,0E0,0E0,0E0,0E0,3.4528832E0,0E0,8.385781E-1,2.3256588E0,0E0,0E0,3.3888278E0,1.6090391E0,2.767655E0,2.1567857E0,5.015321E0,0E0,0E0,0E0,3.8183727E0,0E0,0E0,0E0,0E0,0E0,0E0,1.4359632E0,5.928767E0,2.4205317E0,2.6501186E0,1.6652813E0,0E0,0E0,4.316025E0,3.233769E0,0E0,0E0,0E0,0E0,0E0,0E0,2.750174E0,1.9933124E0,2.0323777E0,0E0,2.310498E0,1.850456E0,5.0239606E0,0E0,0E0,2.3684423E0,0E0,0E0,2.6230097E-1,0E0,0E0,0E0,0E0,2.4044497E0,0E0,2.2262044E0,5.815239E-1,0E0,0E0,0E0,1.5107638E0,0E0,0E0,0E0,0E0,0E0,0E0,0E0,0E0,0E0,0E0,0E0],"parents":[2147483647,0,0,1,1,2,2,6,6,8,8,9,9,5,5,13,13,14,14,17,17,20,20,19,19,15,15,16,16,28,28,30,30,32,32,31,31,27,27,36,36,33,33,24,24,43,43,46,46,25,25,49,49,51,51,53,53,52,52,57,57,35,35,10,10,50,50,65,65,67,67,66,66,71,71,72,72,68,68,3,3,79,79,81,81,83,83,85,85,88,88,80,80,84,84,64,64,96,96,98,98,21,21,18,18,103,103,45,45,29,29,99,99,91,91],"right_children":[2,4,6,80,-1,14,8,-1,10,12,64,-1,-1,16,18,26,28,20,104,24,22,102,-1,-1,44,50,-1,38,30,110,32,36,34,42,-1,62,40,-1,-1,-1,-1,-1,-1,46,-1,108,48,-1,-1,52,66,54,58,56,-1,-1,-1,60,-1,-1,-1,-1,-1,-1,96,68,72,70,78,-1,-1,74,76,-1,-1,-1,-1,-1,-1,82,92,84,-1,86,94,88,-1,-1,90,-1,-1,114,-1,-1,-1,-1,98,-1,100,112,-1,-1,-1,106,-1,-1,-1,-1,-1,-1,-1,-1,-1,-1,-1],"split_conditions":[-3.750652E-1,1.5520493E0,3.8935527E-1,2.88596E-1,2.6522234E-1,1.157678E-1,-5.053041E-1,-6.1857665E-1,-1.5484148E-1,-4.9506286E-1,6.0941428E-2,5.986464E-1,-1.0240764E-1,-7.425707E-2,1.3950558E0,8.337296E-3,-3.2951346E-1,-2.4460743E-1,-5.477836E-2,1.9161916E-1,6.0818744E-1,-2.3631787E-1,-4.114017E-1,-7.813002E-1,-3.5991946E-1,-3.675927E-1,3.8215432E-1,-6.978802E-1,-2.9670596E-1,-6.930178E-1,2.88596E-1,1.6261439E-1,-2.2423868E-1,4.9239925E-1,8.4542763E-1,-6.097924E-1,8.2521105E-1,6.835626E-1,6.2441576E-2,1.434649E-1,-4.214752E-1,4.5364815E-1,7.738185E-2,-6.599738E-1,2.0531183E-1,-6.7721766E-1,-5.9511113E-1,-9.583638E-1,-3.1980005E-1,8.2521105E-1,-3.5065153E-1,1.0709445E0,2.88596E-1,-6.269299E-1,7.063402E-1,4.307328E-1,-2.6495168E-1,-2.4579166E-1,2.2487646E-1,-6.9776434E-1,1.0455538E-1,3.0124974E-2,4.904551E-1,-4.5658934E-1,-8.691195E-2,6.319704E-1,-5.0189036E-1,-3.5367125E-1,-3.3281463E-1,2.4158362E-2,-3.892312E-1,8.2521105E-1,-4.9677435E-1,-4.3464506E-1,1.2952211E-2,5.055721E-1,1.2794297E-2,-8.142369E-1,-2.7589694E-1,-2.4579166E-1,1.1470319E0,5.579438E-1,-4.9711272E-1,-4.6775284E-1,9.8340046E-1,-3.3583507E-1,-2.405094E-1,7.9310596E-1,-3.7895504E-1,-4.356725E-1,2.1320511E-1,-3.2666692E-1,-5.417713E-2,-2.1560775E-2,-5.829324E-1,-3.462504E-1,-7.032728E-1,-3.26163E-1,8.415251E-1,4.688284E-1,-2.068461E-1,6.9072944E-1,1.7266992E-1,3.6876912E0,3.3668026E-1,-2.2687384E-1,2.781329E-1,1.6718182E-1,-2.3747186E-1,-5.0976115E-1,-1.4717574E-1,4.403832E-1,1.2572603E-1,-7.1915704E-1,-4.837327E-1],"split_indices":[11,4,8,13,0,11,4,0,7,4,7,0,0,7,11,11,11,1,13,11,11,1,0,0,3,11,0,10,11,3,13,6,4,2,0,10,12,0,0,0,0,0,0,3,0,10,10,0,0,12,11,10,13,3,0,0,0,1,0,0,0,0,0,0,11,13,4,11,7,0,0,12,2,0,0,0,0,0,0,1,13,6,0,4,10,8,0,0,11,0,0,8,0,0,0,0,3,0,11,7,0,0,0,11,0,0,0,0,0,0,0,0,0,0,0],"split_type":[0,0,0,0,0,0,0,0,0,0,0,0,0,0,0,0,0,0,0,0,0,0,0,0,0,0,0,0,0,0,0,0,0,0,0,0,0,0,0,0,0,0,0,0,0,0,0,0,0,0,0,0,0,0,0,0,0,0,0,0,0,0,0,0,0,0,0,0,0,0,0,0,0,0,0,0,0,0,0,0,0,0,0,0,0,0,0,0,0,0,0,0,0,0,0,0,0,0,0,0,0,0,0,0,0,0,0,0,0,0,0,0,0,0,0],"sum_hessian":[4.6113617E2,4.427903E1,4.1685715E2,3.9675182E1,4.6038465E0,3.752979E2,4.155922E1,3.5804715E0,3.797875E1,9.295658E0,2.868309E1,3.4388325E0,5.856826E0,3.3096295E2,4.4334972E1,2.6434247E2,6.662047E1,3.1936224E1,1.2398747E1,2.1386658E1,1.0549566E1,6.6768622E0,3.8727043E0,3.7083747E0,1.7678282E1,2.5868198E2,5.6605134E0,9.894615E0,5.6725853E1,6.4115405E0,5.0314312E1,2.4475794E1,2.5838518E1,2.244785E1,3.3906693E0,1.3162065E1,1.1313729E1,5.542807E0,4.351808E0,3.8884606E0,7.425268E0,9.486353E0,1.2961497E1,1.4353297E1,3.324985E0,6.692496E0,7.6608014E0,3.1701868E0,4.4906144E0,3.0695616E1,2.2798634E2,1.85976E1,1.2098014E1,1.45077915E1,4.0898104E0,9.17154E0,5.336251E0,7.7416086E0,4.3564057E0,3.682021E0,4.0595875E0,9.081259E0,4.0808063E0,5.0525618E0,2.3630527E1,4.9293877E1,1.7869247E2,4.1665134E1,7.628742E0,3.578722E1,5.8779125E0,3.0354805E1,1.4833766E2,1.099757E1,1.9357235E1,4.4705067E0,1.4386716E2,4.3268404E0,3.3019018E0,3.0128782E1,9.546402E0,2.4323587E1,5.8051944E0,1.6672737E1,7.6508512E0,1.0910125E1,5.762612E0,3.3079128E0,7.602212E0,3.0755055E0,4.5267067E0,6.2060356E0,3.3403661E0,3.8095746E0,3.8412766E0,5.845617E0,1.778491E1,5.6894E0,1.20955105E1,7.8113203E0,4.2841907E0,3.2419674E0,3.4348948E0,7.7147837E0,4.6839633E0,3.8910003E0,3.8237834E0,3.5452566E0,3.147239E0,3.3252366E0,3.0863037E0,4.4473233E0,3.363997E0,3.0897343E0,3.1163015E0],"tree_param":{"num_deleted":"0","num_feature":"19","num_nodes":"115","size_leaf_vector":"1"}},{"base_weights":[-3.092819E-2,-7.4022286E-2,6.124424E-2,3.8286228E-2,3.6686826E-1,-4.4633147E-1,5.8634702E-2,6.867987E-1,2.653622E-2,-2.9618016E-1,8.798629E-2,-5.4113038E-2,-5.776644E-1,6.1695874E-1,5.3535856E-2,-2.9413093E-2,3.4186205E-1,3.18301E-2,-7.2449565E-1,-8.544768E-2,7.794688E-1,-1.7798299E-2,2.9329246E-1,6.4500856E-1,1.9626912E-2,7.143259E-1,1.00556836E-1,-8.3279766E-2,3.29859E-1,-2.8094966E-2,-1.9350985E-1,-8.563224E-3,-6.8965316E-1,-1.01136595E-1,2.7715757E-1,-2.0102185E-1,4.918038E-1,-5.5446005E-1,6.442492E-1,-1.0852672E-1,-8.346346E-1,-2.2569638E-1,3.4072834E-1,-2.7754116E-1,2.0081168E-1,-1.3380423E-1,-4.9321306E-1,-3.4123722E-1,5.1710047E-2,8.0342114E-1,3.0094483E-1,9.069004E-1,5.4669785E-1,-4.8913386E-2,5.1629746E-1,-8.345484E-2,4.7632197E-1,-5.6067437E-2,-3.744344E-1,-7.0168626E-1,-1.4641024E-1,4.1805553E-1,-4.4151232E-1,-9.492549E-2,5.4964954E-1,-2.105601E-2,-5.7938665E-1,-4.0227544E-2,4.4271806E-1,7.6977086E-1,-6.3590236E-2,-5.6695074E-1,6.5539996E-3,-9.3603927E-1,-3.8619456E-1,1.5169364E-1,-5.7984185E-1,-4.4332942E-1,-2.7050506E-2,-2.3778121E-1,3.652616E-1,-2.855368E-1,2.3065397E-1,2.1284775E-1,-4.386974E-1,-3.9760277E-2,-5.503538E-1,-4.7792637E-1,-7.357304E-2,-1.9251673E-1,2.796624E-1,-3.7880775E-2,3.4646297E-1,-1.003849E-1,2.4654491E-1,2.9437655E-1,-1.54121E-1,-6.634442E-2,4.4183132E-1,1.8650966E-2,4.6710506E-1,1.4053695E-1,-2.2842175E-1,-2.813986E-1,1.7979383E-1,-3.7230146E-1,-2.7189136E-3,-7.4629116E-1,-2.7951765E-1,7.050057E-1,3.258947E-1,-4.1476575E-1,-9.202583E-2],"categories":[],"categories_nodes":[],"categories_segments":[],"categories_sizes":[],"default_left":[0,0,0,0,0,0,0,0,0,0,0,0,0,0,0,0,0,0,0,0,0,0,0,0,0,0,0,0,0,0,0,0,0,0,0,0,0,0,0,0,0,0,0,0,0,0,0,0,0,0,0,0,0,0,0,0,0,0,0,0,0,0,0,0,0,0,0,0,0,0,0,0,0,0,0,0,0,0,0,0,0,0,0,0,0,0,0,0,0,0,0,0,0,0,0,0,0,0,0,0,0,0,0,0,0,0,0,0,0,0,0,0,0],"id":12,"left_children":[1,27,3,5,-1,-1,7,25,9,11,13,83,-1,23,15,17,19,21,-1,101,109,-1,-1,-1,-1,-1,-1,29,-1,31,41,33,-1,57,35,37,49,39,-1,81,-1,43,-1,45,55,47,73,85,91,51,97,-1,53,-1,-1,103,-1,63,59,-1,61,-1,105,65,69,67,71,-1,-1,-1,-1,-1,-1,107,75,79,77,-1,-1,-1,-1,-1,-1,95,111,89,87,-1,-1,-1,-1,93,-1,-1,-1,-1,-1,-1,99,-1,-1,-1,-1,-1,-1,-1,-1,-1,-1,-1,-1,-1,-1],"loss_changes":[1.7555962E0,1.8177887E0,1.8798449E0,2.261012E0,0E0,0E0,2.664568E0,1.8524354E0,2.4936907E0,3.4861894E0,1.924591E0,1.5436733E0,0E0,