{"learner":{"attributes":{"scikit_learn":"{\"_estimator_type\": \"classifier\"}"},"feature_names":[],"feature_types":[],"gradient_booster":{"model":{"gbtree_model_param":{"num_parallel_tree":"1","num_trees":"100"},"iteration_indptr":[0,1,2,3,4,5,6,7,8,9,10,11,12,13,14,15,16,17,18,19,20,21,22,23,24,25,26,27,28,29,30,31,32,33,34,35,36,37,38,39,40,41,42,43,44,45,46,47,48,49,50,51,52,53,54,55,56,57,58,59,60,61,62,63,64,65,66,67,68,69,70,71,72,73,74,75,76,77,78,79,80,81,82,83,84,85,86,87,88,89,90,91,92,93,94,95,96,97,98,99,100],"tree_info":[0,0,0,0,0,0,0,0,0,0,0,0,0,0,0,0,0,0,0,0,0,0,0,0,0,0,0,0,0,0,0,0,0,0,0,0,0,0,0,0,0,0,0,0,0,0,0,0,0,0,0,0,0,0,0,0,0,0,0,0,0,0,0,0,0,0,0,0,0,0,0,0,0,0,0,0,0,0,0,0,0,0,0,0,0,0,0,0,0,0,0,0,0,0,0,0,0,0,0,0],"trees":[{"base_weights":[1.968058E-2,-2.8190935E-2,2.200807E0,5.485024E-2,-9.010085E-1,1.6187052E0,2.209584E-3,-7.61316E-2,6.585282E-1,1.7990376E0,1.0775702E-1,-2.7704975E-1,1.8433829E-1,1.2417473E0,-1.2914996E-1,-8.359208E-2,-1.1091868E0,-3.7982216E-1,5.2430266E-1,2.1967538E-1,-5.023362E-1,-1.5192758E-1,1.7268423E-2,3.3324748E-1,1.513185E-1,-2.0799993E-2,1.555725E0,3.7997657E-1,7.0904297E-1,2.7485192E-1,-1.2141383E-1,1.4956059E-1,-4.7696084E-1,6.7104316E-1,-2.264786E-1,-7.537298E-1,6.4756006E-1,1.8832733E-1,-4.210636E-2,7.6060966E-2,-1.9814435E-1,-1.0850525E0,7.8880295E-2,-1.972358E-1,-8.333724E-3,-1.7169869E-1,-5.9686612E-5,-2.2095367E-1,1.5956308E-1,-4.486577E-2,2.2062097E-1,3.3682102E-1,-7.275236E-1,1.7493278E-1,4.1820002E-1,1.3989161E-1,-5.0384365E-2,-1.2164158E0,-7.900718E-2,-2.2653195E-1,-8.055072E-1,-5.074592E-1,-1.8939516E-1,-1.4504126E-1,-1.2246201E-2,-5.542205E-2,-1.7030974E-1,3.5377738E-1,2.1792607E-1,-1.2850799E-1,-1.2740005E0,-2.2746542E-1,-1.6051486E-1,4.2600718E-1,2.6781243E-1],"categories":[],"categories_nodes":[],"categories_segments":[],"categories_sizes":[],"default_left":[0,0,0,0,0,0,0,0,0,0,0,0,0,0,0,0,0,0,0,0,0,0,0,0,0,0,0,0,0,0,0,0,0,0,0,0,0,0,0,0,0,0,0,0,0,0,0,0,0,0,0,0,0,0,0,0,0,0,0,0,0,0,0,0,0,0,0,0,0,0,0,0,0,0,0],"id":0,"left_children":[1,3,73,5,41,53,7,11,9,67,47,15,13,25,17,31,57,19,23,-1,21,-1,-1,-1,39,-1,27,-1,29,-1,-1,33,35,37,43,45,49,-1,-1,-1,-1,59,-1,-1,-1,-1,-1,51,-1,-1,-1,55,65,-1,-1,-1,-1,69,-1,-1,61,63,-1,-1,-1,-1,-1,-1,-1,-1,71,-1,-1,-1,-1],"loss_changes":[1.00334045E2,6.823081E1,1.8122101E-1,7.078657E1,2.115599E1,1.1507286E1,4.287581E1,3.903875E1,5.566342E1,1.7489929E0,1.7147503E1,6.7676895E1,1.0789886E2,3.2106712E1,4.141187E1,3.1497145E1,4.8515854E0,3.844114E1,3.802115E1,0E0,4.188743E1,0E0,0E0,0E0,2.3536116E1,0E0,3.4885864E1,0E0,4.004286E1,0E0,0E0,4.24887E1,4.024823E1,3.8148987E1,2.113862E1,2.100418E1,1.6127005E1,0E0,0E0,0E0,0E0,4.307335E0,0E0,0E0,0E0,0E0,0E0,1.2885821E1,0E0,0E0,0E0,7.2253723E0,2.385848E0,0E0,0E0,0E0,0E0,7.651367E-1,0E0,0E0,3.084921E0,3.2844849E0,0E0,0E0,0E0,0E0,0E0,0E0,0E0,0E0,2.2977448E-1,0E0,0E0,0E0,0E0],"parents":[2147483647,0,0,1,1,3,3,6,6,8,8,7,7,12,12,11,11,14,14,17,17,20,20,18,18,13,13,26,26,28,28,15,15,31,31,32,32,33,33,24,24,4,4,34,34,35,35,10,10,36,36,47,47,5,5,51,51,16,16,41,41,60,60,61,61,52,52,9,9,57,57,70,70,2,2],"right_children":[2,4,74,6,42,54,8,12,10,68,48,16,14,26,18,32,58,20,24,-1,22,-1,-1,-1,40,-1,28,-1,30,-1,-1,34,36,38,44,46,50,-1,-1,-1,-1,60,-1,-1,-1,-1,-1,52,-1,-1,-1,56,66,-1,-1,-1,-1,70,-1,-1,62,64,-1,-1,-1,-1,-1,-1,-1,-1,72,-1,-1,-1,-1],"split_conditions":[3.4432669E0,6.077788E-1,-4.9777955E-1,-8.156982E-1,-1.3455333E-1,2.5571892E-1,3.542213E-3,1.5017295E-1,-1.6718146E-1,-2.9934117E-1,1.5067239E0,-5.2172095E-1,6.136492E-1,-3.475806E-1,1.4140519E0,1.5067239E0,2.775826E-1,-3.9468515E-1,1.2064402E0,2.1967538E-1,-2.898476E-1,-1.5192758E-1,1.7268423E-2,3.3324748E-1,-4.028916E-1,-2.0799993E-2,-3.1215906E-1,3.7997657E-1,6.515296E-1,2.7485192E-1,-1.2141383E-1,-7.1124893E-1,-5.9502536E-1,2.4980342E0,-6.956765E-1,-1.315553E-1,-6.184925E-1,1.8832733E-1,-4.210636E-2,7.6060966E-2,-1.9814435E-1,-6.978802E-1,7.8880295E-2,-1.972358E-1,-8.333724E-3,-1.7169869E-1,-5.9686612E-5,1.294232E-1,1.5956308E-1,-4.486577E-2,2.2062097E-1,1.7804316E-1,2.4155669E-1,1.7493278E-1,4.1820002E-1,1.3989161E-1,-5.0384365E-2,-4.0194154E-1,-7.900718E-2,-2.2653195E-1,1.3415347E0,1.5067239E0,-1.8939516E-1,-1.4504126E-1,-1.2246201E-2,-5.542205E-2,-1.7030974E-1,3.5377738E-1,2.1792607E-1,-1.2850799E-1,-1.3109861E-3,-2.2746542E-1,-1.6051486E-1,4.2600718E-1,2.6781243E-1],"split_indices":[4,8,10,3,10,7,0,3,8,4,5,3,10,11,10,5,4,7,3,0,11,0,0,0,4,0,8,0,3,0,0,3,3,15,3,0,10,0,0,0,0,10,0,0,0,0,0,8,0,0,0,0,8,0,0,0,0,7,0,0,4,5,0,0,0,0,0,0,0,0,7,0,0,0,0],"split_type":[0,0,0,0,0,0,0,0,0,0,0,0,0,0,0,0,0,0,0,0,0,0,0,0,0,0,0,0,0,0,0,0,0,0,0,0,0,0,0,0,0,0,0,0,0,0,0,0,0,0,0,0,0,0,0,0,0,0,0,0,0,0,0,0,0,0,0,0,0,0,0,0,0,0,0],"sum_hessian":[9.5933264E2,9.396952E2,1.963742E1,8.58914E2,8.0781204E1,2.7001453E1,8.3191254E2,7.439904E2,8.792209E1,2.7894062E1,6.0028023E1,4.1997302E2,3.2401743E2,7.3417175E1,2.5060027E2,3.4164648E2,7.832653E1,1.8142299E2,6.917728E1,1.160393E1,1.6981906E2,1.01534386E2,6.828467E1,1.31659975E1,5.601128E1,1.3835455E1,5.958172E1,3.1464502E1,2.8117216E1,1.695959E1,1.1157625E1,2.1489586E2,1.26750626E2,8.9707306E1,1.2518855E2,1.019807E2,2.4769928E1,6.0028023E1,2.9679283E1,4.619257E1,9.81871E0,7.14088E1,9.372405E0,1.874481E1,1.0644374E2,7.475609E1,2.7224606E1,4.3737892E1,1.6290133E1,1.071132E1,1.4058608E1,2.0976336E1,2.2761555E1,1.7629047E1,9.372405E0,1.160393E1,9.372405E0,6.627629E1,1.2050235E1,3.458864E1,3.6820164E1,2.0530031E1,1.6290133E1,1.071132E1,9.81871E0,1.0488168E1,1.2273388E1,1.517437E1,1.2719692E1,9.149253E0,5.712704E1,4.2622128E1,1.4504912E1,1.0488168E1,9.149253E0],"tree_param":{"num_deleted":"0","num_feature":"19","num_nodes":"75","size_leaf_vector":"1"}},{"base_weights":[-2.5301417E-2,-6.479147E-2,1.7098417E0,7.649344E-3,-8.2048166E-1,5.1246524E-1,-1.1734291E-1,1.0908E-1,1.6788795E0,-8.106153E-1,6.602537E-1,-6.967369E-2,-1.2031522E0,9.334348E-1,-1.2950245E-1,-6.218373E-1,5.00094E-3,-2.1603926E-1,2.4038345E-1,6.759952E-1,-3.4273958E-1,-7.034806E-1,9.2970276E-1,2.2918423E-1,1.4304318E0,3.515853E-1,5.218381E-2,-4.6995395E-1,2.9357716E-1,1.921393E-1,-1.8855015E-2,-3.2953584E-1,7.355503E-1,2.899849E-2,3.0042294E-1,1.1638516E-1,-1.47529E-1,-3.851182E-2,-7.520675E-1,8.217423E-2,-1.2940125E-1,3.068233E-1,1.3447276E-2,7.293474E-1,3.3952504E-1,-9.747835E-1,2.8119119E-2,-5.3386122E-2,-1.7675346E-1,1.1124074E0,2.1777163E-1,7.2291926E-2,3.6565164E-1,-1.2269999E-1,1.3992222E-1,-1.0846564E-2,-1.4275604E-1,1.481888E-2,-7.480419E-1,-2.942695E-2,-1.0260026E0,1.5308961E-1,3.1690425E-1,-4.9942642E-1,-1.0789337E0,-1.7222637E-1,-1.6235827E-1,8.5381694E-2,-1.365629E-1,-1.0853149E0,-6.112508E-2,-1.9903216E-1,-9.1783755E-2,-9.9365965E-2,-2.1549457E-1,3.436998E-1,1.8742664E-1,-1.1568555E0,-1.0284809E-1,-1.5165347E-1,-2.3019297E-1,-1.3561365E-1,-2.0382985E-1],"categories":[],"categories_nodes":[],"categories_segments":[],"categories_sizes":[],"default_left":[0,0,0,0,0,0,0,0,0,0,0,0,0,0,0,0,0,0,0,0,0,0,0,0,0,0,0,0,0,0,0,0,0,0,0,0,0,0,0,0,0,0,0,0,0,0,0,0,0,0,0,0,0,0,0,0,0,0,0,0,0,0,0,0,0,0,0,0,0,0,0,0,0,0,0,0,0,0,0,0,0,0,0],"id":1,"left_children":[1,3,75,5,45,7,11,9,61,59,13,15,79,43,-1,57,17,27,19,23,21,47,41,29,25,-1,-1,37,31,-1,-1,35,33,-1,-1,-1,-1,39,55,-1,-1,-1,-1,49,-1,69,-1,-1,-1,51,53,-1,-1,-1,-1,-1,-1,-1,63,-1,71,-1,-1,65,73,67,-1,-1,-1,77,-1,-1,-1,-1,-1,-1,-1,81,-1,-1,-1,-1,-1],"loss_changes":[6.6021996E1,5.154513E1,2.030346E0,5.4331295E1,1.2723343E1,8.0220276E1,3.564194E1,6.5441284E1,5.3865204E0,6.4439945E0,3.2277397E1,2.7309723E1,2.2888947E-1,1.3717842E1,0E0,7.1387367E0,3.045536E1,3.9201694E1,7.223736E1,5.44812E1,5.6597588E1,1.2576275E1,2.0786774E1,3.250641E1,4.437027E1,0E0,0E0,2.454264E1,2.8060055E1,0E0,0E0,2.463727E1,3.5009235E1,0E0,0E0,0E0,0E0,3.174993E1,8.306633E0,0E0,0E0,0E0,0E0,1.1317934E1,0E0,4.41803E0,0E0,0E0,0E0,2.3448215E1,1.6145784E1,0E0,0E0,0E0,0E0,0E0,0E0,0E0,4.9813766E0,0E0,2.1284523E0,0E0,0E0,6.002636E0,2.0453415E0,1.1317331E1,0E0,0E0,0E0,1.3123474E0,0E0,0E0,0E0,0E0,0E0,0E0,0E0,6.604004E-2,0E0,0E0,0E0,0E0,0E0],"parents":[2147483647,0,0,1,1,3,3,5,5,7,7,6,6,10,10,11,11,16,16,18,18,20,20,19,19,24,24,17,17,23,23,28,28,32,32,31,31,27,27,37,37,22,22,13,13,4,4,21,21,43,43,49,49,50,50,38,38,15,15,9,9,8,8,58,58,63,63,65,65,45,45,60,60,64,64,2,2,69,69,12,12,77,77],"right_children":[2,4,76,6,46,8,12,10,62,60,14,16,80,44,-1,58,18,28,20,24,22,48,42,30,26,-1,-1,38,32,-1,-1,36,34,-1,-1,-1,-1,40,56,-1,-1,-1,-1,50,-1,70,-1,-1,-1,52,54,-1,-1,-1,-1,-1,-1,-1,64,-1,72,-1,-1,66,74,68,-1,-1,-1,78,-1,-1,-1,-1,-1,-1,-1,82,-1,-1,-1,-1,-1],"split_conditions":[3.4432669E0,6.077788E-1,-1.9725981E-1,-7.321388E-1,-1.3455333E-1,9.5327324E-1,2.2894192E0,-5.030283E-1,-2.766729E-1,-3.2135713E-1,5.579438E-1,-3.750652E-1,8.2521105E-1,-3.1635653E-2,-1.2950245E-1,-3.3855528E-1,1.585289E-1,-1.93475E-1,1.0830002E0,-4.9051118E-1,2.055708E0,-2.1036218E-1,2.3625991E0,4.0919852E-1,-4.8709744E-1,3.515853E-1,5.218381E-2,-3.17801E-1,1.6261439E-1,1.921393E-1,-1.8855015E-2,-2.927138E-1,-6.227519E-1,2.899849E-2,3.0042294E-1,1.1638516E-1,-1.47529E-1,-5.206171E-1,-3.8131806E-1,8.217423E-2,-1.2940125E-1,3.068233E-1,1.3447276E-2,5.097176E-1,3.3952504E-1,9.5327324E-1,2.8119119E-2,-5.3386122E-2,-1.7675346E-1,-4.097191E-1,1.391603E0,7.2291926E-2,3.6565164E-1,-1.2269999E-1,1.3992222E-1,-1.0846564E-2,-1.4275604E-1,1.481888E-2,5.579438E-1,-2.942695E-2,-7.8949094E-1,1.5308961E-1,3.1690425E-1,-4.6775284E-1,6.484493E-1,8.2521105E-1,-1.6235827E-1,8.5381694E-2,-1.365629E-1,-5.912272E-1,-6.112508E-2,-1.9903216E-1,-9.1783755E-2,-9.9365965E-2,-2.1549457E-1,3.436998E-1,1.8742664E-1,-6.823061E-2,-1.0284809E-1,-1.5165347E-1,-2.3019297E-1,-1.3561365E-1,-2.0382985E-1],"split_indices":[4,8,11,3,10,6,4,4,7,7,6,11,12,11,0,8,3,0,3,4,3,0,3,10,4,0,0,8,6,0,0,11,3,0,0,0,0,10,7,0,0,0,0,4,0,6,0,0,0,4,4,0,0,0,0,0,0,0,6,0,3,0,0,4,10,12,0,0,0,3,0,0,0,0,0,0,0,11,0,0,0,0,0],"split_type":[0,0,0,0,0,0,0,0,0,0,0,0,0,0,0,0,0,0,0,0,0,0,0,0,0,0,0,0,0,0,0,0,0,0,0,0,0,0,0,0,0,0,0,0,0,0,0,0,0,0,0,0,0,0,0,0,0,0,0,0,0,0,0,0,0,0,0,0,0,0,0,0,0,0,0,0,0,0,0,0,0,0,0],"sum_hessian":[9.609141E2,9.4047266E2,2.0441519E1,8.5910803E2,8.136462E1,1.6988406E2,6.8922394E2,1.2704214E2,4.2841927E1,4.742968E1,7.9612465E1,6.6125757E2,2.7966373E1,6.7157906E1,1.2454558E1,7.790208E1,5.8335547E2,3.008856E2,2.824699E2,1.6159439E2,1.20875496E2,9.4524635E1,2.6350863E1,1.0230727E2,5.928713E1,3.6591347E1,2.2695782E1,2.0087708E2,1.0000852E2,2.7127943E1,7.517932E1,4.160557E1,5.840295E1,3.887637E1,1.952658E1,1.4459563E1,2.7146008E1,7.9868706E1,1.2100838E2,4.6604504E1,3.3264206E1,1.222696E1,1.4123902E1,5.7991283E1,9.166618E0,7.038818E1,1.0976431E1,4.6002E1,4.8522636E1,3.248931E1,2.5501972E1,2.0705132E1,1.1784181E1,9.969616E0,1.5532357E1,1.55388155E1,1.0546956E2,1.1798979E1,6.6103096E1,1.24723E1,3.495738E1,1.0442698E1,3.239923E1,3.9176884E1,2.6926212E1,2.3888739E1,1.5288144E1,1.1692501E1,1.2196238E1,5.8932014E1,1.1456174E1,2.5023754E1,9.933625E0,9.192317E0,1.7733894E1,1.1403148E1,9.038371E0,4.990908E1,9.022931E0,1.2459368E1,1.5507005E1,9.408359E0,4.0500725E1],"tree_param":{"num_deleted":"0","num_feature":"19","num_nodes":"83","size_leaf_vector":"1"}},{"base_weights":[2.7481746E-3,-3.0740455E-2,1.4144298E0,3.2146424E-2,-7.319793E-1,3.7722015E-1,-8.364258E-2,-2.4878903E-1,6.9615906E-1,-6.590638E-1,2.9533455E-1,-6.4443374E-1,3.283019E-2,2.6431063E-1,-9.158303E-1,2.4415275E-1,-1.11059316E-1,1.6963342E-1,-3.4172305E-1,5.789899E-3,9.2675877E-1,1.4267818E0,-1.5211987E-1,-2.4460623E-1,3.7381816E-1,7.0386374E-1,-3.9910525E-1,3.7260008E-1,6.7972684E-1,-9.4743E-1,-3.3397958E-2,5.6074613E-1,-6.672905E-1,-1.2446344E-1,1.1541876E-1,5.312072E-1,1.4806744E0,2.3424691E-1,-4.167669E-2,6.668079E-1,-7.6046586E-2,2.9644477E-1,4.931254E-1,1.21543206E-1,9.764448E-1,-8.604585E-2,6.3713126E-2,-3.983644E-1,3.601701E-1,2.029858E-1,-1.5123995E-1,-1.956123E-1,7.3816404E-2,-1.8306974E-2,2.157537E-1,-1.6254978E-2,1.7420463E-1,-4.0147654E-3,-8.8218987E-1,-8.695829E-1,1.0994011E-2,-3.8870186E-2,-2.0062137E-1,-8.3358526E-1,-6.874661E-2,-6.171992E-1,-2.0325258E-1,2.7692023E-1,1.2058011E-1,-8.828856E-1,-2.1175498E-2,5.2189425E-2,-7.2498225E-2,3.4821536E-2,-9.724249E-2,3.037207E-1,1.4150283E-1,-6.2214226E-1,-1.9761011E-1,-1.0731504E0,-6.159356E-1,-4.5951184E-2,-1.5567885E-1,2.94899E-1,1.453482E-1,-1.659982E-1,-4.0408637E-2,-1.4913942E-1,-5.2428454E-2,-7.522652E-2,-1.8226223E-1,-1.9603243E-1,-1.1072532E-1,-1.3992216E-1,-2.0439431E-1],"categories":[],"categories_nodes":[],"categories_segments":[],"categories_sizes":[],"default_left":[0,0,0,0,0,0,0,0,0,0,0,0,0,0,0,0,0,0,0,0,0,0,0,0,0,0,0,0,0,0,0,0,0,0,0,0,0,0,0,0,0,0,0,0,0,0,0,0,0,0,0,0,0,0,0,0,0,0,0,0,0,0,0,0,0,0,0,0,0,0,0,0,0,0,0,0,0,0,0,0,0,0,0,0,0,0,0,0,0,0,0,0,0,0,0],"id":2,"left_children":[1,3,83,5,59,7,11,9,35,57,-1,13,17,15,65,-1,-1,19,29,23,21,27,73,25,31,53,45,-1,37,61,47,33,85,-1,-1,39,75,-1,-1,41,-1,-1,43,55,67,-1,-1,63,49,-1,51,-1,-1,-1,-1,-1,-1,-1,77,79,-1,-1,-1,89,71,69,-1,-1,-1,91,-1,-1,-1,-1,-1,-1,-1,87,-1,93,81,-1,-1,-1,-1,-1,-1,-1,-1,-1,-1,-1,-1,-1,-1],"loss_changes":[4.476023E1,4.0812214E1,2.6174126E0,3.3985E1,8.4159775E0,4.2836807E1,4.163414E1,6.127298E1,1.7566483E1,8.657265E0,0E0,2.7275913E1,2.7137367E1,2.9686916E1,6.755211E0,0E0,0E0,4.809685E1,2.6434519E1,2.9560648E1,3.742839E1,2.6588257E1,3.6252918E0,2.8256607E1,2.5649446E1,1.2998992E1,1.4874504E1,0E0,1.7551018E1,8.253498E0,1.3781791E1,1.8959358E1,2.5468464E0,0E0,0E0,1.6162025E1,3.5501213E0,0E0,0E0,1.918192E1,0E0,0E0,1.6385939E1,1.0751438E1,5.724144E0,0E0,0E0,7.0780973E0,2.029335E1,0E0,1.8397902E1,0E0,0E0,0E0,0E0,0E0,0E0,0E0,2.7630844E0,2.69664E0,0E0,0E0,0E0,1.5971146E0,4.199948E0,5.656414E0,0E0,0E0,0E0,1.0453587E0,0E0,0E0,0E0,0E0,0E0,0E0,0E0,1.8962975E0,0E0,1.9330215E-1,3.0928802E0,0E0,0E0,0E0,0E0,0E0,0E0,0E0,0E0,0E0,0E0,0E0,0E0,0E0,0E0],"parents":[2147483647,0,0,1,1,3,3,5,5,7,7,6,6,11,11,13,13,12,12,17,17,20,20,19,19,23,23,21,21,18,18,24,24,31,31,8,8,28,28,35,35,39,39,42,42,26,26,30,30,48,48,50,50,25,25,43,43,9,9,4,4,29,29,47,47,14,14,44,44,65,65,64,64,22,22,36,36,58,58,59,59,80,80,2,2,32,32,77,77,63,63,69,69,79,79],"right_children":[2,4,84,6,60,8,12,10,36,58,-1,14,18,16,66,-1,-1,20,30,24,22,28,74,26,32,54,46,-1,38,62,48,34,86,-1,-1,40,76,-1,-1,42,-1,-1,44,56,68,-1,-1,64,50,-1,52,-1,-1,-1,-1,-1,-1,-1,78,80,-1,-1,-1,90,72,70,-1,-1,-1,92,-1,-1,-1,-1,-1,-1,-1,88,-1,94,82,-1,-1,-1,-1,-1,-1,-1,-1,-1,-1,-1,-1,-1,-1],"split_conditions":[3.4432669E0,6.077788E-1,-1.9725981E-1,-7.1124893E-1,-2.7647257E-1,-5.0075245E-1,-2.4413656E-1,1.3486027E0,2.732871E-1,-3.545839E-1,2.9533455E-1,-4.9733868E-1,1.0830002E0,-3.200175E-1,-3.284804E-1,2.4415275E-1,-1.11059316E-1,8.497934E-1,1.6261439E-1,1.6261439E-1,1.6261439E-1,9.5880044E-1,-3.17801E-1,-2.385075E-1,6.136492E-1,-3.327891E-1,7.2511834E-1,3.7260008E-1,-3.17801E-1,-5.030283E-1,1.4727771E0,-6.842864E-1,7.4632466E-1,-1.2446344E-1,1.1541876E-1,4.602832E-1,5.097176E-1,2.3424691E-1,-4.167669E-2,-4.984766E-1,-7.6046586E-2,2.9644477E-1,-2.2423868E-1,3.9757663E-1,5.097176E-1,-8.604585E-2,6.3713126E-2,4.9239925E-1,-2.1599124E-1,2.029858E-1,-5.030283E-1,-1.956123E-1,7.3816404E-2,-1.8306974E-2,2.157537E-1,-1.6254978E-2,1.7420463E-1,-4.0147654E-3,-6.280444E-1,-6.7721766E-1,1.0994011E-2,-3.8870186E-2,-2.0062137E-1,-3.2263696E-1,-3.215287E-1,-2.3271503E-1,-2.0325258E-1,2.7692023E-1,1.2058011E-1,-4.7913203E-1,-2.1175498E-2,5.2189425E-2,-7.2498225E-2,3.4821536E-2,-9.724249E-2,3.037207E-1,1.4150283E-1,-7.425707E-2,-1.9761011E-1,2.8665417E-1,-6.000049E-1,-4.5951184E-2,-1.5567885E-1,2.94899E-1,1.453482E-1,-1.659982E-1,-4.0408637E-2,-1.4913942E-1,-5.2428454E-2,-7.522652E-2,-1.8226223E-1,-1.9603243E-1,-1.1072532E-1,-1.3992216E-1,-2.0439431E-1],"split_indices":[4,8,11,3,10,4,0,6,7,7,0,4,3,8,8,0,0,3,6,6,6,3,8,0,10,11,10,0,8,4,10,10,10,0,0,13,4,0,0,4,0,0,4,0,4,0,0,2,0,0,4,0,0,0,0,0,0,0,6,10,0,0,0,8,8,6,0,0,0,4,0,0,0,0,0,0,0,7,0,7,10,0,0,0,0,0,0,0,0,0,0,0,0,0,0],"split_type":[0,0,0,0,0,0,0,0,0,0,0,0,0,0,0,0,0,0,0,0,0,0,0,0,0,0,0,0,0,0,0,0,0,0,0,0,0,0,0,0,0,0,0,0,0,0,0,0,0,0,0,0,0,0,0,0,0,0,0,0,0,0,0,0,0,0,0,0,0,0,0,0,0,0,0,0,0,0,0,0,0,0,0,0,0,0,0,0,0,0,0,0,0,0,0],"sum_hessian":[9.448802E2,9.2394025E2,2.0939957E1,8.487764E2,7.516384E1,2.1268274E2,6.360937E2,7.185892E1,1.4082382E2,6.024081E1,1.1618107E1,1.08612946E2,5.274807E2,2.498368E1,8.3629265E1,1.0677007E1,1.4306674E1,3.8676453E2,1.407162E2,3.1878616E2,6.797835E1,4.6229916E1,2.1748436E1,1.8991124E2,1.2887492E2,2.610385E1,1.6380739E2,2.1419676E1,2.4810238E1,4.676776E1,9.394844E1,1.0964915E2,1.9225782E1,9.370075E0,1.0027907E2,1.1774411E2,2.307971E1,1.3705845E1,1.1104393E1,1.0377952E2,1.3964592E1,1.2879308E1,9.090021E1,5.2098038E1,3.8802174E1,1.4315137E2,2.0656029E1,4.873913E1,4.5209316E1,1.6456987E1,2.8752327E1,1.0224397E1,1.8527931E1,1.1245412E1,1.4858438E1,4.2801933E1,9.296103E0,1.5949445E1,4.4291367E1,6.4027145E1,1.1136699E1,1.2594523E1,3.417324E1,2.034588E1,2.8393246E1,4.322851E1,4.0400753E1,9.193862E0,2.960831E1,2.7529037E1,1.5699474E1,1.3955716E1,1.44375305E1,1.2095053E1,9.653383E0,1.3959696E1,9.120014E0,2.5260487E1,1.9030882E1,3.3727715E1,3.0299429E1,1.5379713E1,1.4919717E1,1.1482138E1,9.457819E0,1.0181498E1,9.044286E0,1.2534693E1,1.2725793E1,9.189434E0,1.1156446E1,1.0157682E1,1.7371355E1,1.5386656E1,1.8341059E1],"tree_param":{"num_deleted":"0","num_feature":"19","num_nodes":"95","size_leaf_vector":"1"}},{"base_weights":[-1.0225881E-2,-3.8684558E-2,1.1747596E0,-5.352111E-1,1.1069808E-2,1.16534516E-1,-2.9337296E-1,-6.16612E-1,3.1134608E-1,9.571742E-1,-4.693675E-1,5.2143347E-2,1.0443286E0,-6.340983E-2,4.7828975E-1,7.715261E-1,-6.242315E-1,1.5330139E-1,-3.0754E-1,-2.9998875E-1,4.634846E-1,-2.620067E-2,1.0463738E0,2.3586069E-1,-3.338745E-2,7.524601E-2,-1.264939E-1,6.208937E-2,-9.415683E-1,2.3316443E-1,4.6846658E-1,-1.5279193E-1,9.2489886E-1,-4.3896355E-2,2.1781772E-1,-1.0874567E-2,-8.2065153E-1,-1.3613783E-1,5.618963E-1,-3.3399615E-2,1.6843899E-1,3.1796578E-1,2.6391378E-1,-6.4140564E-1,-1.17079586E-1,6.325656E-1,-3.1533352E-1,-7.96942E-2,-1.0895671E0,-8.4523894E-2,1.6352941E-1,1.577111E-1,-8.3764754E-2,9.562298E-2,-1.0969679E-1,-1.0081252E-1,3.2570008E-3,-8.3434635E-1,5.0083917E-2,1.5108558E0,4.7864276E-1,2.0057467E-1,-2.2806084E-2,2.0002605E-1,7.910656E-3,-1.28841E-2,-2.0731111E-1,-2.904127E-1,-8.6352944E-1,-1.1573663E-2,-1.3887815E-1,-6.654158E-1,-1.181794E0,-9.525303E-1,-4.0326345E-1,-1.4587608E-1,-1.4243007E-1,7.824285E-2,-1.1422523E-1,3.335327E-1,1.4816894E-1,-1.0808942E0,-4.699307E-2,2.664937E-1,-6.8236694E-2,1.1821413E-1,-2.4887275E-2,-3.8624775E-2,-1.5860489E-1,-2.0837812E-1,-9.020466E-2,-1.1266468E0,-7.1855E-2,-6.811801E-2,-1.8049334E-1,2.4476479E-1,1.180748E-1,-1.11360446E-1,-2.1318279E-1,1.1838259E-1,3.6295086E-2,-2.1615595E-1,-1.3917682E-1,-1.4171739E-1,-2.174902E-1],"categories":[],"categories_nodes":[],"categories_segments":[],"categories_sizes":[],"default_left":[0,0,0,0,0,0,0,0,0,0,0,0,0,0,0,0,0,0,0,0,0,0,0,0,0,0,0,0,0,0,0,0,0,0,0,0,0,0,0,0,0,0,0,0,0,0,0,0,0,0,0,0,0,0,0,0,0,0,0,0,0,0,0,0,0,0,0,0,0,0,0,0,0,0,0,0,0,0,0,0,0,0,0,0,0,0,0,0,0,0,0,0,0,0,0,0,0,0,0,0,0,0,0,0,0],"id":3,"left_children":[1,3,95,67,5,11,7,35,9,41,57,13,59,17,15,29,87,19,43,27,21,25,23,-1,-1,-1,-1,39,65,-1,31,53,33,-1,-1,37,71,-1,61,-1,-1,51,-1,47,45,63,55,49,89,-1,-1,-1,-1,-1,-1,-1,-1,93,-1,79,99,-1,-1,-1,-1,-1,-1,69,81,83,-1,73,103,91,75,-1,77,-1,-1,-1,-1,97,-1,85,-1,-1,-1,-1,-1,-1,-1,101,-1,-1,-1,-1,-1,-1,-1,-1,-1,-1,-1,-1,-1],"loss_changes":[3.1594454E1,2.2599493E1,1.9228058E0,6.4455357E0,2.6755758E1,3.6915546E1,4.2102604E1,1.7301697E1,3.8441746E1,1.5906418E1,1.0001993E1,2.857732E1,9.86179E0,2.4221941E1,4.0499924E1,1.779467E1,3.1504507E0,3.4267773E1,1.3609695E1,2.3108315E1,4.1274536E1,2.7862984E1,2.9951263E1,0E0,0E0,0E0,0E0,1.6063675E1,9.063576E0,0E0,1.927356E1,1.1055722E1,1.7702091E1,0E0,0E0,1.7121037E1,5.0864334E0,0E0,9.806616E0,0E0,0E0,1.1515012E1,0E0,1.95364E1,2.0747458E1,9.547561E0,1.0550927E1,1.6478973E1,2.9996338E0,0E0,0E0,0E0,0E0,0E0,0E0,0E0,0E0,2.037548E0,0E0,4.703602E0,1.0162034E0,0E0,0E0,0E0,0E0,0E0,0E0,7.3796444E0,4.1435432E0,3.7875576E0,0E0,5.302517E0,7.959366E-2,2.7386742E0,4.89924E0,0E0,9.400602E0,0E0,0E0,0E0,0E0,1.1606293E0,0E0,3.7917318E0,0E0,0E0,0E0,0E0,0E0,0E0,0E0,1.8008041E-1,0E0,0E0,0E0,0E0,0E0,0E0,0E0,0E0,0E0,0E0,0E0,0E0,0E0],"parents":[2147483647,0,0,1,1,4,4,6,6,8,8,5,5,11,11,14,14,13,13,17,17,20,20,22,22,21,21,19,19,15,15,30,30,32,32,7,7,35,35,27,27,9,9,18,18,44,44,43,43,47,47,41,41,31,31,46,46,10,10,12,12,38,38,45,45,28,28,3,3,67,67,36,36,71,71,74,74,76,76,59,59,68,68,69,69,83,83,16,16,48,48,73,73,57,57,2,2,81,81,60,60,91,91,72,72],"right_children":[2,4,96,68,6,12,8,36,10,42,58,14,60,18,16,30,88,20,44,28,22,26,24,-1,-1,-1,-1,40,66,-1,32,54,34,-1,-1,38,72,-1,62,-1,-1,52,-1,48,46,64,56,50,90,-1,-1,-1,-1,-1,-1,-1,-1,94,-1,80,100,-1,-1,-1,-1,-1,-1,70,82,84,-1,74,104,92,76,-1,78,-1,-1,-1,-1,98,-1,86,-1,-1,-1,-1,-1,-1,-1,102,-1,-1,-1,-1,-1,-1,-1,-1,-1,-1,-1,-1,-1],"split_conditions":[3.4432669E0,-3.750652E-1,-1.9331881E-1,-2.2646554E-1,-2.1500187E-1,1.4140519E0,1.4989784E-1,-3.8169998E-1,6.0448015E-1,-1.5141201E-1,-6.3262707E-1,9.5327324E-1,-4.916491E-1,-2.2396839E-1,4.0919852E-1,-5.030283E-1,-3.2680082E-1,-3.3990335E-1,-4.996145E-1,-3.5310826E-1,1.5017295E-1,-2.3287843E-1,1.0678076E0,2.3586069E-1,-3.338745E-2,7.524601E-2,-1.264939E-1,4.2496732E-1,-3.9815274E-1,2.3316443E-1,-2.2724937E-1,-6.933976E-1,-3.8742873E-1,-4.3896355E-2,2.1781772E-1,-7.175784E-2,6.745222E-2,-1.3613783E-1,1.7105754E-2,-3.3399615E-2,1.6843899E-1,-2.57296E-1,2.6391378E-1,-6.280444E-1,-6.657989E-1,8.2521105E-1,-2.4579166E-1,-6.956765E-1,1.3187191E0,-8.4523894E-2,1.6352941E-1,1.577111E-1,-8.3764754E-2,9.562298E-2,-1.0969679E-1,-1.0081252E-1,3.2570008E-3,1.391603E0,5.0083917E-2,-2.216203E-1,-2.4579166E-1,2.0057467E-1,-2.2806084E-2,2.0002605E-1,7.910656E-3,-1.28841E-2,-2.0731111E-1,-2.4579166E-1,-3.5076472E-1,-4.6775284E-1,-1.3887815E-1,-7.175784E-2,-7.636635E-1,-1.6516885E-1,-2.4413656E-1,-1.4587608E-1,-1.1466811E-1,7.824285E-2,-1.1422523E-1,3.335327E-1,1.4816894E-1,-4.034692E-1,-4.699307E-2,1.6261439E-1,-6.8236694E-2,1.1821413E-1,-2.4887275E-2,-3.8624775E-2,-1.5860489E-1,-2.0837812E-1,-9.020466E-2,-1.9379698E-1,-7.1855E-2,-6.811801E-2,-1.8049334E-1,2.4476479E-1,1.180748E-1,-1.11360446E-1,-2.1318279E-1,1.1838259E-1,3.6295086E-2,-2.1615595E-1,-1.3917682E-1,-1.4171739E-1,-2.174902E-1],"split_indices":[4,11,11,13,1,10,0,7,1,4,3,6,4,7,10,4,11,11,4,11,3,0,3,0,0,0,0,10,13,0,0,3,7,0,0,4,11,0,1,0,0,11,0,6,10,12,1,3,13,0,0,0,0,0,0,0,0,4,0,0,1,0,0,0,0,0,0,1,7,4,0,4,3,11,0,0,0,0,0,0,0,7,0,6,0,0,0,0,0,0,0,7,0,0,0,0,0,0,0,0,0,0,0,0,0],"split_type":[0,0,0,0,0,0,0,0,0,0,0,0,0,0,0,0,0,0,0,0,0,0,0,0,0,0,0,0,0,0,0,0,0,0,0,0,0,0,0,0,0,0,0,0,0,0,0,0,0,0,0,0,0,0,0,0,0,0,0,0,0,0,0,0,0,0,0,0,0,0,0,0,0,0,0,0,0,0,0,0,0,0,0,0,0,0,0,0,0,0,0,0,0,0,0,0,0,0,0,0,0,0,0,0,0],"sum_hessian":[9.345306E2,9.1355786E2,2.0972702E1,8.2316696E1,8.3124115E2,6.178303E2,2.1341083E2,1.3905984E2,7.435099E1,4.0566895E1,3.3784096E1,5.787218E2,3.9108505E1,4.5594083E2,1.2278099E2,9.722293E1,2.5558058E1,2.417312E2,2.1420964E2,9.822367E1,1.4350752E2,7.8508E1,6.499952E1,5.0295815E1,1.4703707E1,4.7749092E1,3.0758915E1,6.3366016E1,3.485765E1,3.0751938E1,6.647099E1,2.843408E1,3.803691E1,9.200384E0,2.8836527E1,3.5304314E1,1.0375552E2,1.454083E1,2.0763485E1,5.0230976E1,1.313504E1,2.0677572E1,1.9889322E1,7.695119E1,1.3725845E2,2.8249542E1,1.090089E2,3.4672096E1,4.2279087E1,2.5096909E1,9.575188E0,1.1650497E1,9.027076E0,1.1589062E1,1.6845018E1,5.8339687E1,5.066922E1,2.2844412E1,1.0939683E1,2.0517038E1,1.8591467E1,1.0499084E1,1.02644005E1,1.3895477E1,1.4354065E1,9.196522E0,2.566113E1,4.8235924E1,3.4080772E1,3.244737E1,1.5788555E1,7.455212E1,2.9203405E1,3.43251E1,4.022702E1,1.357625E1,2.665077E1,1.2574141E1,1.4076631E1,1.0394608E1,1.0122432E1,2.4204836E1,9.875937E0,1.9245214E1,1.3202154E1,9.013633E0,1.0231581E1,1.2271676E1,1.3286383E1,3.207841E1,1.0200676E1,2.4897827E1,9.427272E0,9.233293E0,1.361112E1,1.1737035E1,9.235667E0,9.021526E0,1.518331E1,9.041134E0,9.550333E0,1.3894633E1,1.1003195E1,9.612662E0,1.9590744E1],"tree_param":{"num_deleted":"0","num_feature":"19","num_nodes":"105","size_leaf_vector":"1"}},{"base_weights":[1.5947843E-2,6.396315E-2,-5.624145E-1,2.9291248E-2,9.2499155E-1,6.04537E-2,-8.6867124E-1,3.9567728E-2,2.4409257E-1,-5.4303575E-1,1.026826E-1,3.9387223E-1,-5.915822E-2,1.9901948E-1,7.841008E-1,-1.489811E-1,3.707485E-1,1.2004126E0,-5.2533537E-2,-1.9208944E-1,1.7833573E-1,-1.688273E-2,-1.22282855E-1,4.8757854E-1,1.4749041E0,1.8295929E-1,9.504217E-2,1.2487915E-1,-6.807296E-2,2.103631E-3,1.7987539E-1,1.598595E-1,1.5590948E-2,2.7610806E-1,6.339469E-2,-9.4936436E-1,-2.7661273E-1,1.07999936E-1,-6.1984E-1,-4.0382415E-1,-1.8237945E-1,1.886103E-1,-6.674593E-1,1.24569476E-1,-6.216545E-2,-1.7277215E-2,-1.7302486E-1,-3.22566E-1,-9.6826327E-1,-1.5029475E-1,6.550235E-2,-5.032298E-2,8.369662E-2,-1.8704198E-1,-5.6135498E-2,1.1304473E0,6.6676766E-2,1.1756393E-1,2.3281977E-1,-1.0033409E-1,-1.964512E-1,2.9582545E-1,1.8204018E-1,-1.2410161E-1,-1.9176187E-1],"categories":[],"categories_nodes":[],"categories_segments":[],"categories_sizes":[],"default_left":[0,0,0,0,0,0,0,0,0,0,0,0,0,0,0,0,0,0,0,0,0,0,0,0,0,0,0,0,0,0,0,0,0,0,0,0,0,0,0,0,0,0,0,0,0,0,0,0,0,0,0,0,0,0,0,0,0,0,0,0,0,0,0,0,0],"id":4,"left_children":[1,3,35,5,55,7,53,9,-1,39,11,13,15,25,23,19,17,33,27,21,-1,-1,-1,31,61,-1,29,-1,-1,-1,-1,-1,-1,-1,-1,63,37,51,45,41,-1,43,47,-1,-1,-1,-1,49,59,-1,-1,-1,-1,-1,-1,57,-1,-1,-1,-1,-1,-1,-1,-1,-1],"loss_changes":[2.5360546E1,2.5137169E1,7.4795055E0,2.2755697E1,3.0806694E0,2.2831367E1,3.2271214E0,2.8535131E1,0E0,5.3179283E0,3.2995045E1,1.8858711E1,1.7454317E1,1.55009775E1,1.627074E1,1.9731236E1,2.7510551E1,9.096424E0,1.5171233E1,1.7675983E1,0E0,0E0,0E0,1.0861716E1,8.3706284E-1,0E0,1.22263775E1,0E0,0E0,0E0,0E0,0E0,0E0,0E0,0E0,3.4632874E-1,5.568742E0,3.4264607E0,4.620202E0,9.812694E0,0E0,6.445212E0,4.1633606E0,0E0,0E0,0E0,0E0,9.19726E0,9.9717903E-1,0E0,0E0,0E0,0E0,0E0,0E0,1.5683479E0,0E0,0E0,0E0,0E0,0E0,0E0,0E0,0E0,0E0],"parents":[2147483647,0,0,1,1,3,3,5,5,7,7,10,10,11,11,12,12,16,16,15,15,19,19,14,14,13,13,18,18,26,26,23,23,17,17,2,2,36,36,9,9,39,39,41,41,38,38,42,42,47,47,37,37,6,6,4,4,55,55,48,48,24,24,35,35],"right_children":[2,4,36,6,56,8,54,10,-1,40,12,14,16,26,24,20,18,34,28,22,-1,-1,-1,32,62,-1,30,-1,-1,-1,-1,-1,-1,-1,-1,64,38,52,46,42,-1,44,48,-1,-1,-1,-1,50,60,-1,-1,-1,-1,-1,-1,58,-1,-1,-1,-1,-1,-1,-1,-1,-1],"split_conditions":[6.077788E-1,2.8561018E0,-6.7721766E-1,2.2894192E0,-5.479531E-3,1.8638384E0,-2.9670596E-1,-3.750652E-1,2.4409257E-1,-3.7216786E-1,-3.1689426E-1,-2.898476E-1,1.0688272E-3,-5.0871783E-1,8.036576E-1,7.3948435E-2,2.85548E-1,-5.043046E-1,-2.4342321E-1,-2.1500187E-1,1.7833573E-1,-1.688273E-2,-1.22282855E-1,-2.385075E-1,-2.1599124E-1,1.8295929E-1,-3.184055E-1,1.2487915E-1,-6.807296E-2,2.103631E-3,1.7987539E-1,1.598595E-1,1.5590948E-2,2.7610806E-1,6.339469E-2,3.8119638E-1,9.5515914E-2,1.4601621E-1,1.157678E-1,-3.3563355E-1,-1.8237945E-1,-2.3287843E-1,7.267496E-1,1.24569476E-1,-6.216545E-2,-1.7277215E-2,-1.7302486E-1,-3.9815274E-1,2.88596E-1,-1.5029475E-1,6.550235E-2,-5.032298E-2,8.369662E-2,-1.8704198E-1,-5.6135498E-2,9.171275E-3,6.6676766E-2,1.1756393E-1,2.3281977E-1,-1.0033409E-1,-1.964512E-1,2.9582545E-1,1.8204018E-1,-1.2410161E-1,-1.9176187E-1],"split_indices":[8,4,10,4,8,4,11,11,0,4,8,11,4,4,13,1,4,10,1,1,0,0,0,0,0,0,8,0,0,0,0,0,0,0,0,11,4,11,11,8,0,0,10,0,0,0,0,13,13,0,0,0,0,0,0,0,0,0,0,0,0,0,0,0,0],"split_type":[0,0,0,0,0,0,0,0,0,0,0,0,0,0,0,0,0,0,0,0,0,0,0,0,0,0,0,0,0,0,0,0,0,0,0,0,0,0,0,0,0,0,0,0,0,0,0,0,0,0,0,0,0,0,0,0,0,0,0,0,0,0,0,0,0],"sum_hessian":[9.109319E2,8.419251E2,6.900673E1,8.103288E2,3.1596315E1,7.840521E2,2.6276688E1,7.7350745E2,1.0544651E1,7.486221E1,6.9864526E2,2.4907219E2,4.4957306E2,1.6712946E2,8.1942726E1,3.7241562E2,7.715746E1,2.5445816E1,5.1711647E1,3.6044794E2,1.1967665E1,3.0910184E2,5.13461E1,5.852648E1,2.3416246E1,1.6445707E1,1.5068376E2,1.5544053E1,3.6167595E1,1.3989919E2,1.0784573E1,2.6176239E1,3.2350243E1,1.5833142E1,9.612675E0,2.832945E1,4.067728E1,1.9505358E1,2.1171923E1,6.102073E1,1.3841482E1,1.887958E1,4.214115E1,9.31621E0,9.56337E0,9.953677E0,1.12182455E1,2.0597261E1,2.1543888E1,1.1269644E1,9.327618E0,9.660878E0,9.8444805E0,1.7210133E1,9.066555E0,2.1911852E1,9.6844635E0,9.63939E0,1.2272461E1,9.058793E0,1.2485096E1,1.1380372E1,1.2035874E1,1.5987406E1,1.2342044E1],"tree_param":{"num_deleted":"0","num_feature":"19","num_nodes":"65","size_leaf_vector":"1"}},{"base_weights":[-2.5173543E-2,-4.338609E-2,2.4179612E-1,-9.816929E-2,3.4055224E-1,-3.4055114E-2,-6.106925E-1,7.683977E-1,-1.7103472E-1,-5.9323907E-1,1.4429745E-1,-1.8480706E-1,1.2746513E-1,6.9679916E-1,-8.736046E-2,1.661728E-1,-4.2049545E-1,3.988647E-1,-2.4301466E-1,-3.0200157E-1,-1.1043807E0,-5.1916647E-1,1.7771526E-1,-4.506533E-2,8.8655585E-1,2.6782197E-1,-3.9219105E-1,1.2049906E-1,-4.8440605E-1,-3.2082465E-1,-1.0832239E0,-8.954817E-2,8.518193E-2,-7.9705286E-1,3.9485976E-2,5.230377E-1,-4.7974873E-1,1.4460425E-1,-8.0333136E-2,-7.3518805E-2,6.2997246E-1,9.4746107E-1,-6.9291234E-2,-6.311129E-3,2.7410653E-1,6.8130726E-1,-6.257161E-2,-6.910152E-5,2.5230205E-1,-5.4358196E-2,-1.6642767E-1,2.3988062E-1,-1.314491E-1,-2.3830836E-1,3.911971E-1,9.08905E-2,-5.9961087E-1,4.150971E-1,1.1159294E0,1.60518E-2,1.3327143E0,1.9239026E-1,-1.9529749E-2,2.7708003E-1,1.8159792E-1,7.867495E-2,-2.1012343E-2,9.3746775E-1,1.3226257E-2,-3.9072465E-3,-8.853229E-1,1.2797643E0,6.15139E-1,2.5770512E-1,1.18600436E-1,-4.852548E-1,-1.0008012E0,1.5836027E-1,3.9325736E-2,-8.8939415E-3,-1.3952799E-1,-2.60116E-2,-1.2531166E-1,-1.8759947E-1,-8.77121E-2,-1.8561582E-1,-7.751503E-2,-2.1167667E-1,-1.0727034E-1,-5.7389237E-2,-1.4801967E-1,2.627293E-1,1.4712562E-1,-1.171327E-1,-2.0123664E-1],"categories":[],"categories_nodes":[],"categories_segments":[],"categories_sizes":[],"default_left":[0,0,0,0,0,0,0,0,0,0,0,0,0,0,0,0,0,0,0,0,0,0,0,0,0,0,0,0,0,0,0,0,0,0,0,0,0,0,0,0,0,0,0,0,0,0,0,0,0,0,0,0,0,0,0,0,0,0,0,0,0,0,0,0,0,0,0,0,0,0,0,0,0,0,0,0,0,0,0,0,0,0,0,0,0,0,0,0,0,0,0,0,0,0,0],"id":5,"left_children":[1,3,-1,5,7,11,33,67,9,69,-1,15,13,23,17,51,19,39,25,21,87,29,35,-1,57,45,27,-1,49,31,93,-1,-1,75,-1,37,79,-1,-1,-1,41,43,-1,-1,-1,47,-1,-1,-1,-1,-1,53,-1,55,63,-1,89,61,59,-1,73,-1,-1,65,-1,-1,-1,71,-1,-1,85,91,77,-1,-1,81,83,-1,-1,-1,-1,-1,-1,-1,-1,-1,-1,-1,-1,-1,-1,-1,-1,-1,-1],"loss_changes":[2.4240585E1,1.884315E1,0E0,2.5721306E1,2.4622478E1,1.7003534E1,1.3915768E1,7.0502853E0,2.3070993E1,6.1946487E0,0E0,2.9941065E1,4.1307922E1,1.7188725E1,1.8695255E1,1.0401686E1,1.7195988E1,1.1884046E1,1.4337798E1,1.9443073E1,1.5167732E0,1.3986004E1,1.3561772E1,0E0,7.9221916E0,1.1603296E1,1.5201977E1,0E0,1.0623985E1,1.729963E1,6.468468E-1,0E0,0E0,4.060608E0,0E0,1.3667539E1,3.0732288E0,0E0,0E0,0E0,1.6097595E1,2.4905678E1,0E0,0E0,0E0,1.4820177E1,0E0,0E0,0E0,0E0,0E0,9.938292E0,0E0,9.724682E0,7.895499E0,0E0,1.3937597E0,1.0641323E1,1.127755E1,0E0,4.350029E0,0E0,0E0,7.0566387E0,0E0,0E0,0E0,4.617752E0,0E0,0E0,1.804245E0,1.2654343E0,3.185381E0,0E0,0E0,2.5018396E0,1.8104744E0,0E0,0E0,0E0,0E0,0E0,0E0,0E0,0E0,0E0,0E0,0E0,0E0,0E0,0E0,0E0,0E0,0E0,0E0],"parents":[2147483647,0,0,1,1,3,3,4,4,8,8,5,5,12,12,11,11,14,14,16,16,19,19,13,13,18,18,26,26,21,21,29,29,6,6,22,22,35,35,17,17,40,40,41,41,25,25,45,45,28,28,15,15,51,51,53,53,24,24,58,58,57,57,54,54,63,63,7,7,9,9,67,67,60,60,33,33,72,72,36,36,75,75,76,76,70,70,20,20,56,56,71,71,30,30],"right_children":[2,4,-1,6,8,12,34,68,10,70,-1,16,14,24,18,52,20,40,26,22,88,30,36,-1,58,46,28,-1,50,32,94,-1,-1,76,-1,38,80,-1,-1,-1,42,44,-1,-1,-1,48,-1,-1,-1,-1,-1,54,-1,56,64,-1,90,62,60,-1,74,-1,-1,66,-1,-1,-1,72,-1,-1,86,92,78,-1,-1,82,84,-1,-1,-1,-1,-1,-1,-1,-1,-1,-1,-1,-1,-1,-1,-1,-1,-1,-1],"split_conditions":[9.635821E0,8.7978154E-2,2.4179612E-1,-1.4158008E-1,7.663079E-2,-2.898476E-1,4.3987322E-1,1.7316645E0,-6.155354E-1,-2.3271503E-1,1.4429745E-1,-3.9815274E-1,-2.2290187E-1,-6.280444E-1,-3.1276357E-1,-9.778092E-2,-2.9875323E-1,-3.4045297E-1,-2.403908E-1,-3.3990335E-1,-3.097411E-1,-3.5310826E-1,-2.6712498E-1,-4.506533E-2,8.2521105E-1,-2.3631787E-1,-8.1683767E-1,1.2049906E-1,6.8609285E-1,-3.6119497E-1,6.7052037E-1,-8.954817E-2,8.518193E-2,-2.3271503E-1,3.9485976E-2,-3.066179E-1,-5.097421E-1,1.4460425E-1,-8.0333136E-2,-7.3518805E-2,4.4137094E-2,9.168134E-2,-6.9291234E-2,-6.311129E-3,2.7410653E-1,5.288491E-1,-6.257161E-2,-6.910152E-5,2.5230205E-1,-5.4358196E-2,-1.6642767E-1,-3.7675422E-1,-1.314491E-1,-3.3835378E-1,-1.8784593E-1,9.08905E-2,-3.912479E-1,-7.1124893E-1,-2.2646554E-1,1.60518E-2,1.0678076E0,1.9239026E-1,-1.9529749E-2,8.2521105E-1,1.8159792E-1,7.867495E-2,-2.1012343E-2,1.6261439E-1,1.3226257E-2,-3.9072465E-3,-6.9415724E-1,-9.1321427E-1,-2.2642179E-1,2.5770512E-1,1.18600436E-1,-2.707568E-1,2.88596E-1,1.5836027E-1,3.9325736E-2,-8.8939415E-3,-1.3952799E-1,-2.60116E-2,-1.2531166E-1,-1.8759947E-1,-8.77121E-2,-1.8561582E-1,-7.751503E-2,-2.1167667E-1,-1.0727034E-1,-5.7389237E-2,-1.4801967E-1,2.627293E-1,1.4712562E-1,-1.171327E-1,-2.0123664E-1],"split_indices":[16,0,0,1,8,11,1,0,3,6,0,13,11,6,8,0,11,7,7,11,8,11,7,0,12,1,3,0,3,11,3,0,0,6,0,8,10,0,0,0,7,3,0,0,0,3,0,0,0,0,0,11,0,8,0,0,7,3,13,0,3,0,0,12,0,0,0,6,0,0,3,13,8,0,0,11,13,0,0,0,0,0,0,0,0,0,0,0,0,0,0,0,0,0,0],"split_type":[0,0,0,0,0,0,0,0,0,0,0,0,0,0,0,0,0,0,0,0,0,0,0,0,0,0,0,0,0,0,0,0,0,0,0,0,0,0,0,0,0,0,0,0,0,0,0,0,0,0,0,0,0,0,0,0,0,0,0,0,0,0,0,0,0,0,0,0,0,0,0,0,0,0,0,0,0,0,0,0,0,0,0,0,0,0,0,0,0,0,0,0,0,0,0],"sum_hessian":[9.033925E2,8.932797E2,1.0112766E1,7.8238715E2,1.1089256E2,6.963443E2,8.604286E1,6.0115425E1,5.0777138E1,3.6336628E1,1.4440509E1,3.6010385E2,3.3624045E2,9.15006E1,2.4473985E2,1.4478679E2,2.1531706E2,5.8969925E1,1.8576993E2,1.8474814E2,3.0568924E1,1.2711961E2,5.7628517E1,1.4958493E1,7.6542114E1,4.180803E1,1.439619E2,1.0510946E1,1.3345096E2,9.5209496E1,3.191012E1,7.5996704E1,1.9212793E1,7.0562584E1,1.5480277E1,3.7917446E1,1.971107E1,2.8422426E1,9.495021E0,1.2558892E1,4.6411034E1,3.5654144E1,1.0756889E1,1.5050469E1,2.0603674E1,2.5378746E1,1.6429283E1,1.4436131E1,1.09426155E1,1.0275091E2,3.0700047E1,1.3506076E2,9.726026E0,3.2326843E1,1.0273392E2,1.0069647E1,2.2257196E1,2.5970844E1,5.0571266E1,9.115769E0,4.1455498E1,1.0431729E1,1.5539116E1,8.939861E1,1.3335303E1,6.037632E1,2.902229E1,4.798836E1,1.2127063E1,1.267821E1,2.3658417E1,2.1832739E1,2.6155622E1,3.0120735E1,1.1334763E1,2.922339E1,4.133919E1,1.3217725E1,1.2937898E1,9.441597E0,1.0269471E1,1.364906E1,1.5574331E1,3.2040062E1,9.299131E0,1.4447308E1,9.21111E0,2.1503248E1,9.065676E0,1.2829141E1,9.428056E0,1.1031627E1,1.0801113E1,9.097577E0,2.2812544E1],"tree_param":{"num_deleted":"0","num_feature":"19","num_nodes":"95","size_leaf_vector":"1"}},{"base_weights":[-5.9315637E-3,-3.7285123E-2,7.4154794E-1,-4.2452733E-3,-8.7378865E-1,-1.9645436E-2,1.7645268E-1,6.644919E-1,-4.4766147E-2,-1.6755268E-1,1.01417154E-1,-3.82589E-1,2.2953944E-1,6.4659727E-1,4.9969904E-2,-2.034862E-1,6.1473584E-1,9.6852994E-1,-1.335039E-1,-4.9517274E-2,-5.6474435E-1,-2.5405374E-1,2.6702952E-1,1.2792946E0,1.8691318E-2,6.1863817E-2,-1.522932E-1,-1.13563135E-1,-8.968931E-1,4.6218105E-2,2.282707E-1,5.7323955E-2,-6.053035E-1,-1.1355967E-1,-3.9502326E-3,-3.7231565E-1,-1.9970419E-1,9.4949774E-2,-5.1893765E-1,-7.348262E-2,1.2007144E-2,-1.4410277E-1,5.7369508E-2,1.0135324E0,-8.208037E-3,1.9973323E-1,6.7041546E-2,-1.29977E-1,-2.3237292E-2,1.0403433E-1,2.860107E-1,-7.704181E-1,-1.3810947E-2,7.409391E-2,2.296533E-1,-1.0009538E-1,-1.8655448E-1,-1.7441316E-1,-7.499449E-2,-8.81588E-2,-1.764843E-1,6.50011E-2,1.4289519E-1],"categories":[],"categories_nodes":[],"categories_segments":[],"categories_sizes":[],"default_left":[0,0,0,0,0,0,0,0,0,0,0,0,0,0,0,0,0,0,0,0,0,0,0,0,0,0,0,0,0,0,0,0,0,0,0,0,0,0,0,0,0,0,0,0,0,0,0,0,0,0,0,0,0,0,0,0,0,0,0,0,0,0,0],"id":6,"left_children":[1,3,43,5,59,7,-1,61,9,19,11,31,13,17,15,33,29,45,41,21,35,27,23,49,25,-1,-1,39,57,-1,-1,-1,51,-1,-1,37,-1,-1,47,-1,-1,-1,-1,53,-1,-1,-1,-1,-1,-1,-1,55,-1,-1,-1,-1,-1,-1,-1,-1,-1,-1,-1],"loss_changes":[2.06652E1,2.3380455E1,7.682001E0,1.3287303E1,1.4496994E0,1.3851165E1,0E0,1.1549978E0,1.3957836E1,1.9779778E1,2.2113314E1,1.2265077E1,2.104683E1,2.1383255E1,2.8443829E1,1.1695463E1,1.521036E1,7.14077E0,9.141731E0,2.1226677E1,1.1219572E1,1.7873741E1,3.234529E1,6.0735474E0,3.4267082E1,0E0,0E0,9.928438E0,1.8315163E0,0E0,0E0,0E0,4.9020023E0,0E0,0E0,1.0678396E1,0E0,0E0,6.310152E0,0E0,0E0,0E0,0E0,4.7874527E0,0E0,0E0,0E0,0E0,0E0,0E0,0E0,1.9222031E0,0E0,0E0,0E0,0E0,0E0,0E0,0E0,0E0,0E0,0E0,0E0],"parents":[2147483647,0,0,1,1,3,3,5,5,8,8,10,10,12,12,14,14,13,13,9,9,19,19,22,22,24,24,21,21,16,16,11,11,15,15,20,20,35,35,27,27,18,18,2,2,17,17,38,38,23,23,32,32,43,43,51,51,28,28,4,4,7,7],"right_children":[2,4,44,6,60,8,-1,62,10,20,12,32,14,18,16,34,30,46,42,22,36,28,24,50,26,-1,-1,40,58,-1,-1,-1,52,-1,-1,38,-1,-1,48,-1,-1,-1,-1,54,-1,-1,-1,-1,-1,-1,-1,56,-1,-1,-1,-1,-1,-1,-1,-1,-1,-1,-1],"split_conditions":[2.8561018E0,2.2894192E0,-2.6978115E-2,1.8638384E0,2.6660697E0,-8.156982E-1,1.7645268E-1,-2.4992584E-1,1.6261439E-1,-1.765878E-1,-3.6037606E-1,-5.053041E-1,-4.9620077E-1,-2.1599124E-1,-1.2592624E-1,-4.9051118E-1,-6.523775E-1,6.7052037E-1,-5.030283E-1,1.1219139E-1,-3.5991946E-1,-4.4461834E-1,6.8609285E-1,5.288491E-1,-4.8823535E-1,6.1863817E-2,-1.522932E-1,-5.053041E-1,-2.030556E-1,4.6218105E-2,2.282707E-1,5.7323955E-2,1.0801883E0,-1.1355967E-1,-3.9502326E-3,-3.6539188E-1,-1.9970419E-1,9.4949774E-2,2.0421292E-1,-7.348262E-2,1.2007144E-2,-1.4410277E-1,5.7369508E-2,-7.032728E-1,-8.208037E-3,1.9973323E-1,6.7041546E-2,-1.29977E-1,-2.3237292E-2,1.0403433E-1,2.860107E-1,4.2496732E-1,-1.3810947E-2,7.409391E-2,2.296533E-1,-1.0009538E-1,-1.8655448E-1,-1.7441316E-1,-7.499449E-2,-8.81588E-2,-1.764843E-1,6.50011E-2,1.4289519E-1],"split_indices":[4,4,11,4,4,3,0,11,6,0,11,4,4,0,0,4,3,3,4,3,3,3,3,3,4,0,0,4,3,0,0,0,10,0,0,11,0,0,1,0,0,0,0,3,0,0,0,0,0,0,0,10,0,0,0,0,0,0,0,0,0,0,0],"split_type":[0,0,0,0,0,0,0,0,0,0,0,0,0,0,0,0,0,0,0,0,0,0,0,0,0,0,0,0,0,0,0,0,0,0,0,0,0,0,0,0,0,0,0,0,0,0,0,0,0,0,0,0,0,0,0,0,0,0,0,0,0,0,0],"sum_hessian":[8.795866E2,8.4508887E2,3.4497738E1,8.139451E2,3.1143772E1,8.032246E2,1.0720467E1,2.7547382E1,7.7567725E2,4.2149594E2,3.541813E2,7.371664E1,2.8046466E2,8.362989E1,1.9683478E2,1.363039E2,6.0530876E1,5.902845E1,2.4601444E1,3.258008E2,9.569515E1,1.9803687E2,1.2776394E2,2.4351604E1,1.0341233E2,7.548905E1,2.792328E1,1.6348448E2,3.455238E1,4.2583706E1,1.794717E1,1.7204512E1,5.6512127E1,3.6736423E1,9.9567474E1,7.443746E1,2.1257692E1,9.667943E0,6.4769516E1,5.886243E1,1.0462205E2,9.418031E0,1.51834135E1,2.5456987E1,9.04075E0,4.159956E1,1.742889E1,3.8054157E1,2.6715359E1,1.054693E1,1.3804673E1,4.2590157E1,1.3921971E1,1.0644686E1,1.4812301E1,3.011417E1,1.24759865E1,2.518143E1,9.37095E0,1.1929998E1,1.9213774E1,1.23890085E1,1.5158373E1],"tree_param":{"num_deleted":"0","num_feature":"19","num_nodes":"63","size_leaf_vector":"1"}},{"base_weights":[-1.7010653E-2,-3.264866E-2,1.8627717E-1,-4.195879E-1,5.7016443E-3,2.4908362E-1,-7.873569E-2,-1.28018325E-2,5.127796E-1,3.5497423E-2,1.0124153E0,4.632405E-1,-6.177676E-1,7.4643713E-1,-1.933831E-1,-4.311035E-1,5.944024E-1,-1.4227413E-1,-1.8796943E-1,-2.5223093E-2,-4.6458927E-1,-6.9804186E-1,9.8711915E-2,-8.980037E-2,3.969339E-1,-4.7972655E-1,8.420566E-1,-3.5590068E-2,-6.43824E-1,-1.8071665E-1,3.7124354E-2,-1.10935315E-1,2.763907E-1,-1.7093618E-1,7.0877904E-1,6.592872E-2,-1.1453325E-1,-1.5006071E-1,1.1364104E-1,-6.500721E-3,-1.04473904E-1,-9.131268E-1,3.1147677E-2,1.363446E0,4.6776173E-1,1.6499168E-1,1.8114742E-2,2.022405E-2,1.0422809E0,6.7569725E-2,-1.1229003E-1,-5.1056966E-2,1.3303901E-1,-2.2687297E-1,-7.046513E-1,1.1250932E-2,-1.1970833E-1,2.848912E-1,-7.144E-2,-3.8011424E-2,1.2702529E-1,-9.2135453E-1,-3.6236438E-1,-1.5596165E-1,6.260284E-3,1.5025277E-1,2.4586082E-3,2.2608566E-1,1.00333154E-1,-4.8230225E-3,7.0603114E-1,4.618006E-2,1.9147992E-1,-6.292582E-2,-1.8755543E-1,1.679577E-1,4.571608E-2,-5.383223E-2,-1.541884E-1,-1.58662E-1,-4.838504E-2,-1.8291923E-1,-7.668337E-2,1.5096784E-1,4.019501E-2,2.864666E-1,1.7603399E-1],"categories":[],"categories_nodes":[],"categories_segments":[],"categories_sizes":[],"default_left":[0,0,0,0,0,0,0,0,0,0,0,0,0,0,0,0,0,0,0,0,0,0,0,0,0,0,0,0,0,0,0,0,0,0,0,0,0,0,0,0,0,0,0,0,0,0,0,0,0,0,0,0,0,0,0,0,0,0,0,0,0,0,0,0,0,0,0,0,0,0,0,0,0,0,0,0,0,0,0,0,0,0,0,0,0,0,0],"id":7,"left_children":[1,3,-1,53,5,7,19,13,9,11,43,69,79,71,15,17,83,49,-1,23,21,61,-1,27,25,29,47,31,41,-1,-1,37,33,35,45,-1,-1,39,-1,-1,-1,81,-1,85,65,-1,-1,-1,67,51,-1,-1,-1,55,77,57,-1,59,-1,-1,-1,73,63,-1,-1,-1,-1,-1,-1,-1,75,-1,-1,-1,-1,-1,-1,-1,-1,-1,-1,-1,-1,-1,-1,-1,-1],"loss_changes":[1.5244676E1,1.2630712E1,0E0,4.0566216E0,1.5951528E1,1.3813013E1,1.1888378E1,1.4030616E1,2.3725533E1,1.4815838E1,8.662659E0,3.8422565E0,2.0000162E0,3.3530636E0,1.57279415E1,1.2612225E1,1.9100204E0,5.172528E0,0E0,1.3862645E1,1.7661865E1,4.004305E0,0E0,1.3213511E1,2.6734646E1,1.0043682E1,6.3907337E0,9.491848E0,8.933079E0,0E0,0E0,1.0131711E1,1.5320534E1,1.1671027E1,6.5426254E0,0E0,0E0,1.63222E1,0E0,0E0,0E0,1.9194775E0,0E0,1.350975E0,3.9860606E0,0E0,0E0,0E0,3.9794044E0,9.442002E0,0E0,0E0,0E0,5.493969E0,2.2216053E0,4.0409427E0,0E0,5.192072E0,0E0,0E0,0E0,3.2609615E0,5.660063E0,0E0,0E0,0E0,0E0,0E0,0E0,0E0,2.480095E0,0E0,0E0,0E0,0E0,0E0,0E0,0E0,0E0,0E0,0E0,0E0,0E0,0E0,0E0,0E0,0E0],"parents":[2147483647,0,0,1,1,4,4,5,5,8,8,9,9,7,7,14,14,15,15,6,6,20,20,19,19,24,24,23,23,25,25,27,27,32,32,33,33,31,31,37,37,28,28,10,10,34,34,26,26,17,17,49,49,3,3,53,53,55,55,57,57,21,21,62,62,44,44,48,48,11,11,13,13,61,61,70,70,54,54,12,12,41,41,16,16,43,43],"right_children":[2,4,-1,54,6,8,20,14,10,12,44,70,80,72,16,18,84,50,-1,24,22,62,-1,28,26,30,48,32,42,-1,-1,38,34,36,46,-1,-1,40,-1,-1,-1,82,-1,86,66,-1,-1,-1,68,52,-1,-1,-1,56,78,58,-1,60,-1,-1,-1,74,64,-1,-1,-1,-1,-1,-1,-1,76,-1,-1,-1,-1,-1,-1,-1,-1,-1,-1,-1,-1,-1,-1,-1,-1],"split_conditions":[9.635821E0,-3.750652E-1,1.8627717E-1,-2.2646554E-1,-3.19816E-1,-3.4236255E-1,6.0818744E-1,-6.835224E-1,1.5017295E-1,-6.398436E-1,1.0678076E0,-6.280444E-1,-2.766729E-1,-7.11474E-1,1.1476135E0,7.2946835E-1,-3.332156E-1,2.4980342E0,-1.8796943E-1,1.3187191E0,1.3486027E0,1.6261439E-1,9.8711915E-2,1.0830002E0,-2.9046178E-1,-3.097411E-1,1.585289E-1,8.7978154E-2,2.055708E0,-1.8071665E-1,3.7124354E-2,3.6645603E-1,1.5067239E0,-2.3271503E-1,1.9296253E0,6.592872E-2,-1.1453325E-1,-5.3643808E-2,1.1364104E-1,-6.500721E-3,-1.04473904E-1,-1.8491326E-1,3.1147677E-2,-2.8087398E-1,-2.6712498E-1,1.6499168E-1,1.8114742E-2,2.022405E-2,-2.1599124E-1,1.5067239E0,-1.1229003E-1,-5.1056966E-2,1.3303901E-1,-2.4579166E-1,7.267496E-1,5.579438E-1,-1.1970833E-1,-5.5976725E-1,-7.144E-2,-3.8011424E-2,1.2702529E-1,-2.3287843E-1,-3.0232165E-2,-1.5596165E-1,6.260284E-3,1.5025277E-1,2.4586082E-3,2.2608566E-1,1.00333154E-1,-4.8230225E-3,-2.2646554E-1,4.618006E-2,1.9147992E-1,-6.292582E-2,-1.8755543E-1,1.679577E-1,4.571608E-2,-5.383223E-2,-1.541884E-1,-1.58662E-1,-4.838504E-2,-1.8291923E-1,-7.668337E-2,1.5096784E-1,4.019501E-2,2.864666E-1,1.7603399E-1],"split_indices":[16,11,0,13,8,7,11,3,3,3,3,6,7,10,10,10,8,15,0,13,6,6,0,3,11,8,3,0,3,0,0,11,5,6,1,0,0,11,0,0,0,8,0,7,7,0,0,0,0,5,0,0,0,1,10,6,0,10,0,0,0,0,0,0,0,0,0,0,0,0,13,0,0,0,0,0,0,0,0,0,0,0,0,0,0,0,0],"split_type":[0,0,0,0,0,0,0,0,0,0,0,0,0,0,0,0,0,0,0,0,0,0,0,0,0,0,0,0,0,0,0,0,0,0,0,0,0,0,0,0,0,0,0,0,0,0,0,0,0,0,0,0,0,0,0,0,0,0,0,0,0,0,0,0,0,0,0,0,0,0,0,0,0,0,0,0,0,0,0,0,0,0,0,0,0,0,0],"sum_hessian":[8.6081683E2,8.5000867E2,1.0808188E1,7.575275E1,7.742559E2,1.9892499E2,5.7533093E2,1.00282486E2,9.86425E1,5.099758E1,4.7644924E1,3.099418E1,2.00034E1,1.8666636E1,8.161585E1,6.304446E1,1.8571392E1,4.5300323E1,1.7744137E1,5.061941E2,6.91368E1,5.687233E1,1.226447E1,4.3971783E2,6.647627E1,2.236032E1,4.4115955E1,4.014963E2,3.822152E1,1.1773357E1,1.0586962E1,3.2391364E2,7.758269E1,3.842982E1,3.9152866E1,1.8399931E1,2.002989E1,3.0938147E2,1.4532143E1,2.5136676E2,5.8014717E1,2.8779425E1,9.442097E0,2.8058084E1,1.958684E1,2.6399046E1,1.2753819E1,9.932585E0,3.4183372E1,3.3035862E1,1.2264463E1,2.2225359E1,1.0810501E1,4.6268883E1,2.9483862E1,3.1738955E1,1.4529928E1,1.9740849E1,1.1998105E1,9.73288E0,1.0007969E1,3.3104485E1,2.3767845E1,9.26683E0,1.4501015E1,9.560988E0,1.0025851E1,1.900432E1,1.5179051E1,1.0532146E1,2.0462034E1,9.302282E0,9.364353E0,9.573033E0,2.3531452E1,1.1374805E1,9.087229E0,1.149903E1,1.798483E1,9.065454E0,1.0937948E1,1.9681576E1,9.097849E0,9.136506E0,9.434885E0,1.1214226E1,1.6843857E1],"tree_param":{"num_deleted":"0","num_feature":"19","num_nodes":"87","size_leaf_vector":"1"}},{"base_weights":[-2.2171335E-2,1.25202825E-2,-4.618405E-1,-1.173221E-2,6.570166E-1,1.1042603E-2,-7.374926E-1,-1.8061E-2,6.30478E-1,1.5490699E-2,-7.266873E-1,-2.7244529E-2,6.5186846E-1,1.2372985E0,-3.4157164E-2,-9.699397E-3,-1.736426E-1,-2.7850257E-2,1.6142279E-1,3.479041E-3,-9.907031E-2,2.9872602E-2,-6.4594555E-1,-9.696524E-1,-1.6300175E-1,6.33144E-2,-1.2092946E-1,-1.568284E-1,-4.245432E-2,3.4607667E-2,1.503882E-1,8.152319E-1,2.3332385E-2,1.8451284E-1,5.1291764E-2,-1.5930216E-1,-6.111238E-2,2.4894953E-1,1.4561845E-1,-1.3088669E-1,-1.9289443E-1],"categories":[],"categories_nodes":[],"categories_segments":[],"categories_sizes":[],"default_left":[0,0,0,0,0,0,0,0,0,0,0,0,0,0,0,0,0,0,0,0,0,0,0,0,0,0,0,0,0,0,0,0,0,0,0,0,0,0,0,0,0],"id":8,"left_children":[1,3,21,5,29,7,35,9,31,11,27,15,13,37,-1,17,-1,19,-1,-1,-1,-1,23,39,25,-1,-1,-1,-1,-1,-1,33,-1,-1,-1,-1,-1,-1,-1,-1,-1],"loss_changes":[1.3002315E1,1.2367353E1,7.461564E0,1.2620441E1,2.9211016E0,1.3366513E1,1.4984379E0,1.6857117E1,2.9063616E0,1.8442429E1,2.9348335E0,1.1243729E1,2.1628521E1,1.0384254E0,0E0,1.10799465E1,0E0,1.6863272E1,0E0,0E0,0E0,0E0,7.444683E0,9.024048E-2,6.530369E0,0E0,0E0,0E0,0E0,0E0,0E0,3.1504602E0,0E0,0E0,0E0,0E0,0E0,0E0,0E0,0E0,0E0],"parents":[2147483647,0,0,1,1,3,3,5,5,7,7,9,9,12,12,11,11,15,15,17,17,2,2,22,22,24,24,10,10,4,4,8,8,31,31,6,6,13,13,23,23],"right_children":[2,4,22,6,30,8,36,10,32,12,28,16,14,38,-1,18,-1,20,-1,-1,-1,-1,24,40,26,-1,-1,-1,-1,-1,-1,34,-1,-1,-1,-1,-1,-1,-1,-1,-1],"split_conditions":[6.077788E-1,2.8561018E0,-2.1737032E-1,2.2894192E0,-3.366338E-1,1.4371197E0,-3.1072974E-1,5.097176E-1,-5.978299E-1,1.0688272E-3,-2.828357E-1,-2.9654924E-2,-5.9198684E-1,1.5067239E0,-3.4157164E-2,7.3948435E-2,-1.736426E-1,-2.1500187E-1,1.6142279E-1,3.479041E-3,-9.907031E-2,2.9872602E-2,4.0434653E-1,-6.5601134E-1,3.6645603E-1,6.33144E-2,-1.2092946E-1,-1.568284E-1,-4.245432E-2,3.4607667E-2,1.503882E-1,-3.9815274E-1,2.3332385E-2,1.8451284E-1,5.1291764E-2,-1.5930216E-1,-6.111238E-2,2.4894953E-1,1.4561845E-1,-1.3088669E-1,-1.9289443E-1],"split_indices":[8,4,1,4,7,4,11,4,10,4,11,4,3,5,0,1,0,1,0,0,0,0,1,10,11,0,0,0,0,0,0,13,0,0,0,0,0,0,0,0,0],"split_type":[0,0,0,0,0,0,0,0,0,0,0,0,0,0,0,0,0,0,0,0,0,0,0,0,0,0,0,0,0,0,0,0,0,0,0,0,0,0,0,0,0],"sum_hessian":[8.510732E2,7.897318E2,6.13414E1,7.6203796E2,2.769381E1,7.398071E2,2.2230825E1,7.075351E2,3.2272045E1,6.7648346E2,3.1051674E1,6.348106E2,4.16728E1,2.4478926E1,1.7193874E1,6.249513E2,9.859367E0,6.144585E2,1.0492795E1,5.665315E2,4.7926983E1,1.3709455E1,4.7631947E1,2.7914E1,1.9717949E1,1.0182735E1,9.5352125E0,2.0861895E1,1.0189779E1,1.0279842E1,1.7413967E1,2.2972916E1,9.2991295E0,1.3971713E1,9.001203E0,1.3162193E1,9.068631E0,1.281693E1,1.1661996E1,1.627805E1,1.163595E1],"tree_param":{"num_deleted":"0","num_feature":"19","num_nodes":"41","size_leaf_vector":"1"}},{"base_weights":[-2.0585796E-3,2.0176576E-2,-5.997273E-1,-7.105297E-4,1.5308557E-1,2.0831373E-1,-7.206857E-2,-2.3407573E-1,4.2921627E-1,-9.4317234E-1,-3.6784336E-2,6.223855E-2,-2.7970767E-1,-9.519131E-2,3.3941302E-1,8.762536E-1,1.799104E-2,5.024974E-1,-3.9149746E-1,2.2038437E-1,1.6794115E-1,-1.6696095E-1,7.678218E-1,2.1785088E-3,-5.8485544E-1,2.676228E-2,-9.657001E-2,-1.1546967E-2,-6.0771346E-1,-2.4914725E-1,5.3667766E-1,8.710556E-1,2.2493091E-1,1.8326966E-1,-2.4410104E-2,-1.0488048E-1,7.69966E-2,-2.9286914E-2,-1.510303E-1,-1.01840176E-1,4.994108E-2,9.3568906E-2,1.626083E-1,2.0804888E-1,4.3015495E-2,1.0669877E-1,-7.2928615E-2,-2.5301978E-1,9.954155E-2,1.1160321E0,2.7474307E-2,7.716403E-2,-3.550771E-1,-6.3070196E-1,6.4063095E-2,1.377407E-1,-1.2387555E-1,-7.524976E-2,-1.9750825E-1,-7.6934147E-1,-2.0767383E-1,-1.4236394E-2,-1.4588787E-1,8.844886E-2,-5.1399644E-2,-6.979796E-2,3.2452397E-2,5.2571688E-2,1.9427174E-1,2.2342543E-1,1.0633764E-1,-5.471522E-2,-1.4399497E-1,-6.2503606E-1,-1.8393643E-1,-1.6099659E-1,-6.4787306E-2,-6.7476384E-2,1.1607983E-2,-1.0927895E-1,-1.8268535E-1],"categories":[],"categories_nodes":[],"categories_segments":[],"categories_sizes":[],"default_left":[0,0,0,0,0,0,0,0,0,0,0,0,0,0,0,0,0,0,0,0,0,0,0,0,0,0,0,0,0,0,0,0,0,0,0,0,0,0,0,0,0,0,0,0,0,0,0,0,0,0,0,0,0,0,0,0,0,0,0,0,0,0,0,0,0,0,0,0,0,0,0,0,0,0,0,0,0,0,0,0,0],"id":9,"left_children":[1,3,61,5,-1,7,9,51,31,79,11,13,27,21,15,19,17,43,35,-1,63,23,67,25,57,-1,-1,29,59,37,33,49,41,-1,-1,-1,-1,39,-1,-1,-1,45,-1,-1,-1,-1,47,65,-1,69,-1,-1,53,71,55,-1,-1,-1,-1,73,77,-1,-1,-1,-1,-1,-1,-1,-1,-1,-1,-1,-1,75,-1,-1,-1,-1,-1,-1,-1],"loss_changes":[1.1056218E1,1.4967588E1,4.085063E0,1.1721995E1,0E0,1.9646637E1,1.7972797E1,5.8155165E0,1.1876795E1,2.6262474E-1,1.3586944E1,1.7554865E1,1.4377595E1,1.6039173E1,2.5121878E1,1.6725971E1,1.8478102E1,7.4272404E0,1.0355098E1,0E0,3.9197435E0,1.682253E1,3.1732903E0,1.5615761E1,5.0013676E0,0E0,0E0,1.1986854E1,4.59527E0,9.17177E0,1.0733218E1,7.082384E0,8.995886E0,0E0,0E0,0E0,0E0,9.459267E0,0E0,0E0,0E0,7.281017E0,0E0,0E0,0E0,0E0,7.6123247E0,3.703217E0,0E0,2.3922272E0,0E0,0E0,6.722834E0,2.1514645E0,1.5126887E1,0E0,0E0,0E0,0E0,1.7768307E0,1.2442796E0,0E0,0E0,0E0,0E0,0E0,0E0,0E0,0E0,0E0,0E0,0E0,0E0,2.7053604E0,0E0,0E0,0E0,0E0,0E0,0E0,0E0],"parents":[2147483647,0,0,1,1,3,3,5,5,6,6,10,10,11,11,14,14,16,16,15,15,13,13,21,21,23,23,12,12,27,27,8,8,30,30,18,18,29,29,37,37,32,32,17,17,41,41,46,46,31,31,7,7,52,52,54,54,24,24,28,28,2,2,20,20,47,47,22,22,49,49,53,53,59,59,73,73,60,60,9,9],"right_children":[2,4,62,6,-1,8,10,52,32,80,12,14,28,22,16,20,18,44,36,-1,64,24,68,26,58,-1,-1,30,60,38,34,50,42,-1,-1,-1,-1,40,-1,-1,-1,46,-1,-1,-1,-1,48,66,-1,70,-1,-1,54,72,56,-1,-1,-1,-1,74,78,-1,-1,-1,-1,-1,-1,-1,-1,-1,-1,-1,-1,76,-1,-1,-1,-1,-1,-1,-1],"split_conditions":[1.0433161E0,3.410267E0,9.5515914E-2,-7.1124893E-1,1.5308557E-1,-5.0075245E-1,-6.9415724E-1,-8.221551E-1,-2.4579166E-1,-3.1477854E-1,-4.3361536E-1,-4.8937327E-1,-5.7831347E-1,2.7782628E-1,-4.8709744E-1,-1.93475E-1,6.85713E-1,-6.74027E-1,1.7438794E0,2.2038437E-1,-6.599738E-1,-4.9620077E-1,-5.0189036E-1,-2.4579166E-1,-6.0553346E-2,2.676228E-2,-9.657001E-2,-6.1211705E-1,1.5067239E0,2.5938922E-1,-5.9198684E-1,1.5067239E0,2.5571892E-1,1.8326966E-1,-2.4410104E-2,-1.0488048E-1,7.69966E-2,-2.4413656E-1,-1.510303E-1,-1.01840176E-1,4.994108E-2,-4.2223617E-1,1.626083E-1,2.0804888E-1,4.3015495E-2,1.0669877E-1,-1.5933412E-1,1.5067239E0,9.954155E-2,5.097176E-1,2.7474307E-2,7.716403E-2,-7.7961576E-1,1.5067239E0,-7.754378E-1,1.377407E-1,-1.2387555E-1,-7.524976E-2,-1.9750825E-1,-1.7095874E-1,1.9380172E-1,-1.4236394E-2,-1.4588787E-1,8.844886E-2,-5.1399644E-2,-6.979796E-2,3.2452397E-2,5.2571688E-2,1.9427174E-1,2.2342543E-1,1.0633764E-1,-5.471522E-2,-1.4399497E-1,-4.582917E-1,-1.8393643E-1,-1.6099659E-1,-6.4787306E-2,-6.7476384E-2,1.1607983E-2,-1.0927895E-1,-1.8268535E-1],"split_indices":[8,4,4,3,0,4,3,3,1,8,4,4,3,8,4,0,3,3,3,0,3,4,4,1,11,0,0,3,5,8,3,5,7,0,0,0,0,0,0,0,0,4,0,0,0,0,11,5,0,4,0,0,3,5,3,0,0,0,0,0,8,0,0,0,0,0,0,0,0,0,0,0,0,3,0,0,0,0,0,0,0],"split_type":[0,0,0,0,0,0,0,0,0,0,0,0,0,0,0,0,0,0,0,0,0,0,0,0,0,0,0,0,0,0,0,0,0,0,0,0,0,0,0,0,0,0,0,0,0,0,0,0,0,0,0,0,0,0,0,0,0,0,0,0,0,0,0,0,0,0,0,0,0,0,0,0,0,0,0,0,0,0,0,0,0],"sum_hessian":[8.3005615E2,8.0121466E2,2.8841467E1,7.838837E2,1.7330935E1,1.9901204E2,5.848717E2,6.625904E1,1.32753E2,2.1766466E1,5.631052E2,4.0056616E2,1.6253906E2,2.5588492E2,1.4468123E2,5.353711E1,9.114413E1,4.1643936E1,4.950019E1,3.2531685E1,2.1005424E1,2.369835E2,1.8901417E1,1.6941068E2,6.757283E1,1.337202E2,3.5690483E1,8.9997185E1,7.254188E1,6.3166428E1,2.6830761E1,4.0940586E1,9.1812416E1,1.4442203E1,1.2388558E1,3.9020832E1,1.0479359E1,4.801889E1,1.5147537E1,1.7043093E1,3.0975796E1,7.9011765E1,1.2800653E1,9.385816E0,3.225812E1,1.7877377E1,6.1134384E1,4.8623695E1,1.2510691E1,2.9977072E1,1.0963515E1,9.415252E0,5.684379E1,3.3988403E1,2.2855387E1,1.1748087E1,1.11073E1,5.6416473E1,1.1156359E1,5.100939E1,2.1532486E1,1.0393224E1,1.8448242E1,1.1884294E1,9.12113E0,3.5647163E1,1.2976532E1,9.582425E0,9.318992E0,1.9443962E1,1.053311E1,1.5618744E1,1.8369658E1,3.7446533E1,1.3562857E1,1.4298194E1,2.314834E1,1.2370846E1,9.161639E0,9.121728E0,1.2644738E1],"tree_param":{"num_deleted":"0","num_feature":"19","num_nodes":"81","size_leaf_vector":"1"}},{"base_weights":[-7.5848713E-3,-4.564979E-1,2.3750868E-2,1.9159025E-1,-6.028267E-2,-1.3423382E-2,-4.5796782E-1,-4.596324E-2,1.8031192E-1,1.7928373E-2,-1.6449133E-1,1.1120758E-1,6.29034E-1,1.7043453E-1,-1.6011499E-1,-1.0314313E-1,3.0246776E-1,-3.9251575E-1,6.324498E-1,2.0486425E-1,-1.815563E-1,6.2233645E-2,-3.0337667E-1,-3.7559614E-1,3.5848403E-1,2.8794754E-1,-1.807156E-1,6.5120555E-2,6.076539E-1,2.346856E-1,-1.4510247E-1,4.294823E-2,9.5852786E-1,-1.1266616E-1,7.005532E-2,4.1188017E-1,-2.7987716E-1,-6.400477E-2,5.946053E-1,1.665816E-1,2.7043464E-2,-1.6348341E-1,3.1236315E-2,8.883725E-1,-8.57288E-3,-1.7891823E-1,-5.3766638E-2,1.7932366E-1,2.821416E-1,-2.9776797E-1,2.2667116E-1,7.529043E-2,-6.608378E-2,-2.2090635E-1,-1.5431017E-1,6.295418E-2,-4.785851E-1,1.5078108E-1,1.2584499E-1,-5.79264E-1,7.889941E-2,-2.63629E-2,1.4057139E-1,1.128348E-1,-1.6810896E-3,1.1685896E0,5.4425724E-2,-9.674611E-2,2.87778E-2,-2.3972616E-2,1.0593944E-1,6.2197804E-2,-6.286789E-2,-1.3786933E-1,9.531984E-2,-1.2519397E-1,-1.1045715E-2,-2.719759E-2,-1.5024307E-1,-9.2883185E-2,1.0869246E-2,-7.47899E-2,2.3325933E-2,2.1244496E-1,6.476511E-1,3.0569423E-2,1.7806487E-1,1.4262131E-1,2.4158221E-1],"categories":[],"categories_nodes":[],"categories_segments":[],"categories_sizes":[],"default_left":[0,0,0,0,0,0,0,0,0,0,0,0,0,0,0,0,0,0,0,0,0,0,0,0,0,0,0,0,0,0,0,0,0,0,0,0,0,0,0,0,0,0,0,0,0,0,0,0,0,0,0,0,0,0,0,0,0,0,0,0,0,0,0,0,0,0,0,0,0,0,0,0,0,0,0,0,0,0,0,0,0,0,0,0,0,0,0,0,0],"id":10,"left_children":[1,53,3,11,5,7,9,15,-1,33,-1,13,43,25,-1,19,17,41,47,35,21,49,23,45,61,27,59,29,31,57,-1,71,65,-1,-1,37,79,-1,39,-1,-1,-1,-1,83,-1,-1,-1,-1,69,67,51,-1,-1,55,-1,-1,75,-1,63,77,73,-1,-1,-1,-1,87,-1,-1,-1,-1,-1,-1,-1,81,-1,-1,-1,-1,-1,-1,-1,-1,-1,-1,85,-1,-1,-1,-1],"loss_changes":[1.1451199E1,5.605547E0,1.0747056E1,8.868059E0,9.460024E0,1.619314E1,1.3349718E1,8.86127E0,0E0,8.292131E0,0E0,1.3803888E1,6.9678726E0,8.529184E0,0E0,9.25041E0,1.463513E1,7.205547E0,6.276209E0,7.9303255E0,9.064832E0,6.1245537E0,9.850943E0,6.624222E0,5.2123804E0,1.09532385E1,5.4390273E0,1.4733298E1,1.2492584E1,5.579485E0,0E0,3.608604E0,4.808544E0,0E0,0E0,8.2011E0,2.296249E0,0E0,7.6389446E0,0E0,0E0,0E0,0E0,1.7774887E0,0E0,0E0,0E0,0E0,3.8391142E0,4.3653164E0,9.962597E0,0E0,0E0,5.797895E0,0E0,0E0,2.8266277E0,0E0,5.1205626E0,2.589787E0,3.5234065E0,0E0,0E0,0E0,0E0,1.276413E0,0E0,0E0,0E0,0E0,0E0,0E0,0E0,2.0523994E0,0E0,0E0,0E0,0E0,0E0,0E0,0E0,0E0,0E0,0E0,3.561143E0,0E0,0E0,0E0,0E0],"parents":[2147483647,0,0,2,2,4,4,5,5,6,6,3,3,11,11,7,7,16,16,15,15,20,20,22,22,13,13,25,25,27,27,28,28,9,9,19,19,35,35,38,38,17,17,12,12,23,23,18,18,21,21,50,50,1,1,53,53,29,29,26,26,24,24,58,58,32,32,49,49,48,48,31,31,60,60,56,56,59,59,36,36,73,73,43,43,84,84,65,65],"right_children":[2,54,4,12,6,8,10,16,-1,34,-1,14,44,26,-1,20,18,42,48,36,22,50,24,46,62,28,60,30,32,58,-1,72,66,-1,-1,38,80,-1,40,-1,-1,-1,-1,84,-1,-1,-1,-1,70,68,52,-1,-1,56,-1,-1,76,-1,64,78,74,-1,-1,-1,-1,88,-1,-1,-1,-1,-1,-1,-1,82,-1,-1,-1,-1,-1,-1,-1,-1,-1,-1,86,-1,-1,-1,-1],"split_conditions":[-3.770613E-1,-2.1599124E-1,-3.1689426E-1,-1.17795564E-1,8.415251E-1,3.4432669E0,-6.523775E-1,1.3187191E0,1.8031192E-1,1.6261439E-1,-1.6449133E-1,-1.4491165E-1,-2.1036218E-1,-4.2223617E-1,-1.6011499E-1,-3.774989E-1,-2.898476E-1,-3.097411E-1,-1.9132273E-1,-1.4783767E-1,-7.1124893E-1,-5.030283E-1,4.0434653E-1,-7.0821154E-1,-5.657485E-1,-3.4236255E-1,-3.7785742E-1,-3.5076472E-1,9.168134E-2,-2.4751215E0,-1.4510247E-1,-3.264654E-1,-2.6903456E-1,-1.1266616E-1,7.005532E-2,-7.5279915E-1,-1.2029717E-1,-6.400477E-2,-5.130046E-1,1.665816E-1,2.7043464E-2,-1.6348341E-1,3.1236315E-2,-3.9815274E-1,-8.57288E-3,-1.7891823E-1,-5.3766638E-2,1.7932366E-1,-7.877405E-2,-1.0349484E-1,5.736932E-2,7.529043E-2,-6.608378E-2,-6.751664E-1,-1.5431017E-1,6.295418E-2,3.5373583E-1,1.5078108E-1,-6.59594E-1,-6.2447375E-1,-3.2878265E-1,-2.63629E-2,1.4057139E-1,1.128348E-1,-1.6810896E-3,1.6261439E-1,5.4425724E-2,-9.674611E-2,2.87778E-2,-2.3972616E-2,1.0593944E-1,6.2197804E-2,-6.286789E-2,8.2521105E-1,9.531984E-2,-1.2519397E-1,-1.1045715E-2,-2.719759E-2,-1.5024307E-1,-9.2883185E-2,1.0869246E-2,-7.47899E-2,2.3325933E-2,2.1244496E-1,7.6433486E-1,3.0569423E-2,1.7806487E-1,1.4262131E-1,2.4158221E-1],"split_indices":[11,0,8,7,11,4,3,13,0,6,0,7,0,4,0,7,11,8,11,8,3,4,1,10,10,7,4,7,3,2,0,8,7,0,0,10,0,0,10,0,0,0,0,13,0,0,0,0,11,11,1,0,0,3,0,0,10,0,3,10,8,0,0,0,0,6,0,0,0,0,0,0,0,12,0,0,0,0,0,0,0,0,0,0,3,0,0,0,0],"split_type":[0,0,0,0,0,0,0,0,0,0,0,0,0,0,0,0,0,0,0,0,0,0,0,0,0,0,0,0,0,0,0,0,0,0,0,0,0,0,0,0,0,0,0,0,0,0,0,0,0,0,0,0,0,0,0,0,0,0,0,0,0,0,0,0,0,0,0,0,0,0,0,0,0,0,0,0,0,0,0,0,0,0,0,0,0,0,0,0,0],"sum_hessian":[8.12275E2,5.2114815E1,7.601602E2,2.5318878E2,5.0697144E2,4.544565E2,5.251491E1,4.4220447E2,1.2252063E1,2.8013906E1,2.4501005E1,2.1494559E2,3.82432E1,2.0443341E2,1.0512176E1,3.804706E2,6.1733837E1,1.9813862E1,4.1919975E1,7.6878555E1,3.0359207E2,1.0131903E2,2.0227303E2,1.8276318E2,1.9509844E1,1.5330846E2,5.1124947E1,9.105158E1,6.2256878E1,7.765452E1,1.3397065E1,2.4288591E1,3.7968285E1,1.0030197E1,1.798371E1,5.397714E1,2.2901419E1,9.896381E0,4.4080757E1,2.2264816E1,2.181594E1,9.531151E0,1.028271E1,2.746527E1,1.0777928E1,1.2053413E1,1.7070978E2,1.7726452E1,2.4193525E1,3.1514275E1,6.9804756E1,5.1590775E1,1.821398E1,3.5549305E1,1.6565506E1,1.0585623E1,2.4963684E1,9.900513E0,6.7754005E1,1.9680758E1,3.1444187E1,9.7312355E0,9.778608E0,1.2687012E1,5.5066994E1,2.7882984E1,1.0085302E1,1.9610449E1,1.1903827E1,1.1189907E1,1.3003617E1,1.3670183E1,1.0618407E1,2.2296074E1,9.148114E0,1.4635048E1,1.0328635E1,9.155769E0,1.0524988E1,1.2414636E1,1.0486783E1,1.0262431E1,1.2033643E1,9.0084E0,1.845687E1,9.377955E0,9.078914E0,1.4787693E1,1.309529E1],"tree_param":{"num_deleted":"0","num_feature":"19","num_nodes":"89","size_leaf_vector":"1"}},{"base_weights":[-1.2157592E-2,1.7315231E-2,-3.780429E-1,-1.1144149E-1,1.5500222E-1,5.1270914E-1,7.65664E-3,9.213673E-2,-3.097957E-1,-1.2245306E-1,3.9929235E-1,6.0874104E-1,-9.358477E-2,1.4572562E-1,-3.576312E-1,-3.921752E-1,2.0488054E-1,6.038147E-2,9.703989E-1,4.0177323E-2,7.220306E-1,1.6624185E-1,1.2588668E-1,-1.3835321E-1,-7.643302E-1,-6.676762E-1,2.380946E-1,-7.604257E-2,7.460863E-1,-6.2494935E-3,2.067739E-1,-4.1793704E-1,3.1995052E-1,-3.5493985E-1,2.513181E-1,-5.641531E-1,6.309168E-2,-2.2540523E-1,-8.220347E-1,-3.935193E-1,4.81982E-2,-2.0555724E-1,-1.605418E-1,3.3418027E-1,-5.0281435E-1,8.0955493E-1,-2.917759E-1,-4.066705E-1,3.7208393E-1,-8.879481E-2,1.885312E-1,1.03322245E-1,8.232671E-1,3.9851987E-1,-8.553657E-2,-1.4311878E-2,1.4007284E-1,-7.8856E-2,4.2209247E-1,-5.718953E-1,4.0746573E-2,-7.76078E-1,1.1175653E-2,3.9705697E-2,2.280442E-1,6.3313055E-1,1.1248685E-1,-1.15596324E-1,4.4277564E-1,1.2874413E-1,-5.2905165E-2,-5.4134667E-2,7.94966E-2,2.2070265E-1,6.646383E-2,-1.5420482E-1,6.298158E-3,2.7880126E-1,8.846554E-1,-5.1204417E-2,1.58466E-1,-6.1458472E-2,-1.7678708E-1,-1.9975574E-1,-4.8634857E-1,-1.8633059E-1,-5.5030033E-2,-1.3322908E-1,-1.2237604E-3,1.4670245E-1,2.7502311E-2,1.3609123E-1,1.6641166E-4,7.3234746E-3,-1.0238362E-1,6.0884364E-2,1.8585552E-1,6.250875E-2,1.0039825E0,6.779705E-1,1.2531031E0,-1.8571466E-2,-6.842338E-1,-4.697518E-2,6.2563874E-2,-5.4252785E-2,-1.5797769E-1,1.7052904E-1,4.9502853E-2,2.690813E-1,1.3500056E-1,-1.6741101E-1,-4.9292517E-1,2.5059653E-3,-9.682804E-2,-3.7820883E-2,-1.3404413E-1,-3.0861465E-2,-1.179869E-1,-1.5432425E-1,-9.21E-2],"categories":[],"categories_nodes":[],"categories_segments":[],"categories_sizes":[],"default_left":[0,0,0,0,0,0,0,0,0,0,0,0,0,0,0,0,0,0,0,0,0,0,0,0,0,0,0,0,0,0,0,0,0,0,0,0,0,0,0,0,0,0,0,0,0,0,0,0,0,0,0,0,0,0,0,0,0,0,0,0,0,0,0,0,0,0,0,0,0,0,0,0,0,0,0,0,0,0,0,0,0,0,0,0,0,0,0,0,0,0,0,0,0,0,0,0,0,0,0,0,0,0,0,0,0,0,0,0,0,0,0,0,0,0,0,0,0,0,0,0,0],"id":11,"left_children":[1,3,35,7,5,19,9,15,37,13,11,17,-1,31,23,61,21,103,73,57,77,-1,33,25,83,105,27,-1,29,-1,-1,75,51,93,65,101,-1,39,85,41,43,47,-1,45,115,95,113,59,49,-1,-1,53,63,55,-1,-1,-1,-1,91,81,-1,119,-1,-1,-1,89,67,71,69,-1,-1,-1,-1,-1,-1,-1,-1,79,97,-1,-1,-1,-1,-1,87,-1,-1,-1,-1,-1,-1,-1,-1,-1,-1,-1,-1,-1,99,107,109,-1,111,-1,-1,-1,-1,-1,-1,-1,-1,-1,117,-1,-1,-1,-1,-1,-1,-1,-1],"loss_changes":[8.691009E0,1.324698E1,8.648575E0,1.5624147E1,1.9025236E1,1.0387878E1,1.3130429E1,1.0529676E1,8.280788E0,1.2254169E1,1.3228491E1,1.0492441E1,0E0,9.08041E0,9.112454E0,6.4779E0,9.566774E0,2.4722075E0,5.8381424E0,6.7108502E0,5.0098763E0,0E0,8.702465E0,1.3784189E1,3.6974545E0,2.407133E0,1.4640783E1,0E0,9.154962E0,0E0,0E0,5.054034E0,7.564538E0,3.0837302E0,5.9638214E0,2.569416E0,0E0,7.8164434E0,3.543333E0,1.0953651E1,1.04753065E1,9.459557E0,0E0,1.3228307E1,1.6918902E0,2.9480953E0,1.7261467E0,6.5711412E0,1.499976E1,0E0,0E0,9.296127E0,6.2844296E0,7.360954E0,0E0,0E0,0E0,0E0,3.2223828E0,4.376029E0,0E0,1.4779949E-1,0E0,0E0,0E0,3.2805052E0,6.4326305E0,6.3810906E0,8.833153E0,0E0,0E0,0E0,0E0,0E0,0E0,0E0,0E0,8.48359E0,2.8549614E0,0E0,0E0,0E0,0E0,0E0,3.4677625E0,0E0,0E0,0E0,0E0,0E0,0E0,0E0,0E0,0E0,0E0,0E0,0E0,0E0,2.58572E0,2.3624706E0,2.3028564E0,0E0,1.8084698E0,0E0,0E0,0E0,0E0,0E0,0E0,0E0,0E0,0E0,1.5482235E0,0E0,0E0,0E0,0E0,0E0,0E0,0E0,0E0],"parents":[2147483647,0,0,1,1,4,4,3,3,6,6,10,10,9,9,7,7,11,11,5,5,16,16,14,14,23,23,26,26,28,28,13,13,22,22,2,2,8,8,37,37,39,39,40,40,43,43,41,41,48,48,32,32,51,51,53,53,19,19,47,47,15,15,52,52,34,34,66,66,68,68,67,67,18,18,31,31,20,20,77,77,59,59,24,24,38,38,84,84,65,65,58,58,33,33,45,45,78,78,98,98,35,35,17,17,25,25,99,99,100,100,102,102,46,46,44,44,112,112,61,61],"right_children":[2,4,36,8,6,20,10,16,38,14,12,18,-1,32,24,62,22,104,74,58,78,-1,34,26,84,106,28,-1,30,-1,-1,76,52,94,66,102,-1,40,86,42,44,48,-1,46,116,96,114,60,50,-1,-1,54,64,56,-1,-1,-1,-1,92,82,-1,120,-1,-1,-1,90,68,72,70,-1,-1,-1,-1,-1,-1,-1,-1,80,98,-1,-1,-1,-1,-1,88,-1,-1,-1,-1,-1,-1,-1,-1,-1,-1,-1,-1,-1,100,108,110,-1,112,-1,-1,-1,-1,-1,-1,-1,-1,-1,118,-1,-1,-1,-1,-1,-1,-1,-1],"split_conditions":[5.488407E-1,-2.898476E-1,-2.7647257E-1,-2.2646554E-1,-2.2576804E-1,-6.929865E-1,8.036576E-1,-7.468179E-1,-2.9875323E-1,-6.2447375E-1,6.0818744E-1,3.1404194E-1,-9.358477E-2,-5.053041E-1,6.745222E-2,-3.5310826E-1,-5.0871783E-1,-1.4740878E-1,1.0551757E0,-2.3271503E-1,8.2521105E-1,1.6624185E-1,-3.7675422E-1,-1.7212957E-1,1.3327196E-1,1.6261439E-1,-3.901167E-1,-7.604257E-2,-2.6139623E-1,-6.2494935E-3,2.067739E-1,-7.446429E-1,4.7864643E-1,-3.3785003E-1,-6.6851765E-1,-1.7709419E-1,6.309168E-2,-3.3990335E-1,-4.9051118E-1,-3.5310826E-1,-2.6712498E-1,1.0801883E0,-1.605418E-1,-4.8026994E-1,-5.097421E-1,5.7558656E-1,-3.6456037E-1,1.3187191E0,-3.7414396E-1,-8.879481E-2,1.885312E-1,5.579438E-1,5.579438E-1,-7.0789695E-2,-8.553657E-2,-1.4311878E-2,1.4007284E-1,-7.8856E-2,-7.419241E-1,7.2403085E-1,4.0746573E-2,-7.7998674E-1,1.1175653E-2,3.9705697E-2,2.280442E-1,1.5067239E0,-2.4342321E-1,-3.1931224E-1,-1.8158855E-1,1.2874413E-1,-5.2905165E-2,-5.4134667E-2,7.94966E-2,2.2070265E-1,6.646383E-2,-1.5420482E-1,6.298158E-3,-3.6420244E-1,-2.2646554E-1,-5.1204417E-2,1.58466E-1,-6.1458472E-2,-1.7678708E-1,-1.9975574E-1,-3.39004E-1,-1.8633059E-1,-5.5030033E-2,-1.3322908E-1,-1.2237604E-3,1.4670245E-1,2.7502311E-2,1.3609123E-1,1.6641166E-4,7.3234746E-3,-1.0238362E-1,6.0884364E-2,1.8585552E-1,6.250875E-2,1.6261439E-1,-2.6328427E-1,8.036576E-1,-1.8571466E-2,-7.2234905E-1,-4.697518E-2,6.2563874E-2,-5.4252785E-2,-1.5797769E-1,1.7052904E-1,4.9502853E-2,2.690813E-1,1.3500056E-1,-1.6741101E-1,8.2521105E-1,2.5059653E-3,-9.682804E-2,-3.7820883E-2,-1.3404413E-1,-3.0861465E-2,-1.179869E-1,-1.5432425E-1,-9.21E-2],"split_indices":[8,11,10,13,11,10,13,10,11,10,11,10,0,4,11,11,4,11,10,6,12,0,11,11,11,6,10,0,7,0,0,10,11,8,10,11,0,11,4,11,7,10,0,4,10,10,10,13,11,0,0,6,6,11,0,0,0,0,10,10,0,10,0,0,0,5,1,8,8,0,0,0,0,0,0,0,0,4,13,0,0,0,0,0,10,0,0,0,0,0,0,0,0,0,0,0,0,0,6,11,13,0,10,0,0,0,0,0,0,0,0,0,12,0,0,0,0,0,0,0,0],"split_type":[0,0,0,0,0,0,0,0,0,0,0,0,0,0,0,0,0,0,0,0,0,0,0,0,0,0,0,0,0,0,0,0,0,0,0,0,0,0,0,0,0,0,0,0,0,0,0,0,0,0,0,0,0,0,0,0,0,0,0,0,0,0,0,0,0,0,0,0,0,0,0,0,0,0,0,0,0,0,0,0,0,0,0,0,0,0,0,0,0,0,0,0,0,0,0,0,0,0,0,0,0,0,0,0,0,0,0,0,0,0,0,0,0,0,0,0,0,0,0,0,0],"sum_hessian":[8.043343E2,7.452551E2,5.9079174E1,3.8521524E2,3.600399E2,1.04315735E2,2.5572414E2,1.9036853E2,1.9484673E2,1.9246913E2,6.3255E1,5.220246E1,1.105254E1,9.010306E1,1.0236608E2,3.5479836E1,1.5488869E2,2.121E1,3.0992462E1,3.2389694E1,7.192605E1,1.3073984E1,1.418147E2,6.737825E1,3.498783E1,2.7681578E1,3.969667E1,1.6852604E1,2.2844069E1,9.118974E0,1.3725094E1,2.0944225E1,6.915883E1,2.8962114E1,1.1285259E2,4.7591923E1,1.1487251E1,1.685229E2,2.6323816E1,1.0411298E2,6.440992E1,7.912513E1,2.4987852E1,4.266157E1,2.1748348E1,2.4080572E1,1.8581E1,5.8910618E1,2.0214516E1,9.3314495E0,1.0883067E1,4.9191856E1,1.9966974E1,3.3451557E1,1.5740298E1,1.6260384E1,1.7191175E1,1.3759288E1,1.8630405E1,4.7063488E1,1.1847128E1,1.894127E1,1.6538567E1,1.0237525E1,9.729449E0,2.9143095E1,8.3709496E1,4.990043E1,3.3809067E1,2.3649748E1,1.0159317E1,3.725481E1,1.2645617E1,1.8517494E1,1.2474967E1,9.477066E0,1.1467159E1,2.003517E1,5.1890877E1,1.0966035E1,9.069134E0,3.4264214E1,1.2799277E1,1.2490118E1,2.2497713E1,1.5799495E1,1.0524322E1,1.3282348E1,9.215366E0,1.8647816E1,1.0495278E1,9.191366E0,9.439039E0,1.1648673E1,1.7313442E1,1.0556972E1,1.3523601E1,1.0592911E1,4.1297966E1,1.9500313E1,2.1797651E1,1.0368869E1,3.7223057E1,1.0204645E1,1.1005354E1,1.3263892E1,1.4417686E1,9.452735E0,1.0047578E1,1.0748266E1,1.1049385E1,1.2478337E1,2.4744719E1,9.422264E0,9.158736E0,1.2160083E1,9.588265E0,1.0806758E1,1.3937961E1,9.688037E0,9.253233E0],"tree_param":{"num_deleted":"0","num_feature":"19","num_nodes":"121","size_leaf_vector":"1"}},{"base_weights":[-3.0636154E-2,-4.2654995E-2,1.507539E-1,-1.2004696E-1,-3.112847E-2,-7.863043E-3,-3.59543E-1,-2.6276648E-2,1.7405008E-1,-4.4805672E-2,-1.7056747E-1,3.709895E-1,-1.4103733E-1,1.2974263E-2,-2.668109E-1,-3.4339275E-2,6.811869E-1,4.372861E-2,-3.4425128E-1,2.2235367E-2,-5.84194E-1,-4.3442093E-2,1.5377425E-1,-5.3960957E-2,2.6520714E-1,1.1551045E-1,1.1563306E-2,4.8109256E-3,-8.247805E-2,-8.115656E-2,-6.5763575E-1,2.733192E-1,-3.2962736E-1,1.4838651E-2,8.8917416E-1,-8.401502E-3,1.3290112E-1,-2.4995152E-2,-1.2099089E-1,-5.0277406E-1,3.2453608E-2,5.527589E-3,-1.3421719E-1,1.014581E-1,2.1383114E-1,5.839739E-3,1.0648988E-1,-8.3777493E-1,-4.760238E-2,-3.5961576E-2,3.435274E-2,-9.0725265E-2,-1.7235862E-1],"categories":[],"categories_nodes":[],"categories_segments":[],"categories_sizes":[],"default_left":[0,0,0,0,0,0,0,0,0,0,0,0,0,0,0,0,0,0,0,0,0,0,0,0,0,0,0,0,0,0,0,0,0,0,0,0,0,0,0,0,0,0,0,0,0,0,0,0,0,0,0,0,0],"id":12,"left_children":[1,3,-1,-1,5,7,9,13,-1,11,-1,45,-1,15,29,17,33,23,19,21,37,-1,-1,27,25,-1,-1,-1,-1,31,47,35,39,-1,43,49,-1,-1,-1,41,-1,-1,-1,-1,-1,-1,-1,51,-1,-1,-1,-1,-1],"loss_changes":[8.776547E0,5.9768634E0,0E0,0E0,5.8093257E0,1.37336645E1,1.0374285E1,6.612816E0,0E0,1.1931317E1,0E0,2.0878513E0,0E0,1.9081173E1,7.075975E0,1.365793E1,4.840418E0,9.77901E0,1.0000454E1,1.1803552E1,4.0069733E0,0E0,0E0,1.138775E1,1.14587555E1,0E0,0E0,0E0,0E0,6.057662E0,1.8822298E0,4.174277E0,3.7473755E0,0E0,2.457384E0,8.9957976E-1,0E0,0E0,0E0,4.9044476E0,0E0,0E0,0E0,0E0,0E0,0E0,0E0,6.154442E-1,0E0,0E0,0E0,0E0,0E0],"parents":[2147483647,0,0,1,1,4,4,5,5,6,6,9,9,7,7,13,13,15,15,18,18,19,19,17,17,24,24,23,23,14,14,29,29,16,16,31,31,20,20,32,32,39,39,34,34,11,11,30,30,35,35,47,47],"right_children":[2,4,-1,-1,6,8,10,14,-1,12,-1,46,-1,16,30,18,34,24,20,22,38,-1,-1,28,26,-1,-1,-1,-1,32,48,36,40,-1,44,50,-1,-1,-1,42,-1,-1,-1,-1,-1,-1,-1,52,-1,-1,-1,-1,-1],"split_conditions":[1.0238642E1,-1.4187033E0,1.507539E-1,-1.2004696E-1,8.415251E-1,3.410267E0,-2.3276521E-1,5.097176E-1,1.7405008E-1,-5.717298E-1,-1.7056747E-1,-2.2646554E-1,-1.4103733E-1,1.0688272E-3,-6.0326743E-1,-4.2223617E-1,-3.475806E-1,-4.8937327E-1,-6.5927386E-1,-6.902677E-1,-3.6119497E-1,-4.3442093E-2,1.5377425E-1,-4.9506286E-1,-4.8709744E-1,1.1551045E-1,1.1563306E-2,4.8109256E-3,-8.247805E-2,-7.415271E-1,4.0434653E-1,-2.57296E-1,-6.619926E-1,1.4838651E-2,5.579438E-1,1.8934243E0,1.3290112E-1,-2.4995152E-2,-1.2099089E-1,-7.538867E-1,3.2453608E-2,5.527589E-3,-1.3421719E-1,1.014581E-1,2.1383114E-1,5.839739E-3,1.0648988E-1,-3.5976186E-1,-4.760238E-2,-3.5961576E-2,3.435274E-2,-9.0725265E-2,-1.7235862E-1],"split_indices":[17,6,0,0,11,4,1,4,0,10,0,13,0,4,10,4,11,4,10,10,11,0,0,4,4,0,0,0,0,13,1,11,10,0,6,4,0,0,0,10,0,0,0,0,0,0,0,11,0,0,0,0,0],"split_type":[0,0,0,0,0,0,0,0,0,0,0,0,0,0,0,0,0,0,0,0,0,0,0,0,0,0,0,0,0,0,0,0,0,0,0,0,0,0,0,0,0,0,0,0,0,0,0,0,0,0,0,0,0],"sum_hessian":[7.8065247E2,7.716358E2,9.0166645E0,1.1952897E1,7.596829E2,7.103822E2,4.9300705E1,6.990553E2,1.1326937E1,3.4074448E1,1.5226256E1,2.2740715E1,1.1333733E1,6.017985E2,9.725676E1,5.62891E2,3.8907513E1,4.5031424E2,1.1257679E2,4.4901665E1,6.7675125E1,3.470298E1,1.0198687E1,3.1300888E2,1.3730534E2,4.264331E1,9.4662025E1,2.6411365E2,4.8895245E1,6.675409E1,3.0502674E1,2.746776E1,3.9286324E1,1.0477643E1,2.842987E1,1.8449545E1,9.018216E0,1.6772501E1,5.0902622E1,2.9548136E1,9.738189E0,1.0880182E1,1.8667953E1,1.7875507E1,1.0554363E1,1.0510222E1,1.2230494E1,1.9741657E1,1.0761016E1,9.38031E0,9.069236E0,9.229094E0,1.0512564E1],"tree_param":{"num_deleted":"0","num_feature":"19","num_nodes":"53","size_leaf_vector":"1"}},{"base_weights":[-3.0090332E-3,-1.4086935E-2,1.319518E-1,-3.968037E-2,2.7038127E-1,-1.0590307E-2,-3.8025832E-1,2.8223436E-2,-6.168252E-1,-8.586106E-1,2.5801096E-2,-6.2194474E-2,4.2581117E-1,6.593877E-1,-6.136296E-2,1.0249361E-1,-9.487925E-2,-1.253302E-1,1.4436945E-1,-6.515362E-2,-6.855383E-1,-1.49005E-2,3.4192958E-1,-9.1684364E-2,1.1499931E-1,1.8267408E-1,-3.6527133E-1,-2.2897804E-1,-1.951223E-1,-9.292711E-2,4.472017E-2,-3.2437995E-1,3.7506735E-1,4.7928205E-1,-4.8708368E-2,3.2351676E-2,-1.6048408E-1,-1.6255604E-1,1.5724112E-1,4.0822783E-1,-1.689563E-1,-3.061852E-1,6.0143422E-2,-2.38082E-2,-1.24055624E-1,3.855236E-2,-8.255474E-2,6.198237E-1,-1.0170975E-2,1.8608712E-1,8.9225835E-1,3.2083046E-2,1.8907514E-1,-5.0432347E-2,8.403813E-2,-8.431176E-2,3.2053538E-2,-9.17826E-1,-2.6875606E-2,8.9172445E-2,8.2594424E-4,4.0004108E-2,7.8262454E-1,4.229969E-2,1.0216238E0,1.02084056E-1,2.280315E-1,-1.2340092E-2,6.7070484E-2,-8.342013E-2,-1.677972E-1,-1.8416801E-1,-1.0361576E-1],"categories":[],"categories_nodes":[],"categories_segments":[],"categories_sizes":[],"default_left":[0,0,0,0,0,0,0,0,0,0,0,0,0,0,0,0,0,0,0,0,0,0,0,0,0,0,0,0,0,0,0,0,0,0,0,0,0,0,0,0,0,0,0,0,0,0,0,0,0,0,0,0,0,0,0,0,0,0,0,0,0,0,0,0,0,0,0,0,0,0,0,0,0],"id":13,"left_children":[1,3,-1,5,11,15,7,-1,9,69,-1,-1,13,61,-1,21,17,19,-1,37,57,23,33,25,-1,31,27,29,-1,-1,-1,35,53,47,-1,-1,-1,41,39,59,55,43,45,-1,-1,-1,-1,49,-1,67,51,-1,-1,-1,-1,-1,-1,71,-1,-1,-1,-1,63,-1,65,-1,-1,-1,-1,-1,-1,-1,-1],"loss_changes":[6.7337623E0,5.5310183E0,0E0,6.8966303E0,6.4109063E0,6.1360626E0,7.2142177E0,0E0,7.3055716E0,1.0170631E0,0E0,0E0,9.665764E0,1.8715076E0,0E0,7.7338295E0,1.0846409E1,1.2032852E1,0E0,7.0573254E0,4.0793858E0,1.0046263E1,8.002377E0,1.2679565E1,0E0,8.371369E0,8.931447E0,1.1993803E1,0E0,0E0,0E0,7.981077E0,5.426901E0,5.7090206E0,0E0,0E0,0E0,7.2548842E0,8.205208E0,2.8169365E0,5.3820386E0,9.7037525E0,8.520855E0,0E0,0E0,0E0,0E0,6.851616E0,0E0,1.3737237E0,5.7707424E0,0E0,0E0,0E0,0E0,0E0,0E0,6.1200905E-1,0E0,0E0,0E0,0E0,3.5778122E0,0E0,2.042694E0,0E0,0E0,0E0,0E0,0E0,0E0,0E0,0E0],"parents":[2147483647,0,0,1,1,3,3,6,6,8,8,4,4,12,12,5,5,16,16,17,17,15,15,21,21,23,23,26,26,27,27,25,25,22,22,31,31,19,19,38,38,37,37,41,41,42,42,33,33,47,47,50,50,32,32,40,40,20,20,39,39,13,13,62,62,64,64,49,49,9,9,57,57],"right_children":[2,4,-1,6,12,16,8,-1,10,70,-1,-1,14,62,-1,22,18,20,-1,38,58,24,34,26,-1,32,28,30,-1,-1,-1,36,54,48,-1,-1,-1,42,40,60,56,44,46,-1,-1,-1,-1,50,-1,68,52,-1,-1,-1,-1,-1,-1,72,-1,-1,-1,-1,64,-1,66,-1,-1,-1,-1,-1,-1,-1,-1],"split_conditions":[9.635821E0,1.4140519E0,1.319518E-1,9.197815E-1,-3.7701014E-1,-3.0802837E-1,-3.5976186E-1,2.8223436E-2,7.663079E-2,-3.683329E-1,2.5801096E-2,-6.2194474E-2,-2.3631787E-1,2.88596E-1,-6.136296E-2,-2.828357E-1,7.2511834E-1,2.2976041E-1,1.4436945E-1,6.5461904E-2,1.3187191E0,-1.7095874E-1,-2.0473312E-1,-3.9815274E-1,1.1499931E-1,-4.103437E-1,-2.9875323E-1,-3.4435618E-1,-1.951223E-1,-9.292711E-2,4.472017E-2,-3.3603656E-1,-7.560617E-1,4.4137094E-2,-4.8708368E-2,3.2351676E-2,-1.6048408E-1,5.579438E-1,1.294232E-1,1.6584867E0,1.5067239E0,1.5067239E0,-1.6763297E-1,-2.38082E-2,-1.24055624E-1,3.855236E-2,-8.255474E-2,-2.2646554E-1,-1.0170975E-2,-2.3271503E-1,-3.045528E-1,3.2083046E-2,1.8907514E-1,-5.0432347E-2,8.403813E-2,-8.431176E-2,3.2053538E-2,-2.216203E-1,-2.6875606E-2,8.9172445E-2,8.2594424E-4,4.0004108E-2,1.6261439E-1,4.229969E-2,4.9239925E-1,1.02084056E-1,2.280315E-1,-1.2340092E-2,6.7070484E-2,-8.342013E-2,-1.677972E-1,-1.8416801E-1,-1.0361576E-1],"split_indices":[16,10,0,10,11,8,11,0,8,7,0,0,1,13,0,11,10,10,0,0,13,0,0,13,0,7,11,11,0,0,0,8,10,7,0,0,0,6,8,0,5,5,1,0,0,0,0,13,0,6,7,0,0,0,0,0,0,0,0,0,0,0,6,0,2,0,0,0,0,0,0,0,0],"split_type":[0,0,0,0,0,0,0,0,0,0,0,0,0,0,0,0,0,0,0,0,0,0,0,0,0,0,0,0,0,0,0,0,0,0,0,0,0,0,0,0,0,0,0,0,0,0,0,0,0,0,0,0,0,0,0,0,0,0,0,0,0,0,0,0,0,0,0,0,0,0,0,0,0],"sum_hessian":[7.668594E2,7.5722754E2,9.631876E0,6.955131E2,6.171439E1,6.417315E2,5.378164E1,1.6289762E1,3.7491875E1,2.8452557E1,9.03932E0,1.1766283E1,4.9948105E1,3.8700974E1,1.1247133E1,2.73962E2,3.677695E2,3.5726212E2,1.0507385E1,3.2361615E2,3.3645973E1,1.8446005E2,8.950195E1,1.6703476E2,1.742529E1,8.356571E1,8.3469055E1,7.240425E1,1.1064798E1,4.3638405E1,2.8765852E1,2.2797276E1,6.0768433E1,7.373378E1,1.5768171E1,1.2928005E1,9.869271E0,2.2523767E2,9.837846E1,5.545678E1,4.2921688E1,1.3669917E2,8.853849E1,1.0015204E2,3.6547142E1,6.816955E1,2.0368944E1,5.8388645E1,1.5345133E1,2.3175133E1,3.5213512E1,9.323769E0,2.5889746E1,9.35276E0,5.1415672E1,2.2062023E1,2.0859665E1,2.2809631E1,1.0836344E1,4.2184696E1,1.327208E1,9.433705E0,2.9267267E1,9.732046E0,1.9535221E1,1.0073041E1,9.46218E0,1.0768429E1,1.2406705E1,9.329639E0,1.9122917E1,1.25548115E1,1.025482E1],"tree_param":{"num_deleted":"0","num_feature":"19","num_nodes":"73","size_leaf_vector":"1"}},{"base_weights":[-3.7947926E-3,3.4048125E-2,-2.1278383E-1,8.048403E-3,1.7925009E-1,-4.2415798E-1,1.9569795E-1,-1.2072342E-1,-7.866515E-1,-7.595148E-3,1.29556E-1,-5.228183E-1,2.5391182E-1,-4.3139108E-2,2.4308169E-1,-7.959395E-2,4.4218102E-1,1.6176857E-1,1.9697788E-1,5.3132397E-1,-1.5252453E-1,-1.1600237E-3,-3.1357917E-1,-1.2168141E-1,1.480125E-2,-4.2547792E-1,5.6499314E-2,1.3140194E-1,-1.0935691E-2,-1.1716104E-1,3.0836573E-1,1.3119079E-1,-2.5370348E-2,2.340264E-1,1.7234021E-1,-3.9964676E-2,1.1403384E-1,4.9835667E-2,-2.677367E-1,-5.4120917E-2,3.3117348E-1,-5.3848886E-1,7.824754E-2,-8.718052E-2,7.204901E-2,-3.0819733E-2,2.364551E-2,-4.8150257E-3,-1.5847145E-1,-1.2564492E-1,-9.257359E-3,1.1248878E-1,-1.705586E-2,-1.2465734E-1,-3.1509665E-1,8.126367E-3,-5.642021E-1,-1.6203633E-1,-3.5903413E-2,4.6384417E-2,-5.444709E-2,-1.6419195E-1,-8.492816E-2],"categories":[],"categories_nodes":[],"categories_segments":[],"categories_sizes":[],"default_left":[0,0,0,0,0,0,0,0,0,0,0,0,0,0,0,0,0,0,0,0,0,0,0,0,0,0,0,0,0,0,0,0,0,0,0,0,0,0,0,0,0,0,0,0,0,0,0,0,0,0,0,0,0,0,0,0,0,0,0,0,0,0,0],"id":14,"left_children":[1,3,5,9,-1,7,27,11,61,13,-1,47,51,21,15,-1,17,-1,19,33,-1,23,25,-1,37,53,-1,-1,29,-1,31,-1,-1,35,-1,-1,-1,39,41,45,43,49,-1,-1,-1,-1,-1,-1,-1,-1,-1,-1,-1,-1,55,59,57,-1,-1,-1,-1,-1,-1],"loss_changes":[5.968789E0,1.719689E1,1.0073261E1,7.478414E0,0E0,8.326613E0,4.888393E0,6.5889454E0,1.3787384E0,5.4715943E0,0E0,4.3587046E0,3.46105E0,6.103493E0,1.1112178E1,0E0,7.533819E0,0E0,1.6125225E1,4.6480837E0,0E0,5.407063E0,5.4032836E0,0E0,4.540374E0,1.9468851E0,0E0,0E0,6.959385E0,0E0,4.842347E0,0E0,0E0,4.8016725E0,0E0,0E0,0E0,1.1942828E1,1.0317779E1,7.589526E0,9.481078E0,3.7802048E0,0E0,0E0,0E0,0E0,0E0,0E0,0E0,0E0,0E0,0E0,0E0,0E0,3.8558006E0,2.040375E0,3.6011448E0,0E0,0E0,0E0,0E0,0E0,0E0],"parents":[2147483647,0,0,1,1,2,2,5,5,3,3,7,7,9,9,14,14,16,16,18,18,13,13,21,21,22,22,6,6,28,28,30,30,19,19,33,33,24,24,37,37,38,38,40,40,39,39,11,11,41,41,12,12,25,25,54,54,56,56,55,55,8,8],"right_children":[2,4,6,10,-1,8,28,12,62,14,-1,48,52,22,16,-1,18,-1,20,34,-1,24,26,-1,38,54,-1,-1,30,-1,32,-1,-1,36,-1,-1,-1,40,42,46,44,50,-1,-1,-1,-1,-1,-1,-1,-1,-1,-1,-1,-1,56,60,58,-1,-1,-1,-1,-1,-1],"split_conditions":[1.0830002E0,9.625986E-1,2.055708E0,1.1476135E0,1.7925009E-1,-2.1036218E-1,5.579438E-1,-3.4236255E-1,1.6261439E-1,1.3486027E0,1.29556E-1,-3.2717064E-1,-2.6712498E-1,3.2713732E-1,-3.4435618E-1,-7.959395E-2,-2.8969207E-1,1.6176857E-1,-5.9198684E-1,-6.902677E-1,-1.5252453E-1,-1.4187033E0,2.4980342E0,-1.2168141E-1,2.5938922E-1,-7.446429E-1,5.6499314E-2,1.3140194E-1,-3.7414396E-1,-1.1716104E-1,-3.2843864E-1,1.3119079E-1,-2.5370348E-2,2.2898476E-1,1.7234021E-1,-3.9964676E-2,1.1403384E-1,-1.8221687E-1,-3.4552905E-1,-2.898476E-1,-1.2565887E0,8.4725887E-1,7.824754E-2,-8.718052E-2,7.204901E-2,-3.0819733E-2,2.364551E-2,-4.8150257E-3,-1.5847145E-1,-1.2564492E-1,-9.257359E-3,1.1248878E-1,-1.705586E-2,-1.2465734E-1,-6.353488E-1,1.5067239E0,-4.06973E-1,-1.6203633E-1,-3.5903413E-2,4.6384417E-2,-5.444709E-2,-1.6419195E-1,-8.492816E-2],"split_indices":[3,3,3,10,0,0,6,7,6,6,0,8,7,7,11,0,8,0,3,10,0,6,15,0,8,10,0,0,11,0,11,0,0,7,0,0,0,0,10,11,13,8,0,0,0,0,0,0,0,0,0,0,0,0,10,5,10,0,0,0,0,0,0],"split_type":[0,0,0,0,0,0,0,0,0,0,0,0,0,0,0,0,0,0,0,0,0,0,0,0,0,0,0,0,0,0,0,0,0,0,0,0,0,0,0,0,0,0,0,0,0,0,0,0,0,0,0,0,0,0,0,0,0,0,0,0,0,0,0],"sum_hessian":[7.5279047E2,6.380855E2,1.1470495E2,6.2343933E2,1.4646156E1,7.556466E1,3.9140285E1,4.185875E1,3.3705914E1,6.119158E2,1.1523583E1,1.9998682E1,2.1860065E1,5.366509E2,7.526488E1,1.6039177E1,5.92257E1,1.7966173E1,4.1259525E1,3.2088314E1,9.171212E0,4.6541162E2,7.123927E1,9.068849E0,4.5634277E2,6.108129E1,1.0157984E1,9.447334E0,2.9692951E1,9.034165E0,2.0658785E1,9.821462E0,1.0837322E1,2.0997871E1,1.1090444E1,1.0426904E1,1.0570967E1,4.0673203E2,4.9610737E1,2.9758105E2,1.0915096E2,3.644528E1,1.3165461E1,1.0897855E1,9.825311E1,1.7878523E2,1.1879583E2,9.71343E0,1.0285252E1,2.4978077E1,1.14672E1,9.650907E0,1.220916E1,1.4249974E1,4.6831314E1,2.0804338E1,2.6026978E1,1.1283758E1,1.4743219E1,1.1608425E1,9.195913E0,1.8469635E1,1.5236278E1],"tree_param":{"num_deleted":"0","num_feature":"19","num_nodes":"63","size_leaf_vector":"1"}},{"base_weights":[-3.603115E-3,-7.812877E-2,6.619859E-2,3.4971327E-1,-3.4114063E-2,6.901936E-2,7.101607E-1,8.961651E-2,-2.1563879E-1,-1.2747501E-1,9.548613E-2,1.5895516E-1,-1.02458894E-1,-3.0084682E-1,1.2237013E-1,-4.9524897E-1,-5.149903E-2,-1.5196991E-1,-7.252613E-1,6.355473E-2,-1.23466045E-1,8.969682E-2,-1.4554234E-1,-1.501281E-1,1.3044535E-1,-1.11335665E-1,2.1656795E-1,1.5763985E-1,-2.2282685E-1,3.058031E-1,-8.943508E-2,-1.16069555E-1,5.712063E-1,3.3657077E-1,-6.768048E-2,1.8200295E-1,1.5826325E-1,1.3737622E-1,-2.7781235E-2,-3.16958E-1,7.975696E-2,-7.451939E-2,3.9422506E-1,3.3004224E-1,-7.391807E-2,1.6482413E-1,-9.177591E-2,-2.7742034E-1,1.7027298E-1,-2.4626474E-1,2.6377046E-1,-1.2450307E-1,-1.6122459E-1,-2.9538622E-1,1.5395407E-1,1.3058394E-1,-3.4511706E-1,5.176237E-2,-1.4144212E-1,-1.754236E-1,-1.3358416E-1,8.266596E-2,-2.9398033E-1,-1.8004358E-1,-2.6059365E-2,-6.565322E-2,7.645096E-2,-4.465436E-1,4.4055834E-2,-9.774592E-2,4.4014096E-2,1.4239857E-1,1.9511265E-1,4.0088227E-1,-1.4263184E-1,-5.844243E-1,8.43164E-2,5.821625E-2,6.4027596E-1,9.378131E-2,-5.7400163E-2,-9.8432064E-1,-3.941645E-1,5.8965806E-2,-1.4764372E-1,1.022533E0,3.843306E-1,-1.2338084E-2,-1.258007E-1,-7.790127E-3,-1.4606316E-1,1.6134423E-1,2.974379E-1,1.127516E-1,-2.7419604E-2,3.2158336E-1,1.5781078E-1,6.35237E-2,-6.6894114E-2,1.125607E-1,-7.142625E-4,3.5154272E-2,-7.67308E-2,-1.4345095E-1,-2.83945E-2,-1.0660978E-1,-7.082505E-3,1.0367386E-1,8.102889E-3,2.1895514E-1,1.1958847E-1,8.57899E-2,1.6949931E-2,-4.1856155E-2,1.2373458E-2,-1.81717E-1,-1.1945195E-1],"categories":[],"categories_nodes":[],"categories_segments":[],"categories_sizes":[],"default_left":[0,0,0,0,0,0,0,0,0,0,0,0,0,0,0,0,0,0,0,0,0,0,0,0,0,0,0,0,0,0,0,0,0,0,0,0,0,0,0,0,0,0,0,0,0,0,0,0,0,0,0,0,0,0,0,0,0,0,0,0,0,0,0,0,0,0,0,0,0,0,0,0,0,0,0,0,0,0,0,0,0,0,0,0,0,0,0,0,0,0,0,0,0,0,0,0,0,0,0,0,0,0,0,0,0,0,0,0,0,0,0,0,0,0,0,0,0],"id":15,"left_children":[1,7,3,5,25,9,85,47,13,11,-1,65,-1,15,43,17,19,67,81,21,-1,-1,23,-1,41,27,33,29,51,31,-1,101,91,35,-1,37,-1,-1,39,105,-1,-1,99,45,-1,-1,113,87,49,69,71,-1,53,59,55,-1,57,-1,-1,61,-1,-1,63,-1,-1,-1,-1,89,-1,-1,-1,-1,73,77,75,103,-1,79,95,-1,-1,115,83,-1,-1,109,107,97,-1,-1,-1,-1,93,-1,-1,111,-1,-1,-1,-1,-1,-1,-1,-1,-1,-1,-1,-1,-1,-1,-1,-1,-1,-1,-1,-1,-1],"loss_changes":[3.8493178E0,8.273754E0,1.0879493E1,1.006403E1,5.5056477E0,5.7104487E0,4.0500507E0,4.840391E0,5.7089443E0,5.913897E0,0E0,4.623355E0,0E0,7.6129704E0,4.8681216E0,6.8720436E0,5.5769234E0,4.6075172E0,4.131035E0,6.092057E0,0E0,0E0,9.028046E0,0E0,5.0805526E0,6.546812E0,5.1258793E0,6.7402163E0,4.8112893E0,6.0584345E0,0E0,2.4898462E0,3.2525148E0,5.1549687E0,0E0,6.236263E0,0E0,0E0,5.3820715E0,2.0260684E0,0E0,0E0,2.5118184E0,8.376301E0,0E0,0E0,5.2028483E-1,3.697308E0,5.2586765E0,4.433707E0,4.234627E0,0E0,5.91881E0,5.7440653E0,1.3413895E1,0E0,8.129063E0,0E0,0E0,6.501572E0,0E0,0E0,7.2606783E0,0E0,0E0,0E0,0E0,3.6754837E0,0E0,0E0,0E0,0E0,6.9526167E0,5.041958E0,1.122022E1,2.4694471E0,0E0,5.5284786E0,3.1880627E0,0E0,0E0,1.1253357E-2,9.313774E0,0E0,0E0,9.7001076E-1,1.7778563E0,3.172243E0,0E0,0E0,0E0,0E0,3.7226996E0,0E0,0E0,7.5306666E-1,0E0,0E0,0E0,0E0,0E0,0E0,0E0,0E0,0E0,0E0,0E0,0E0,0E0,0E0,0E0,0E0,0E0,0E0,0E0,0E0,0E0],"parents":[2147483647,0,0,2,2,3,3,1,1,5,5,9,9,8,8,13,13,15,15,16,16,19,19,22,22,4,4,25,25,27,27,29,29,26,26,33,33,35,35,38,38,24,24,14,14,43,43,7,7,48,48,28,28,52,52,54,54,56,56,53,53,59,59,62,62,11,11,17,17,49,49,50,50,72,72,74,74,73,73,77,77,18,18,82,82,6,6,47,47,67,67,32,32,92,92,78,78,87,87,42,42,31,31,75,75,39,39,86,86,85,85,95,95,46,46,81,81],"right_children":[2,8,4,6,26,10,86,48,14,12,-1,66,-1,16,44,18,20,68,82,22,-1,-1,24,-1,42,28,34,30,52,32,-1,102,92,36,-1,38,-1,-1,40,106,-1,-1,100,46,-1,-1,114,88,50,70,72,-1,54,60,56,-1,58,-1,-1,62,-1,-1,64,-1,-1,-1,-1,90,-1,-1,-1,-1,74,78,76,104,-1,80,96,-1,-1,116,84,-1,-1,110,108,98,-1,-1,-1,-1,94,-1,-1,112,-1,-1,-1,-1,-1,-1,-1,-1,-1,-1,-1,-1,-1,-1,-1,-1,-1,-1,-1,-1,-1],"split_conditions":[-2.873909E-1,-3.9815274E-1,-2.2576804E-1,1.16908826E-1,8.036576E-1,1.0688272E-3,-2.1599124E-1,-3.7675422E-1,-1.8221687E-1,-4.859595E-1,9.548613E-2,-5.041662E-1,-1.02458894E-1,8.497934E-1,6.816182E-1,-5.657485E-1,-2.9875323E-1,-4.097191E-1,3.0751693E-1,8.246249E-1,-1.23466045E-1,8.969682E-2,1.0801883E0,-1.501281E-1,-3.7614003E-1,-7.321388E-1,6.0818744E-1,7.1034116E-1,-5.053041E-1,-5.030283E-1,-8.943508E-2,1.5067239E0,8.2521105E-1,3.3282962E-1,-6.768048E-2,-1.8881482E-1,1.5826325E-1,1.3737622E-1,2.005468E0,-4.9051118E-1,7.975696E-2,-7.451939E-2,-4.9506286E-1,-4.2223617E-1,-7.391807E-2,1.6482413E-1,-6.010924E-1,-2.3287843E-1,-7.5171167E-1,-2.4123187E-1,-5.0871783E-1,-1.2450307E-1,-6.9360495E-2,-5.498273E-1,6.511681E-1,1.3058394E-1,2.88596E-1,5.176237E-2,-1.4144212E-1,-4.9733868E-1,-1.3358416E-1,8.266596E-2,-2.4413656E-1,-1.8004358E-1,-2.6059365E-2,-6.565322E-2,7.645096E-2,-3.223347E-1,4.4055834E-2,-9.774592E-2,4.4014096E-2,1.4239857E-1,-5.904676E-1,-2.385075E-1,4.7771123E-1,8.2521105E-1,8.43164E-2,-6.978802E-1,-6.797242E-1,9.378131E-2,-5.7400163E-2,-3.7785742E-1,5.7558656E-1,5.8965806E-2,-1.4764372E-1,4.9239925E-1,1.0678076E0,-4.1313285E-1,-1.258007E-1,-7.790127E-3,-1.4606316E-1,1.6134423E-1,-7.538867E-1,1.127516E-1,-2.7419604E-2,-3.616556E-1,1.5781078E-1,6.35237E-2,-6.6894114E-2,1.125607E-1,-7.142625E-4,3.5154272E-2,-7.67308E-2,-1.4345095E-1,-2.83945E-2,-1.0660978E-1,-7.082505E-3,1.0367386E-1,8.102889E-3,2.1895514E-1,1.1958847E-1,8.57899E-2,1.6949931E-2,-4.1856155E-2,1.2373458E-2,-1.81717E-1,-1.1945195E-1],"split_indices":[11,13,11,13,13,4,0,11,0,4,0,4,0,3,10,10,11,4,10,10,0,0,10,0,11,3,11,8,4,4,0,5,12,11,0,11,0,0,13,4,0,0,4,4,0,0,10,0,10,8,4,0,3,3,10,0,13,0,0,4,0,0,0,0,0,0,0,8,0,0,0,0,3,0,10,12,0,10,3,0,0,4,10,0,0,2,3,4,0,0,0,0,10,0,0,11,0,0,0,0,0,0,0,0,0,0,0,0,0,0,0,0,0,0,0,0,0],"split_type":[0,0,0,0,0,0,0,0,0,0,0,0,0,0,0,0,0,0,0,0,0,0,0,0,0,0,0,0,0,0,0,0,0,0,0,0,0,0,0,0,0,0,0,0,0,0,0,0,0,0,0,0,0,0,0,0,0,0,0,0,0,0,0,0,0,0,0,0,0,0,0,0,0,0,0,0,0,0,0,0,0,0,0,0,0,0,0,0,0,0,0,0,0,0,0,0,0,0,0,0,0,0,0,0,0,0,0,0,0,0,0,0,0,0,0,0,0],"sum_hessian":[7.3797217E2,3.5685114E2,3.81121E2,9.895558E1,2.8216544E2,5.6302326E1,4.265325E1,1.6090958E2,1.9594157E2,4.0969944E1,1.5332382E1,2.6157217E1,1.4812727E1,1.5657965E2,3.9361927E1,8.742962E1,6.9150024E1,3.5744247E1,5.1685368E1,5.9984776E1,9.165254E0,1.7946192E1,4.203858E1,1.0701888E1,3.1336695E1,2.1614017E2,6.602525E1,6.321598E1,1.529242E2,5.251728E1,1.0698697E1,2.049772E1,3.201956E1,5.5707283E1,1.0317973E1,4.5447765E1,1.025952E1,1.0530713E1,3.491705E1,2.2417057E1,1.2499993E1,9.638281E0,2.1698412E1,2.9063456E1,1.0298471E1,1.0879466E1,1.818399E1,2.8549976E1,1.3235959E2,2.3964073E1,1.0839552E2,1.5025072E1,1.3789912E2,9.676998E1,4.1129143E1,1.800845E1,2.3120691E1,1.0169302E1,1.2951389E1,7.918435E1,1.7585627E1,1.1449355E1,6.773499E1,9.1917095E0,5.8543285E1,9.057142E0,1.7100075E1,2.0857185E1,1.4887063E1,1.4329714E1,9.634359E0,1.01770935E1,9.821843E1,6.0917637E1,3.7300793E1,2.2204012E1,1.5096782E1,2.5565945E1,3.5351692E1,1.1180673E1,1.4385273E1,2.7890305E1,2.3795065E1,9.505257E0,1.4289807E1,2.0684673E1,2.1968578E1,1.8956526E1,9.5934515E0,1.131479E1,9.542397E0,1.2141396E1,1.9878164E1,1.0704744E1,9.17342E0,1.8185411E1,1.7166279E1,9.432633E0,9.523892E0,1.2389039E1,9.309374E0,1.0691212E1,9.80651E0,1.2780505E1,9.423506E0,9.761044E0,1.2656014E1,1.2448254E1,9.520325E0,9.097734E0,1.1586939E1,9.050711E0,9.134702E0,9.046612E0,9.13738E0,1.8201597E1,9.688707E0],"tree_param":{"num_deleted":"0","num_feature":"19","num_nodes":"117","size_leaf_vector":"1"}},{"base_weights":[-9.614933E-3,-2.0312741E-2,8.256354E-2,-6.053539E-3,-4.6663052E-1,-1.8153543E-2,1.2963958E-1,7.424996E-2,-7.923039E-2,-4.216228E-1,-2.165095E-2,-1.09624244E-1,1.826304E-1,3.587852E-2,-1.6497785E-1,-9.1000475E-2,3.8400355E-1,5.255549E-1,-5.2746013E-2,1.6326275E-1,-4.0789837E-1,1.1224684E-1,-2.3186532E-1,1.3387816E-2,-1.3243802E-1,2.7615678E-1,7.927634E-1,5.4930425E-3,1.222698E-1,-1.0666923E-1,-6.740105E-1,8.177983E-2,-7.141334E-2,2.0299497E-1,-2.7403924E-1,-5.6020383E-2,1.3564911E-1,-1.2662749E-1,1.738424E-2,-9.5402464E-2,4.171466E-4,2.0167056E-1,8.596972E-2,2.6024705E-1,-4.052129E-2,1.2510209E-1,-1.1979284E-3,5.6421693E-2,-9.253755E-2,-1.3099007E-1,8.771464E-2,-1.147527E-2,7.2571404E-2,3.1873637E-3,-5.6611225E-2,-1.8963245E-1,-4.4846824E-1,3.4510694E-2,-4.6848007E-2,-8.124266E-3,-7.964889E-2,-1.1191416E-1,-3.5025276E-2,-3.725254E-2,-1.0075331E-1],"categories":[],"categories_nodes":[],"categories_segments":[],"categories_sizes":[],"default_left":[0,0,0,0,0,0,0,0,0,0,0,0,0,0,0,0,0,0,0,0,0,0,0,0,0,0,0,0,0,0,0,0,0,0,0,0,0,0,0,0,0,0,0,0,0,0,0,0,0,0,0,0,0,0,0,0,0,0,0,0,0,0,0,0,0],"id":16,"left_children":[1,3,-1,5,61,7,-1,11,9,29,39,13,15,33,-1,19,17,25,-1,21,23,-1,59,-1,-1,27,41,-1,-1,31,55,-1,-1,35,37,57,-1,-1,-1,-1,43,-1,-1,45,49,-1,47,-1,-1,53,51,-1,-1,-1,-1,-1,63,-1,-1,-1,-1,-1,-1,-1,-1],"loss_changes":[3.8898072E0,4.5030212E0,0E0,6.4952974E0,9.956045E-1,3.8299227E0,0E0,5.403754E0,8.042789E0,4.597496E0,4.2378783E0,1.2866087E1,9.421263E0,4.5821457E0,0E0,5.9505653E0,9.889759E0,5.2544556E0,0E0,8.406405E0,6.178692E0,0E0,1.043847E0,0E0,0E0,4.8330936E0,3.8760777E0,0E0,0E0,5.397027E0,2.837741E0,0E0,0E0,9.053475E0,5.724921E0,2.4650636E0,0E0,0E0,0E0,0E0,3.6068525E0,0E0,0E0,5.8676043E0,3.4099846E0,0E0,5.9583135E0,0E0,0E0,5.346965E0,6.596905E0,0E0,0E0,0E0,0E0,0E0,6.736045E-1,0E0,0E0,0E0,0E0,0E0,0E0,0E0,0E0],"parents":[2147483647,0,0,1,1,3,3,5,5,8,8,7,7,11,11,12,12,16,16,15,15,19,19,20,20,17,17,25,25,9,9,29,29,13,13,33,33,34,34,10,10,26,26,40,40,43,43,46,46,44,44,50,50,49,49,30,30,35,35,22,22,4,4,56,56],"right_children":[2,4,-1,6,62,8,-1,12,10,30,40,14,16,34,-1,20,18,26,-1,22,24,-1,60,-1,-1,28,42,-1,-1,32,56,-1,-1,36,38,58,-1,-1,-1,-1,44,-1,-1,46,50,-1,48,-1,-1,54,52,-1,-1,-1,-1,-1,64,-1,-1,-1,-1,-1,-1,-1,-1],"split_conditions":[3.410267E0,1.6584867E0,8.256354E-2,1.2419361E0,-2.0027953E-1,-3.1699502E-1,1.2963958E-1,-3.646753E-1,-5.053041E-1,-7.754378E-1,-3.152823E-1,-2.8240165E-1,-3.4236255E-1,8.2521105E-1,-1.6497785E-1,-3.8169998E-1,-4.1313285E-1,1.6261439E-1,-5.2746013E-2,-4.8823535E-1,6.85713E-1,1.1224684E-1,-2.385075E-1,1.3387816E-2,-1.3243802E-1,-4.8937327E-1,-2.6903456E-1,5.4930425E-3,1.222698E-1,-2.4879298E-1,-5.0871783E-1,8.177983E-2,-7.141334E-2,6.7052037E-1,-4.8937327E-1,-6.751664E-1,1.3564911E-1,-1.2662749E-1,1.738424E-2,-9.5402464E-2,-3.0802837E-1,2.0167056E-1,8.596972E-2,-2.3271503E-1,5.579438E-1,1.2510209E-1,-2.1599124E-1,5.6421693E-2,-9.253755E-2,-1.7095874E-1,-1.2592624E-1,-1.147527E-2,7.2571404E-2,3.1873637E-3,-5.6611225E-2,-1.8963245E-1,-1.9132273E-1,3.4510694E-2,-4.6848007E-2,-8.124266E-3,-7.964889E-2,-1.1191416E-1,-3.5025276E-2,-3.725254E-2,-1.0075331E-1],"split_indices":[4,0,0,0,11,8,0,11,4,3,8,7,7,12,0,7,4,6,0,4,3,0,0,0,0,4,7,0,0,7,4,0,0,3,4,3,0,0,0,0,8,0,0,6,6,0,0,0,0,0,0,0,0,0,0,0,11,0,0,0,0,0,0,0,0],"split_type":[0,0,0,0,0,0,0,0,0,0,0,0,0,0,0,0,0,0,0,0,0,0,0,0,0,0,0,0,0,0,0,0,0,0,0,0,0,0,0,0,0,0,0,0,0,0,0,0,0,0,0,0,0,0,0,0,0,0,0,0,0,0,0,0,0],"sum_hessian":[7.211057E2,7.07006E2,1.4099721E1,6.860997E2,2.0906322E1,6.7657495E2,9.524695E0,2.691543E2,4.074207E2,5.7741596E1,3.4967908E2,9.9809586E1,1.693447E2,8.63974E1,1.3412191E1,7.202433E1,9.7320366E1,8.1131966E1,1.61884E1,4.023032E1,3.1794014E1,1.732638E1,2.290394E1,1.4317687E1,1.7476326E1,4.3016327E1,3.8115635E1,2.8688383E1,1.4327944E1,2.6319828E1,3.1421768E1,9.013511E0,1.7306316E1,5.6354473E1,3.0042925E1,4.01233E1,1.6231173E1,1.2768295E1,1.727463E1,1.2585939E1,3.3709314E2,1.4111357E1,2.400428E1,4.515355E1,2.919396E2,1.5141237E1,3.0012314E1,1.8845125E1,1.1167189E1,1.7116408E2,1.2077552E2,8.3712364E1,3.7063152E1,9.972801E1,7.143607E1,9.049758E0,2.237201E1,1.850977E1,2.1613531E1,1.37454E1,9.15854E0,1.0847158E1,1.0059163E1,1.0005583E1,1.2366426E1],"tree_param":{"num_deleted":"0","num_feature":"19","num_nodes":"65","size_leaf_vector":"1"}},{"base_weights":[-8.44867E-3,2.0006029E-2,-1.6872968E-1,4.148326E-1,-3.66719E-1,-6.8101525E-1,-9.114528E-2,-3.879339E-2,1.3064748E-1,-3.9468166E-1,2.5651762E-1,-3.63306E-2,1.2384927E-1,-5.4197446E-2,1.13301374E-1,2.6947437E-2,-3.08831E-1,-8.471562E-2,-9.085758E-1,-4.4062653E-1,8.4207214E-2,3.3559147E-1,1.3736326E-2,3.573461E-1,-9.2700645E-2,-8.468773E-2,8.0978334E-1,-2.2907475E-1,3.4350768E-1,2.2768319E-1,1.7469305E-1,5.045866E-1,-1.9593213E-1,-9.2891514E-2,1.1911206E-1,4.0354186E-1,-7.668225E-2,1.3627243E-1,-1.3444121E-2,4.5839284E-2,-9.9770464E-2,-6.633068E-1,-1.0843353E-1,2.7535519E-2,5.132086E-1,-1.1400449E-1,-2.9427453E-3,5.8587253E-1,-4.1883755E-2,-4.594837E-2,3.4580126E-1,1.3334496E-1,-2.5053734E-1,5.750474E-1,-8.219236E-3,-5.276423E-3,-4.9246463E-1,4.220952E-2,-1.2826265E-1,-7.667899E-2,5.532302E-2,5.349899E-2,-8.6448744E-2,-3.191158E-2,5.410028E-1,1.7459583E-1,2.9890991E-3,-9.383058E-2,9.220759E-2,3.7978914E-2,-6.6932574E-2,-9.041842E-3,-1.3042131E-1,1.4374314E-1,1.7038114E-2,-1.71299E-1,-4.0814653E-1,2.8042954E-3,6.4195395E-1,1.82751E-2,-5.974192E-2,4.685455E-2,8.2615E-1,1.9614442E-1,5.2743275E-2,-5.7148404E-2,-1.6017345E-1,-1.6774084E-2,-1.08633034E-1,-1.4670128E-2,-1.0972814E-1,3.182995E-2,1.19762994E-1,1.8408589E-1,8.374848E-2,-1.8748412E-1,-1.031276E-1,5.99598E-2,1.1843087E-1],"categories":[],"categories_nodes":[],"categories_segments":[],"categories_sizes":[],"default_left":[0,0,0,0,0,0,0,0,0,0,0,0,0,0,0,0,0,0,0,0,0,0,0,0,0,0,0,0,0,0,0,0,0,0,0,0,0,0,0,0,0,0,0,0,0,0,0,0,0,0,0,0,0,0,0,0,0,0,0,0,0,0,0,0,0,0,0,0,0,0,0,0,0,0,0,0,0,0,0,0,0,0,0,0,0,0,0,0,0,0,0,0,0,0,0,0,0,0,0],"id":17,"left_children":[1,13,3,7,5,75,9,-1,-1,87,11,-1,-1,15,21,19,17,33,95,71,43,29,23,25,27,61,93,41,47,31,-1,77,39,-1,35,37,-1,-1,-1,-1,-1,85,45,49,91,-1,67,73,-1,51,63,53,55,97,79,59,57,-1,-1,-1,-1,-1,-1,-1,65,-1,-1,69,-1,-1,-1,-1,-1,-1,-1,-1,89,-1,81,-1,-1,-1,83,-1,-1,-1,-1,-1,-1,-1,-1,-1,-1,-1,-1,-1,-1,-1,-1],"loss_changes":[3.2383785E0,4.1824718E0,1.2520079E1,6.682739E0,6.906598E0,3.066679E0,4.7471E0,0E0,0E0,1.7197835E0,4.984243E0,0E0,0E0,6.965115E0,5.9174895E0,6.897619E0,1.0870325E1,5.84588E0,6.702328E-1,3.6279602E0,5.5565E0,6.072052E0,6.830009E0,8.900008E0,8.566761E0,4.211675E0,1.412488E0,5.6540155E0,5.0916476E0,8.667952E0,0E0,2.9684706E0,5.7115164E0,0E0,7.226661E0,5.8670683E0,0E0,0E0,0E0,0E0,0E0,1.8953934E0,5.2296295E0,4.774036E0,1.6012044E0,0E0,3.7831712E0,3.1650772E0,0E0,6.128729E0,4.1097155E0,5.5830846E0,4.623012E0,3.666997E-1,2.8379006E0,6.1756697E0,8.160242E0,0E0,0E0,0E0,0E0,0E0,0E0,0E0,7.4016314E0,0E0,0E0,6.4157662E0,0E0,0E0,0E0,0E0,0E0,0E0,0E0,0E0,1.7182677E0,0E0,2.0827208E0,0E0,0E0,0E0,3.5869417E0,0E0,0E0,0E0,0E0,0E0,0E0,0E0,0E0,0E0,0E0,0E0,0E0,0E0,0E0,0E0,0E0],"parents":[2147483647,0,0,2,2,4,4,3,3,6,6,10,10,1,1,13,13,16,16,15,15,14,14,22,22,23,23,24,24,21,21,29,29,17,17,34,34,35,35,32,32,27,27,20,20,42,42,28,28,43,43,49,49,51,51,52,52,56,56,55,55,25,25,50,50,64,64,46,46,67,67,19,19,47,47,5,5,31,31,54,54,78,78,82,82,41,41,9,9,76,76,44,44,26,26,18,18,53,53],"right_children":[2,14,4,8,6,76,10,-1,-1,88,12,-1,-1,16,22,20,18,34,96,72,44,30,24,26,28,62,94,42,48,32,-1,78,40,-1,36,38,-1,-1,-1,-1,-1,86,46,50,92,-1,68,74,-1,52,64,54,56,98,80,60,58,-1,-1,-1,-1,-1,-1,-1,66,-1,-1,70,-1,-1,-1,-1,-1,-1,-1,-1,90,-1,82,-1,-1,-1,84,-1,-1,-1,-1,-1,-1,-1,-1,-1,-1,-1,-1,-1,-1,-1,-1],"split_conditions":[1.6065535E-1,-2.898476E-1,-1.9910406E-1,-5.043046E-1,1.5067239E0,-1.897404E-2,-6.4857936E-1,-3.879339E-2,1.3064748E-1,-5.2763376E-2,5.579438E-1,-3.63306E-2,1.2384927E-1,-2.6712498E-1,-2.2290187E-1,-7.468179E-1,4.7771123E-1,-2.0449065E-1,9.625986E-1,-7.754378E-1,-3.0340704E-1,7.577834E-1,-7.412544E-1,-7.8949094E-1,1.3187191E0,-7.680242E-1,-1.0366465E-1,-1.7648001E-1,2.09507E-1,-2.4579166E-1,1.7469305E-1,-5.06442E-1,-4.8026994E-1,-9.2891514E-2,-3.252142E-1,-6.933976E-1,-7.668225E-2,1.3627243E-1,-1.3444121E-2,4.5839284E-2,-9.9770464E-2,-2.0067148E-1,-2.4413656E-1,-1.8221687E-1,-3.412341E-1,-1.1400449E-1,1.1340288E0,-2.4579166E-1,-4.1883755E-2,-3.8742873E-1,-6.6851765E-1,-5.053041E-1,-3.5976186E-1,1.0801883E0,8.75505E-2,3.0751693E-1,-6.3186747E-1,4.220952E-2,-1.2826265E-1,-7.667899E-2,5.532302E-2,5.349899E-2,-8.6448744E-2,-3.191158E-2,-5.5438507E-1,1.7459583E-1,2.9890991E-3,-1.5052766E-2,9.220759E-2,3.7978914E-2,-6.6932574E-2,-9.041842E-3,-1.3042131E-1,1.4374314E-1,1.7038114E-2,-1.71299E-1,-2.3271503E-1,2.8042954E-3,-2.6712498E-1,1.82751E-2,-5.974192E-2,4.685455E-2,-4.9506286E-1,1.9614442E-1,5.2743275E-2,-5.7148404E-2,-1.6017345E-1,-1.6774084E-2,-1.08633034E-1,-1.4670128E-2,-1.0972814E-1,3.182995E-2,1.19762994E-1,1.8408589E-1,8.374848E-2,-1.8748412E-1,-1.031276E-1,5.99598E-2,1.1843087E-1],"split_indices":[8,11,0,10,5,0,3,0,0,1,6,0,0,7,11,10,10,7,3,3,7,4,3,3,13,10,7,11,7,1,0,4,4,0,11,3,0,0,0,0,0,7,0,0,11,0,11,1,0,7,10,4,11,10,4,10,3,0,0,0,0,0,0,0,3,0,0,11,0,0,0,0,0,0,0,0,6,0,7,0,0,0,4,0,0,0,0,0,0,0,0,0,0,0,0,0,0,0,0],"split_type":[0,0,0,0,0,0,0,0,0,0,0,0,0,0,0,0,0,0,0,0,0,0,0,0,0,0,0,0,0,0,0,0,0,0,0,0,0,0,0,0,0,0,0,0,0,0,0,0,0,0,0,0,0,0,0,0,0,0,0,0,0,0,0,0,0,0,0,0,0,0,0,0,0,0,0,0,0,0,0,0,0,0,0,0,0,0,0,0,0,0,0,0,0,0,0,0,0,0,0],"sum_hessian":[7.083141E2,6.022685E2,1.06045586E2,2.6586922E1,7.9458664E1,3.6433926E1,4.302474E1,9.722463E0,1.6864458E1,2.2897886E1,2.0126854E1,1.0437839E1,9.689014E0,3.356916E2,2.665769E2,2.5524579E2,8.044581E1,5.9392868E1,2.1052946E1,2.7117064E1,2.2812872E2,8.173154E1,1.8484538E2,4.315879E1,1.4168658E2,2.2241516E1,2.0917273E1,1.08302315E2,3.3384274E1,7.205242E1,9.679115E0,4.345571E1,2.8596712E1,1.7457863E1,4.1935E1,2.8284142E1,1.3650862E1,1.4948233E1,1.3335909E1,1.3289946E1,1.5306767E1,2.2569223E1,8.573309E1,2.024491E2,2.5679626E1,1.2504853E1,7.322824E1,2.371229E1,9.671982E0,1.651691E2,3.728001E1,8.8211975E1,7.6957115E1,2.0666664E1,6.754531E1,3.8722675E1,3.823444E1,1.0276418E1,2.7958021E1,1.6333288E1,2.2389387E1,1.16173525E1,1.0624164E1,9.9560175E0,2.7323994E1,1.3454648E1,1.3869345E1,6.3606716E1,9.621524E0,3.1172188E1,3.243453E1,1.3179425E1,1.3937638E1,1.4693456E1,9.018834E0,1.4973028E1,2.1460897E1,9.794118E0,3.366159E1,5.1044376E1,1.6500935E1,1.2192231E1,2.146936E1,1.2063247E1,9.406114E0,1.1765538E1,1.0803684E1,1.123547E1,1.1662416E1,9.918508E0,1.154239E1,1.0602062E1,1.5077564E1,9.517375E0,1.1399898E1,1.0626031E1,1.0426914E1,9.197643E0,1.1469022E1],"tree_param":{"num_deleted":"0","num_feature":"19","num_nodes":"99","size_leaf_vector":"1"}},{"base_weights":[1.6158372E-3,3.3898573E-2,-1.745656E-1,1.0906113E-2,1.6262245E-1,-6.067646E-1,-3.8004976E-2,-1.7335476E-1,2.4109127E-1,3.275222E-2,-1.3670427E-1,3.458706E-1,-9.498083E-2,1.3483205E-1,-1.0685436E-2,-1.7637376E-1,4.0181275E-2,4.465099E-1,1.0330584E-2,-4.5266487E-2,2.1595572E-1,7.265788E-1,-8.382712E-2,-6.072271E-1,1.0524394E-2,-2.9519585E-1,6.319777E-2,5.1227026E-2,-4.1262496E-1,-1.8864925E-1,-2.4263598E-1,-2.8928578E-1,-1.7679857E-1,1.2550166E-1,-1.0379218E-1,-7.134492E-1,-7.145178E-3,1.3620839E-1,5.6861456E-2,5.3195994E-2,-2.0523561E-2,-7.8024305E-2,1.3891314E-2,4.3731805E-2,9.879089E-1,-2.3575816E-1,2.7958646E-1,-3.2397106E-2,1.22283496E-1,-3.899749E-1,4.336058E-2,-1.4671287E-1,-6.2485375E-2,1.3990521E-1,2.228924E-1,-2.1010539E-2,9.5757216E-2,-4.9061045E-1,-1.0398536E-2,8.132213E-2,-2.0920545E-2,2.2043876E-1,1.020758E-1,-4.8547942E-2,-1.4837843E-1,-4.3571744E-2,2.7522227E-2,-8.2599865E-3,-7.924356E-2,-8.177112E-2,-1.5963031E-1,-3.9685454E-2,2.1955125E-2,-1.10792376E-1,-5.1439054E-2],"categories":[],"categories_nodes":[],"categories_segments":[],"categories_sizes":[],"default_left":[0,0,0,0,0,0,0,0,0,0,0,0,0,0,0,0,0,0,0,0,0,0,0,0,0,0,0,0,0,0,0,0,0,0,0,0,0,0,0,0,0,0,0,0,0,0,0,0,0,0,0,0,0,0,0,0,0,0,0,0,0,0,0,0,0,0,0,0,0,0,0,0,0,0,0],"id":18,"left_children":[1,3,5,15,-1,63,7,9,59,11,-1,13,-1,-1,-1,25,17,53,19,23,21,43,45,31,33,27,-1,-1,29,-1,49,67,-1,37,35,69,41,-1,39,-1,-1,-1,-1,-1,61,57,47,-1,-1,51,-1,-1,71,-1,55,-1,-1,73,65,-1,-1,-1,-1,-1,-1,-1,-1,-1,-1,-1,-1,-1,-1,-1,-1],"loss_changes":[3.9902666E0,1.2754462E1,6.389414E0,3.1853037E0,0E0,2.0418415E0,3.2008607E0,7.559144E0,2.5376515E0,8.461987E0,0E0,5.6024256E0,0E0,0E0,0E0,5.2770095E0,6.085884E0,2.795435E0,5.369108E0,1.1601896E1,1.5360689E1,4.253931E0,3.592568E0,4.451415E0,4.4481E0,4.7284446E0,0E0,0E0,6.3915787E0,0E0,3.475074E0,8.981216E-1,0E0,7.9104195E0,9.99665E0,7.868967E-1,6.127072E0,0E0,7.254119E0,0E0,0E0,0E0,0E0,0E0,2.0998478E0,2.6129787E0,4.2458706E0,0E0,0E0,5.620705E0,0E0,0E0,7.8631306E-1,0E0,2.8815067E0,0E0,0E0,4.662304E-1,1.1415083E0,0E0,0E0,0E0,0E0,0E0,0E0,0E0,0E0,0E0,0E0,0E0,0E0,0E0,0E0,0E0,0E0],"parents":[2147483647,0,0,1,1,2,2,6,6,7,7,9,9,11,11,3,3,16,16,18,18,20,20,19,19,15,15,25,25,28,28,23,23,24,24,34,34,33,33,38,38,36,36,21,21,22,22,46,46,30,30,49,49,17,17,54,54,45,45,8,8,44,44,5,5,58,58,31,31,35,35,52,52,57,57],"right_children":[2,4,6,16,-1,64,8,10,60,12,-1,14,-1,-1,-1,26,18,54,20,24,22,44,46,32,34,28,-1,-1,30,-1,50,68,-1,38,36,70,42,-1,40,-1,-1,-1,-1,-1,62,58,48,-1,-1,52,-1,-1,72,-1,56,-1,-1,74,66,-1,-1,-1,-1,-1,-1,-1,-1,-1,-1,-1,-1,-1,-1,-1,-1],"split_conditions":[1.0830002E0,9.625986E-1,1.3067116E0,-4.0919796E-1,1.6262245E-1,-2.4579166E-1,-2.0473312E-1,-4.848216E-1,-9.333254E-2,-2.1599124E-1,-1.3670427E-1,-3.322081E-1,-9.498083E-2,1.3483205E-1,-1.0685436E-2,3.542213E-3,-3.958309E-1,-6.835224E-1,9.5327324E-1,-5.06442E-1,-4.984766E-1,-2.856507E-1,-1.2592624E-1,-6.280444E-1,-2.880801E-1,-1.0233738E0,6.319777E-2,5.1227026E-2,-4.996145E-1,-1.8864925E-1,-5.3957224E-1,-3.1749877E-1,-1.7679857E-1,-5.041662E-1,-2.4413656E-1,-7.5074977E-1,-4.9733868E-1,1.3620839E-1,-2.385075E-1,5.3195994E-2,-2.0523561E-2,-7.8024305E-2,1.3891314E-2,4.3731805E-2,-1.8881482E-1,-2.530991E-1,8.2521105E-1,-3.2397106E-2,1.22283496E-1,-3.7899536E-1,4.336058E-2,-1.4671287E-1,-3.3281258E-1,1.3990521E-1,-3.235437E-1,-2.1010539E-2,9.5757216E-2,-2.4413656E-1,-2.2646554E-1,8.132213E-2,-2.0920545E-2,2.2043876E-1,1.020758E-1,-4.8547942E-2,-1.4837843E-1,-4.3571744E-2,2.7522227E-2,-8.2599865E-3,-7.924356E-2,-8.177112E-2,-1.5963031E-1,-3.9685454E-2,2.1955125E-2,-1.10792376E-1,-5.1439054E-2],"split_indices":[3,3,3,7,0,1,0,4,8,0,0,8,0,0,0,0,7,3,6,4,4,11,0,6,8,6,0,0,4,0,3,8,0,4,0,3,4,0,0,0,0,0,0,0,