{"learner":{"attributes":{"scikit_learn":"{\"_estimator_type\": \"classifier\"}"},"feature_names":[],"feature_types":[],"gradient_booster":{"model":{"gbtree_model_param":{"num_parallel_tree":"1","num_trees":"100"},"iteration_indptr":[0,1,2,3,4,5,6,7,8,9,10,11,12,13,14,15,16,17,18,19,20,21,22,23,24,25,26,27,28,29,30,31,32,33,34,35,36,37,38,39,40,41,42,43,44,45,46,47,48,49,50,51,52,53,54,55,56,57,58,59,60,61,62,63,64,65,66,67,68,69,70,71,72,73,74,75,76,77,78,79,80,81,82,83,84,85,86,87,88,89,90,91,92,93,94,95,96,97,98,99,100],"tree_info":[0,0,0,0,0,0,0,0,0,0,0,0,0,0,0,0,0,0,0,0,0,0,0,0,0,0,0,0,0,0,0,0,0,0,0,0,0,0,0,0,0,0,0,0,0,0,0,0,0,0,0,0,0,0,0,0,0,0,0,0,0,0,0,0,0,0,0,0,0,0,0,0,0,0,0,0,0,0,0,0,0,0,0,0,0,0,0,0,0,0,0,0,0,0,0,0,0,0,0,0],"trees":[{"base_weights":[6.733511E-3,-7.284127E-1,7.830761E-1,1.0547233E0,-1.8641628E-1,2.1014322E-1,1.5218081E0,8.9427483E-1,-6.733026E-1,-1.4856735E-1,1.5428535E0,-7.273231E-1,5.5310684E-1,-3.9373067E-1,1.449183E0,1.1626861E0,2.0166636E0,-8.875549E-1,-2.9243907E-1,6.639168E-1,-6.605371E-1,1.201082E-3,2.0139756E0,7.397109E-1,1.6180929E0,2.0618074E0,6.862122E-1,1.0531134E-1,6.820273E-2,3.337495E-1,1.4172236E0,2.1621006E0,2.2451228E-2,9.358579E-2,1.8776078E-2,6.0449127E-2,-8.6735925E-3,2.4830889E-2,9.086021E-2,1.3019189E-2,-1.0748045E0,1.2034005E-2,-9.2731136E-1,1.3976258E0,9.840566E-2,8.494455E-2,2.2159807E-2,-5.304951E-1,-9.995891E-1,-8.229598E-1,3.0609196E-1,4.5637116E-2,-2.0731082E-2,1.52300615E-2,-4.323495E-2,2.546772E-2,-1.31041305E-2,-1.0367458E-2,-1.2366289E0,-2.8720116E-2,1.4099627E-2,-1.9358638E-1,-8.594941E-1,2.4153642E-2,-1.717739E-2,-5.3327587E-2,-1.3610928E-2,-1.1123103E0,-4.465711E-1,-4.4134717E-2,4.4935625E-3,-1.1308677E0,-7.950325E-1,-1.332822E0,-8.9378256E-1,-1.1913937E0,-3.2649383E-1,7.248951E-3,-4.274703E-2,1.672972E-2,-4.8233312E-1,5.4141507E-2,9.771703E-2,9.531238E-2,5.5437665E-2,-4.5307168E-1,-1.0162024E0,1.201082E-3,-3.296011E-2,-8.616039E-1,-9.349796E-3,-9.494687E-1,-1.31041305E-2,-3.2594047E-2,-2.2854814E-3,1.43506E-2,-1.3376202E-2,-3.2071643E-2,-5.7427898E-2,-1.611223E-2,-4.089813E-2,-2.5544545E-2,-4.9585573E-2,-5.6339204E-2,-2.9042348E-2,-4.4666562E-2,-2.332084E-2,-2.9042348E-2,-5.097882E-2],"categories":[],"categories_nodes":[],"categories_segments":[],"categories_sizes":[],"default_left":[0,0,0,0,0,0,0,0,0,0,0,0,0,0,0,0,0,0,0,0,0,0,0,0,0,0,0,0,0,0,0,0,0,0,0,0,0,0,0,0,0,0,0,0,0,0,0,0,0,0,0,0,0,0,0,0,0,0,0,0,0,0,0,0,0,0,0,0,0,0,0,0,0,0,0,0,0,0,0,0,0,0,0,0,0,0,0,0,0,0,0,0,0,0,0,0,0,0,0,0,0,0,0,0,0,0,0,0,0],"id":0,"left_children":[1,17,3,5,11,7,15,9,41,59,21,39,13,53,33,23,31,47,19,27,61,-1,81,29,25,83,35,63,-1,55,37,43,-1,-1,-1,-1,-1,-1,-1,95,65,-1,57,45,-1,-1,-1,49,71,85,51,-1,-1,-1,-1,-1,-1,-1,103,-1,-1,79,67,-1,-1,-1,-1,101,69,-1,-1,73,89,97,75,107,77,-1,-1,-1,93,-1,-1,-1,-1,87,105,-1,-1,91,-1,99,-1,-1,-1,-1,-1,-1,-1,-1,-1,-1,-1,-1,-1,-1,-1,-1,-1],"loss_changes":[3.549438E2,2.1903687E1,7.985748E1,9.294797E1,2.7224422E1,5.2188072E1,2.4680908E1,3.3054222E1,9.622009E0,5.7678046E0,2.133065E1,1.0087866E1,2.5085423E1,8.224068E0,1.19135475E1,1.6232658E1,1.2065247E1,8.811386E0,3.1035015E1,1.4046498E1,5.710621E0,0E0,3.0880356E0,1.293667E1,1.6253357E1,2.7388153E0,1.1596044E1,4.7624497E0,0E0,6.4969835E0,1.071151E1,8.952118E0,0E0,0E0,0E0,0E0,0E0,0E0,0E0,1.7243917E0,4.4959164E0,0E0,5.940775E0,9.578243E0,0E0,0E0,0E0,1.4419369E1,3.8438873E0,2.6257153E0,1.1305699E1,0E0,0E0,0E0,0E0,0E0,0E0,0E0,7.1928406E-1,0E0,0E0,3.7560098E0,4.103737E0,0E0,0E0,0E0,0E0,7.584572E-1,6.818014E0,0E0,0E0,3.846344E0,2.5106277E0,1.6710968E0,8.29443E0,2.8651047E-1,7.317415E0,0E0,0E0,0E0,1.9343188E0,0E0,0E0,0E0,0E0,2.9700048E0,4.9734688E-1,0E0,0E0,2.7198868E0,0E0,1.6369896E0,0E0,0E0,0E0,0E0,0E0,0E0,0E0,0E0,0E0,0E0,0E0,0E0,0E0,0E0,0E0,0E0,0E0],"parents":[2147483647,0,0,2,2,3,3,5,5,7,7,4,4,12,12,6,6,1,1,18,18,10,10,15,15,24,24,19,19,23,23,16,16,14,14,26,26,30,30,11,11,8,8,31,31,43,43,17,17,47,47,50,50,13,13,29,29,42,42,9,9,20,20,27,27,40,40,62,62,68,68,48,48,71,71,74,74,76,76,61,61,22,22,25,25,49,49,85,85,72,72,89,89,80,80,39,39,73,73,91,91,67,67,58,58,86,86,75,75],"right_children":[2,18,4,6,12,8,16,10,42,60,22,40,14,54,34,24,32,48,20,28,62,-1,82,30,26,84,36,64,-1,56,38,44,-1,-1,-1,-1,-1,-1,-1,96,66,-1,58,46,-1,-1,-1,50,72,86,52,-1,-1,-1,-1,-1,-1,-1,104,-1,-1,80,68,-1,-1,-1,-1,102,70,-1,-1,74,90,98,76,108,78,-1,-1,-1,94,-1,-1,-1,-1,88,106,-1,-1,92,-1,100,-1,-1,-1,-1,-1,-1,-1,-1,-1,-1,-1,-1,-1,-1,-1,-1,-1],"split_conditions":[1.05896644E-1,-3.0897236E-1,1.0312775E-1,-2.4413656E-1,8.6963785E-1,-7.1124893E-1,9.4965905E-1,-5.053041E-1,-4.9733868E-1,-7.8949094E-1,2.4746116E-2,-2.1737032E-1,-7.175784E-2,-1.2592624E-1,1.3961625E-1,1.585289E-1,1.0678076E0,-3.8131806E-1,-3.252142E-1,-3.513169E-1,-1.9300963E-1,1.201082E-3,-3.0028868E-1,-3.1868577E-1,-3.1165534E-1,1.1468092E0,-2.2576804E-1,-4.8368368E-1,6.820273E-2,-2.0688199E-1,3.1515124E-1,-7.1884525E-1,2.2451228E-2,9.358579E-2,1.8776078E-2,6.0449127E-2,-8.6735925E-3,2.4830889E-2,9.086021E-2,4.890393E-1,1.4989784E-1,1.2034005E-2,-3.9659473E-1,-7.613846E-1,9.840566E-2,8.494455E-2,2.2159807E-2,-2.9670596E-1,-7.6846486E-1,-3.3543205E-1,-4.8026994E-1,4.5637116E-2,-2.0731082E-2,1.52300615E-2,-4.323495E-2,2.546772E-2,-1.31041305E-2,-1.0367458E-2,9.4965905E-1,-2.8720116E-2,1.4099627E-2,-3.9815274E-1,2.7377743E-3,2.4153642E-2,-1.717739E-2,-5.3327587E-2,-1.3610928E-2,-2.7170798E-1,-4.916491E-1,-4.4134717E-2,4.4935625E-3,-2.873909E-1,1.3067116E0,-3.2445043E-1,1.5017295E-1,-2.1732305E-1,-1.9910406E-1,7.248951E-3,-4.274703E-2,1.672972E-2,-2.1599124E-1,5.4141507E-2,9.771703E-2,9.531238E-2,5.5437665E-2,-4.1313285E-1,-5.655703E-1,1.201082E-3,-3.296011E-2,1.0486534E-1,-9.349796E-3,-7.025823E-1,-1.31041305E-2,-3.2594047E-2,-2.2854814E-3,1.43506E-2,-1.3376202E-2,-3.2071643E-2,-5.7427898E-2,-1.611223E-2,-4.089813E-2,-2.5544545E-2,-4.9585573E-2,-5.6339204E-2,-2.9042348E-2,-4.4666562E-2,-2.332084E-2,-2.9042348E-2,-5.097882E-2],"split_indices":[21,21,8,0,21,3,21,4,4,3,19,1,4,0,7,3,3,7,11,11,21,0,11,4,8,3,11,4,0,11,19,3,0,0,0,0,0,0,0,21,0,0,7,3,0,0,0,11,21,8,4,0,0,0,0,0,0,0,21,0,0,13,21,0,0,0,0,7,4,0,0,11,3,8,3,11,0,0,0,0,0,0,0,0,0,4,21,0,0,0,0,19,0,0,0,0,0,0,0,0,0,0,0,0,0,0,0,0,0],"split_type":[0,0,0,0,0,0,0,0,0,0,0,0,0,0,0,0,0,0,0,0,0,0,0,0,0,0,0,0,0,0,0,0,0,0,0,0,0,0,0,0,0,0,0,0,0,0,0,0,0,0,0,0,0,0,0,0,0,0,0,0,0,0,0,0,0,0,0,0,0,0,0,0,0,0,0,0,0,0,0,0,0,0,0,0,0,0,0,0,0,0,0,0,0,0,0,0,0,0,0,0,0,0,0,0,0,0,0,0,0],"sum_hessian":[6.1991766E2,3.1843863E2,3.0147903E2,2.3542589E2,6.605314E1,8.435165E1,1.5107425E2,4.7531483E1,3.6820164E1,1.8521658E1,2.9009825E1,3.8159077E1,2.7894062E1,1.3835455E1,1.4058608E1,8.948415E1,6.159009E1,2.325249E2,8.591371E1,2.3654165E1,6.225955E1,7.14088E0,2.1868946E1,4.7754635E1,4.172952E1,2.7447758E1,1.428176E1,1.606698E1,7.587185E0,3.0795046E1,1.695959E1,5.5564972E1,6.0251174E0,6.6945753E0,7.3640327E0,7.14088E0,7.14088E0,9.595557E0,7.3640327E0,1.249654E1,2.5662539E1,7.587185E0,2.9232979E1,1.6736437E1,3.8828537E1,8.256642E0,8.479795E0,5.690389E1,1.7562102E2,4.2175823E1,1.47280655E1,7.14088E0,7.587185E0,6.6945753E0,7.14088E0,2.1199488E1,9.595557E0,9.81871E0,1.9414268E1,8.479795E0,1.00418625E1,1.9191114E1,4.306843E1,8.256642E0,7.8103375E0,1.8521658E1,7.14088E0,2.5662539E1,1.7405895E1,7.587185E0,9.81871E0,1.0421222E2,7.14088E1,5.3779755E1,5.0432465E1,3.2357113E1,1.8075354E1,1.1157625E1,6.9177275E0,6.0251174E0,1.31659975E1,1.00418625E1,1.1827083E1,1.7182743E1,1.0265016E1,1.5620675E1,2.6555147E1,7.14088E0,8.479795E0,6.3375313E1,8.03349E0,5.3779755E1,9.595557E0,6.9177275E0,6.24827E0,6.24827E0,6.24827E0,9.595557E0,4.4184196E1,6.6945753E0,4.708518E1,6.4714227E0,1.9191114E1,1.3389151E1,6.0251174E0,2.0530031E1,6.0251174E0,6.0251174E0,2.6331995E1],"tree_param":{"num_deleted":"0","num_feature":"23","num_nodes":"109","size_leaf_vector":"1"}},{"base_weights":[-1.1788831E-3,-6.8486583E-1,7.274292E-1,4.1953847E-1,1.5327157E0,-8.771715E-2,9.7225785E-1,-1.0058221E0,-1.3519205E-1,-2.8524053E-1,1.3959769E0,1.934239E0,5.984174E-1,1.1102092E0,-3.7412506E-2,6.177196E-1,1.7369015E0,-2.0319806E-2,8.8032466E-1,1.0266216E0,-2.956862E-2,-1.2297361E0,-6.4055574E-1,-5.1072174E-1,2.0164448E-1,7.4204797E-1,-4.264637E-1,-5.2546963E-2,2.677875E-1,-2.265175E-2,1.0927672E0,-6.555231E-1,9.167515E-2,6.682999E-2,-2.194639E-3,6.0215414E-2,1.577689E-2,-1.9598188E-1,9.662054E-1,3.7627622E-2,-2.3878345E-2,-2.9035332E-2,-9.2519665E-1,3.778782E-1,-4.2601727E-2,-7.6581174E-1,1.7103922E-2,1.4705625E0,9.936193E-2,-1.3962391E-2,1.9737023E0,-3.341807E-1,-5.1762197E-2,7.004314E-2,4.88342E-1,1.9499044E0,2.3952527E-2,1.680966E-2,8.411558E-2,4.1455466E-2,-1.337933E-2,4.6840128E-2,9.256512E-2,4.6481374E-3,-3.108661E-2,-1.8693733E-1,-9.401542E-1,-1.0713279E0,6.079012E-4,-3.6934428E-3,4.795242E-2,1.4860997E-2,-3.1270776E-2,-1.306684E-3,-1.1479836E0,-9.951249E-3,3.273424E-2,9.065912E-2,4.012053E-2,-3.35554E-2,-5.5057075E-2,-1.2640654E0,-2.3758013E-2,-2.3962494E-2,-5.2312132E-2,2.1564994E-2,5.0652765E-2,-1.2992578E0,-3.164762E-2,-1.3267417E0,-2.9783333E-2,-5.569715E-2,-4.1034795E-2],"categories":[],"categories_nodes":[],"categories_segments":[],"categories_sizes":[],"default_left":[0,0,0,0,0,0,0,0,0,0,0,0,0,0,0,0,0,0,0,0,0,0,0,0,0,0,0,0,0,0,0,0,0,0,0,0,0,0,0,0,0,0,0,0,0,0,0,0,0,0,0,0,0,0,0,0,0,0,0,0,0,0,0,0,0,0,0,0,0,0,0,0,0,0,0,0,0,0,0,0,0,0,0,0,0,0,0,0,0,0,0,0,0],"id":1,"left_children":[1,7,3,5,11,9,13,21,23,31,57,47,19,15,-1,17,55,-1,35,33,-1,81,45,41,25,29,27,-1,59,-1,53,51,37,-1,-1,-1,-1,39,85,-1,-1,43,73,75,-1,65,-1,49,-1,-1,77,63,-1,-1,69,61,-1,-1,-1,-1,-1,-1,-1,-1,-1,71,67,79,-1,-1,-1,-1,-1,-1,83,-1,-1,-1,-1,-1,-1,87,-1,-1,-1,-1,-1,89,-1,91,-1,-1,-1],"loss_changes":[3.1353745E2,5.7151077E1,7.490411E1,6.2271366E1,3.0316635E1,3.4561836E1,2.8920738E1,1.5967072E1,1.5391045E1,1.4534161E1,8.570936E0,1.0885986E1,1.5988456E1,2.9637444E1,0E0,1.7337841E1,9.345139E0,0E0,1.3510189E1,1.4260702E1,0E0,2.013443E0,1.1000732E1,1.1439172E1,2.2186121E1,1.664146E1,1.8960548E1,0E0,8.529724E0,0E0,1.0118534E1,1.0223677E1,1.3338922E1,0E0,0E0,0E0,0E0,1.8657927E1,9.7954655E-1,0E0,0E0,1.197561E1,6.095522E0,5.8046694E0,0E0,7.0799065E0,0E0,3.1546547E1,0E0,0E0,5.05497E0,7.225394E0,0E0,0E0,6.593896E0,7.2854004E0,0E0,0E0,0E0,0E0,0E0,0E0,0E0,0E0,0E0,6.1734557E0,6.908676E0,2.271038E0,0E0,0E0,0E0,0E0,0E0,0E0,1.3119507E0,0E0,0E0,0E0,0E0,0E0,0E0,9.669037E-1,0E0,0E0,0E0,0E0,0E0,6.8811035E-1,0E0,4.3429565E-1,0E0,0E0,0E0],"parents":[2147483647,0,0,2,2,3,3,1,1,5,5,4,4,6,6,13,13,15,15,12,12,7,7,8,8,24,24,26,26,25,25,9,9,19,19,18,18,32,32,37,37,23,23,41,41,22,22,11,11,47,47,31,31,30,30,16,16,10,10,28,28,55,55,51,51,45,45,66,66,54,54,65,65,42,42,43,43,50,50,67,67,21,21,74,74,38,38,81,81,87,87,89,89],"right_children":[2,8,4,6,12,10,14,22,24,32,58,48,20,16,-1,18,56,-1,36,34,-1,82,46,42,26,30,28,-1,60,-1,54,52,38,-1,-1,-1,-1,40,86,-1,-1,44,74,76,-1,66,-1,50,-1,-1,78,64,-1,-1,70,62,-1,-1,-1,-1,-1,-1,-1,-1,-1,72,68,80,-1,-1,-1,-1,-1,-1,84,-1,-1,-1,-1,-1,-1,88,-1,-1,-1,-1,-1,90,-1,92,-1,-1,-1],"split_conditions":[1.05896644E-1,2.2683043E-3,-6.9360495E-2,8.294872E-1,1.2064402E0,1.3486027E0,-3.7815416E-1,-5.775455E-1,-2.3287843E-1,4.870618E-1,2.1259262E-1,8.8888913E-1,-1.8221687E-1,-6.793927E-1,-3.7412506E-2,-1.0233738E0,-7.0789695E-2,-2.0319806E-2,-7.807552E-1,-1.5821481E-1,-2.956862E-2,2.3022084E0,1.1215134E0,-6.59594E-1,-2.3452012E-1,-3.616556E-1,-1.3429688E-1,-5.2546963E-2,4.7821224E-1,-2.265175E-2,-8.471597E-3,4.5197148E-2,3.542213E-3,6.682999E-2,-2.194639E-3,6.0215414E-2,1.577689E-2,-3.260624E-1,9.575398E-1,3.7627622E-2,-2.3878345E-2,-2.5704944E-1,-1.0360258E0,2.0963535E-1,-4.2601727E-2,-5.698399E-1,1.7103922E-2,3.1404194E-1,9.936193E-2,-1.3962391E-2,-3.111516E-1,-3.9815274E-1,-5.1762197E-2,7.004314E-2,-2.898476E-1,-3.2968938E-1,2.3952527E-2,1.680966E-2,8.411558E-2,4.1455466E-2,-1.337933E-2,4.6840128E-2,9.256512E-2,4.6481374E-3,-3.108661E-2,4.0035993E-1,1.8337806E0,-2.0473312E-1,6.079012E-4,-3.6934428E-3,4.795242E-2,1.4860997E-2,-3.1270776E-2,-1.306684E-3,-3.2666692E-1,-9.951249E-3,3.273424E-2,9.065912E-2,4.012053E-2,-3.35554E-2,-5.5057075E-2,9.498762E-1,-2.3758013E-2,-2.3962494E-2,-5.2312132E-2,2.1564994E-2,5.0652765E-2,8.9115614E-1,-3.164762E-2,-3.8487303E-1,-2.9783333E-2,-5.569715E-2,-4.1034795E-2],"split_indices":[21,22,3,21,3,6,10,21,0,22,19,21,0,10,0,6,11,0,3,8,0,3,10,3,11,11,20,0,22,0,20,8,0,0,0,0,0,8,22,0,0,8,20,19,0,13,0,10,0,0,8,13,0,0,11,8,0,0,0,0,0,0,0,0,0,19,13,0,0,0,0,0,0,0,8,0,0,0,0,0,0,19,0,0,0,0,0,20,0,22,0,0,0],"split_type":[0,0,0,0,0,0,0,0,0,0,0,0,0,0,0,0,0,0,0,0,0,0,0,0,0,0,0,0,0,0,0,0,0,0,0,0,0,0,0,0,0,0,0,0,0,0,0,0,0,0,0,0,0,0,0,0,0,0,0,0,0,0,0,0,0,0,0,0,0,0,0,0,0,0,0,0,0,0,0,0,0,0,0,0,0,0,0,0,0,0,0,0,0],"sum_hessian":[6.2741644E2,3.2371738E2,3.0369907E2,2.2080003E2,8.289903E1,1.1557391E2,1.0522612E2,2.0385559E2,1.1986178E2,1.02708176E2,1.2865733E1,5.723255E1,2.5666483E1,9.8502335E1,6.7237816E0,5.626884E1,4.2233498E1,1.048699E1,4.578185E1,1.9604364E1,6.0621195E0,1.24914406E2,7.8941185E1,5.6431564E1,6.3430214E1,3.399803E1,2.9432182E1,1.258339E1,1.6848791E1,7.0704336E0,2.6927597E1,5.1437103E1,5.1271076E1,1.2004613E1,7.599751E0,1.9286009E1,2.649584E1,3.9164646E1,1.2106428E1,9.837204E0,2.9327444E1,2.659452E1,2.9837046E1,1.9521997E1,7.0725226E0,7.089348E1,8.0477085E0,3.273976E1,2.4492788E1,7.1641145E0,2.5575647E1,3.511774E1,1.6319363E1,1.20687685E1,1.4858829E1,3.4992077E1,7.2414207E0,6.0191402E0,6.846593E0,7.10252E0,9.746271E0,1.2194046E1,2.2798029E1,1.7713602E1,1.7404139E1,1.6888924E1,5.4004555E1,4.7377457E1,6.6271E0,8.62586E0,6.232969E0,8.8903055E0,7.998618E0,6.1880393E0,2.3649006E1,8.202358E0,1.1319639E1,1.882519E1,6.7504573E0,2.8550488E1,1.882697E1,1.1761318E2,7.3012314E0,6.209644E0,1.7439362E1,6.0658345E0,6.040593E0,1.0792039E2,9.69279E0,1.01544815E2,6.3755755E0,8.2172806E1,1.9372007E1],"tree_param":{"num_deleted":"0","num_feature":"23","num_nodes":"93","size_leaf_vector":"1"}},{"base_weights":[2.0873876E-2,-7.0411646E-1,7.320933E-1,3.4431085E-1,1.255785E0,6.875858E-1,-6.199277E-1,3.2405034E-1,1.3918971E0,2.0043697E-2,1.826931E0,1.7829504E0,-2.7879748E-2,-1.1298461E0,3.952784E-1,7.03234E-1,1.6067781E0,7.1423724E-2,1.7649244E0,1.06300535E-2,1.8142803E0,-8.271785E-1,-3.5123464E-1,6.929274E-2,-7.5524133E-1,-4.838352E-1,5.74238E-1,4.9930476E-2,-9.528551E-3,3.737004E-1,-2.991481E-2,4.1204974E-2,-1.5042478E-2,3.6046583E-2,9.4285674E-2,3.4420267E-1,-2.929239E-1,-3.268834E-2,4.0303045E-3,-1.6461754E-2,7.195771E-1,-5.1487684E-1,-9.254926E-1,1.2942416E-2,-7.291001E-1,-1.1609653E0,-7.2792554E-1,-8.040264E-1,9.680191E-3,-1.9397261E-3,3.1287946E-2,-2.589215E-1,-1.0681472E0,1.4436232E-2,-4.181787E-2,3.379244E-3,-3.964387E-2,1.930006E0,3.578489E-2,9.779668E-2,3.9795056E-2,1.5241243E0,9.1215886E-2,-4.0379074E-1,-1.0819997E0,-3.9204482E-2,2.122654E-2,-8.685173E-1,7.502612E-5,-3.8249053E-2,-1.8229295E-3,6.7770565E-3,4.350701E-2,5.031768E-2,8.87521E-2,-1.2635367E0,-6.8903404E-1,-5.926418E-3,-4.06036E-2,1.458964E-2,-1.7385399E-2,1.9190222E0,3.943942E-2,9.0982534E-2,4.5087337E-2,-5.093832E-2,-2.1468056E-2,-2.7393205E-2,-5.1698785E-2,-1.3236091E0,-3.084287E-2,-1.1936054E0,-2.4071664E-2,-3.176242E-2,-5.577823E-2,-3.3079367E-2,-5.4380026E-2],"categories":[],"categories_nodes":[],"categories_segments":[],"categories_sizes":[],"default_left":[0,0,0,0,0,0,0,0,0,0,0,0,0,0,0,0,0,0,0,0,0,0,0,0,0,0,0,0,0,0,0,0,0,0,0,0,0,0,0,0,0,0,0,0,0,0,0,0,0,0,0,0,0,0,0,0,0,0,0,0,0,0,0,0,0,0,0,0,0,0,0,0,0,0,0,0,0,0,0,0,0,0,0,0,0,0,0,0,0,0,0,0,0,0,0,0,0],"id":2,"left_children":[1,21,3,5,15,7,13,9,11,35,59,81,-1,85,31,17,19,29,33,-1,57,41,23,25,51,55,27,-1,-1,39,-1,-1,-1,-1,-1,49,37,-1,-1,-1,71,43,45,-1,63,75,47,67,-1,-1,-1,53,91,-1,-1,-1,-1,61,-1,-1,-1,73,-1,65,87,-1,79,69,-1,-1,-1,-1,-1,-1,-1,89,77,-1,-1,-1,-1,83,-1,-1,-1,-1,-1,-1,-1,93,-1,95,-1,-1,-1,-1,-1],"loss_changes":[3.2264105E2,1.3166306E1,6.3709564E1,6.094933E1,2.485791E1,3.4196194E1,2.5569906E1,4.1336403E1,3.8559593E1,7.8445835E0,5.3141975E0,2.3517761E0,0E0,1.9897614E0,8.60753E0,3.598353E1,2.2127762E1,8.85607E0,8.001606E0,0E0,5.780472E0,6.5551147E0,1.3960216E1,1.17365E1,6.2204247E0,5.8248324E0,1.2165514E1,0E0,0E0,7.351729E0,0E0,0E0,0E0,0E0,0E0,6.505464E0,8.137499E0,0E0,0E0,0E0,3.5024414E0,1.046929E1,7.1998444E0,0E0,4.816292E0,2.867096E0,7.3237305E0,4.674E0,0E0,0E0,0E0,8.8246565E0,7.769203E-1,0E0,0E0,0E0,0E0,5.007843E0,0E0,0E0,0E0,3.0150833E0,0E0,6.192561E0,8.698387E-1,0E0,2.5683386E0,5.6501007E0,0E0,0E0,0E0,0E0,0E0,0E0,0E0,8.39241E-1,2.6313934E0,0E0,0E0,0E0,0E0,6.2896423E0,0E0,0E0,0E0,0E0,0E0,0E0,0E0,7.5429535E-1,0E0,7.665634E-3,0E0,0E0,0E0,0E0,0E0],"parents":[2147483647,0,0,2,2,3,3,5,5,7,7,8,8,6,6,4,4,15,15,16,16,1,1,22,22,23,23,26,26,17,17,14,14,18,18,9,9,36,36,29,29,21,21,41,41,42,42,46,46,35,35,24,24,51,51,25,25,20,20,10,10,57,57,44,44,63,63,47,47,67,67,40,40,61,61,45,45,76,76,66,66,11,11,81,81,13,13,64,64,75,75,52,52,89,89,91,91],"right_children":[2,22,4,6,16,8,14,10,12,36,60,82,-1,86,32,18,20,30,34,-1,58,42,24,26,52,56,28,-1,-1,40,-1,-1,-1,-1,-1,50,38,-1,-1,-1,72,44,46,-1,64,76,48,68,-1,-1,-1,54,92,-1,-1,-1,-1,62,-1,-1,-1,74,-1,66,88,-1,80,70,-1,-1,-1,-1,-1,-1,-1,90,78,-1,-1,-1,-1,84,-1,-1,-1,-1,-1,-1,-1,94,-1,96,-1,-1,-1,-1,-1],"split_conditions":[5.7109673E-2,-3.1965023E-1,8.6963785E-1,-2.1500187E-1,-6.793927E-1,3.5373583E-1,1.4989784E-1,1.3486027E0,-2.42239E-1,-3.9815274E-1,-2.4579166E-1,-4.848216E-1,-2.7879748E-2,4.0434653E-1,-2.8087398E-1,-7.175784E-2,-2.4413656E-1,-7.163678E-1,1.7034805E-1,1.06300535E-2,9.061877E-1,-3.8131806E-1,-2.2396839E-1,-2.1599124E-1,-6.141425E-1,-4.8368368E-1,1.9287156E-1,4.9930476E-2,-9.528551E-3,-1.2324901E-2,-2.991481E-2,4.1204974E-2,-1.5042478E-2,3.6046583E-2,9.4285674E-2,-6.978802E-1,-2.4413656E-1,-3.268834E-2,4.0303045E-3,-1.6461754E-2,-8.471597E-3,-1.6939617E0,-1.0094659E0,1.2942416E-2,-2.4579166E-1,-2.375021E-1,9.58117E-1,1.7804316E-1,9.680191E-3,-1.9397261E-3,3.1287946E-2,-2.3276521E-1,7.9739416E-1,1.4436232E-2,-4.181787E-2,3.379244E-3,-3.964387E-2,5.579438E-1,3.578489E-2,9.779668E-2,3.9795056E-2,4.0434653E-1,9.1215886E-2,-1.0856339E0,-5.744486E-1,-3.9204482E-2,5.579438E-1,9.824829E-1,7.502612E-5,-3.8249053E-2,-1.8229295E-3,6.7770565E-3,4.350701E-2,5.031768E-2,8.87521E-2,1.1215134E0,-4.6378512E-2,-5.926418E-3,-4.06036E-2,1.458964E-2,-1.7385399E-2,-2.1599124E-1,3.943942E-2,9.0982534E-2,4.5087337E-2,-5.093832E-2,-2.1468056E-2,-2.7393205E-2,-5.1698785E-2,-1.6550792E0,-3.084287E-2,5.004287E-1,-2.4071664E-2,-3.176242E-2,-5.577823E-2,-3.3079367E-2,-5.4380026E-2],"split_indices":[21,21,21,1,10,10,0,6,1,13,1,4,0,1,7,4,0,10,19,0,10,7,7,0,10,4,19,0,0,19,0,0,0,0,0,10,0,0,0,0,20,21,21,0,1,1,19,0,0,0,0,1,20,0,0,0,0,6,0,0,0,1,0,21,10,0,6,20,0,0,0,0,0,0,0,10,19,0,0,0,0,0,0,0,0,0,0,0,0,20,0,20,0,0,0,0,0],"split_type":[0,0,0,0,0,0,0,0,0,0,0,0,0,0,0,0,0,0,0,0,0,0,0,0,0,0,0,0,0,0,0,0,0,0,0,0,0,0,0,0,0,0,0,0,0,0,0,0,0,0,0,0,0,0,0,0,0,0,0,0,0,0,0,0,0,0,0,0,0,0,0,0,0,0,0,0,0,0,0,0,0,0,0,0,0,0,0,0,0,0,0,0,0,0,0,0,0],"sum_hessian":[6.237257E2,3.0887753E2,3.1484818E2,1.818498E2,1.3299838E2,1.343185E2,4.75313E1,8.955443E1,4.476407E1,7.532984E1,1.4224582E1,3.781796E1,6.9461093E0,3.1564262E1,1.5967039E1,5.283168E1,8.01667E1,3.3790363E1,1.9041319E1,1.1037929E1,6.912877E1,2.2801633E2,8.0861206E1,4.0026466E1,4.0834743E1,1.9121819E1,2.0904646E1,1.1173608E1,9.731037E0,2.5049356E1,8.741006E0,8.597588E0,7.3694515E0,8.652741E0,1.0388577E1,3.69543E1,3.8375546E1,1.6057493E1,2.2318052E1,7.6167455E0,1.7432611E1,5.608752E1,1.7192882E2,1.1328624E1,4.4758896E1,7.6214874E1,9.571394E1,8.890043E1,6.8135157E0,1.9877275E1,1.7077024E1,1.6496334E1,2.4338411E1,9.512836E0,6.983498E0,9.3673E0,9.7545185E0,6.046672E1,8.662052E0,7.1431475E0,7.0814342E0,3.0035582E1,3.0431137E1,2.440558E1,2.0353313E1,9.855932E0,1.4549649E1,8.224142E1,6.6590066E0,7.45596E1,7.6818185E0,7.5034328E0,9.929179E0,2.3508041E1,6.5275393E0,6.122961E1,1.4985261E1,6.1213226E0,8.863937E0,8.413248E0,6.1364007E0,3.1139313E1,6.6786466E0,2.0458902E1,1.068041E1,2.4730764E1,6.833498E0,8.33858E0,1.2014734E1,5.312982E1,8.099791E0,1.7986212E1,6.352199E0,7.130321E0,4.59995E1,7.261076E0,1.0725136E1],"tree_param":{"num_deleted":"0","num_feature":"23","num_nodes":"97","size_leaf_vector":"1"}},{"base_weights":[1.9115929E-3,-6.629154E-1,6.7485595E-1,4.085691E-1,1.3417499E0,5.4913217E-1,-1.1468735E0,3.7905487E-1,1.909733E0,1.7067845E0,2.7540881E-2,2.4841692E-1,8.4154144E-2,3.27531E-2,1.1999221E0,-3.6149453E-2,1.1022905E-2,-8.101938E-1,-2.6072615E-1,-4.9575418E-1,9.308414E-1,2.5194654E-2,8.872054E-2,3.5896078E-1,-7.5387996E-1,-2.979615E-2,3.471608E-2,-1.0141166E0,-5.2799153E-1,-4.958437E-2,-1.0600172E0,-4.8566183E-1,6.52268E-1,6.686712E-2,-1.6884685E-2,1.3941758E-3,7.206904E-2,-1.39197605E-2,4.5664713E-2,1.8849763E0,8.5421973E-1,-2.4052139E-1,-9.8808444E-1,3.8253795E-2,9.0647206E-2,-6.852257E-1,1.0244609E-2,-1.2404196E0,-8.132876E-1,9.525358E-3,-2.8548177E-2,-6.90259E-3,-8.877249E-1,2.0114226E0,4.4700794E-2,-2.0588633E-2,-5.324749E-2,-3.9014887E-2,-1.0581249E-2,-5.144487E-1,-1.0109876E0,-3.571632E-2,2.1434787E-3,-2.809898E-2,-5.0047133E-2,1.3962638E0,8.8111766E-2,8.192947E-2,2.2673085E-2,-1.082558E0,-1.7082043E-2,-4.8852004E-2,-8.050435E-1,-1.4210736E-2,-4.002037E-2,4.3603245E-2,1.9322082E-2,-3.556505E-2,-5.4235116E-2,-3.061205E-2,-5.1659558E-2],"categories":[],"categories_nodes":[],"categories_segments":[],"categories_sizes":[],"default_left":[0,0,0,0,0,0,0,0,0,0,0,0,0,0,0,0,0,0,0,0,0,0,0,0,0,0,0,0,0,0,0,0,0,0,0,0,0,0,0,0,0,0,0,0,0,0,0,0,0,0,0,0,0,0,0,0,0,0,0,0,0,0,0,0,0,0,0,0,0,0,0,0,0,0,0,0,0,0,0,0,0],"id":3,"left_children":[1,17,3,5,9,7,79,11,43,39,25,13,-1,15,21,-1,-1,27,19,23,35,-1,-1,37,41,-1,-1,47,29,31,71,45,33,-1,-1,-1,-1,-1,-1,53,75,49,69,-1,-1,57,-1,55,51,-1,-1,-1,59,65,-1,-1,-1,-1,-1,61,63,-1,-1,-1,-1,67,-1,-1,-1,77,-1,-1,73,-1,-1,-1,-1,-1,-1,-1,-1],"loss_changes":[2.7972433E2,1.8418686E1,5.46308E1,4.9493496E1,4.2278275E1,4.6863895E1,2.5882721E-2,4.0704758E1,5.3346405E0,8.877106E0,1.3623402E1,3.52864E1,0E0,3.206787E1,1.696416E1,0E0,0E0,1.268544E1,2.4483372E1,1.6221212E1,1.1124919E1,0E0,0E0,9.956083E0,6.477312E0,0E0,0E0,5.0030975E0,2.5007536E1,1.650458E1,8.6647034E-1,5.080376E0,2.3143028E1,0E0,0E0,0E0,0E0,0E0,0E0,3.2619781E0,6.6384125E-1,4.389465E0,1.563118E0,0E0,0E0,2.92657E0,0E0,3.024002E0,3.3331795E0,0E0,0E0,0E0,2.4780083E0,2.1778107E0,0E0,0E0,0E0,0E0,0E0,3.9161277E0,2.6313286E0,0E0,0E0,0E0,0E0,6.03907E0,0E0,0E0,0E0,4.8983765E-1,0E0,0E0,1.4205198E0,0E0,0E0,0E0,0E0,0E0,0E0,0E0,0E0],"parents":[2147483647,0,0,2,2,3,3,5,5,4,4,7,7,11,11,13,13,1,1,18,18,14,14,19,19,10,10,17,17,28,28,29,29,32,32,20,20,23,23,9,9,24,24,8,8,31,31,27,27,41,41,48,48,39,39,47,47,45,45,52,52,59,59,60,60,53,53,65,65,42,42,30,30,72,72,40,40,69,69,6,6],"right_children":[2,18,4,6,10,8,80,12,44,40,26,14,-1,16,22,-1,-1,28,20,24,36,-1,-1,38,42,-1,-1,48,30,32,72,46,34,-1,-1,-1,-1,-1,-1,54,76,50,70,-1,-1,58,-1,56,52,-1,-1,-1,60,66,-1,-1,-1,-1,-1,62,64,-1,-1,-1,-1,68,-1,-1,-1,78,-1,-1,74,-1,-1,-1,-1,-1,-1,-1,-1],"split_conditions":[7.252161E-2,-3.0897236E-1,-6.9360495E-2,-4.4461834E-1,-2.4105477E-1,1.3486027E0,-3.4552905E-1,1.7732741E0,4.4601727E-1,-4.8709744E-1,-1.8784593E-1,-6.1743444E-1,8.4154144E-2,-5.030283E-1,-1.8658052E-1,-3.6149453E-2,1.1022905E-2,-2.898476E-1,7.2511834E-1,-7.415271E-1,8.036576E-1,2.5194654E-2,8.872054E-2,-7.175784E-2,8.2521105E-1,-2.979615E-2,3.471608E-2,-1.0094659E0,-7.877405E-2,4.2496732E-1,-5.357741E-1,-4.921071E-2,1.0678076E0,6.686712E-2,-1.6884685E-2,1.3941758E-3,7.206904E-2,-1.39197605E-2,4.5664713E-2,-2.1036218E-1,4.7771123E-1,-2.4105477E-1,3.9414537E-1,3.8253795E-2,9.0647206E-2,3.764372E-1,1.0244609E-2,-2.4413656E-1,-1.1156399E0,9.525358E-3,-2.8548177E-2,-6.90259E-3,-5.698399E-1,3.1404194E-1,4.4700794E-2,-2.0588633E-2,-5.324749E-2,-3.9014887E-2,-1.0581249E-2,-3.6119497E-1,-3.5976186E-1,-3.571632E-2,2.1434787E-3,-2.809898E-2,-5.0047133E-2,-1.8881482E-1,8.8111766E-2,8.192947E-2,2.2673085E-2,-2.375021E-1,-1.7082043E-2,-4.8852004E-2,5.41874E-1,-1.4210736E-2,-4.002037E-2,4.3603245E-2,1.9322082E-2,-3.556505E-2,-5.4235116E-2,-3.061205E-2,-5.1659558E-2],"split_indices":[21,21,3,3,1,6,10,21,21,4,0,3,0,4,1,0,0,11,10,13,13,0,0,4,12,0,0,21,11,10,3,1,3,0,0,0,0,0,0,0,10,1,11,0,0,19,0,0,19,0,0,0,13,10,0,0,0,0,0,11,11,0,0,0,0,11,0,0,0,1,0,0,10,0,0,0,0,0,0,0,0],"split_type":[0,0,0,0,0,0,0,0,0,0,0,0,0,0,0,0,0,0,0,0,0,0,0,0,0,0,0,0,0,0,0,0,0,0,0,0,0,0,0,0,0,0,0,0,0,0,0,0,0,0,0,0,0,0,0,0,0,0,0,0,0,0,0,0,0,0,0,0,0,0,0,0,0,0,0,0,0,0,0,0,0],"sum_hessian":[6.232339E2,3.135153E2,3.0971863E2,2.2249165E2,8.722696E1,2.0464514E2,1.7846516E1,1.8304306E2,2.1602081E1,6.8031746E1,1.9195211E1,1.7114813E2,1.1894921E1,1.4036751E2,3.0780634E1,2.832215E1,1.1204536E2,2.2873862E2,8.4776665E1,7.129767E1,1.3478997E1,2.0653154E1,1.012748E1,1.6447037E1,5.4850628E1,1.005928E1,9.135931E0,1.3128027E2,9.745835E1,5.1890587E1,4.5567764E1,3.219506E1,1.9695524E1,9.852371E0,9.843153E0,7.1193247E0,6.3596725E0,8.912816E0,7.534221E0,5.5269176E1,1.2762571E1,1.7819216E1,3.7031414E1,6.7208104E0,1.488127E1,2.5419573E1,6.77549E0,5.929151E1,7.1988754E1,9.082231E0,8.736984E0,7.8280134E0,6.416074E1,4.6120823E1,9.148354E0,6.888201E0,5.240331E1,1.4387353E1,1.1032219E1,1.7211832E1,4.6948914E1,1.0034459E1,7.177373E0,2.1840414E1,2.51085E1,1.2454293E1,3.366653E1,6.2119794E0,6.2423143E0,3.0921122E1,6.1102915E0,2.5973093E1,1.959467E1,6.664639E0,1.2930031E1,6.713413E0,6.049159E0,2.023768E1,1.068344E1,6.4346304E0,1.1411886E1],"tree_param":{"num_deleted":"0","num_feature":"23","num_nodes":"81","size_leaf_vector":"1"}},{"base_weights":[7.253053E-2,-6.749513E-1,7.774082E-1,9.7440577E-1,-3.2220712E-1,3.0844015E-1,1.2540431E0,9.0011096E-1,-4.5710605E-1,1.5253396E0,6.5913033E-1,-1.898099E-1,1.459675E0,1.4719817E-1,1.4721295E0,3.0550608E-2,-9.103746E-1,4.895269E-2,-5.70875E-1,1.1794223E-2,8.531277E-2,-8.635371E-1,2.6387583E-2,-9.2026484E-1,-4.6848023E-1,-6.432625E-1,5.4178405E-1,-7.433683E-1,-2.2258045E-1,1.1362239E-2,1.768221E0,2.6241148E-1,-4.5759252E-1,-2.8138018E-1,4.471838E-2,4.6371765E-2,-1.659104E-3,-2.8949982E-1,-9.6276575E-1,1.2546406E0,1.7924796E0,5.613834E-1,1.6082987E0,4.351533E-2,-2.8518287E-2,-1.112997E0,-6.2539035E-1,-1.3574983E-1,-5.0253186E-2,-4.3433946E-1,3.4206204E-2,-5.4978892E-2,-5.1220108E-2,-2.9444E-2,1.5242732E-2,-3.2844227E-2,1.0321384E-1,7.895895E-2,4.6422984E-2,-1.0972145E0,-9.238037E-3,-3.9351508E-2,-2.9665303E-1,6.936773E-2,-7.657944E-1,-2.9769171E-2,1.7754864E-2,2.3473697E-2,-1.745042E-2,-2.4990581E-2,1.4418593E-2,-4.619568E-2,-4.2059636E-1,-4.3406334E-2,1.052156E-2,-7.602243E-1,-1.2823315E0,-1.1424298E0,-1.1043371E-2,-2.7167456E-2,9.181841E-3,-4.432375E-2,-9.242157E-3,-4.1460183E-1,-4.4540934E-2,7.3718526E-3,-3.45693E-2,-2.0282773E-2,-1.2352942E0,3.9292756E-2,1.8639015E0,-3.6039107E-2,-1.1605516E-2,4.7792584E-2,7.95365E-2,5.5948578E-2,7.993958E-2,-5.176797E-2,-2.9434226E-2,-5.315354E-2,-3.273181E-2,-3.2557968E-2,-5.3383477E-2],"categories":[],"categories_nodes":[],"categories_segments":[],"categories_sizes":[],"default_left":[0,0,0,0,0,0,0,0,0,0,0,0,0,0,0,0,0,0,0,0,0,0,0,0,0,0,0,0,0,0,0,0,0,0,0,0,0,0,0,0,0,0,0,0,0,0,0,0,0,0,0,0,0,0,0,0,0,0,0,0,0,0,0,0,0,0,0,0,0,0,0,0,0,0,0,0,0,0,0,0,0,0,0,0,0,0,0,0,0,0,0,0,0,0,0,0,0,0,0,0,0,0,0],"id":4,"left_children":[1,23,3,5,17,7,9,11,15,39,13,79,29,25,19,-1,77,-1,21,-1,-1,71,-1,45,27,91,35,37,31,-1,93,33,61,69,-1,-1,-1,55,59,41,89,43,57,-1,-1,75,47,49,-1,51,-1,53,-1,-1,-1,-1,67,-1,-1,87,-1,-1,63,65,81,-1,-1,-1,-1,-1,-1,-1,73,-1,-1,83,101,97,-1,-1,-1,-1,-1,85,-1,-1,-1,-1,99,-1,95,-1,-1,-1,-1,-1,-1,-1,-1,-1,-1,-1,-1],"loss_changes":[3.23693E2,1.4673676E1,6.879671E1,4.9588974E1,1.9378147E1,3.6958138E1,2.944571E1,2.8238876E1,2.0463919E1,7.066498E0,2.5110207E1,3.4964056E0,1.0543671E1,1.2341638E1,1.731678E1,0E0,3.6049385E0,0E0,1.5898797E1,0E0,0E0,3.933834E0,0E0,6.9905853E0,1.0917793E1,9.321971E-1,9.392E0,7.38797E0,1.0147224E1,0E0,5.625E-1,1.38818245E1,4.7131634E0,4.2968764E0,0E0,0E0,0E0,5.579445E0,4.8200264E0,1.5601334E1,1.8157196E0,1.6849695E1,4.84124E0,0E0,0E0,3.8345108E0,1.6885313E1,9.90855E0,0E0,8.060772E0,0E0,5.756628E0,0E0,0E0,0E0,0E0,4.4109573E0,0E0,0E0,2.9138947E0,0E0,0E0,8.123021E0,8.566005E0,3.4802103E0,0E0,0E0,0E0,0E0,0E0,0E0,0E0,7.149089E0,0E0,0E0,2.975771E0,6.956482E-2,1.9948006E-1,0E0,0E0,0E0,0E0,0E0,4.400957E0,0E0,0E0,0E0,0E0,1.8357086E-1,0E0,5.548096E-1,0E0,0E0,0E0,0E0,0E0,0E0,0E0,0E0,0E0,0E0,0E0,0E0],"parents":[2147483647,0,0,2,2,3,3,5,5,6,6,7,7,10,10,8,8,4,4,14,14,18,18,1,1,13,13,24,24,12,12,28,28,31,31,26,26,27,27,9,9,39,39,41,41,23,23,46,46,47,47,49,49,51,51,37,37,42,42,38,38,32,32,62,62,63,63,56,56,33,33,21,21,72,72,45,45,16,16,11,11,64,64,75,75,83,83,59,59,40,40,25,25,30,30,90,90,77,77,88,88,76,76],"right_children":[2,24,4,6,18,8,10,12,16,40,14,80,30,26,20,-1,78,-1,22,-1,-1,72,-1,46,28,92,36,38,32,-1,94,34,62,70,-1,-1,-1,56,60,42,90,44,58,-1,-1,76,48,50,-1,52,-1,54,-1,-1,-1,-1,68,-1,-1,88,-1,-1,64,66,82,-1,-1,-1,-1,-1,-1,-1,74,-1,-1,84,102,98,-1,-1,-1,-1,-1,86,-1,-1,-1,-1,100,-1,96,-1,-1,-1,-1,-1,-1,-1,-1,-1,-1,-1,-1],"split_conditions":[7.89848E-2,-7.6846486E-1,2.5938922E-1,-2.4413656E-1,-1.9910406E-1,-7.1124893E-1,-1.8158855E-1,-5.053041E-1,4.9239925E-1,1.6261439E-1,-7.175784E-2,-2.379493E-1,-2.8090426E-1,-3.4380015E-2,7.971876E-1,3.0550608E-2,8.6963785E-1,4.895269E-2,-6.9360495E-2,1.1794223E-2,8.531277E-2,8.797476E-1,2.6387583E-2,-2.898476E-1,-2.216203E-1,5.977691E-1,-2.4501239E-1,-3.9815274E-1,-3.2951346E-1,1.1362239E-2,-3.3621827E-1,-3.1588677E-1,-2.898476E-1,-3.1965023E-1,4.471838E-2,4.6371765E-2,-1.659104E-3,-2.3271503E-1,1.4904063E0,-4.8937327E-1,-3.7081712E-1,-4.9733868E-1,-4.2223617E-1,4.351533E-2,-2.8518287E-2,-2.2646554E-1,-5.3643808E-2,8.036576E-1,-5.0253186E-2,-1.93475E-1,3.4206204E-2,-4.4015545E-1,-5.1220108E-2,-2.9444E-2,1.5242732E-2,-3.2844227E-2,4.7047162E-1,7.895895E-2,4.6422984E-2,-6.59594E-1,-9.238037E-3,-3.9351508E-2,2.2946683E-1,-4.9506286E-1,-2.2646554E-1,-2.9769171E-2,1.7754864E-2,2.3473697E-2,-1.745042E-2,-2.4990581E-2,1.4418593E-2,-4.619568E-2,2.775826E-1,-4.3406334E-2,1.052156E-2,-3.2535717E-1,-1.9524912E0,3.8801265E-1,-1.1043371E-2,-2.7167456E-2,9.181841E-3,-4.432375E-2,-9.242157E-3,-4.711666E-1,-4.4540934E-2,7.3718526E-3,-3.45693E-2,-2.0282773E-2,9.753448E-1,3.9292756E-2,5.669082E-1,-3.6039107E-2,-1.1605516E-2,4.7792584E-2,7.95365E-2,5.5948578E-2,7.993958E-2,-5.176797E-2,-2.9434226E-2,-5.315354E-2,-3.273181E-2,-3.2557968E-2,-5.3383477E-2],"split_indices":[21,21,8,0,0,3,8,4,2,6,4,11,19,19,21,0,21,0,3,0,0,21,0,11,0,20,11,13,11,0,11,8,11,21,0,0,0,6,13,4,11,4,4,0,0,13,11,13,0,0,0,20,0,0,0,0,20,0,0,3,0,0,8,4,13,0,0,0,0,0,0,0,4,0,0,8,21,20,0,0,0,0,0,4,0,0,0,0,13,0,21,0,0,0,0,0,0,0,0,0,0,0,0],"split_type":[0,0,0,0,0,0,0,0,0,0,0,0,0,0,0,0,0,0,0,0,0,0,0,0,0,0,0,0,0,0,0,0,0,0,0,0,0,0,0,0,0,0,0,0,0,0,0,0,0,0,0,0,0,0,0,0,0,0,0,0,0,0,0,0,0,0,0,0,0,0,0,0,0,0,0,0,0,0,0,0,0,0,0,0,0,0,0,0,0,0,0,0,0,0,0,0,0,0,0,0,0,0,0],"sum_hessian":[6.1235846E2,2.9721823E2,3.151402E2,2.6735675E2,4.7783447E1,7.968569E1,1.8767108E2,4.484803E1,3.4837658E1,1.2781841E2,5.9852657E1,1.5438213E1,2.9409819E1,3.7451267E1,2.2401392E1,9.269373E0,2.5568285E1,6.1007996E0,4.1682648E1,8.481452E0,1.3919941E1,3.38966E1,7.7860503E0,1.3425243E2,1.6296579E2,1.2260332E1,2.5190935E1,7.5992134E1,8.697366E1,6.5064044E0,2.2903414E1,2.8350483E1,5.8623177E1,1.7698639E1,1.0651843E1,1.1813893E1,1.3377041E1,2.5519451E1,5.0472683E1,6.631574E1,6.150267E1,2.3276133E1,4.303961E1,1.6611338E1,6.664795E0,7.9509766E1,5.4742657E1,3.1374844E1,2.3367815E1,2.451625E1,6.858593E0,1.76227E1,6.8935504E0,6.6142664E0,1.1008433E1,1.0427995E1,1.5091457E1,2.2237074E1,2.080254E1,4.2229156E1,8.2435255E0,1.2627414E1,4.599576E1,2.6316195E1,1.967957E1,7.9762483E0,1.8339947E1,7.919196E0,7.1722617E0,1.1573362E1,6.125276E0,1.9634342E1,1.4262256E1,6.9573164E0,7.3049393E0,2.7567707E1,5.194206E1,1.8146124E1,7.422162E0,6.8550754E0,8.5831375E0,1.1432801E1,8.246768E0,1.4928918E1,1.2638789E1,6.6242905E0,8.304627E0,8.859869E0,3.3369286E1,6.1395082E0,5.536316E1,6.258596E0,6.001736E0,7.8791337E0,1.502428E1,1.412912E1,4.123404E1,1.1814144E1,6.3319793E0,2.587306E1,7.4962273E0,6.24378E0,4.569828E1],"tree_param":{"num_deleted":"0","num_feature":"23","num_nodes":"103","size_leaf_vector":"1"}},{"base_weights":[-7.6863193E-3,-4.3882358E-1,3.34784E-1,-1.3727729E-1,5.5904484E-1,9.1551566E-1,-9.628277E-2,4.700151E-1,-6.047975E-1,-4.503506E-1,1.052134E0,3.806672E-1,1.2092853E0,-2.8945976E-1,4.3669067E-2,-3.5227966E-1,-4.878285E-2,2.4484554E-1,-8.9212537E-1,5.656793E-2,-2.34708E-2,-7.386047E-1,-1.9462766E-1,7.508387E-2,5.061149E-1,2.2028921E-2,-3.93133E-2,-8.9850277E-1,7.473198E-3,-2.8301284E-1,4.5413235E-1,-6.4395726E-1,-2.7844908E-2,6.9871956E-1,-2.5141683E-1,1.1695114E-1,-8.556152E-1,-1.08873025E-1,-1.0601791E0,-3.31199E-1,4.0227238E-2,3.1659093E-2,-2.0159652E-2,1.7620142E-1,5.049676E-2,-3.893075E-2,-2.5269946E-3,-3.6333165E-1,5.2518517E-1,-8.79798E-3,4.4217646E-2,1.0041785E0,1.7205178E0,-2.8117718E-2,3.0216765E-2,8.4691876E-1,-1.8558588E-2,-1.0552658E0,1.6009313E-3,1.1327479E0,1.1472744E-2,2.4363123E-2,5.400796E-2,3.986932E-2,-6.948127E-4,3.2220084E-2,-2.4367932E-3,-3.199269E-2,7.5174468E-3,-3.875658E-2,-5.626632E-3,9.875662E-3,5.0965864E-2,-9.774244E-1,-7.169715E-3,-7.104584E-1,-1.2375038E0,-3.2617347E-3,-3.5357393E-2,-7.018917E-1,-5.1045384E-2,-7.0616143E-4,-4.3221146E-2,4.928503E-2,8.13222E-2,-5.4665472E-2,-3.1787083E-2,-2.8824193E-2,-5.0816473E-2],"categories":[],"categories_nodes":[],"categories_segments":[],"categories_sizes":[],"default_left":[0,0,0,0,0,0,0,0,0,0,0,0,0,0,0,0,0,0,0,0,0,0,0,0,0,0,0,0,0,0,0,0,0,0,0,0,0,0,0,0,0,0,0,0,0,0,0,0,0,0,0,0,0,0,0,0,0,0,0,0,0,0,0,0,0,0,0,0,0,0,0,0,0,0,0,0,0,0,0,0,0,0,0,0,0,0,0,0,0],"id":5,"left_children":[1,15,3,7,5,11,13,9,17,25,23,43,51,37,-1,21,-1,19,57,-1,-1,27,29,-1,49,-1,-1,73,-1,31,55,35,33,63,45,53,69,39,87,41,-1,-1,-1,47,-1,-1,-1,67,65,-1,-1,59,83,-1,-1,71,-1,79,-1,61,-1,-1,-1,-1,-1,-1,-1,-1,-1,-1,-1,-1,-1,75,-1,77,85,-1,-1,81,-1,-1,-1,-1,-1,-1,-1,-1,-1],"loss_changes":[9.152976E1,1.7974655E1,3.6651928E1,3.210414E1,5.4849052E1,2.3410225E1,1.9390715E1,2.6893316E1,1.5784124E1,1.0971472E1,1.2644901E1,9.6832905E0,8.506622E0,9.983645E0,0E0,1.4976324E1,0E0,1.710242E1,7.3190994E0,0E0,0E0,1.07503395E1,1.0316065E1,0E0,8.701696E0,0E0,0E0,3.304203E0,0E0,1.4440161E1,8.192444E0,1.0563534E1,1.5284274E1,4.667201E0,9.655775E0,8.31059E0,3.825348E0,1.510977E1,4.9752235E-2,1.0049878E1,0E0,0E0,0E0,8.854275E0,0E0,0E0,0E0,4.592492E0,4.6391306E0,0E0,0E0,6.3355026E0,1.491394E0,0E0,0E0,3.6200056E0,0E0,2.2017517E0,0E0,5.9375916E0,0E0,0E0,0E0,0E0,0E0,0E0,0E0,0E0,0E0,0E0,0E0,0E0,0E0,2.9352417E0,0E0,3.0653362E0,3.7364578E-1,0E0,0E0,4.489787E0,0E0,0E0,0E0,0E0,0E0,0E0,0E0,0E0,0E0],"parents":[2147483647,0,0,2,2,4,4,3,3,7,7,5,5,6,6,1,1,8,8,17,17,15,15,10,10,9,9,21,21,22,22,29,29,32,32,31,31,13,13,37,37,39,39,11,11,34,34,43,43,24,24,12,12,35,35,30,30,18,18,51,51,59,59,33,33,48,48,47,47,36,36,55,55,27,27,73,73,75,75,57,57,79,79,52,52,76,76,38,38],"right_children":[2,16,4,8,6,12,14,10,18,26,24,44,52,38,-1,22,-1,20,58,-1,-1,28,30,-1,50,-1,-1,74,-1,32,56,36,34,64,46,54,70,40,88,42,-1,-1,-1,48,-1,-1,-1,68,66,-1,-1,60,84,-1,-1,72,-1,80,-1,62,-1,-1,-1,-1,-1,-1,-1,-1,-1,-1,-1,-1,-1,76,-1,78,86,-1,-1,82,-1,-1,-1,-1,-1,-1,-1,-1,-1],"split_conditions":[-1.3543974E-1,4.8214498E-1,-2.4413656E-1,-7.1124893E-1,7.920068E-3,2.8036186E-1,-6.9360495E-2,-5.053041E-1,-4.9733868E-1,-5.0871783E-1,-4.984766E-1,-3.6420244E-1,-1.897404E-2,1.2962966E0,4.3669067E-2,-1.1233453E0,-4.878285E-2,-3.200175E-1,1.6579063E0,5.656793E-2,-2.34708E-2,1.3187191E0,-7.175784E-2,7.508387E-2,4.7616158E-2,2.2028921E-2,-3.93133E-2,-6.908943E-5,7.473198E-3,1.1219139E-1,-5.479531E-3,-7.5568736E-1,6.8609285E-1,-2.0473312E-1,8.497934E-1,-7.8873134E-1,2.5041264E-2,1.3601464E0,1.2914664E0,-1.8221687E-1,4.0227238E-2,3.1659093E-2,-2.0159652E-2,-5.477836E-2,5.049676E-2,-3.893075E-2,-2.5269946E-3,4.9239925E-1,-2.1036218E-1,-8.79798E-3,4.4217646E-2,-1.5821481E-1,3.547396E-1,-2.8117718E-2,3.0216765E-2,-2.0473312E-1,-1.8558588E-2,-3.284804E-1,1.6009313E-3,-4.996145E-1,1.1472744E-2,2.4363123E-2,5.400796E-2,3.986932E-2,-6.948127E-4,3.2220084E-2,-2.4367932E-3,-3.199269E-2,7.5174468E-3,-3.875658E-2,-5.626632E-3,9.875662E-3,5.0965864E-2,-2.1599124E-1,-7.169715E-3,-3.843734E-1,4.3820995E-1,-3.2617347E-3,-3.5357393E-2,2.4980342E0,-5.1045384E-2,-7.0616143E-4,-4.3221146E-2,4.928503E-2,8.13222E-2,-5.4665472E-2,-3.1787083E-2,-2.8824193E-2,-5.0816473E-2],"split_indices":[22,8,0,3,8,22,3,4,4,4,4,4,0,8,0,22,0,8,22,0,0,13,4,0,19,0,0,4,0,3,8,3,3,0,3,3,7,0,4,0,0,0,0,13,0,0,0,2,0,0,0,8,19,0,0,0,0,8,0,4,0,0,0,0,0,0,0,0,0,0,0,0,0,0,0,7,19,0,0,15,0,0,0,0,0,0,0,0,0],"split_type":[0,0,0,0,0,0,0,0,0,0,0,0,0,0,0,0,0,0,0,0,0,0,0,0,0,0,0,0,0,0,0,0,0,0,0,0,0,0,0,0,0,0,0,0,0,0,0,0,0,0,0,0,0,0,0,0,0,0,0,0,0,0,0,0,0,0,0,0,0,0,0,0,0,0,0,0,0,0,0,0,0,0,0,0,0,0,0,0,0],"sum_hessian":[6.1790814E2,2.734188E2,3.4448935E2,1.11072815E2,2.3341653E2,1.5092346E2,8.249308E1,4.8311947E1,6.2760864E1,1.8805561E1,2.9506386E1,5.432075E1,9.660271E1,7.1560326E1,1.0932759E1,2.472571E2,2.6161692E1,1.58978815E1,4.6862984E1,6.3261557E0,9.571726E0,7.0590515E1,1.7666658E2,1.0859055E1,1.8647331E1,6.489534E0,1.2316028E1,6.020602E1,1.0384496E1,1.5598007E2,2.0686512E1,6.396937E1,9.201069E1,2.11505E1,7.086019E1,1.4018921E1,4.995045E1,5.890062E1,1.2659703E1,4.9654022E1,9.246595E0,6.082485E0,4.3571537E1,4.5011673E1,9.309078E0,1.3890415E1,5.6969776E1,1.7663137E1,2.7348536E1,8.681906E0,9.9654255E0,7.105832E1,2.5544392E1,6.0873957E0,7.931525E0,1.4530167E1,6.156345E0,3.9769028E1,7.0939546E0,5.9787518E1,1.12708E1,1.8206163E1,4.1581352E1,1.4732409E1,6.418092E0,1.833059E1,9.017947E0,9.639554E0,8.023582E0,4.306654E1,6.8839116E0,6.637038E0,7.8931284E0,5.3937492E1,6.268527E0,2.8457836E1,2.5479656E1,6.3437104E0,2.2114126E1,1.6643997E1,2.3125032E1,6.2454934E0,1.0398504E1,1.1619539E1,1.3924852E1,1.839013E1,7.089528E0,6.4058604E0,6.253843E0],"tree_param":{"num_deleted":"0","num_feature":"23","num_nodes":"89","size_leaf_vector":"1"}},{"base_weights":[-2.164619E-4,-3.8969126E-1,3.637277E-1,1.8508835E-1,9.7397906E-1,3.0310604E-1,-1.0267218E0,5.172167E-1,-1.8152243E-1,2.4434361E-1,1.2369323E0,1.431424E0,2.9388934E-1,6.353504E-2,-2.3697254E-1,-4.6658576E-1,3.927978E-1,1.205213E-2,7.0175245E-2,-6.5383774E-1,-1.9083825E-1,-5.448468E-1,3.427049E-1,-9.586209E-2,5.5178076E-1,2.3361458E-1,-4.1270453E-1,5.054606E-1,-3.2944642E-2,2.3034876E-2,-1.4585349E-2,4.3012872E-2,-9.3052305E-2,6.043003E-4,4.6967562E-2,2.9055078E-2,-3.4406584E-2,3.2757506E-2,1.8449238E-3,-7.4297E-1,1.4581889E-2,2.2735552E-1,-3.883425E-2,-2.010965E-1,-7.538435E-1,-6.13468E-1,-1.1896935E0,-4.6371955E-1,-4.7218997E-2,-2.530199E-2,8.905733E-3,-5.624902E-1,3.0050543E-1,-2.7827196E-2,1.2480125E-2,-3.8649555E-2,-7.6596844E-3,-3.068493E-1,-3.8733974E-2,1.3693076E-1,-4.6086296E-1,-2.6669143E-2,4.243843E-3,8.316283E-1,1.1441924E-1,-2.965982E-2,3.2416936E-2,1.7515264E-2,1.3612477E0,-1.23562915E-2,2.1744542E-2,-7.3007387E-3,3.0314125E-2,-5.445446E-2,-2.012376E-2,2.939658E-2,6.1076757E-2,-7.006409E-3,2.486905E-2,4.4677854E-2,1.2675988E-2,-3.2915045E-2,-3.7912917E-3,-2.278555E-2,-4.706947E-2],"categories":[],"categories_nodes":[],"categories_segments":[],"categories_sizes":[],"default_left":[0,0,0,0,0,0,0,0,0,0,0,0,0,0,0,0,0,0,0,0,0,0,0,0,0,0,0,0,0,0,0,0,0,0,0,0,0,0,0,0,0,0,0,0,0,0,0,0,0,0,0,0,0,0,0,0,0,0,0,0,0,0,0,0,0,0,0,0,0,0,0,0,0,0,0,0,0,0,0,0,0,0,0,0,0],"id":6,"left_children":[1,15,3,5,11,7,83,9,21,23,67,17,13,-1,41,19,31,-1,-1,43,25,39,33,29,37,27,57,63,-1,-1,-1,-1,53,35,-1,-1,-1,-1,-1,55,-1,77,-1,51,45,47,73,49,-1,-1,-1,81,71,-1,-1,-1,-1,59,-1,69,61,-1,-1,79,65,-1,-1,-1,75,-1,-1,-1,-1,-1,-1,-1,-1,-1,-1,-1,-1,-1,-1,-1,-1],"loss_changes":[8.709448E1,1.804189E1,3.444599E1,3.5627098E1,2.188247E1,2.352335E1,8.057041E-1,3.0504845E1,1.3505799E1,1.2079713E1,3.6773453E0,1.46369095E1,2.0928064E1,0E0,7.7260895E0,1.3852978E1,9.017673E0,0E0,0E0,7.1294556E0,1.05395775E1,7.7662764E0,8.259848E0,1.0109897E1,8.024794E0,1.1496711E1,3.9728432E0,3.9077282E0,0E0,0E0,0E0,0E0,4.2537045E0,1.402939E1,0E0,0E0,0E0,0E0,0E0,3.9885807E0,0E0,2.3643732E0,0E0,5.690465E0,7.3067093E0,7.979889E0,2.8405495E0,9.42211E0,0E0,0E0,0E0,2.0897374E0,3.0696168E0,0E0,0E0,0E0,0E0,4.35951E0,0E0,3.2124047E0,5.452897E0,0E0,0E0,2.0991936E0,9.698376E0,0E0,0E0,0E0,2.5426178E0,0E0,0E0,0E0,0E0,0E0,0E0,0E0,0E0,0E0,0E0,0E0,0E0,0E0,0E0,0E0,0E0],"parents":[2147483647,0,0,2,2,3,3,5,5,7,7,4,4,12,12,1,1,11,11,15,15,8,8,9,9,20,20,25,25,23,23,16,16,22,22,33,33,24,24,21,21,14,14,19,19,44,44,45,45,47,47,43,43,32,32,39,39,26,26,57,57,60,60,27,27,64,64,10,10,59,59,52,52,46,46,68,68,41,41,63,63,51,51,6,6],"right_children":[2,16,4,6,12,8,84,10,22,24,68,18,14,-1,42,20,32,-1,-1,44,26,40,34,30,38,28,58,64,-1,-1,-1,-1,54,36,-1,-1,-1,-1,-1,56,-1,78,-1,52,46,48,74,50,-1,-1,-1,82,72,-1,-1,-1,-1,60,-1,70,62,-1,-1,80,66,-1,-1,-1,76,-1,-1,-1,-1,-1,-1,-1,-1,-1,-1,-1,-1,-1,-1,-1,-1],"split_conditions":[-3.9105266E-2,1.8337806E0,-6.9360495E-2,-5.2172095E-1,1.0678076E0,7.920068E-3,-1.01862326E-1,6.499723E-1,9.575398E-1,-1.01862326E-1,-3.3382007E-1,-5.477836E-2,-3.2535717E-1,6.353504E-2,-2.1855454E-1,-5.490217E-1,-1.4435393E-1,1.205213E-2,7.0175245E-2,-3.8169998E-1,-3.1699502E-1,2.88596E-1,4.0434653E-1,-7.5568736E-1,-1.2276048E-1,-2.4579166E-1,7.1034116E-1,1.8325797E-1,-3.2944642E-2,2.3034876E-2,-1.4585349E-2,4.3012872E-2,6.484493E-1,-5.2763376E-2,4.6967562E-2,2.9055078E-2,-3.4406584E-2,3.2757506E-2,1.8449238E-3,-6.641518E-1,1.4581889E-2,1.1476135E0,-3.883425E-2,-3.175995E-1,1.0678076E0,6.444018E-2,1.299864E0,1.9919525E-1,-4.7218997E-2,-2.530199E-2,8.905733E-3,2.004053E0,-4.122533E-1,-2.7827196E-2,1.2480125E-2,-3.8649555E-2,-7.6596844E-3,-7.321388E-1,-3.8733974E-2,1.0091819E-1,7.2511834E-1,-2.6669143E-2,4.243843E-3,-2.9844213E-1,-3.4045297E-1,-2.965982E-2,3.2416936E-2,1.7515264E-2,-4.8557925E-1,-1.23562915E-2,2.1744542E-2,-7.3007387E-3,3.0314125E-2,-5.445446E-2,-2.012376E-2,2.939658E-2,6.1076757E-2,-7.006409E-3,2.486905E-2,4.4677854E-2,1.2675988E-2,-3.2915045E-2,-3.7912917E-3,-2.278555E-2,-4.706947E-2],"split_indices":[22,13,3,3,3,8,20,19,22,20,8,13,8,0,1,22,20,0,0,7,8,13,1,3,7,1,8,19,0,0,0,0,10,1,0,0,0,0,0,3,0,10,0,8,3,8,10,7,0,0,0,3,7,0,0,0,0,3,0,20,10,0,0,7,7,0,0,0,20,0,0,0,0,0,0,0,0,0,0,0,0,0,0,0,0],"split_type":[0,0,0,0,0,0,0,0,0,0,0,0,0,0,0,0,0,0,0,0,0,0,0,0,0,0,0,0,0,0,0,0,0,0,0,0,0,0,0,0,0,0,0,0,0,0,0,0,0,0,0,0,0,0,0,0,0,0,0,0,0,0,0,0,0,0,0,0,0,0,0,0,0,0,0,0,0,0,0,0,0,0,0,0,0],"sum_hessian":[6.1243585E2,2.9580713E2,3.1662872E2,2.4593832E2,7.069041E1,2.2479547E2,2.1142862E1,1.5586604E2,6.892943E1,1.1398808E2,4.1877953E1,4.1602673E1,2.9087734E1,7.9176745E0,2.117006E1,2.69707E2,2.6100142E1,9.472283E0,3.213039E1,1.5981215E2,1.09894844E2,4.068954E1,2.8239887E1,5.4437016E1,5.9551067E1,3.7706158E1,7.218868E1,3.0384062E1,7.3220963E0,1.5202689E1,3.923433E1,1.0399521E1,1.570062E1,2.0675545E1,7.5643435E0,1.1302144E1,9.373401E0,3.876925E1,2.0781818E1,3.3547924E1,7.141616E0,1.3354505E1,7.8155556E0,2.945875E1,1.303534E2,1.00418755E2,2.9934637E1,8.071194E1,1.9706818E1,6.50561E1,1.5655844E1,1.7051857E1,1.2406894E1,6.0302143E0,9.670405E0,2.3505537E1,1.0042387E1,6.186053E1,1.0328153E1,1.59661255E1,4.5894405E1,3.367574E1,1.2218665E1,1.5951887E1,1.4432175E1,6.4376993E0,7.994476E0,6.230432E0,3.5647522E1,7.717865E0,8.2482605E0,6.305514E0,6.10138E0,2.336927E1,6.565367E0,8.28792E0,2.7359602E1,6.8641977E0,6.490307E0,9.59587E0,6.3560166E0,1.053358E1,6.518276E0,6.2279625E0,1.49149E1],"tree_param":{"num_deleted":"0","num_feature":"23","num_nodes":"85","size_leaf_vector":"1"}},{"base_weights":[-8.050549E-3,-3.6959782E-1,4.22937E-1,3.5758278E-1,7.535144E-2,6.07856E-1,-1.6903734E-1,3.7151358E-1,1.2983686E0,-6.1747086E-1,-1.0354077E-1,3.4234974E-1,-6.493596E-1,-7.492722E-1,7.552362E-1,-3.6979993E-3,7.581295E-1,6.268918E-2,1.5856434E-1,5.620726E-2,-3.0950707E-1,-2.0679937E-1,7.918299E-1,1.8351479E0,-1.7690511E-1,4.1874442E-1,-6.851324E-1,3.416601E-1,1.3039385E0,7.385196E-2,-8.47681E-3,6.550734E-2,-1.2121919E-2,-1.805734E-3,5.1418707E-2,-5.178023E-1,4.7604963E-1,-1.7405583E-1,-1.1209697E0,-3.9011423E-2,1.3185073E-2,2.8527337E-1,-6.361943E-1,4.948048E-2,-4.0240907E-3,-8.131291E-1,1.7453924E-2,-8.6556756E-1,1.193945E-1,1.9915614E-2,-4.4357654E-2,-1.7339034E-2,3.6213346E-2,4.4560317E-2,-8.881402E-3,-3.5976153E-3,-4.3600827E-2,-6.894959E-1,-1.1848158E0,-8.5027677E-1,-4.9492974E-2,2.083529E-2,-3.0072324E-2,-2.2387005E-2,-4.7538828E-2,5.637362E-3,-3.813398E-2,-1.0826572E0,-3.9873007E-1,2.1767043E-2,1.4578842E0,-7.2200483E-1,1.1566026E-2,1.6742048E0,3.1549495E-2,2.0521829E-2,-1.4283323E-2,3.44921E-2,7.553859E-2,-5.40883E-2,-2.3316205E-2,-4.7975987E-2,-1.9012667E-2,-4.0183768E-2,-1.3161944E-2,8.941518E-2,4.6808813E-2,-2.8382044E-2,-5.1050268E-2],"categories":[],"categories_nodes":[],"categories_segments":[],"categories_sizes":[],"default_left":[0,0,0,0,0,0,0,0,0,0,0,0,0,0,0,0,0,0,0,0,0,0,0,0,0,0,0,0,0,0,0,0,0,0,0,0,0,0,0,0,0,0,0,0,0,0,0,0,0,0,0,0,0,0,0,0,0,0,0,0,0,0,0,0,0,0,0,0,0,0,0,0,0,0,0,0,0,0,0,0,0,0,0,0,0,0,0,0,0],"id":7,"left_children":[1,9,3,5,-1,7,19,15,69,13,11,17,47,45,31,41,27,-1,21,-1,35,25,23,85,49,51,55,33,29,-1,-1,-1,-1,-1,-1,37,53,39,79,-1,-1,43,65,-1,-1,57,-1,67,75,-1,-1,-1,-1,-1,-1,-1,-1,59,87,63,61,-1,-1,-1,-1,-1,-1,81,71,-1,73,83,-1,77,-1,-1,-1,-1,-1,-1,-1,-1,-1,-1,-1,-1,-1,-1,-1],"loss_changes":[9.592655E1,2.2013275E1,2.59757E1,3.568634E1,0E0,2.9419846E1,1.9754738E1,2.0007854E1,4.8025894E0,3.1884544E1,3.9810143E1,1.9928194E1,1.2316645E1,1.2327316E1,1.4967245E1,1.3154823E1,1.4994892E1,0E0,1.8549667E1,0E0,1.3558878E1,1.5602147E1,2.9918344E1,1.113781E0,1.057538E1,9.735271E0,6.8970995E0,1.4513428E1,2.3856129E1,0E0,0E0,0E0,0E0,0E0,0E0,1.3237291E1,7.992775E0,1.7295488E1,2.0554028E0,0E0,0E0,1.8133026E1,5.6100283E0,0E0,0E0,6.1071396E0,0E0,5.3928795E0,3.3400667E0,0E0,0E0,0E0,0E0,0E0,0E0,0E0,0E0,1.1838802E1,5.8154297E-1,8.333252E0,1.0006605E1,0E0,0E0,0E0,0E0,0E0,0E0,2.0493355E0,4.607522E0,0E0,4.169174E0,1.180809E0,0E0,3.0111465E0,0E0,0E0,0E0,0E0,0E0,0E0,0E0,0E0,0E0,0E0,0E0,0E0,0E0,0E0,0E0],"parents":[2147483647,0,0,2,2,3,3,5,5,1,1,10,10,9,9,7,7,11,11,6,6,18,18,22,22,21,21,16,16,28,28,14,14,27,27,20,20,35,35,37,37,15,15,41,41,13,13,12,12,24,24,25,25,36,36,26,26,45,45,57,57,60,60,59,59,42,42,47,47,8,8,68,68,70,70,48,48,73,73,38,38,67,67,71,71,23,23,58,58],"right_children":[2,10,4,6,-1,8,20,16,70,14,12,18,48,46,32,42,28,-1,22,-1,36,26,24,86,50,52,56,34,30,-1,-1,-1,-1,-1,-1,38,54,40,80,-1,-1,44,66,-1,-1,58,-1,68,76,-1,-1,-1,-1,-1,-1,-1,-1,60,88,64,62,-1,-1,-1,-1,-1,-1,82,72,-1,74,84,-1,78,-1,-1,-1,-1,-1,-1,-1,-1,-1,-1,-1,-1,-1,-1,-1],"split_conditions":[1.4862357E-1,1.5017295E-1,3.4432669E0,-2.1500187E-1,7.535144E-2,1.5017295E-1,-7.8911114E-1,3.2292017E-1,-3.624745E-1,1.3486027E0,1.0830002E0,-3.2162946E-1,-2.9485112E-1,2.8561018E0,-7.788561E-1,-4.1313285E-1,1.6261439E-1,6.268918E-2,-4.9051118E-1,5.620726E-2,4.3987322E-1,6.8609285E-1,-4.8709744E-1,9.010685E-1,6.85713E-1,-2.828357E-1,-2.537579E-1,1.2540681E0,-6.59594E-1,7.385196E-2,-8.47681E-3,6.550734E-2,-1.2121919E-2,-1.805734E-3,5.1418707E-2,2.5938922E-1,8.2521105E-1,-2.9137576E-1,9.730102E-1,-3.9011423E-2,1.3185073E-2,-3.260624E-1,-7.009939E-1,4.948048E-2,-4.0240907E-3,2.5938922E-1,1.7453924E-2,1.7438794E0,-3.2021898E-1,1.9915614E-2,-4.4357654E-2,-1.7339034E-2,3.6213346E-2,4.4560317E-2,-8.881402E-3,-3.5976153E-3,-4.3600827E-2,-2.3447992E-1,-9.3841475E-1,-6.303482E-1,5.097176E-1,2.083529E-2,-3.0072324E-2,-2.2387005E-2,-4.7538828E-2,5.637362E-3,-3.813398E-2,-3.0238643E-1,1.007279E-1,2.1767043E-2,1.2508787E0,-3.764983E-1,1.1566026E-2,-3.4236255E-1,3.1549495E-2,2.0521829E-2,-1.4283323E-2,3.44921E-2,7.553859E-2,-5.40883E-2,-2.3316205E-2,-4.7975987E-2,-1.9012667E-2,-4.0183768E-2,-1.3161944E-2,8.941518E-2,4.6808813E-2,-2.8382044E-2,-5.1050268E-2],"split_indices":[22,3,4,1,0,3,3,19,11,6,3,8,22,4,3,4,6,0,4,0,1,3,4,3,3,11,7,22,3,0,0,0,0,0,0,8,12,4,22,0,0,8,3,0,0,8,0,3,8,0,0,0,0,0,0,0,0,4,22,3,4,0,0,0,0,0,0,8,19,0,3,11,0,7,0,0,0,0,0,0,0,0,0,0,0,0,0,0,0],"split_type":[0,0,0,0,0,0,0,0,0,0,0,0,0,0,0,0,0,0,0,0,0,0,0,0,0,0,0,0,0,0,0,0,0,0,0,0,0,0,0,0,0,0,0,0,0,0,0,0,0,0,0,0,0,0,0,0,0,0,0,0,0,0,0,0,0,0,0,0,0,0,0,0,0,0,0,0,0,0,0,0,0,0,0,0,0,0,0,0,0],"sum_hessian":[6.136116E2,3.3376495E2,2.7984665E2,2.6898392E2,1.086273E1,1.822272E2,8.67567E1,1.369062E2,4.5321E1,1.7210338E2,1.6166158E2,8.918077E1,7.2480804E1,1.5744077E2,1.4662613E1,6.998045E1,6.692576E1,1.0716122E1,7.846465E1,6.3989635E0,8.0357735E1,5.0184216E1,2.8280436E1,1.3185455E1,1.509498E1,2.1799856E1,2.838436E1,3.8882877E1,2.8042877E1,2.0582127E1,7.46075E0,7.726604E0,6.936009E0,2.8205418E1,1.0677461E1,6.378547E1,1.6572266E1,4.1451015E1,2.2334455E1,1.5665757E1,2.5785257E1,4.841147E1,2.1568989E1,1.3380635E1,3.503083E1,1.4967778E2,7.7629795E0,5.6472332E1,1.6008476E1,9.017364E0,6.0776167E0,7.9281783E0,1.3871678E1,8.378136E0,8.194129E0,1.1888592E1,1.6495768E1,1.1446021E2,3.521757E1,9.121638E1,2.3243828E1,1.2964739E1,1.0279089E1,4.988248E1,4.13339E1,6.348632E0,1.5220357E1,3.764668E1,1.8825655E1,8.654519E0,3.6666477E1,1.2763429E1,6.0622253E0,2.6621311E1,1.0045167E1,8.735459E0,7.2730174E0,6.3887086E0,2.0232603E1,1.4727987E1,7.6064687E0,3.1039955E1,6.606721E0,6.5903673E0,6.1730614E0,6.8753614E0,6.310094E0,6.7282047E0,2.8489367E1],"tree_param":{"num_deleted":"0","num_feature":"23","num_nodes":"89","size_leaf_vector":"1"}},{"base_weights":[-2.282429E-2,-6.443646E-1,5.4304516E-1,7.8529876E-1,-2.033589E-1,5.148104E-2,1.1500933E0,-9.030055E-1,-2.8887752E-1,2.9707518E-1,-1.0090652E0,-6.3583446E-1,3.9787018E-1,-1.1716835E-1,5.765165E-2,1.7351082E-1,-1.1097223E0,-7.233379E-1,4.173233E-2,5.5300707E-1,-4.8101604E-1,1.0267E0,-3.0322766E-1,3.537764E-1,1.2652181E0,-3.133879E-1,5.7113636E-2,1.2527218E-1,5.495984E-2,8.9495015E-1,1.514752E0,3.0107895E-1,1.2499632E0,-3.1761956E-1,-5.1114157E-2,4.87897E-2,-5.4236237E-2,-1.01769585E-2,4.2586736E-2,-2.5713472E-2,2.7900789E-2,3.0022252E-3,1.3575181E0,-1.1555734E0,-7.1172124E-1,3.0609103E-2,-1.3847207E-2,-7.055618E-1,1.4145554E-2,1.0340895E-2,-7.7965534E-1,2.270279E-1,-3.5584703E-2,-3.5161138E-2,1.3690353E-2,-4.8897278E-1,-9.7886753E-1,-9.6188295E-1,2.844268E-1,3.5687122E-2,-1.3352878E-2,2.1474453E-2,7.022825E-2,-6.586709E-2,-3.6366295E-2,1.0420952E-2,-3.391462E-2,5.7171654E-2,1.8083079E-2,1.6574837E0,1.0242095E0,-3.870079E-1,1.579241E-2,-1.0197485E-2,-1.0788896E0,-4.158517E-2,-2.9185143E-1,1.2380691E-2,-3.721305E-2,2.1699676E-2,5.4940574E-2,7.191702E-4,-3.3018485E-2,2.433463E-2,-5.3467616E-3,-5.3408872E-2,-1.7613381E-2,-5.0683606E-2,-2.0129865E-2,-5.1809035E-2,-8.877949E-1,-4.096353E-3,-4.6505783E-2,-2.0385303E-2,-4.6301406E-2,-2.7034933E-2,-4.6804536E-2,5.861026E-2,7.684029E-2],"categories":[],"categories_nodes":[],"categories_segments":[],"categories_sizes":[],"default_left":[0,0,0,0,0,0,0,0,0,0,0,0,0,0,0,0,0,0,0,0,0,0,0,0,0,0,0,0,0,0,0,0,0,0,0,0,0,0,0,0,0,0,0,0,0,0,0,0,0,0,0,0,0,0,0,0,0,0,0,0,0,0,0,0,0,0,0,0,0,0,0,0,0,0,0,0,0,0,0,0,0,0,0,0,0,0,0,0,0,0,0,0,0,0,0,0,0,0,0],"id":8,"left_children":[1,7,3,5,11,9,23,43,17,27,85,15,13,51,-1,39,87,33,19,21,47,41,53,25,29,65,-1,35,-1,31,69,45,67,63,-1,-1,37,-1,-1,-1,-1,-1,61,89,49,-1,-1,75,-1,-1,55,83,-1,-1,-1,57,73,95,59,-1,-1,-1,-1,71,-1,-1,-1,-1,-1,97,79,81,-1,-1,93,-1,77,-1,-1,-1,-1,-1,-1,-1,-1,-1,-1,-1,-1,-1,91,-1,-1,-1,-1,-1,-1,-1,-1],"loss_changes":[2.1637404E2,2.6693634E1,5.8391754E1,6.508107E1,2.0977922E1,2.1618198E1,1.444899E1,7.353302E0,1.7975712E1,1.2190886E1,2.2679777E0,1.8120699E1,1.8297516E1,6.4439797E0,0E0,8.119099E0,2.0960312E0,1.1619225E1,1.9480783E1,1.5241464E1,6.996993E0,7.434353E0,5.4067507E0,1.604649E1,1.172551E1,4.5627685E0,0E0,1.1601222E1,0E0,1.2156387E1,4.123184E0,7.265075E0,4.448517E0,4.7287397E0,0E0,0E0,1.1709665E1,0E0,0E0,0E0,0E0,0E0,4.7446976E0,1.40345E0,6.7109337E0,0E0,0E0,3.6122408E0,0E0,0E0,4.8875656E0,2.410534E0,0E0,0E0,0E0,1.4786894E1,3.6421165E0,6.7313385E-1,6.184852E0,0E0,0E0,0E0,0E0,3.6513038E0,0E0,0E0,0E0,0E0,0E0,3.935852E-1,2.8062668E0,2.561067E0,0E0,0E0,1.3843842E0,0E0,5.6592565E0,0E0,0E0,0E0,0E0,0E0,0E0,0E0,0E0,0E0,0E0,0E0,0E0,0E0,5.5799866E0,0E0,0E0,0E0,0E0,0E0,0E0,0E0,0E0],"parents":[2147483647,0,0,2,2,3,3,1,1,5,5,4,4,12,12,11,11,8,8,18,18,19,19,6,6,23,23,9,9,24,24,29,29,17,17,27,27,36,36,15,15,21,21,7,7,31,31,20,20,44,44,13,13,22,22,50,50,55,55,58,58,42,42,33,33,25,25,32,32,30,30,63,63,56,56,47,47,76,76,70,70,71,71,51,51,10,10,16,16,43,43,90,90,74,74,57,57,69,69],"right_children":[2,8,4,6,12,10,24,44,18,28,86,16,14,52,-1,40,88,34,20,22,48,42,54,26,30,66,-1,36,-1,32,70,46,68,64,-1,-1,38,-1,-1,-1,-1,-1,62,90,50,-1,-1,76,-1,-1,56,84,-1,-1,-1,58,74,96,60,-1,-1,-1,-1,72,-1,-1,-1,-1,-1,98,80,82,-1,-1,94,-1,78,-1,-1,-1,-1,-1,-1,-1,-1,-1,-1,-1,-1,-1,92,-1,-1,-1,-1,-1,-1,-1,-1],"split_conditions":[5.7109673E-2,-1.5208548E-1,4.5197148E-2,-2.4413656E-1,8.6963785E-1,-2.4579166E-1,-4.099618E-1,-9.98231E-1,-2.3287843E-1,1.4612049E0,-3.252142E-1,-2.1737032E-1,4.0434653E-1,5.488407E-1,5.765165E-2,-5.030283E-1,9.575398E-1,-2.4579166E-1,-2.2740564E-1,4.3820995E-1,9.0555817E-1,-6.354324E-1,3.15305E-1,-2.1973877E-1,-2.1570349E-1,-1.765878E-1,5.7113636E-2,-2.4751215E0,5.495984E-2,5.5526143E-1,-1.6718146E-1,-3.050059E-1,-2.0778325E-1,2.88596E-1,-5.1114157E-2,4.87897E-2,-6.908943E-5,-1.01769585E-2,4.2586736E-2,-2.5713472E-2,2.7900789E-2,3.0022252E-3,2.1048443E-1,4.392718E-1,-1.4349124E0,3.0609103E-2,-1.3847207E-2,-4.1199493E-1,1.4145554E-2,1.0340895E-2,6.5780394E-2,8.2521105E-1,-3.5584703E-2,-3.5161138E-2,1.3690353E-2,-4.7453278E-1,-3.2535717E-1,-2.4460743E-1,2.4539065E-1,3.5687122E-2,-1.3352878E-2,2.1474453E-2,7.022825E-2,3.547396E-1,-3.6366295E-2,1.0420952E-2,-3.391462E-2,5.7171654E-2,1.8083079E-2,9.01E-1,2.884045E-1,-1.7753717E-1,1.579241E-2,-1.0197485E-2,-5.041662E-1,-4.158517E-2,3.428093E-1,1.2380691E-2,-3.721305E-2,2.1699676E-2,5.4940574E-2,7.191702E-4,-3.3018485E-2,2.433463E-2,-5.3467616E-3,-5.3408872E-2,-1.7613381E-2,-5.0683606E-2,-2.0129865E-2,-5.1809035E-2,-5.477836E-2,-4.096353E-3,-4.6505783E-2,-2.0385303E-2,-4.6301406E-2,-2.7034933E-2,-4.6804536E-2,5.861026E-2,7.684029E-2],"split_indices":[21,22,8,0,21,1,7,21,0,21,11,1,1,8,0,4,22,1,7,19,20,19,22,1,22,0,0,2,0,21,8,8,8,13,0,0,4,0,0,0,0,0,22,20,19,0,0,4,0,0,20,12,0,0,0,20,8,1,19,0,0,0,0,19,0,0,0,0,0,21,19,19,0,0,4,0,8,0,0,0,0,0,0,0,0,0,0,0,0,0,13,0,0,0,0,0,0,0,0],"split_type":[0,0,0,0,0,0,0,0,0,0,0,0,0,0,0,0,0,0,0,0,0,0,0,0,0,0,0,0,0,0,0,0,0,0,0,0,0,0,0,0,0,0,0,0,0,0,0,0,0,0,0,0,0,0,0,0,0,0,0,0,0,0,0,0,0,0,0,0,0,0,0,0,0,0,0,0,0,0,0,0,0,0,0,0,0,0,0,0,0,0,0,0,0,0,0,0,0,0,0],"sum_hessian":[6.132098E2,2.9216382E2,3.2104593E2,2.4233978E2,7.870615E1,8.0847916E1,1.6149187E2,1.6822707E2,1.2393677E2,6.623057E1,1.4617345E1,4.5744034E1,3.2962112E1,2.2612425E1,1.0349688E1,1.7126986E1,2.8617046E1,5.3043484E1,7.089329E1,3.58107E1,3.5082584E1,2.2927486E1,1.2883212E1,2.09126E1,1.4057927E2,1.3302524E1,7.610075E0,5.8032196E1,8.198371E0,5.8444126E1,8.213515E1,2.2557564E1,3.588656E1,3.139412E1,2.1649364E1,7.3993E0,5.0632896E1,4.3614433E1,7.018465E0,6.5957E0,1.0531286E1,6.2287025E0,1.6698784E1,7.032724E1,9.7899826E1,1.3061873E1,9.49569E0,2.7753674E1,7.3289123E0,6.231285E0,9.166854E1,1.6101868E1,6.5105567E0,6.6346745E0,6.248538E0,3.8681118E1,5.2987427E1,2.3852398E1,1.4828718E1,7.2722454E0,7.556473E0,6.1268E0,1.0571983E1,2.275117E1,8.642948E0,6.642148E0,6.6603756E0,2.8884056E1,7.0025043E0,6.178026E1,2.035489E1,1.3475012E1,9.276157E0,6.851367E0,4.613606E1,1.46227455E1,1.3130928E1,7.011122E0,6.119806E0,9.501106E0,1.08537855E1,7.471111E0,6.0039015E0,7.5186267E0,8.583241E0,8.518811E0,6.098533E0,2.2065449E1,6.551598E0,4.4397377E1,2.5929857E1,6.9682198E0,1.8961637E1,6.1269774E0,4.0009083E1,1.1603266E1,1.2249132E1,3.8406868E1,2.337339E1],"tree_param":{"num_deleted":"0","num_feature":"23","num_nodes":"99","size_leaf_vector":"1"}},{"base_weights":[3.446752E-2,-4.2726985E-1,2.8396982E-1,3.8520464E-1,-7.278599E-1,-1.7423253E-1,6.3361406E-1,5.2732515E-1,-8.075019E-1,-4.6817845E-1,1.0975416E0,2.363906E-1,9.174946E-1,1.2390119E0,4.3244645E-1,2.303853E-2,-1.0013127E0,1.6420981E-1,5.732285E-2,-3.6184308E-3,6.2199324E-2,-3.1618237E-1,-1.0938588E0,-6.920696E-1,-6.1449144E-2,3.3092302E-1,6.6459216E-2,-8.9376587E-1,1.779727E-1,9.0097785E-2,-7.505373E-1,-2.2321764E-1,4.9418604E-1,1.4751388E0,-1.339662E-1,5.0526533E-2,-2.8100803E-2,-5.558275E-1,6.2582076E-1,-2.6930016E-2,3.5114047E-1,-2.5798395E-2,4.048954E-2,6.2361306E-1,2.3458777E-2,-9.810279E-3,4.255917E-2,-6.139099E-3,3.3906005E-2,1.2940792E-2,-3.1501472E-2,5.855736E-3,-4.159503E-2,1.3467876E-2,1.3294457E0,4.8436575E-2,-4.307303E-3,-1.05783455E-2,3.985614E-2,5.7453636E-2,1.8463755E-2,-9.9597394E-1,-4.941232E-3,-5.6082284E-1,-1.1230263E0,-4.588267E-2,-1.1129049E-2,3.4464806E-2,8.0338135E-2,-7.583123E-1,2.3376902E-3,-6.710298E-1,-4.9543567E-2,-4.6785604E-2,-6.378808E-3,-6.599491E-3,-4.1045483E-2,-4.502023E-2,-2.1343749E-2,-8.07516E-1,-5.028113E-2,-4.4201337E-2,-1.5663747E-2,-3.242894E-2,-4.965529E-2],"categories":[],"categories_nodes":[],"categories_segments":[],"categories_sizes":[],"default_left":[0,0,0,0,0,0,0,0,0,0,0,0,0,0,0,0,0,0,0,0,0,0,0,0,0,0,0,0,0,0,0,0,0,0,0,0,0,0,0,0,0,0,0,0,0,0,0,0,0,0,0,0,0,0,0,0,0,0,0,0,0,0,0,0,0,0,0,0,0,0,0,0,0,0,0,0,0,0,0,0,0,0,0,0,0],"id":9,"left_children":[1,21,3,5,61,7,11,9,15,51,25,39,13,53,17,-1,71,19,-1,-1,-1,23,79,27,29,57,-1,63,41,31,65,37,33,67,35,-1,-1,49,55,-1,43,-1,-1,47,45,-1,-1,-1,-1,-1,-1,-1,-1,-1,59,-1,-1,-1,-1,-1,-1,77,-1,69,83,-1,-1,-1,-1,75,-1,73,-1,-1,-1,-1,-1,-1,-1,81,-1,-1,-1,-1,-1],"loss_changes":[6.898485E1,1.5211208E1,4.009182E1,4.930077E1,5.666954E0,4.9130417E1,2.7448418E1,3.0380497E1,1.6097645E1,7.0601125E0,1.3836842E1,1.101075E1,2.1723969E1,6.527664E0,1.5341205E1,0E0,3.0868454E0,1.6718266E1,0E0,0E0,0E0,1.7334908E1,3.2149124E-1,1.3006638E1,1.1478989E1,6.3201947E0,0E0,3.9194794E0,1.0581814E1,1.156408E1,3.351984E0,1.4932537E1,2.4735008E1,3.3407593E0,2.068418E1,0E0,0E0,7.7818203E0,6.5009727E0,0E0,8.25457E0,0E0,0E0,8.756702E0,1.2193423E1,0E0,0E0,0E0,0E0,0E0,0E0,0E0,0E0,0E0,6.057846E0,0E0,0E0,0E0,0E0,0E0,0E0,8.24152E-1,0E0,3.2592945E0,2.2187805E-1,0E0,0E0,0E0,0E0,2.9575462E0,0E0,5.6990843E0,0E0,0E0,0E0,0E0,0E0,0E0,0E0,1.196105E0,0E0,0E0,0E0,0E0,0E0],"parents":[2147483647,0,0,2,2,3,3,5,5,7,7,6,6,12,12,8,8,14,14,17,17,1,1,21,21,10,10,23,23,24,24,29,29,32,32,34,34,31,31,11,11,28,28,40,40,44,44,43,43,37,37,9,9,13,13,38,38,25,25,54,54,4,4,27,27,30,30,33,33,63,63,16,16,71,71,69,69,61,61,22,22,79,79,64,64],"right_children":[2,22,4,6,62,8,12,10,16,52,26,40,14,54,18,-1,72,20,-1,-1,-1,24,80,28,30,58,-1,64,42,32,66,38,34,68,36,-1,-1,50,56,-1,44,-1,-1,48,46,-1,-1,-1,-1,-1,-1,-1,-1,-1,60,-1,-1,-1,-1,-1,-1,78,-1,70,84,-1,-1,-1,-1,76,-1,74,-1,-1,-1,-1,-1,-1,-1,82,-1,-1,-1,-1,-1],"split_conditions":[-3.6516935E-1,1.4987522E-1,5.2032876E-1,-2.4413656E-1,-6.136363E-1,-7.1124893E-1,2.9442334E-1,-5.053041E-1,-5.0871783E-1,-3.0329317E-1,-2.9563114E-1,-9.164368E-1,-1.5821481E-1,-3.745022E-1,3.9757663E-1,2.303853E-2,-3.284804E-1,8.666622E-1,5.732285E-2,-3.6184308E-3,6.2199324E-2,-3.3990335E-1,-7.0789695E-2,1.1476135E0,1.0830002E0,-7.693607E-1,6.6459216E-2,-3.2112572E-1,-3.7675422E-1,1.1219139E-1,1.3067116E0,-2.3447992E-1,9.012239E-2,-1.7212957E-1,-1.9914381E-1,5.0526533E-2,-2.8100803E-2,-7.788561E-1,-2.6139623E-1,-2.6930016E-2,-2.0473312E-1,-2.5798395E-2,4.048954E-2,1.1219139E-1,8.7978154E-2,-9.810279E-3,4.255917E-2,-6.139099E-3,3.3906005E-2,1.2940792E-2,-3.1501472E-2,5.855736E-3,-4.159503E-2,1.3467876E-2,1.2064402E0,4.8436575E-2,-4.307303E-3,-1.05783455E-2,3.985614E-2,5.7453636E-2,1.8463755E-2,9.155213E-1,-4.941232E-3,-5.69222E-1,-7.836465E-2,-4.588267E-2,-1.1129049E-2,3.4464806E-2,8.0338135E-2,-5.130046E-1,2.3376902E-3,-4.080522E-1,-4.9543567E-2,-4.6785604E-2,-6.378808E-3,-6.599491E-3,-4.1045483E-2,-4.502023E-2,-2.1343749E-2,-4.1654658E-1,-5.028113E-2,-4.4201337E-2,-1.5663747E-2,-3.242894E-2,-4.965529E-2],"split_indices":[22,8,8,0,3,3,22,4,4,8,11,20,8,11,0,0,8,19,0,0,0,11,11,10,3,3,0,8,11,3,3,4,20,11,7,0,0,3,7,0,0,0,0,3,0,0,0,0,0,0,0,0,0,0,3,0,0,0,0,0,0,22,0,22,20,0,0,0,0,10,0,7,0,0,0,0,0,0,0,4,0,0,0,0,0],"split_type":[0,0,0,0,0,0,0,0,0,0,0,0,0,0,0,0,0,0,0,0,0,0,0,0,0,0,0,0,0,0,0,0,0,0,0,0,0,0,0,0,0,0,0,0,0,0,0,0,0,0,0,0,0,0,0,0,0,0,0,0,0,0,0,0,0,0,0,0,0,0,0,0,0,0,0,0,0,0,0,0,0,0,0,0,0],"sum_hessian":[5.967501E2,2.0908952E2,3.876606E2,3.529653E2,3.4695324E1,1.0862715E2,2.4433813E2,5.161432E1,5.701283E1,1.8862484E1,3.2751835E1,1.0260271E2,1.4173543E2,8.430134E1,5.743409E1,6.7769995E0,5.0235832E1,4.614348E1,1.1290612E1,3.9769108E1,6.3743725E0,1.8048578E2,2.860374E1,7.221204E1,1.08273735E2,1.4437399E1,1.8314436E1,5.859993E1,1.3612111E1,8.946705E1,1.8806688E1,5.0645756E1,3.882129E1,1.4628438E1,2.419285E1,6.6358285E0,1.7557022E1,3.663815E1,1.4007609E1,1.0986186E1,9.1616516E1,6.9592113E0,6.6528997E0,4.952914E1,4.208738E1,3.405278E1,8.034599E0,1.1001477E1,3.852766E1,7.4667535E0,2.9171394E1,9.410825E0,9.45166E0,8.094721E0,7.620662E1,7.464626E0,6.542984E0,7.918406E0,6.5189934E0,6.777766E1,8.428962E0,2.3592342E1,1.11029825E1,2.5301746E1,3.3298183E1,9.529999E0,9.276689E0,7.921402E0,6.7070365E0,1.9011076E1,6.2906704E0,2.2296957E1,2.7938873E1,1.0715096E1,1.15818615E1,6.3296204E0,1.2681456E1,1.7510141E1,6.082201E0,1.2308595E1,1.6295147E1,6.2829456E0,6.0256486E0,1.0874148E1,2.2424036E1],"tree_param":{"num_deleted":"0","num_feature":"23","num_nodes":"85","size_leaf_vector":"1"}},{"base_weights":[-1.1036822E-2,-6.225081E-1,5.516239E-1,2.3355353E-1,9.6643144E-1,-9.002122E-1,-1.7200817E-1,-4.2356916E-2,9.189225E-1,-2.1051398E-1,1.1341443E0,7.513987E-1,1.6562457E0,-1.0037395E-2,8.5952866E-1,7.4490316E-2,6.433208E-3,-4.6742418E-1,1.2696776E-1,1.0886884E0,-6.4832675E-3,-8.827456E-2,-7.937892E-1,-3.1502854E-2,1.4029845E-2,3.3795673E-1,-2.3361497E-2,7.627394E-1,7.176942E-2,9.628513E-1,2.4197437E-1,5.060865E-2,1.8143684E-2,-5.9495354E-3,3.975728E-2,-2.3226815E-1,2.9762922E-2,-5.91243E-2,-6.4588886E-1,-1.6417544E-1,3.6694456E-2,1.6604108E-1,-4.5757645E-1,-2.0543361E-2,3.7276432E-2,-2.884272E-2,2.6373973E-2,-2.0188636E-3,-9.349278E-1,6.4267274E-3,4.2927023E-2,1.0616068E-2,1.2266847E0,1.4966773E0,6.018942E-1,8.065911E-2,4.1029394E-2,3.585939E-3,-8.2519644E-1,-1.0068141E0,-5.851024E-1,-7.743158E-1,5.664415E-3,-1.0486958E0,-1.8107682E-2,-1.6476925E-2,-4.0812492E-2,-1.0943703E-2,-9.452758E-1,-9.893614E-1,-1.46544315E-2,-1.1827964E0,-9.4729745E-1,-3.0536467E-2,-4.577695E-2,4.0399913E-2,1.7699623E0,8.185567E-2,4.8794087E-2,-2.5040397E-2,-4.6572994E-2,-2.4776295E-2,-4.6410155E-2,1.4722418E-2,3.0232446E-2,-3.234031E-2,-4.9753536E-2],"categories":[],"categories_nodes":[],"categories_segments":[],"categories_sizes":[],"default_left":[0,0,0,0,0,0,0,0,0,0,0,0,0,0,0,0,0,0,0,0,0,0,0,0,0,0,0,0,0,0,0,0,0,0,0,0,0,0,0,0,0,0,0,0,0,0,0,0,0,0,0,0,0,0,0,0,0,0,0,0,0,0,0,0,0,0,0,0,0,0,0,0,0,0,0,0,0,0,0,0,0,0,0,0,0,0,0],"id":10,"left_children":[1,5,3,7,11,47,35,9,19,17,15,13,75,-1,27,-1,-1,21,25,51,-1,23,65,-1,-1,49,-1,29,-1,31,33,-1,-1,-1,-1,37,-1,39,57,41,-1,43,45,-1,-1,-1,-1,-1,59,-1,-1,-1,53,55,83,-1,-1,-1,69,63,61,67,-1,71,-1,-1,-1,-1,79,81,-1,85,73,-1,-1,-1,77,-1,-1,-1,-1,-1,-1,-1,-1,-1,-1],"loss_changes":[2.1077245E2,3.657216E1,4.1869667E1,3.443682E1,1.9247879E1,5.305069E0,6.395874E0,2.6085806E1,9.758289E0,1.0043432E1,1.1257719E1,1.1813843E1,5.904312E-1,0E0,7.3260193E0,0E0,0E0,8.046728E0,7.7507925E0,4.829071E0,0E0,9.844982E0,2.571581E0,0E0,0E0,4.9750714E0,0E0,9.094345E0,0E0,9.17762E0,7.7753315E0,0E0,0E0,0E0,0E0,7.6203437E0,0E0,7.9600515E0,4.219699E0,6.8455806E0,0E0,1.7800333E1,1.1261934E1,0E0,0E0,0E0,0E0,0E0,3.791748E0,0E0,0E0,0E0,5.5970306E0,4.317093E0,1.9522047E-1,0E0,0E0,0E0,1.5587559E0,2.862152E0,4.5164757E0,1.9402227E0,0E0,6.7915344E-1,0E0,0E0,0E0,0E0,5.6410027E-1,4.0589905E-1,0E0,1.0630798E-1,2.023697E0,0E0,0E0,0E0,1.3703308E0,0E0,0E0,0E0,0E0,0E0,0E0,0E0,0E0,0E0,0E0],"parents":[2147483647,0,0,2,2,1,1,3,3,7,7,4,4,11,11,10,10,9,9,8,8,17,17,21,21,18,18,14,14,27,27,29,29,30,30,6,6,35,35,37,37,39,39,41,41,42,42,5,5,25,25,19,19,52,52,53,53,38,38,48,48,60,60,59,59,22,22,61,61,58,58,63,63,72,72,12,12,76,76,68,68,69,69,54,54,71,71],"right_children":[2,6,4,8,12,48,36,10,20,18,16,14,76,-1,28,-1,-1,22,26,52,-1,24,66,-1,-1,50,-1,30,-1,32,34,-1,-1,-1,-1,38,-1,40,58,42,-1,44,46,-1,-1,-1,-1,-1,60,-1,-1,-1,54,56,84,-1,-1,-1,70,64,62,68,-1,72,-1,-1,-1,-1,80,82,-1,86,74,-1,-1,-1,78,-1,-1,-1,-1,-1,-1,-1,-1,-1,-1],"split_conditions":[7.89848E-2,2.2683043E-3,8.294872E-1,3.5210457E-1,9.5327324E-1,-1.2565887E0,1.7554196E0,1.3486027E0,-4.8026994E-1,5.0435406E-1,-2.9934117E-1,-7.740055E-1,-3.2951346E-1,-1.0037395E-2,3.1098573E0,7.4490316E-2,6.433208E-3,-3.9815274E-1,1.157678E-1,-8.9951766E-1,-6.4832675E-3,-7.299616E-1,3.6810935E-1,-3.1502854E-2,1.4029845E-2,8.666622E-1,-2.3361497E-2,1.5067239E0,7.176942E-2,-2.1118125E-1,1.6261439E-1,5.060865E-2,1.8143684E-2,-5.9495354E-3,3.975728E-2,4.9264374E-1,2.9762922E-2,3.9365318E-1,-7.3920536E-1,-4.711666E-1,3.6694456E-2,-4.9733868E-1,2.1392615E0,-2.0543361E-2,3.7276432E-2,-2.884272E-2,2.6373973E-2,-2.0188636E-3,-2.3836496E-1,6.4267274E-3,4.2927023E-2,1.0616068E-2,-2.3968948E-1,-1.10294886E-1,5.351206E-1,8.065911E-2,4.1029394E-2,3.585939E-3,4.602832E-1,1.4727771E0,7.2511834E-1,-3.0602103E-1,5.664415E-3,-1.0856339E0,-1.8107682E-2,-1.6476925E-2,-4.0812492E-2,-1.0943703E-2,-7.453104E-2,-6.742914E-1,-1.46544315E-2,-7.415271E-1,2.0272589E-1,-3.0536467E-2,-4.577695E-2,4.0399913E-2,-4.9051118E-1,8.185567E-2,4.8794087E-2,-2.5040397E-2,-4.6572994E-2,-2.4776295E-2,-4.6410155E-2,1.4722418E-2,3.0232446E-2,-3.234031E-2,-4.9753536E-2],"split_indices":[21,22,21,10,6,13,22,6,4,22,4,10,11,0,4,0,0,13,11,19,0,10,21,0,0,19,0,5,0,11,6,0,0,0,0,19,0,19,10,4,0,4,6,0,0,0,0,0,21,0,0,0,11,19,21,0,0,0,13,10,10,11,0,21,0,0,0,0,21,21,0,13,19,0,0,0,4,0,0,0,0,0,0,0,0,0,0],"split_type":[0,0,0,0,0,0,0,0,0,0,0,0,0,0,0,0,0,0,0,0,0,0,0,0,0,0,0,0,0,0,0,0,0,0,0,0,0,0,0,0,0,0,0,0,0,0,0,0,0,0,0,0,0,0,0,0,0,0,0,0,0,0,0,0,0,0,0,0,0,0,0,0,0,0,0,0,0,0,0,0,0,0,0,0,0,0,0],"sum_hessian":[6.1062195E2,2.9256775E2,3.1805423E2,1.8090279E2,1.3715144E2,1.8037805E2,1.121897E2,1.2964822E2,5.1254562E1,1.14153366E2,1.5494849E1,1.061508E2,3.100064E1,1.02199545E1,9.593085E1,8.394873E0,7.099976E0,6.459498E1,4.9558388E1,4.4286694E1,6.967868E0,3.0468794E1,3.4126186E1,1.1456709E1,1.9012085E1,3.858541E1,1.0972979E1,8.850405E1,7.4267945E0,6.3322502E1,2.5181551E1,3.9171333E1,2.4151169E1,1.707221E1,8.10934E0,1.05939E2,6.2506948E0,7.5483955E1,3.0455046E1,6.8871956E1,6.6119943E0,3.2607265E1,3.6264694E1,1.7432163E1,1.5175101E1,2.9689314E1,6.57538E0,7.174036E0,1.7320403E2,3.199934E1,6.58607E0,6.7668276E0,3.7519867E1,2.5224176E1,1.2295691E1,1.0622559E1,1.4601619E1,6.070475E0,2.4384571E1,1.4212119E2,3.1082827E1,2.4604128E1,6.478698E0,1.3134764E2,1.0773559E1,1.353311E1,2.0593075E1,6.908639E0,1.769549E1,1.713096E1,7.2536097E0,5.1962177E1,7.938545E1,4.262243E1,3.6763027E1,6.071965E0,2.4928677E1,1.5050853E1,9.877823E0,8.610964E0,9.084526E0,6.713053E0,1.0417908E1,6.1266823E0,6.1690083E0,8.584707E0,4.3377472E1],"tree_param":{"num_deleted":"0","num_feature":"23","num_nodes":"87","size_leaf_vector":"1"}},{"base_weights":[-1.5582882E-2,-6.1963916E-1,5.3751457E-1,3.0075866E-1,1.0781479E0,-9.065527E-2,7.0498306E-1,-8.400689E-1,-2.638426E-1,1.3677773E0,2.815046E-1,-1.1534494E-1,9.099674E-1,1.0485595E0,-2.937338E-2,5.526182E-2,-1.9527492E-1,5.4075688E-2,-3.0741146E-1,-7.9761237E-1,-1.4454716E-2,-3.2966784E-1,4.398626E-2,-4.628168E-3,1.1769942E0,-5.85392E-1,6.924437E-2,1.632008E-2,-1.5378565E-2,-8.878226E-1,8.061252E-3,5.9479907E-2,2.9273719E-2,5.871894E-1,1.5429305E0,5.3230207E-2,-1.4912638E-2,-2.562663E-2,1.987068E-2,-3.561152E-1,-4.7289092E-2,6.128136E-1,-1.6738918E-1,-7.5435187E-3,5.1246613E-2,-4.961935E-1,3.4804296E-1,1.673823E0,2.1966565E-2,-6.426121E-2,-7.997029E-1,2.6359546E-1,-3.25297E-2,4.1985776E-2,-1.3435696E-2,-4.0535383E-2,-6.1154766E-3,4.27109E-3,-8.191257E-1,3.5197902E-2,-7.293483E-3,-7.4675375E-1,-1.1059461E0,-1.1217573E0,-5.124328E-1,7.543102E-3,-3.230042E-2,-1.68776E-1,-6.919496E-1,-2.9654184E-2,3.9702393E-2,-6.3848207E-3,-3.713956E-2,-4.81399E-2,-7.379129E-3,-4.4912115E-2,-1.0978813E-2,-1.1585418E0,-2.0603854E-2,-4.8720974E-2,-2.5992516E-2,4.2882815E-2,7.057737E-2,-4.8410777E-2,-2.7830163E-2],"categories":[],"categories_nodes":[],"categories_segments":[],"categories_sizes":[],"default_left":[0,0,0,0,0,0,0,0,0,0,0,0,0,0,0,0,0,0,0,0,0,0,0,0,0,0,0,0,0,0,0,0,0,0,0,0,0,0,0,0,0,0,0,0,0,0,0,0,0,0,0,0,0,0,0,0,0,0,0,0,0,0,0,0,0,0,0,0,0,0,0,0,0,0,0,0,0,0,0,0,0,0,0,0,0],"id":11,"left_children":[1,7,3,5,9,15,11,29,25,33,21,37,13,23,-1,-1,17,-1,19,55,27,65,-1,-1,31,39,41,-1,-1,61,-1,-1,-1,35,47,-1,-1,-1,-1,49,-1,43,45,-1,-1,57,59,81,-1,51,73,53,-1,-1,-1,-1,-1,-1,75,-1,-1,63,77,79,67,-1,-1,69,71,-1,-1,-1,-1,-1,-1,-1,-1,83,-1,-1,-1,-1,-1,-1,-1],"loss_changes":[2.0633223E2,2.2928452E1,4.0942307E1,3.5757973E1,2.218068E1,1.7977497E1,1.8786453E1,9.212463E0,1.2290498E1,8.864929E0,1.3940574E1,7.669886E0,2.100418E1,1.2462601E1,0E0,0E0,1.9189514E1,0E0,1.465392E1,5.043621E0,1.0208083E1,4.1649337E0,0E0,0E0,9.0267105E0,7.4825783E0,7.443771E0,0E0,0E0,4.5284576E0,0E0,0E0,0E0,1.0882378E1,6.617737E0,0E0,0E0,0E0,0E0,5.57269E0,0E0,9.528357E0,7.044756E0,0E0,0E0,4.9836297E0,4.7353926E0,6.456604E-1,0E0,6.8793497E0,3.9858236E0,9.5496855E0,0E0,0E0,0E0,0E0,0E0,0E0,2.3816938E0,0E0,0E0,8.980972E0,1.473938E0,9.757042E-1,4.125719E0,0E0,0E0,1.7127268E1,5.401428E0,0E0,0E0,0E0,0E0,0E0,0E0,0E0,0E0,4.5078278E-1,0E0,0E0,0E0,0E0,0E0,0E0,0E0],"parents":[2147483647,0,0,2,2,3,3,1,1,4,4,6,6,12,12,5,5,16,16,18,18,10,10,13,13,8,8,20,20,7,7,24,24,9,9,33,33,11,11,25,25,26,26,41,41,42,42,34,34,39,39,49,49,51,51,19,19,45,45,46,46,29,29,61,61,21,21,64,64,67,67,68,68,50,50,58,58,62,62,63,63,47,47,77,77],"right_children":[2,8,4,6,10,16,12,30,26,34,22,38,14,24,-1,-1,18,-1,20,56,28,66,-1,-1,32,40,42,-1,-1,62,-1,-1,-1,36,48,-1,-1,-1,-1,50,-1,44,46,-1,-1,58,60,82,-1,52,74,54,-1,-1,-1,-1,-1,-1,76,-1,-1,64,78,80,68,-1,-1,70,72,-1,-1,-1,-1,-1,-1,-1,-1,84,-1,-1,-1,-1,-1,-1,-1],"split_conditions":[7.252161E-2,2.2683043E-3,-6.9360495E-2,8.294872E-1,-1.93475E-1,-1.485948E0,4.9239925E-1,1.9251786E0,-2.216203E-1,-8.761863E-1,2.2730093E-1,8.0970126E-1,-4.4461834E-1,-5.053041E-1,-2.937338E-2,5.526182E-2,-8.1683767E-1,5.4075688E-2,-2.4413656E-1,5.125416E-1,-2.1500187E-1,1.0682257E0,4.398626E-2,-4.628168E-3,-1.2026407E-1,-2.3513366E-1,-1.9910406E-1,1.632008E-2,-1.5378565E-2,-2.0473312E-1,8.061252E-3,5.9479907E-2,2.9273719E-2,-1.2964528E0,-4.848216E-1,5.3230207E-2,-1.4912638E-2,-2.562663E-2,1.987068E-2,-5.47261E-1,-4.7289092E-2,-4.9506286E-1,8.7978154E-2,-7.5435187E-3,5.1246613E-2,-2.0154683E-1,-2.403908E-1,-5.5517036E-1,2.1966565E-2,2.4980342E0,6.7743844E-1,-2.9004E-1,-3.25297E-2,4.1985776E-2,-1.3435696E-2,-4.0535383E-2,-6.1154766E-3,4.27109E-3,-1.139764E-1,3.5197902E-2,-7.293483E-3,-1.0856339E0,1.4268785E0,-4.6982342E-1,4.9239925E-1,7.543102E-3,-3.230042E-2,-4.996145E-1,-4.9397328E-1,-2.9654184E-2,3.9702393E-2,-6.3848207E-3,-3.713956E-2,-4.81399E-2,-7.379129E-3,-4.4912115E-2,-1.0978813E-2,1.1095508E0,-2.0603854E-2,-4.8720974E-2,-2.5992516E-2,4.2882815E-2,7.057737E-2,-4.8410777E-2,-2.7830163E-2],"split_indices":[21,22,3,21,0,2,2,10,0,22,22,22,3,4,0,0,3,0,0,19,1,10,0,0,1,1,0,0,0,0,0,0,0,22,4,0,0,0,0,10,0,4,0,0,0,19,7,19,0,15,22,7,0,0,0,0,0,0,7,0,0,21,4,22,2,0,0,4,10,0,0,0,0,0,0,0,0,10,0,0,0,0,0,0,0],"split_type":[0,0,0,0,0,0,0,0,0,0,0,0,0,0,0,0,0,0,0,0,0,0,0,0,0,0,0,0,0,0,0,0,0,0,0,0,0,0,0,0,0,0,0,0,0,0,0,0,0,0,0,0,0,0,0,0,0,0,0,0,0,0,0,0,0,0,0,0,0,0,0,0,0,0,0,0,0,0,0,0,0,0,0,0,0],"sum_hessian":[6.1557574E2,2.9417596E2,3.2139978E2,2.2459897E2,9.680079E1,1.14501724E2,1.1009725E2,1.808014E2,1.13374565E2,7.046533E1,2.6335455E1,2.2098486E1,8.7998764E1,8.147741E1,6.521357E0,6.8203225E0,1.07681404E2,6.559775E0,1.0112163E2,3.7182304E1,6.3939323E1,1.537181E1,1.0963646E1,8.108891E0,7.3368515E1,5.7300953E1,5.6073616E1,2.9800138E1,3.4139183E1,1.7300896E2,7.792449E0,4.243284E1,3.0935678E1,1.3711423E1,5.675391E1,7.5337296E0,6.1776934E0,1.1878622E1,1.0219865E1,4.2441654E1,1.4859299E1,1.652483E1,3.9548786E1,7.805394E0,8.719436E0,2.416853E1,1.5380256E1,4.9563305E1,7.190607E0,2.6289568E1,1.6152086E1,1.8704798E1,7.5847697E0,7.786419E0,1.091838E1,2.7602201E1,9.580104E0,8.668233E0,1.5500298E1,7.3760853E0,8.00417E0,1.0774782E2,6.526115E1,3.9978924E1,6.776889E1,7.638239E0,7.733571E0,2.3919302E1,4.3849586E1,1.6274591E1,7.6447096E0,1.3809376E1,3.0040213E1,9.239772E0,6.9123135E0,9.347532E0,6.152765E0,5.9072197E1,6.18895E0,3.2285522E1,7.693403E0,7.5720663E0,4.1991238E1,5.2337437E1,6.73476E0],"tree_param":{"num_deleted":"0","num_feature":"23","num_nodes":"85","size_leaf_vector":"1"}},{"base_weights":[-2.1098377E-2,-5.092197E-1,5.976408E-1,-8.084051E-1,-1.7711183E-1,7.6946944E-1,-9.4051935E-2,1.3188264E-1,1.0889047E0,-5.112308E-1,1.0603637E0,-6.231823E-2,5.35034E-2,-5.4017717E-1,1.0968568E-1,6.0225827E-1,-3.228321E-1,-3.8331056E-1,1.1607789E0,-2.8621733E-1,3.666435E-2,7.973393E-1,1.419974E0,2.609925E-1,-7.3948437E-1,-2.6480773E-1,5.417128E-2,1.09579936E-1,-8.5669374E-1,2.596261E-2,-6.658757E-1,-1.325299E-2,3.4502827E-2,6.9342956E-2,4.922358E-1,4.847113E-3,-9.390075E-1,9.271371E-1,6.920907E-2,-8.024734E-3,1.3145117E0,-1.0942639E0,1.2777579E-3,6.271681E-1,1.4571992E0,7.664395E-1,-1.745115E-2,6.1768178E-2,2.0625167E-2,-8.63496E-1,-5.9838705E-2,-1.1091232E0,-6.642332E-1,-3.8928857E-1,-1.0700399E0,-3.2249013E-1,-8.7558585E-1,1.9123372E-1,-8.8000077E-1,3.4690652E-2,-2.6619622E-2,6.5716274E-2,9.896918E-3,-4.0592164E-2,7.522804E-3,-2.702595E-2,2.4138855E-2,-1.966802E-2,2.1857549E-2,2.9922076E-2,-6.621196E-1,1.9672556E-2,-2.6397573E-2,-3.732212E-3,-9.787807E-1,-2.9955002E-2,1.0578426E-2,-4.833643E-2,-9.972765E-3,-4.7019526E-2,-1.5149705E-2,-4.3440413E-2,-1.6440952E-2,-2.0874467E-2,-5.042838E-2,2.7370295E-2,6.2859885E-2,1.6897388E-3,3.3311702E-2,-4.493006E-2,-1.3775445E-2,-2.029337E-2,-4.972228E-2,-1.9481188E-2,-1.1594466E0,-5.0319023E-2,-9.2516506E-1,-1.7661566E-2,-4.3059815E-2,-4.9792532E-2,-2.8451683E-2,4.0306516E-2,6.860433E-2],"categories":[],"categories_nodes":[],"categories_segments":[],"categories_sizes":[],"default_left":[0,0,0,0,0,0,0,0,0,0,0,0,0,0,0,0,0,0,0,0,0,0,0,0,0,0,0,0,0,0,0,0,0,0,0,0,0,0,0,0,0,0,0,0,0,0,0,0,0,0,0,0,0,0,0,0,0,0,0,0,0,0,0,0,0,0,0,0,0,0,0,0,0,0,0,0,0,0,0,0,0,0,0,0,0,0,0,0,0,0,0,0,0,0,0,0,0,0,0,0,0,0,0],"id":12,"left_children":[1,3,5,49,13,7,9,11,21,35,61,19,-1,29,15,17,23,63,33,27,-1,43,37,25,41,75,-1,31,83,-1,53,-1,-1,-1,87,67,77,39,-1,-1,85,99,-1,45,101,47,-1,-1,-1,51,65,93,55,69,91,57,73,59,89,-1,-1,-1,-1,-1,-1,-1,-1,-1,-1,71,79,-1,-1,-1,81,-1,-1,-1,-1,-1,-1,-1,-1,-1,-1,-1,-1,-1,-1,-1,-1,-1,-1,-1,95,-1,97,-1,-1,-1,-1,-1,-1],"loss_changes":[1.8598773E2,3.4059E1,3.2351196E1,7.4045563E0,1.717907E1,4.4185455E1,2.6997732E1,1.726729E1,1.2851608E1,9.061662E0,6.57111E0,1.4325153E1,0E0,1.1273256E1,1.9940868E1,2.4490993E1,1.2356213E1,6.105814E0,9.765568E0,1.2100759E1,0E0,7.991745E0,8.306198E0,1.2678142E1,8.090429E0,4.094485E0,0E0,1.0902311E1,2.287653E0,0E0,6.989481E0,0E0,0E0,0E0,2.1281645E0,5.483229E0,3.787283E0,1.2243853E1,0E0,0E0,2.1834412E0,2.5083923E-1,0E0,9.911945E0,4.705429E-2,1.0460018E1,0E0,0E0,0E0,7.5023727E0,5.8521395E0,1.7603989E0,6.6105576E0,4.698337E0,1.8621387E0,1.1066156E1,4.624859E0,1.2398017E1,1.9713163E0,0E0,0E0,0E0,0E0,0E0,0E0,0E0,0E0,0E0,0E0,5.711868E0,3.153244E0,0E0,0E0,0E0,2.5488815E0,0E0,0E0,0E0,0E0,0E0,0E0,0E0,0E0,0E0,0E0,0E0,0E0,0E0,0E0,0E0,0E0,0E0,0E0,0E0,3.0752563E-1,0E0,1.1604443E0,0E0,0E0,0E0,0E0,0E0,0E0],"parents":[2147483647,0,0,1,1,2,2,5,5,6,6,7,7,4,4,14,14,15,15,11,11,8,8,16,16,23,23,19,19,13,13,27,27,18,18,9,9,22,22,37,37,24,24,21,21,43,43,45,45,3,3,49,49,30,30,52,52,55,55,57,57,10,10,17,17,50,50,35,35,53,53,69,69,56,56,25,25,36,36,70,70,74,74,28,28,40,40,34,34,58,58,54,54,51,51,94,94,96,96,41,41,44,44],"right_children":[2,4,6,50,14,8,10,12,22,36,62,20,-1,30,16,18,24,64,34,28,-1,44,38,26,42,76,-1,32,84,-1,54,-1,-1,-1,88,68,78,40,-1,-1,86,100,-1,46,102,48,-1,-1,-1,52,66,94,56,70,92,58,74,60,90,-1,-1,-1,-1,-1,-1,-1,-1,-1,-1,72,80,-1,-1,-1,82,-1,-1,-1,-1,-1,-1,-1,-1,-1,-1,-1,-1,-1,-1,-1,-1,-1,-1,-1,96,-1,98,-1,-1,-1,-1,-1,-1],"split_conditions":[3.084653E-1,-1.3543974E-1,1.294232E-1,2.0420346E0,-2.3287843E-1,-2.4413656E-1,1.0696429E0,1.4612049E0,9.408439E-1,-6.823061E-2,5.7804346E-2,2.2249217E-1,5.35034E-2,-1.485948E0,-4.848216E-1,-4.9733868E-1,-1.2688191E-1,2.5921333E-1,-2.4344614E-1,-3.111516E-1,3.666435E-2,-7.0789695E-2,-6.523775E-1,-1.897404E-2,9.2633164E-1,-3.2670397E-1,5.417128E-2,-3.147731E-1,-7.3099935E-1,2.596261E-2,4.2367753E-1,-1.325299E-2,3.4502827E-2,6.9342956E-2,1.9694429E-2,9.2929286E-1,4.870618E-1,2.2683043E-3,6.920907E-2,-8.024734E-3,-3.7138823E-1,1.266311E-1,1.2777579E-3,-1.9132273E-1,1.2653168E-1,-5.030283E-1,-1.745115E-2,6.1768178E-2,2.0625167E-2,-7.8148586E-1,-3.764983E-1,-3.958309E-1,-8.471597E-3,-3.7253398E-1,-7.1124893E-1,-2.8596437E-1,-5.041662E-1,2.4539065E-1,7.577834E-1,3.4690652E-2,-2.6619622E-2,6.5716274E-2,9.896918E-3,-4.0592164E-2,7.522804E-3,-2.702595E-2,2.4138855E-2,-1.966802E-2,2.1857549E-2,-2.731691E-1,-5.030283E-1,1.9672556E-2,-2.6397573E-2,-3.732212E-3,-7.175784E-2,-2.9955002E-2,1.0578426E-2,-4.833643E-2,-9.972765E-3,-4.7019526E-2,-1.5149705E-2,-4.3440413E-2,-1.6440952E-2,-2.0874467E-2,-5.042838E-2,2.7370295E-2,6.2859885E-2,1.6897388E-3,3.3311702E-2,-4.493006E-2,-1.3775445E-2,-2.029337E-2,-4.972228E-2,-1.9481188E-2,4.784057E-1,-5.0319023E-2,-5.030283E-1,-1.7661566E-2,-4.3059815E-2,-4.9792532E-2,-2.8451683E-2,4.0306516E-2,6.860433E-2],"split_indices":[21,22,8,3,0,0,22,21,21,11,19,7,0,2,4,4,8,22,7,8,0,11,3,0,22,7,0,11,3,0,20,0,0,0,7,21,22,22,0,0,7,7,0,11,19,4,0,0,0,21,11,7,20,7,3,8,4,19,4,0,0,0,0,0,0,0,0,0,0,4,4,0,0,0,4,0,0,0,0,0,0,0,0,0,0,0,0,0,0,0,0,0,0,0,20,0,4,0,0,0,0,0,0],"split_type":[0,0,0,0,0,0,0,0,0,0,0,0,0,0,0,0,0,0,0,0,0,0,0,0,0,0,0,0,0,0,0,0,0,0,0,0,0,0,0,0,0,0,0,0,0,0,0,0,0,0,0,0,0,0,0,0,0,0,0,0,0,0,0,0,0,0,0,0,0,0,0,0,0,0,0,0,0,0,0,0,0,0,0,0,0,0,0,0,0,0,0,0,0,0,0,0,0,0,0,0,0,0,0],"sum_hessian":[6.138054E2,3.4321848E2,2.7058694E2,1.7980434E2,1.6341412E2,2.1665387E2,5.3933064E1,7.2786415E1,1.4386745E2,4.0025818E1,1.3907245E1,6.345822E1,9.328196E0,7.172804E1,9.168609E1,4.2683533E1,4.9002556E1,1.5552753E1,2.713078E1,5.2176506E1,1.1281713E1,7.8309975E1,6.555748E1,2.0562881E1,2.8439676E1,1.4367682E1,6.1951985E0,3.128137E1,2.0895138E1,6.4764867E0,6.525156E1,2.0067978E1,1.1213391E1,1.385402E1,1.3276759E1,1.8588713E1,2.1437105E1,2.6449562E1,3.9107914E1,6.8906937E0,1.9558868E1,1.9192509E1,9.247168E0,6.3805603E1,1.450437E1,5.6649742E1,7.1558633E0,1.2764787E1,4.3884953E1,1.673357E2,1.2468637E1,7.290322E1,9.443247E1,3.9905605E1,2.5345947E1,3.7050358E1,5.7382114E1,1.9624317E1,1.742604E1,1.0974502E1,8.6498165E0,7.5619435E0,6.345301E0,7.0447383E0,8.508015E0,6.459244E0,6.0093937E0,9.745245E0,8.843469E0,1.608342E1,2.3822186E1,9.807536E0,6.2758846E0,6.9052978E0,5.0476818E1,7.307073E0,7.0606093E0,1.4981389E1,6.4557166E0,7.4532847E0,1.6368902E1,4.2052704E1,8.424112E0,1.2555686E1,8.339451E0,6.57808E0,1.2980789E1,6.1604767E0,7.116282E0,1.1330274E1,6.0957665E0,6.6991534E0,1.8646793E1,6.2298727E0,6.667335E1,4.4693504E1,2.1979845E1,6.0095997E0,1.5970245E1,1.2362512E1,6.829998E0,6.9215965E0,7.582773E0],"tree_param":{"num_deleted":"0","num_feature":"23","num_nodes":"103","size_leaf_vector":"1"}},{"base_weights":[-2.8668355E-2,-5.6281185E-1,4.6539384E-1,3.4578422E-1,1.3383474E0,1.194362E-1,8.153641E-1,-2.1994007E-1,8.6458814E-1,-8.2398534E-1,-2.2870375E-1,1.0848955E0,-2.3462469E-2,-3.472134E-1,7.4436146E-1,-1.4040287E-1,-8.128796E-1,-1.0457572E-2,4.4817038E-2,4.584197E-3,1.5714381E0,1.5491375E-1,9.7831106E-1,-3.7354112E-1,2.583488E-1,6.03919E-1,-3.7415948E-2,-1.0647888E-1,-7.1394235E-1,-2.9853427E-1,3.3855855E-2,9.987758E-1,-1.1633111E-2,6.6395395E-2,-8.596279E-4,-2.512462E-2,2.7894948E-2,3.8850687E-3,-9.468641E-1,4.316626E-3,1.2449206E0,-1.0606394E0,-6.336144E-1,8.299565E-1,6.78423E-2,-8.993206E-3,9.5665425E-1,-4.9635753E-1,-1.0612617E0,-1.6109836E-1,-7.153496E-1,-3.045795E-2,2.3047352E-1,-9.4041437E-1,-7.719856E-4,5.0651174E-2,2.5591977E-2,-5.926976E-1,3.1259346E-3,-1.4769383E-2,2.2891989E-2,2.3991894E-2,-1.0372043E-2,-5.0803446E-3,-3.502795E-2,-1.0856463E-2,-4.3965485E-2,7.4929018E-3,4.4005726E-2,5.587579E-2,2.9974397E-2,-1.9355793E-2,-1.1209127E0,6.996848E-2,3.7747957E-2,-4.9876567E-2,-2.6045848E-2,-2.391347E-2,-1.1013792E0,-4.7773406E-2,-7.860996E-1,-1.8922336E-2,-4.009324E-2,-2.6786562E-2,-4.7805462E-2,-4.9236458E-2,-2.9910209E-2],"categories":[],"categories_nodes":[],"categories_segments":[],"categories_sizes":[],"default_left":[0,0,0,0,0,0,0,0,0,0,0,0,0,0,0,0,0,0,0,0,0,0,0,0,0,0,0,0,0,0,0,0,0,0,0,0,0,0,0,0,0,0,0,0,0,0,0,0,0,0,0,0,0,0,0,0,0,0,0,0,0,0,0,0,0,0,0,0,0,0,0,0,0,0,0,0,0,0,0,0,0,0,0,0,0,0,0],"id":13,"left_children":[1,9,3,5,19,7,21,13,11,41,23,39,-1,15,67,17,75,-1,-1,-1,73,35,43,27,25,31,-1,29,37,57,-1,33,-1,-1,-1,-1,-1,-1,77,-1,69,71,47,45,-1,-1,55,49,83,51,53,-1,59,65,-1,-1,-1,63,61,-1,-1,-1,-1,-1,-1,-1,-1,-1,-1,-1,-1,-1,79,-1,-1,-1,-1,-1,85,-1,81,-1,-1,-1,-1,-1,-1],"loss_changes":[1.5754213E2,2.484024E1,3.19217E1,2.903931E1,1.0387299E1,4.7262714E1,9.425144E0,1.6052534E1,1.9283482E1,6.563385E0,9.071535E0,7.857033E0,0E0,1.0899946E1,2.7921228E0,1.237998E1,1.6632614E0,0E0,0E0,0E0,1.686943E0,8.3382845E0,6.0928726E0,8.87607E0,1.278961E1,8.635155E0,0E0,1.0520705E1,8.232334E0,4.2264185E0,0E0,1.1117046E1,0E0,0E0,0E0,0E0,0E0,0E0,1.1710148E0,0E0,2.1386948E0,1.9073944E0,4.843338E0,8.33709E0,0E0,0E0,4.4903603E0,5.1075993E0,2.8723526E-1,7.0431633E0,6.6782246E0,0E0,3.9631371E0,3.0236702E0,0E0,0E0,0E0,3.0237322E0,3.953279E0,0E0,0E0,0E0,0E0,0E0,0E0,0E0,0E0,0E0,0E0,0E0,0E0,0E0,4.8698425E-1,0E0,0E0,0E0,0E0,0E0,6.695557E-2,0E0,4.3033218E-1,0E0,0E0,0E0,0E0,0E0,0E0],"parents":[2147483647,0,0,2,2,3,3,5,5,1,1,8,8,7,7,13,13,15,15,4,4,6,6,10,10,24,24,23,23,27,27,25,25,31,31,21,21,28,28,11,11,9,9,22,22,43,43,42,42,47,47,49,49,50,50,46,46,29,29,52,52,58,58,57,57,53,53,14,14,40,40,41,41,20,20,16,16,38,38,72,72,80,80,48,48,78,78],"right_children":[2,10,4,6,20,8,22,14,12,42,24,40,-1,16,68,18,76,-1,-1,-1,74,36,44,28,26,32,-1,30,38,58,-1,34,-1,-1,-1,-1,-1,-1,78,-1,70,72,48,46,-1,-1,56,50,84,52,54,-1,60,66,-1,-1,-1,64,62,-1,-1,-1,-1,-1,-1,-1,-1,-1,-1,-1,-1,-1,80,-1,-1,-1,-1,-1,86,-1,82,-1,-1,-1,-1,-1,-1],"split_conditions":[9.5866606E-2,-1.3543974E-1,1.3486027E0,1.0395259E0,3.3460894E-1,3.5210457E-1,4.9239925E-1,1.4385298E0,-2.3631787E-1,-9.432784E-1,5.7558656E-1,-8.761863E-1,-2.3462469E-2,4.4137094E-2,5.751555E-1,1.247513E0,-7.446429E-1,-1.0457572E-2,4.4817038E-2,4.584197E-3,2.9299202E0,-7.2234905E-1,1.7732741E0,-5.8151734E-1,-2.3631787E-1,-2.3695356E-1,-3.7415948E-2,1.3486027E0,-6.280444E-1,1.12736344E-1,3.3855855E-2,1.6261439E-1,-1.1633111E-2,6.6395395E-2,-8.596279E-4,-2.512462E-2,2.7894948E-2,3.8850687E-3,-3.9815274E-1,4.316626E-3,-1.7813839E-1,-3.9926815E-1,-2.3631787E-1,-7.631304E-1,6.78423E-2,-8.993206E-3,8.2521105E-1,5.41874E-1,-7.415271E-1,-3.634099E-1,1.1215134E0,-3.045795E-2,-5.022961E-1,3.1017777E-1,-7.719856E-4,5.0651174E-2,2.5591977E-2,-1.1436508E0,-2.3271503E-1,-1.4769383E-2,2.2891989E-2,2.3991894E-2,-1.0372043E-2,-5.0803446E-3,-3.502795E-2,-1.0856463E-2,-4.3965485E-2,7.4929018E-3,4.4005726E-2,5.587579E-2,2.9974397E-2,-1.9355793E-2,6.5657276E-1,6.996848E-2,3.7747957E-2,-4.9876567E-2,-2.6045848E-2,-2.391347E-2,-1.9074164E-1,-4.7773406E-2,8.0610895E-1,-1.8922336E-2,-4.009324E-2,-2.6786562E-2,-4.7805462E-2,-4.9236458E-2,-2.9910209E-2],"split_indices":[21,22,6,21,21,10,2,22,1,21,10,22,0,7,21,1,10,0,0,0,6,10,21,10,1,7,0,6,6,20,0,6,0,0,0,0,0,0,13,0,7,7,1,10,0,0,12,10,13,20,10,0,21,20,0,0,0,20,6,0,0,0,0,0,0,0,0,0,0,0,0,0,20,0,0,0,0,0,7,0,20,0,0,0,0,0,0],"split_type":[0,0,0,0,0,0,0,0,0,0,0,0,0,0,0,0,0,0,0,0,0,0,0,0,0,0,0,0,0,0,0,0,0,0,0,0,0,0,0,0,0,0,0,0,0,0,0,0,0,0,0,0,0,0,0,0,0,0,0,0,0,0,0,0,0,0,0,0,0,0,0,0,0,0,0,0,0,0,0,0,0,0,0,0,0,0,0],"sum_hessian":[5.9498395E2,2.8582834E2,3.0915558E2,2.7312842E2,3.602717E1,1.8514076E2,8.798765E1,1.2768983E2,5.7450947E1,1.5960124E2,1.2622709E2,5.0083523E1,7.367423E0,1.1336701E2,1.4322809E1,7.940388E1,3.396314E1,7.321185E1,6.192025E0,6.000286E0,3.0026884E1,1.7798426E1,7.0189224E1,9.747384E1,2.8753248E1,2.2660612E1,6.0926375E0,5.5356575E1,4.2117268E1,4.6607513E1,8.749062E0,1.5632864E1,7.0277476E0,9.1536665E0,6.479197E0,7.20876E0,1.0589665E1,9.531469E0,3.2585796E1,7.2807465E0,4.2802776E1,6.9113434E1,9.04878E1,5.9846115E1,1.0343106E1,6.3413596E0,5.3504757E1,7.013733E1,2.0350475E1,2.8397966E1,4.173936E1,1.0881596E1,1.7516373E1,3.1276651E1,1.046271E1,2.594984E1,2.7554914E1,2.310851E1,2.3499004E1,6.308236E0,1.1208136E1,6.7859216E0,1.6713081E1,9.189844E0,1.3918664E1,6.3390975E0,2.4937555E1,6.116758E0,8.206051E0,3.1774172E1,1.10286045E1,7.3629084E0,6.175053E1,2.2301786E1,7.7250967E0,7.630194E0,2.6332945E1,1.1421986E1,2.1163813E1,4.924959E1,1.2500939E1,6.312136E0,6.1888027E0,6.504449E0,1.3846025E1,1.3919517E1,7.2442956E0],"tree_param":{"num_deleted":"0","num_feature":"23","num_nodes":"87","size_leaf_vector":"1"}},{"base_weights":[6.553273E-3,-3.8718432E-2,1.0408872E0,7.507159E-3,-1.0548905E0,1.1110758E0,-3.4586027E-2,-5.8967096E-1,2.573417E-2,4.0706167E-1,-1.15605816E-1,-1.0017148E0,-7.077867E-2,6.86979E-3,-9.961602E-3,1.4953736E0,-4.1427608E-3,3.0978054E-1,5.838928E-2,2.1712434E-2,-5.1335637E-3,9.413705E-3,-7.445857E-1,1.4103291E-2,5.728962E-2,-9.2128766E-1,-4.1469035E-1,4.8032603E-3,-3.0439863E-2,-2.561643E-2,-5.1585764E-2,-2.512299E-2,-5.0497524E-2,-5.1032823E-2,-2.5194874E-2,3.9113786E-2,7.013252E-2],"categories":[],"categories_nodes":[],"categories_segments":[],"categories_sizes":[],"default_left":[0,0,0,0,0,0,0,0,0,0,0,0,0,0,0,0,0,0,0,0,0,0,0,0,0,0,0,0,0,0,0,0,0,0,0,0,0],"id":14,"left_children":[1,3,15,5,31,23,7,21,9,17,11,33,13,-1,-1,35,-1,19,-1,-1,-1,-1,25,-1,-1,29,27,-1,-1,-1,-1,-1,-1,-1,-1,-1,-1],"loss_changes":[2.77846E1,2.6717587E1,1.3090258E1,2.5349012E1,1.357708E0,4.2894115E0,1.7621061E1,6.7576942E0,2.5660843E1,1.2644741E1,1.3732497E1,8.773079E-1,1.4243228E1,0E0,0E0,6.3041687E-1,0E0,1.206941E1,0E0,0E0,0E0,0E0,2.1628246E0,0E0,0E0,2.021326E0,3.2104173E0,0E0,0E0,0E0,0E0,0E0,0E0,0E0,0E0,0E0,0E0],"parents":[2147483647,0,0,1,1,3,3,6,6,8,8,10,10,12,12,2,2,9,9,17,17,7,7,5,5,22,22,26,26,25,25,4,4,11,11,15,15],"right_children":[2,4,16,6,32,24,8,22,10,18,12,34,14,-1,-1,36,-1,20,-1,-1,-1,-1,26,-1,-1,30,28,-1,-1,-1,-1,-1,-1,-1,-1,-1,-1],"split_conditions":[2.8561018E0,2.2894192E0,7.663079E-2,-8.156982E-1,2.6660697E0,-4.0493178E-1,-3.750652E-1,-3.3835378E-1,-3.19816E-1,9.824829E-1,-8.001258E-1,-1.6532968E-1,-2.2396839E-1,6.86979E-3,-9.961602E-3,-3.1072974E-1,-4.1427608E-3,-4.8368368E-1,5.838928E-2,2.1712434E-2,-5.1335637E-3,9.413705E-3,4.0795276E-1,1.4103291E-2,5.728962E-2,1.0830002E0,-4.9620077E-1,4.8032603E-3,-3.0439863E-2,-2.561643E-2,-5.1585764E-2,-2.512299E-2,-5.0497524E-2,-5.1032823E-2,-2.5194874E-2,3.9113786E-2,7.013252E-2],"split_indices":[4,4,8,3,4,20,11,8,8,20,3,0,7,0,0,11,0,4,0,0,0,0,19,0,0,3,4,0,0,0,0,0,0,0,0,0,0],"split_type":[0,0,0,0,0,0,0,0,0,0,0,0,0,0,0,0,0,0,0,0,0,0,0,0,0,0,0,0,0,0,0,0,0,0,0,0,0],"sum_hessian":[5.9149695E2,5.676156E2,2.3881367E1,5.4386774E2,2.3747889E1,1.9049377E1,5.2481836E2,5.058098E1,4.7423737E2,1.277351E2,3.4650226E2,1.56571665E1,3.308451E2,1.399037E2,1.909414E2,1.6871307E1,7.010059E0,1.1804846E2,9.686634E0,7.7171684E1,4.087678E1,7.92452E0,4.265646E1,6.190428E0,1.2858949E1,2.6610437E1,1.604602E1,6.524655E0,9.521365E0,1.6461496E1,1.0148942E1,8.887096E0,1.4860791E1,7.739109E0,7.9180574E0,7.0380244E0,9.833283E0],"tree_param":{"num_deleted":"0","num_feature":"23","num_nodes":"37","size_leaf_vector":"1"}},{"base_weights":[1.8966887E-2,-5.394269E-1,5.0972617E-1,7.032277E-1,-2.8390044E-1,1.4936945E-1,9.642049E-1,-8.829645E-2,6.1421648E-2,3.2200015E-1,-1.0672133E0,-7.732436E-1,1.6472164E-1,6.669102E-1,-3.7466457E-1,2.077406E-2,-4.6427473E-2,-3.963317E-3,4.4636026E-2,7.4966675E-1,1.286158E0,-1.7758533E-1,4.3474957E-2,-8.513996E-1,-4.1230386E-1,-5.6720015E-2,-6.064172E-1,3.2607695E-1,-8.935088E-1,8.9505213E-1,-3.494748E-1,4.544891E-1,7.893899E-2,-1.9012896E-2,4.4447456E-2,-1.8675898E-1,-1.0681094E0,-7.4244535E-1,1.9831559E-2,8.737716E-1,1.6305156E-1,-7.110019E-3,9.631831E-1,-1.0573067E-3,-4.4588808E-2,-3.2318283E-2,1.3295255E-2,1.5094054E-2,-6.115052E-1,4.0371656E-1,-2.4590753E-2,1.22618815E-2,4.351172E-2,5.501311E-1,-2.1664621E-2,-3.0784592E-2,4.5417645E-3,-7.931272E-1,1.4906637E-3,8.1847477E-1,1.4546664E0,-5.01965E-2,-1.4031326E-2,-8.442918E-1,-2.5229945E-3,-4.499441E-2,-4.7202385E-3,6.6367263E-4,4.0942844E-2,1.0842084E-2,4.4698637E-2,1.5726553E0,2.9867206E-2,-2.3247094E-3,3.2193355E-2,-2.0220835E-2,-4.635776E-2,-1.0123864E-2,-3.576928E-2,6.748308E-2,4.0785227E-2,-5.0258406E-2,-2.7841961E-2],"categories":[],"categories_nodes":[],"categories_segments":[],"categories_sizes":[],"default_left":[0,0,0,0,0,0,0,0,0,0,0,0,0,0,0,0,0,0,0,0,0,0,0,0,0,0,0,0,0,0,0,0,0,0,0,0,0,0,0,0,0,0,0,0,0,0,0,0,0,0,0,0,0,0,0,0,0,0,0,0,0,0,0,0,0,0,0,0,0,0,0,0,0,0,0,0,0,0,0,0,0,0,0],"id":15,"left_children":[1,23,3,5,11,7,19,9,-1,13,81,43,21,17,15,-1,-1,-1,-1,39,59,47,-1,35,25,27,37,29,61,31,55,33,-1,-1,-1,45,75,57,49,41,53,-1,51,-1,-1,-1,-1,-1,65,73,-1,-1,-1,67,-1,-1,-1,63,-1,69,71,-1,-1,77,-1,-1,-1,-1,-1,-1,-1,79,-1,-1,-1,-1,-1,-1,-1,-1,-1,-1,-1],"loss_changes":[1.6255156E2,1.0653656E1,4.8679024E1,3.658354E1,1.386882E1,2.7189783E1,1.0952499E1,2.9009182E1,0E0,1.2518797E1,5.9586334E-1,7.5306377E0,1.0700315E1,1.182883E1,1.2806085E1,0E0,0E0,0E0,0E0,7.569626E0,4.1364594E0,6.2869363E0,0E0,1.123621E1,1.3707375E1,2.316437E1,1.09767685E1,1.942632E1,3.9515953E0,1.1950714E1,4.603223E0,1.2976382E1,0E0,0E0,0E0,6.8898506E0,2.293045E0,4.207165E0,6.051103E0,8.362564E0,5.65737E0,0E0,5.9945374E0,0E0,0E0,0E0,0E0,0E0,3.5131288E0,2.886445E0,0E0,0E0,0E0,3.2858896E0,0E0,0E0,0E0,3.658947E0,0E0,2.9527578E0,2.8954544E0,0E0,0E0,2.2824402E0,0E0,0E0,0E0,0E0,0E0,0E0,0E0,7.05101E-1,0E0,0E0,0E0,0E0,0E0,0E0,0E0,0E0,0E0,0E0,0E0],"parents":[2147483647,0,0,2,2,3,3,5,5,7,7,4,4,9,9,14,14,13,13,6,6,12,12,1,1,24,24,25,25,27,27,29,29,31,31,23,23,26,26,19,19,39,39,11,11,35,35,21,21,38,38,42,42,40,40,30,30,37,37,20,20,28,28,57,57,48,48,53,53,59,59,60,60,49,49,36,36,63,63,71,71,10,10],"right_children":[2,24,4,6,12,8,20,10,-1,14,82,44,22,18,16,-1,-1,-1,-1,40,60,48,-1,36,26,28,38,30,62,32,56,34,-1,-1,-1,46,76,58,50,42,54,-1,52,-1,-1,-1,-1,-1,66,74,-1,-1,-1,68,-1,-1,-1,64,-1,70,72,-1,-1,78,-1,-1,-1,-1,-1,-1,-1,80,-1,-1,-1,-1,-1,-1,-1,-1,-1,-1,-1],"split_conditions":[7.89848E-2,-4.996145E-1,1.0312775E-1,-2.4413656E-1,7.7908045E-1,1.4612049E0,9.4965905E-1,2.4980342E0,6.1421648E-2,-6.668864E-1,2.6378065E-1,-2.1855454E-1,4.0434653E-1,-5.053041E-1,-3.2878265E-1,2.077406E-2,-4.6427473E-2,-3.963317E-3,4.4636026E-2,-1.4310248E-1,-7.182504E-2,-4.4727033E-1,4.3474957E-2,-3.227377E-1,-4.8709744E-1,5.579438E-1,9.5327324E-1,-2.0473312E-1,-2.2724937E-1,-4.9392492E-1,-5.775455E-1,-2.3271503E-1,7.893899E-2,-1.9012896E-2,4.4447456E-2,-1.0856339E0,-1.485948E0,2.825378E0,-1.2688191E-1,-4.9677435E-1,-5.9511113E-1,-7.110019E-3,-3.2928637E-1,-1.0573067E-3,-4.4588808E-2,-3.2318283E-2,1.3295255E-2,1.5094054E-2,-2.2423868E-1,1.1277656E-2,-2.4590753E-2,1.22618815E-2,4.351172E-2,-2.3271503E-1,-2.1664621E-2,-3.0784592E-2,4.5417645E-3,1.6674403E0,1.4906637E-3,-2.3271503E-1,9.0056425E-1,-5.01965E-2,-1.4031326E-2,-3.3785003E-1,-2.5229945E-3,-4.499441E-2,-4.7202385E-3,6.6367263E-4,4.0942844E-2,1.0842084E-2,4.4698637E-2,-1.7352864E-1,2.9867206E-2,-2.3247094E-3,3.2193355E-2,-2.0220835E-2,-4.635776E-2,-1.0123864E-2,-3.576928E-2,6.748308E-2,4.0785227E-2,-5.0258406E-2,-2.7841961E-2],"split_indices":[21,4,8,0,21,21,21,15,0,10,19,1,1,4,8,0,0,0,0,8,19,4,0,8,4,6,6,0,0,4,21,6,0,0,0,21,2,4,8,2,10,0,8,0,0,0,0,0,4,19,0,0,0,6,0,0,0,10,0,6,19,0,0,8,0,0,0,0,0,0,0,8,0,0,0,0,0,0,0,0,0,0,0],"split_type":[0,0,0,0,0,0,0,0,0,0,0,0,0,0,0,0,0,0,0,0,0,0,0,0,0,0,0,0,0,0,0,0,0,0,0,0,0,0,0,0,0,0,0,0,0,0,0,0,0,0,0,0,0,0,0,0,0,0,0,0,0,0,0,0,0,0,0,0,0,0,0,0,0,0,0,0,0,0,0,0,0,0,0],"sum_hessian":[5.911705E2,2.764837E2,3.1468677E2,2.5309195E2,6.159481E1,8.156441E1,1.7152754E2,7.037012E1,1.1194286E1,5.0059555E1,2.031056E1,2.9114267E1,3.248054E1,3.351126E1,1.6548296E1,7.8820043E0,8.666292E0,1.2579892E1,2.0931368E1,1.0493264E2,6.659491E1,2.4238045E1,8.242497E0,7.83956E1,1.9808812E2,7.040673E1,1.2768139E2,4.8726604E1,2.1680126E1,2.6273312E1,2.2453293E1,1.9614136E1,6.6591754E0,8.204444E0,1.1409692E1,1.9733997E1,5.8661602E1,1.0474424E2,2.2937147E1,8.620542E1,1.8727219E1,6.684012E0,7.952141E1,9.369452E0,1.9744814E1,8.747144E0,1.0986854E1,1.0714703E1,1.3523342E1,1.4490869E1,8.446279E0,1.2753527E1,6.676788E1,1.2210998E1,6.5162215E0,1.1469635E1,1.0983658E1,9.833357E1,6.4106717E0,1.9190428E1,4.740448E1,1.2335176E1,9.344949E0,9.1750084E1,6.5834837E0,6.0441036E0,7.479239E0,6.192689E0,6.0183086E0,7.357574E0,1.1832854E1,3.9624367E1,7.7801156E0,7.0979233E0,7.3929453E0,8.593753E0,5.006785E1,7.026184E0,8.47239E1,3.1597271E1,8.027095E0,1.20692E1,8.241361E0],"tree_param":{"num_deleted":"0","num_feature":"23","num_nodes":"83","size_leaf_vector":"1"}},{"base_weights":[1.990474E-3,-5.595798E-1,4.8153618E-1,6.559799E-1,-2.9157883E-1,1.3096532E-1,8.988836E-1,6.3059086E-1,-3.899592E-1,-7.246838E-1,3.708979E-2,1.0940953E0,-2.6146504E-1,-1.0445973E0,2.31849E-2,-6.9056225E-1,-1.9086069E-1,-4.0784857E-1,7.0729774E-1,3.716749E-1,-7.429845E-1,-7.3490936E-1,9.07348E-2,1.2957984E-2,-4.8866224E-2,-2.0944268E-2,3.8184E-2,-2.8757808E-1,2.900718E-2,1.722314E-2,-3.638459E-2,1.0007806E0,4.729243E-1,-1.4723791E-1,9.018327E-1,5.7374244E-3,1.0758212E0,2.6008338E-2,-3.2748777E-2,1.2444082E-2,5.949731E-2,7.5616254E-3,-7.2739416E-1,-7.684337E-1,3.5247917E-3,3.4015526E-3,-9.286998E-1,-1.8205637E-3,5.0403927E-2,5.1207256E-1,1.160769E0,4.127993E-2,6.551134E-2,-8.350143E-1,-3.6683807E-1,-6.366749E-1,7.0910053E-3,4.118746E-2,3.588829E-3,2.1216793E-2,1.3822186E0,2.1687806E-2,7.345913E-2,-5.481221E-1,1.1089978E-2,-5.5865487E-3,-3.6483347E-2,-3.4733664E-2,-2.9384298E-3,-2.6963593E-2,-5.2639306E-2,-1.8990465E-2,-1.0732445E0,-9.7226745E-1,-7.4597085E-1,-3.1828202E-2,-4.696613E-3,-4.5414343E-2,-3.0046193E-2,-2.5280248E-2,-4.7598112E-2],"categories":[],"categories_nodes":[],"categories_segments":[],"categories_sizes":[],"default_left":[0,0,0,0,0,0,0,0,0,0,0,0,0,0,0,0,0,0,0,0,0,0,0,0,0,0,0,0,0,0,0,0,0,0,0,0,0,0,0,0,0,0,0,0,0,0,0,0,0,0,0,0,0,0,0,0,0,0,0,0,0,0,0,0,0,0,0,0,0,0,0,0,0,0,0,0,0,0,0,0,0],"id":16,"left_children":[1,15,3,5,21,7,31,11,9,13,-1,59,29,69,-1,41,17,19,47,25,45,23,27,-1,-1,-1,-1,63,-1,-1,-1,35,33,37,39,-1,49,-1,-1,-1,-1,-1,43,53,-1,-1,71,-1,-1,57,51,-1,-1,73,55,65,-1,-1,-1,-1,61,-1,-1,67,-1,-1,-1,-1,-1,-1,-1,-1,79,77,75,-1,-1,-1,-1,-1,-1],"loss_changes":[1.6037122E2,1.3115707E1,4.351178E1,3.334394E1,1.020686E1,2.2151884E1,7.3055267E0,1.8207611E1,1.9045866E1,1.4711538E1,0E0,3.955368E0,7.3291574E0,1.851057E0,0E0,6.674919E0,1.45703335E1,1.5861254E1,6.0742874E0,1.0099561E1,6.5422573E0,1.4531694E1,8.087817E0,0E0,0E0,0E0,0E0,3.2863054E0,0E0,0E0,0E0,9.100708E0,9.839473E0,8.893705E0,6.9795837E0,0E0,5.7276917E0,0E0,0E0,0E0,0E0,0E0,6.560074E0,4.6374817E0,0E0,0E0,1.7634392E0,0E0,0E0,4.0431733E0,5.475281E0,0E0,0E0,1.203476E0,4.2282724E0,2.4333034E0,0E0,0E0,0E0,0E0,5.9247513E0,0E0,0E0,2.1791344E0,0E0,0E0,0E0,0E0,0E0,0E0,0E0,0E0,5.053654E-1,1.238163E0,2.794857E0,0E0,0E0,0E0,0E0,0E0,0E0],"parents":[2147483647,0,0,2,2,3,3,5,5,8,8,7,7,9,9,1,1,16,16,17,17,4,4,21,21,19,19,22,22,12,12,6,6,32,32,31,31,33,33,34,34,15,15,42,42,20,20,18,18,36,36,50,50,43,43,54,54,49,49,11,11,60,60,27,27,55,55,63,63,13,13,46,46,53,53,74,74,73,73,72,72],"right_children":[2,16,4,6,22,8,32,12,10,14,-1,60,30,70,-1,42,18,20,48,26,46,24,28,-1,-1,-1,-1,64,-1,-1,-1,36,34,38,40,-1,50,-1,-1,-1,-1,-1,44,54,-1,-1,72,-1,-1,58,52,-1,-1,74,56,66,-1,-1,-1,-1,62,-1,-1,68,-1,-1,-1,-1,-1,-1,-1,-1,80,78,76,-1,-1,-1,-1,-1,-1],"split_conditions":[5.7109673E-2,-3.0897236E-1,1.294232E-1,-2.4413656E-1,7.731962E-1,-3.1397256E-1,-1.4310248E-1,2.4980342E0,1.3486027E0,1.2130705E0,3.708979E-2,6.2266016E-1,-5.698399E-1,-2.880801E-1,2.31849E-2,-7.788561E-1,7.2511834E-1,-7.101095E-1,-3.2243547E-1,-7.8873134E-1,-7.415271E-1,-2.1855454E-1,5.579438E-1,1.2957984E-2,-4.8866224E-2,-2.0944268E-2,3.8184E-2,6.5461904E-2,2.900718E-2,1.722314E-2,-3.638459E-2,-4.9677435E-1,7.971876E-1,-6.755864E-1,-4.8026487E-2,5.7374244E-3,-5.5517036E-1,2.6008338E-2,-3.2748777E-2,1.2444082E-2,5.949731E-2,7.5616254E-3,2.3022084E0,1.1470319E0,3.5247917E-3,3.4015526E-3,-3.1699502E-1,-1.8205637E-3,5.0403927E-2,2.914724E-1,-2.1973877E-1,4.127993E-2,6.551134E-2,-1.0856339E0,-7.6846486E-1,-1.6041405E0,7.0910053E-3,4.118746E-2,3.588829E-3,2.1216793E-2,-7.7961576E-1,2.1687806E-2,7.345913E-2,1.16908826E-1,1.1089978E-2,-5.5865487E-3,-3.6483347E-2,-3.4733664E-2,-2.9384298E-3,-2.6963593E-2,-5.2639306E-2,-1.8990465E-2,-2.3271503E-1,4.2496732E-1,1.1215134E0,-3.1828202E-2,-4.696613E-3,-4.5414343E-2,-3.0046193E-2,-2.5280248E-2,-4.7598112E-2],"split_indices":[21,21,8,0,21,8,8,15,6,21,0,21,13,8,0,3,10,3,8,3,13,1,6,0,0,0,0,0,0,0,0,2,21,10,1,0,19,0,0,0,0,0,3,13,0,0,8,0,0,20,1,0,0,21,21,21,0,0,0,0,3,0,0,13,0,0,0,0,0,0,0,0,6,10,10,0,0,0,0,0,0],"split_type":[0,0,0,0,0,0,0,0,0,0,0,0,0,0,0,0,0,0,0,0,0,0,0,0,0,0,0,0,0,0,0,0,0,0,0,0,0,0,0,0,0,0,0,0,0,0,0,0,0,0,0,0,0,0,0,0,0,0,0,0,0,0,0,0,0,0,0,0,0,0,0,0,0,0,0,0,0,0,0,0,0],"sum_hessian":[5.9351385E2,2.733E2,3.2021384E2,2.6138672E2,5.8827126E1,8.316728E1,1.7821944E2,4.2344036E1,4.0823242E1,3.2885807E1,7.9374366E0,2.7716366E1,1.462767E1,2.6555729E1,6.3300776E0,2.0101814E2,7.228185E1,5.8656754E1,1.3625095E1,1.7603086E1,4.105367E1,2.681278E1,3.2014343E1,8.485057E0,1.8327724E1,6.9591203E0,1.0643967E1,2.0354153E1,1.166019E1,7.2218285E0,7.405842E0,1.4272714E2,3.5492302E1,1.4779385E1,2.071292E1,1.1711888E1,1.3101524E2,6.762805E0,8.01658E0,1.0992731E1,9.720187E0,7.9218097E0,1.9309633E2,1.838945E2,9.201826E0,7.623777E0,3.342989E1,6.118972E0,7.506123E0,1.8077007E1,1.1293824E2,9.036182E1,2.2576426E1,1.5681664E2,2.707787E1,1.7976791E1,9.101078E0,7.5268345E0,1.0550172E1,1.0302079E1,1.7414288E1,6.786342E0,1.0627945E1,1.39371805E1,6.4169726E0,6.871081E0,1.1105711E1,7.8773127E0,6.059868E0,1.24826355E1,1.4073093E1,9.070118E0,2.4359774E1,5.780141E1,9.901522E1,9.204292E1,6.972301E0,3.1608324E1,2.6193087E1,6.2004447E0,1.8159328E1],"tree_param":{"num_deleted":"0","num_feature":"23","num_nodes":"81","size_leaf_vector":"1"}},{"base_weights":[-7.002227E-3,-4.70762E-1,2.2394577E-1,-1.1107044E-1,3.7251902E-1,5.2195415E-2,-2.7378199E-1,1.1744419E-1,-8.6147624E-1,-7.408726E-1,5.01723E-1,1.5685414E0,-2.1486562E-3,2.3829234E-1,7.6160175E-1,-1.6873566E-2,3.8547724E-2,4.4031498E-1,-5.209651E-2,-1.789355E-1,5.4837264E-2,3.502269E-2,6.476793E-1,-4.2568636E-1,1.0348374E0,8.208009E-1,-8.654968E-2,2.4312636E-2,6.560307E-2,-5.885664E-1,1.3069583E-1,-1.0695575E-2,2.687017E-2,-5.608551E-1,-2.5044661E-2,-6.0450137E-1,1.8256463E-2,-3.5799456E-1,-8.7742645E-1,4.8481848E-2,-5.9544146E-1,-9.772813E-1,-1.2439492E-1,1.9695488E-1,-3.541357E-2,-3.0013751E-2,5.3868335E-1,-1.076702E-2,-4.8691064E-2,9.01249E-3,-3.0258434E-2,6.182629E-1,5.7247415E-2,2.7084312E-1,-2.5184164E-2,-5.0170843E-2,-1.0476757E-2,-5.82333E-3,2.8736753E-2,3.7631384E-1,9.562589E-1,7.0888364E-1,-2.6730878E-2,5.5706833E-2,1.5293261E-2,-3.0316159E-3,3.769087E-2,-2.7095143E-2,5.620602E-3,3.8547714E-3,3.494118E-2,-1.9285541E-2,-4.7871154E-2,-6.318855E-1,-1.0496871E0,-9.541581E-1,1.13836825E-2,-5.040287E-2,-6.9746774E-1,-4.10284E-2,-5.5053844E-3,-5.5355304E-1,-1.0478313E0,-3.783258E-2,-1.1112142E-2,-1.3540233E-2,1.140411E-2,7.833914E-2,3.979139E-2,-4.932422E-2,-2.68421E-2,5.2962217E-2,2.4233274E-2,-4.6703875E-2,-2.9794682E-2],"categories":[],"categories_nodes":[],"categories_segments":[],"categories_sizes":[],"default_left":[0,0,0,0,0,0,0,0,0,0,0,0,0,0,0,0,0,0,0,0,0,0,0,0,0,0,0,0,0,0,0,0,0,0,0,0,0,0,0,0,0,0,0,0,0,0,0,0,0,0,0,0,0,0,0,0,0,0,0,0,0,0,0,0,0,0,0,0,0,0,0,0,0,0,0,0,0,0,0,0,0,0,0,0,0,0,0,0,0,0,0,0,0,0,0],"id":17,"left_children":[1,33,3,5,13,-1,7,9,81,55,11,87,15,17,51,-1,-1,21,19,29,-1,23,25,49,91,27,85,-1,-1,47,31,-1,-1,35,43,37,-1,39,73,53,41,71,67,45,-1,-1,69,-1,-1,-1,-1,59,-1,57,-1,-1,-1,-1,-1,61,63,65,-1,-1,-1,-1,-1,-1,-1,-1,-1,-1,-1,75,77,89,-1,-1,79,-1,-1,83,93,-1,-1,-1,-1,-1,-1,-1,-1,-1,-1,-1,-1],"loss_changes":[6.299502E1,7.837425E0,1.9585627E1,2.8201992E1,1.4036858E1,0E0,2.5316345E1,2.2378016E1,1.9419022E0,4.799984E0,2.5097015E1,1.3673553E0,1.3531902E1,1.1983261E1,5.709137E0,0E0,0E0,1.0090761E1,1.5431831E1,1.0030146E1,0E0,1.9688637E1,1.0182606E1,6.4009314E0,8.5140324E-1,1.030658E1,1.5862203E0,0E0,0E0,6.4592295E0,9.889813E0,0E0,0E0,7.4783897E0,6.620059E0,1.0203228E1,0E0,8.119658E0,2.4454994E0,4.9484377E0,9.409746E0,2.5246277E0,3.7066946E0,9.352438E0,0E0,0E0,2.9845505E0,0E0,0E0,0E0,0E0,4.4490967E0,0E0,4.6538234E0,0E0,0E0,0E0,0E0,0E0,1.2911683E1,5.381609E0,5.04401E0,0E0,0E0,0E0,0E0,0E0,0E0,0E0,0E0,0E0,0E0,0E0,9.948124E0,2.1247215E0,1.0955105E0,0E0,0E0,3.0411339E0,0E0,0E0,1.7475548E0,5.738449E-2,0E0,0E0,0E0,0E0,0E0,0E0,0E0,0E0,0E0,0E0,0E0,0E0],"parents":[2147483647,0,0,2,2,3,3,6,6,7,7,10,10,4,4,12,12,13,13,18,18,17,17,21,21,22,22,25,25,19,19,30,30,1,1,33,33,35,35,37,37,40,40,34,34,43,43,29,