{"learner":{"attributes":{"scikit_learn":"{\"_estimator_type\": \"classifier\"}"},"feature_names":[],"feature_types":[],"gradient_booster":{"gbtree":{"model":{"gbtree_model_param":{"num_parallel_tree":"1","num_trees":"100"},"iteration_indptr":[0,1,2,3,4,5,6,7,8,9,10,11,12,13,14,15,16,17,18,19,20,21,22,23,24,25,26,27,28,29,30,31,32,33,34,35,36,37,38,39,40,41,42,43,44,45,46,47,48,49,50,51,52,53,54,55,56,57,58,59,60,61,62,63,64,65,66,67,68,69,70,71,72,73,74,75,76,77,78,79,80,81,82,83,84,85,86,87,88,89,90,91,92,93,94,95,96,97,98,99,100],"tree_info":[0,0,0,0,0,0,0,0,0,0,0,0,0,0,0,0,0,0,0,0,0,0,0,0,0,0,0,0,0,0,0,0,0,0,0,0,0,0,0,0,0,0,0,0,0,0,0,0,0,0,0,0,0,0,0,0,0,0,0,0,0,0,0,0,0,0,0,0,0,0,0,0,0,0,0,0,0,0,0,0,0,0,0,0,0,0,0,0,0,0,0,0,0,0,0,0,0,0,0,0],"trees":[{"base_weights":[5.02461E-3,-5.010087E-1,4.2515114E-1,-3.93152E-1,-1.0582385E0,2.1082418E-1,1.1411659E0,-6.6470253E-1,-2.2940564E-3,1.3229279E-1,-1.2810903E0,3.6104795E-1,-1.1683867E0,1.7008196E0,4.2323875E-1,-9.2084485E-1,-2.6758167E-1,1.0479548E0,-3.202446E-1,-1.2652376E0,1.3394845E0,-1.1033484E0,-1.3787024E0,1.911413E-1,1.5797194E0,-1.3060094E-2,-1.3307378E0,3.0907437E-1,1.942361E0,1.5434151E0,-1.9080456E-1,2.352243E-1,-1.0141871E0,2.6678214E-2,-1.0367303E0,3.258758E-1,1.8151431E0,-1.5870404E-1,-1.2249945E0,-1.1089126E0,-7.4180615E-1,1.6847093E0,-9.636445E-3,-4.7114807E-1,-1.4181811E0,-1.4356803E0,-6.0271597E-1,3.6435708E-1,-7.1983993E-1,2.0260706E0,-1.2980298E0,7.224853E-1,-7.4180615E-1,-1.4303184E0,-9.636445E-3,1.3130577E0,-6.893665E-1,1.3190212E0,2.347139E0,5.5168696E-2,2.0227973E0,-8.6552304E-1,6.526212E-1,-6.893665E-1,1.2495737E0,-1.1387537E0,-1.4626095E-1,-2.9791346E-1,7.021126E-1,-2.5124454E-1,-1.3578626E0,-1.4626095E-1,2.1888387E0,2.7600825E0,-3.261075E-1,-3.370518E-1,6.6273135E-1,-1.1162043E0,-3.3410874E-1,1.2812307E-1,-1.1089126E0,-1.1160198E0,-7.4180615E-1,-1.2045667E0,-1.1172376E0,-3.9641503E-2,7.892438E-1,-9.630502E-1,1.0220896E0,2.3321362E0,4.397942E-1,-7.4180615E-1,-1.1110402E0,-1.1172838E0,-6.98866E-1,-1.1110402E0,3.5640046E-1,2.537031E0,9.1019326E-1,2.5543613E0,9.03122E-2,6.9036275E-1,2.3134458E0,2.4569577E-1,-1.4087887E0,-6.710657E-1,1.2228693E0,2.1016206E-1,-1.1104482E0,-1.1762273E0,2.1016206E-1,-8.9912105E-1,1.3173394E0,-4.8320735E-1,6.418433E-1,-8.580823E-2,1.7092419E0,-6.3931745E-1,3.903375E-1,-5.096991E-1,-1.1163234E0,-8.4921175E-1,1.3130577E0,2.201001E0,1.6847093E0,-1.107891E0,5.399415E-1,-4.9922663E-1,7.923589E-1,2.326827E0,-6.3394594E-1,-4.4935364E-1,-1.1135327E0,-1.7557733E-1,2.1950183E0,5.4776955E-1,1.758849E0,-1.0906137E0,3.0511263E-1,1.8590593E0,-9.439187E-2,1.7045227E0,2.725216E0,1.2904134E0,-5.6005645E-1,2.1918666E0,1.454655E0,-1.1097497E0,1.4206241E0,2.7350194E0,2.2226722E0,2.0077448E0,2.1930335E0,-1.1089126E0,1.1763852E0,-7.4180615E-1,-1.1157347E0,2.2921891E0,1.9941196E-1,-1.2375022E0,-4.5989424E-1,-1.3425962E0,3.5640046E-1,1.5292797E0,3.5640046E-1,-2.0396326E-1,-1.067327E0,9.551392E-1,-3.757213E-1,6.5167356E-1,-6.429222E-1,1.8489636E0,4.1389897E-1,3.5640046E-1,-1.2233963E0,-1.1848214E0,-3.0874836E-1,2.1592604E-1,1.5904386E0,2.196932E0,8.69721E-1,8.158871E-1,-1.1143064E0,8.413492E-2,-6.416596E-1,8.158871E-1,2.1963348E0,3.4074607E-1,1.364005E0,9.8100054E-1,2.755003E0,-1.1165233E0,-8.456006E-1,1.0919856E0,2.194903E0,1.0885702E0,2.9000468E0,-2.8486058E-1,1.961635E0,1.0885702E0,2.903347E0,2.5600412E0,7.224853E-1,1.552122E0,2.1868246E0,1.0885702E0,2.1904893E0,-4.4935364E-1,6.9036275E-1,-1.0127078E0,-6.7194897E-1,-6.4058834E-1,3.5640046E-1,-7.4180615E-1,-1.1132886E0,-4.2037654E-1,5.425744E-1,-2.096738E-1,-1.0045449E0,-1.1104482E0,6.899739E-2,-1.1141382E0,-3.757213E-1,-4.162827E-1,-1.1156684E0,-4.0208843E-1,2.0017976E-1,1.0910829E0,-6.3931745E-1,-4.8628417E-1,2.5268212E-1,4.244359E-1,-6.527286E-1,3.8866842E-1,-6.3027006E-1,4.4191775E-1,1.9721158E0,7.865395E-2,1.2860924E0,1.5292797E0,2.201383E0,3.5640046E-1,-7.30814E-1,1.5754013E0,-9.681625E-3,1.8207399E0,2.203784E0,5.4069114E-1,1.8453386E0,1.8904641E0,2.2038438E0,2.196932E0,1.5335189E0,1.8590593E0,3.5640046E-1],"categories":[],"categories_nodes":[],"categories_segments":[],"categories_sizes":[],"default_left":[0,0,0,0,0,0,0,0,0,0,0,0,0,0,0,0,0,0,0,0,0,0,0,0,0,0,0,0,0,0,0,0,0,0,0,0,0,0,0,0,0,0,0,0,0,0,0,0,0,0,0,0,0,0,0,0,0,0,0,0,0,0,0,0,0,0,0,0,0,0,0,0,0,0,0,0,0,0,0,0,0,0,0,0,0,0,0,0,0,0,0,0,0,0,0,0,0,0,0,0,0,0,0,0,0,0,0,0,0,0,0,0,0,0,0,0,0,0,0,0,0,0,0,0,0,0,0,0,0,0,0,0,0,0,0,0,0,0,0,0,0,0,0,0,0,0,0,0,0,0,0,0,0,0,0,0,0,0,0,0,0,0,0,0,0,0,0,0,0,0,0,0,0,0,0,0,0,0,0,0,0,0,0,0,0,0,0,0,0,0,0,0,0,0,0,0,0,0,0,0,0,0,0,0,0,0,0,0,0,0,0,0,0,0,0,0,0,0,0,0,0,0,0,0,0,0,0,0,0,0,0,0,0,0,0,0,0,0,0,0,0,0,0,0,0,0,0,0,0,0,0,0,0,0,0],"id":0,"left_children":[1,3,5,7,9,11,13,15,17,19,21,23,25,27,29,31,33,35,37,39,41,43,45,47,49,51,53,55,57,59,61,63,65,67,69,71,73,75,77,-1,-1,-1,-1,79,81,83,-1,85,87,89,91,-1,-1,93,-1,-1,95,97,99,-1,101,103,105,107,-1,109,111,113,115,117,119,121,-1,123,125,127,129,-1,-1,-1,-1,-1,-1,131,-1,133,135,137,139,141,143,-1,-1,-1,-1,-1,-1,145,147,149,-1,-1,151,153,155,-1,157,-1,-1,159,-1,161,163,165,167,169,171,-1,-1,-1,-1,173,-1,-1,-1,-1,-1,175,177,179,181,-1,-1,183,185,187,189,191,-1,-1,-1,193,195,-1,-1,-1,-1,-1,197,199,201,203,-1,-1,-1,-1,-1,205,207,209,211,213,-1,-1,-1,215,217,-1,-1,-1,219,-1,-1,-1,221,223,225,227,-1,-1,-1,-1,-1,229,231,-1,-1,233,235,237,239,-1,241,243,-1,-1,245,-1,247,-1,249,251,-1,253,-1,-1,-1,-1,-1,-1,-1,-1,-1,-1,-1,-1,-1,-1,-1,-1,-1,-1,-1,-1,-1,-1,-1,-1,-1,-1,-1,-1,-1,-1,-1,-1,-1,-1,-1,-1,-1,-1,-1,-1,-1,-1,-1,-1,-1,-1,-1,-1,-1,-1,-1],"loss_changes":[1.6779099E2,2.1509323E1,6.617154E1,3.1839882E1,1.5404137E1,6.8775E1,3.9899765E1,1.8000595E1,4.10782E1,1.5501263E1,8.1985474E-1,6.1971115E1,6.115162E0,1.8752121E1,2.9954586E1,1.16152725E1,1.5714876E1,1.5825237E1,1.3797359E1,2.3108244E-1,6.2031956E0,3.4561558E0,9.947243E-1,4.146023E1,4.708947E1,3.9457762E0,3.750843E0,1.2088844E1,1.1941727E1,1.0855789E1,1.6024704E1,1.0806938E1,1.0760895E1,1.1017815E1,4.8399334E0,1.8276094E1,2.805346E1,1.1745358E1,3.078682E0,0E0,0E0,0E0,0E0,3.838819E0,3.8806152E-1,4.2627716E-1,0E0,3.7893944E1,1.7802757E1,1.5376923E1,2.647171E-1,0E0,0E0,9.486542E-1,0E0,0E0,4.6691136E0,9.301735E0,1.3280304E1,0E0,3.6512794E0,9.449396E0,1.1133032E1,3.8754644E0,0E0,4.6453857E0,1.38147135E1,5.916419E0,1.2946692E1,2.6632278E0,1.3186741E0,1.6882061E1,0E0,8.427658E-1,5.25571E0,1.2070392E1,3.089022E1,0E0,0E0,0E0,0E0,0E0,0E0,1.1727781E0,0E0,3.4386696E1,2.5174019E1,6.467045E0,8.785652E0,6.470093E0,8.017281E0,0E0,0E0,0E0,0E0,0E0,0E0,1.02211E0,1.7326775E1,1.465683E0,0E0,0E0,1.6870499E0,1.2049424E1,3.7841415E-1,0E0,1.0026409E1,0E0,0E0,3.712799E0,0E0,5.074902E0,2.6312494E0,4.6223507E0,4.1584587E0,4.9343123E0,6.422413E0,0E0,0E0,0E0,0E0,4.5723214E0,0E0,0E0,0E0,0E0,0E0,7.5153704E0,6.4347043E0,4.5196037E0,1.2139257E1,0E0,0E0,1.2917261E1,5.374979E0,1.4552286E1,1.656617E1,3.3946495E0,0E0,0E0,0E0,7.8327065E0,3.509407E0,0E0,0E0,0E0,0E0,0E0,1.1362276E1,3.5456848E0,3.9118233E0,2.5953674E0,0E0,0E0,0E0,0E0,0E0,2.3582916E0,2.7782145E0,3.272606E0,2.5529423E0,3.104515E-1,0E0,0E0,0E0,6.5188107E0,2.0521784E0,0E0,0E0,0E0,3.658133E0,0E0,0E0,0E0,1.412157E0,2.4708862E0,6.0823007E0,7.8895307E0,0E0,0E0,0E0,0E0,0E0,1.29928875E1,1.1029133E1,0E0,0E0,1.4976765E1,1.7291626E1,7.93779E0,1.262764E0,0E0,3.9220438E0,7.9020195E0,0E0,0E0,3.0670166E-1,0E0,5.754799E0,0E0,2.110138E-1,1.3444252E0,0E0,4.327161E0,0E0,0E0,0E0,0E0,0E0,0E0,0E0,0E0,0E0,0E0,0E0,0E0,0E0,0E0,0E0,0E0,0E0,0E0,0E0,0E0,0E0,0E0,0E0,0E0,0E0,0E0,0E0,0E0,0E0,0E0,0E0,0E0,0E0,0E0,0E0,0E0,0E0,0E0,0E0,0E0,0E0,0E0,0E0,0E0,0E0,0E0,0E0,0E0,0E0,0E0,0E0],"parents":[2147483647,0,0,1,1,2,2,3,3,4,4,5,5,6,6,7,7,8,8,9,9,10,10,11,11,12,12,13,13,14,14,15,15,16,16,17,17,18,18,19,19,20,20,21,21,22,22,23,23,24,24,25,25,26,26,27,27,28,28,29,29,30,30,31,31,32,32,33,33,34,34,35,35,36,36,37,37,38,38,43,43,44,44,45,45,47,47,48,48,49,49,50,50,53,53,56,56,57,57,58,58,60,60,61,61,62,62,63,63,65,65,66,66,67,67,68,68,69,69,70,70,71,71,73,73,74,74,75,75,76,76,83,83,85,85,86,86,87,87,88,88,89,89,90,90,97,97,98,98,99,99,102,102,103,103,104,104,106,106,109,109,111,111,112,112,113,113,114,114,115,115,116,116,121,121,127,127,128,128,129,129,130,130,133,133,134,134,135,135,136,136,137,137,141,141,142,142,148,148,149,149,150,150,151,151,157,157,158,158,159,159,160,160,161,161,165,165,166,166,170,170,174,174,175,175,176,176,177,177,183,183,184,184,187,187,188,188,189,189,190,190,192,192,193,193,196,196,198,198,200,200,201,201,203,203],"right_children":[2,4,6,8,10,12,14,16,18,20,22,24,26,28,30,32,34,36,38,40,42,44,46,48,50,52,54,56,58,60,62,64,66,68,70,72,74,76,78,-1,-1,-1,-1,80,82,84,-1,86,88,90,92,-1,-1,94,-1,-1,96,98,100,-1,102,104,106,108,-1,110,112,114,116,118,120,122,-1,124,126,128,130,-1,-1,-1,-1,-1,-1,132,-1,134,136,138,140,142,144,-1,-1,-1,-1,-1,-1,146,148,150,-1,-1,152,154,156,-1,158,-1,-1,160,-1,162,164,166,168,170,172,-1,-1,-1,-1,174,-1,-1,-1,-1,-1,176,178,180,182,-1,-1,184,186,188,190,192,-1,-1,-1,194,196,-1,-1,-1,-1,-1,198,200,202,204,-1,-1,-1,-1,-1,206,208,210,212,214,-1,-1,-1,216,218,-1,-1,-1,220,-1,-1,-1,222,224,226,228,-1,-1,-1,-1,-1,230,232,-1,-1,234,236,238,240,-1,242,244,-1,-1,246,-1,248,-1,250,252,-1,254,-1,-1,-1,-1,-1,-1,-1,-1,-1,-1,-1,-1,-1,-1,-1,-1,-1,-1,-1,-1,-1,-1,-1,-1,-1,-1,-1,-1,-1,-1,-1,-1,-1,-1,-1,-1,-1,-1,-1,-1,-1,-1,-1,-1,-1,-1,-1,-1,-1,-1,-1],"split_conditions":[-1.2833095E-1,1.3858902E-1,-7.311688E-2,-2.933283E-1,-2.4833696E-1,-5.040526E-1,9.9643886E-1,-6.242703E-1,-2.3603535E-1,5.2487755E-1,-7.008708E-2,1.3526596E0,-9.566177E-1,-3.507271E-1,-3.2225925E-1,-1.0946903E0,-2.745911E-1,1.5469052E-1,1.063642E0,-1.4294711E-2,-1.3145722E-1,-7.136354E-1,5.323279E0,3.0341512E-1,-5.955552E-1,-2.9957855E-1,9.6475834E-1,-3.830272E-1,2.5348294E-1,-3.9070508E-1,1.6137306E-1,-4.1519213E-1,2.0375187E0,-3.5141546E-1,-2.3106657E-1,-2.3762389E-1,9.9643886E-1,8.457063E-1,8.0528194E-1,-1.1089126E0,-7.4180615E-1,1.6847093E0,-9.636445E-3,-4.037913E-1,4.9768984E-1,-2.3572244E-1,-6.0271597E-1,2.9099357E-1,-6.171969E-1,-3.3608475E-3,1.3551912E-2,7.224853E-1,-7.4180615E-1,4.7883373E-1,-9.636445E-3,1.3130577E0,-5.8341812E-2,-3.139262E-1,8.624083E-1,5.5168696E-2,8.068067E-2,4.8626176E-1,-3.1747392E-1,1.5047096E0,1.2495737E0,1.3124137E-1,-4.924697E-2,-2.9224643E-1,5.548722E-1,7.125529E-1,-1.720713E-1,-2.0185798E-1,2.1888387E0,-3.071062E-1,-6.0181403E-1,1.3526596E0,8.949558E-2,-1.1162043E0,-3.3410874E-1,1.2812307E-1,-1.1089126E0,-1.1160198E0,-7.4180615E-1,8.2223725E-1,-1.1172376E0,1.7683343E0,1.438708E0,2.507498E0,1.0089157E-1,2.5093687E-1,-1.4183052E-1,-7.4180615E-1,-1.1110402E0,-1.1172838E0,-6.98866E-1,-1.1110402E0,3.5640046E-1,8.783587E-1,-2.994706E-1,-3.071062E-1,9.03122E-2,6.9036275E-1,9.555641E-1,2.9224312E-1,1.5619817E-1,-6.710657E-1,-9.349706E-2,2.1016206E-1,-1.1104482E0,1.496181E0,2.1016206E-1,-3.8837522E-1,2.3579679E0,-3.7174863E-1,9.555641E-1,-7.1705246E-1,1.4194013E0,-6.3931745E-1,3.903375E-1,-5.096991E-1,-1.1163234E0,-3.4369588E-1,1.3130577E0,2.201001E0,1.6847093E0,-1.107891E0,5.399415E-1,-1.8176062E-1,5.6646705E-1,1.9890076E-1,-6.812789E-2,-4.4935364E-1,-1.1135327E0,1.5047096E0,-3.8403857E-1,-6.209937E-1,7.663656E-1,3.6490008E-1,3.0511263E-1,1.8590593E0,-9.439187E-2,2.5542332E-2,-8.767514E-1,1.2904134E0,-5.6005645E-1,2.1918666E0,1.454655E0,-1.1097497E0,2.871077E-1,3.2820874E-1,7.50247E-2,7.8745097E-1,2.1930335E0,-1.1089126E0,1.1763852E0,-7.4180615E-1,-1.1157347E0,1.3362516E0,1.8629669E-1,-8.564176E-1,-3.1316742E-1,-3.9187E-1,3.5640046E-1,1.5292797E0,3.5640046E-1,-3.713312E-1,-3.277339E-1,9.551392E-1,-3.757213E-1,6.5167356E-1,-3.088659E-1,1.8489636E0,4.1389897E-1,3.5640046E-1,-5.0454164E-1,-2.1023436E-1,1.5469052E-1,-6.521274E-1,1.5904386E0,2.196932E0,8.69721E-1,8.158871E-1,-1.1143064E0,4.8626176E-1,-4.9142167E-1,8.158871E-1,2.1963348E0,-6.544054E-1,6.94842E-1,-2.3572244E-1,1.5895467E0,-1.1165233E0,4.8798072E-1,-5.765161E-1,2.194903E0,1.0885702E0,-3.688717E-1,-2.8486058E-1,-2.8555325E-1,1.0885702E0,-4.168318E-1,1.193693E0,7.224853E-1,-3.661888E-1,2.1868246E0,1.0885702E0,2.1904893E0,-4.4935364E-1,6.9036275E-1,-1.0127078E0,-6.7194897E-1,-6.4058834E-1,3.5640046E-1,-7.4180615E-1,-1.1132886E0,-4.2037654E-1,5.425744E-1,-2.096738E-1,-1.0045449E0,-1.1104482E0,6.899739E-2,-1.1141382E0,-3.757213E-1,-4.162827E-1,-1.1156684E0,-4.0208843E-1,2.0017976E-1,1.0910829E0,-6.3931745E-1,-4.8628417E-1,2.5268212E-1,4.244359E-1,-6.527286E-1,3.8866842E-1,-6.3027006E-1,4.4191775E-1,1.9721158E0,7.865395E-2,1.2860924E0,1.5292797E0,2.201383E0,3.5640046E-1,-7.30814E-1,1.5754013E0,-9.681625E-3,1.8207399E0,2.203784E0,5.4069114E-1,1.8453386E0,1.8904641E0,2.2038438E0,2.196932E0,1.5335189E0,1.8590593E0,3.5640046E-1],"split_indices":[22,8,3,11,1,3,3,22,11,3,11,6,20,11,8,13,7,3,3,7,11,3,8,8,3,8,20,11,22,11,6,7,3,11,13,11,3,3,13,0,0,0,0,13,7,6,0,19,3,8,8,0,0,7,0,0,13,11,19,0,22,2,11,5,0,1,19,8,3,19,20,1,0,8,22,6,20,0,0,0,0,0,0,12,0,1,22,15,7,19,19,0,0,0,0,0,0,3,11,8,0,0,6,22,22,0,8,0,0,13,0,11,3,11,6,3,3,0,0,0,0,19,0,0,0,0,0,11,19,19,11,0,0,5,7,3,19,22,0,0,0,11,20,0,0,0,0,0,13,22,19,20,0,0,0,0,0,3,8,22,8,11,0,0,0,7,8,0,0,0,8,0,0,0,22,7,3,3,0,0,0,0,0,2,2,0,0,3,22,6,22,0,22,13,0,0,7,0,19,0,7,22,0,11,0,0,0,0,0,0,0,0,0,0,0,0,0,0,0,0,0,0,0,0,0,0,0,0,0,0,0,0,0,0,0,0,0,0,0,0,0,0,0,0,0,0,0,0,0,0,0,0,0,0,0],"split_type":[0,0,0,0,0,0,0,0,0,0,0,0,0,0,0,0,0,0,0,0,0,0,0,0,0,0,0,0,0,0,0,0,0,0,0,0,0,0,0,0,0,0,0,0,0,0,0,0,0,0,0,0,0,0,0,0,0,0,0,0,0,0,0,0,0,0,0,0,0,0,0,0,0,0,0,0,0,0,0,0,0,0,0,0,0,0,0,0,0,0,0,0,0,0,0,0,0,0,0,0,0,0,0,0,0,0,0,0,0,0,0,0,0,0,0,0,0,0,0,0,0,0,0,0,0,0,0,0,0,0,0,0,0,0,0,0,0,0,0,0,0,0,0,0,0,0,0,0,0,0,0,0,0,0,0,0,0,0,0,0,0,0,0,0,0,0,0,0,0,0,0,0,0,0,0,0,0,0,0,0,0,0,0,0,0,0,0,0,0,0,0,0,0,0,0,0,0,0,0,0,0,0,0,0,0,0,0,0,0,0,0,0,0,0,0,0,0,0,0,0,0,0,0,0,0,0,0,0,0,0,0,0,0,0,0,0,0,0,0,0,0,0,0,0,0,0,0,0,0,0,0,0,0,0,0],"sum_hessian":[7.892033E2,3.5799832E2,4.3120496E2,2.999687E2,5.8029655E1,3.3188498E2,9.9319984E1,1.7699045E2,1.22978226E2,9.15083E0,4.8878822E1,2.992991E2,3.2585884E1,5.5797745E1,4.352224E1,1.0757805E2,6.941239E1,2.8568445E1,9.440978E1,4.2406287E0,4.9102015E0,1.7408895E1,3.1469929E1,2.6269577E2,3.660332E1,4.0174375E0,2.8568445E1,8.258066E0,4.7539677E1,1.5400178E1,2.8122063E1,8.034875E0,9.9543175E1,5.021797E1,1.9194424E1,1.4730604E1,1.3837841E1,8.0125565E1,1.4284223E1,2.2319098E0,2.0087187E0,2.9014828E0,2.0087187E0,5.8029656E0,1.1605931E1,2.8568445E1,2.9014828E0,2.2073587E2,4.1959904E1,3.169312E1,4.9102015E0,2.0087187E0,2.0087187E0,2.6559727E1,2.0087187E0,3.3478646E0,4.9102015E0,1.8748043E1,2.8791636E1,3.7942467E0,1.1605931E1,1.5623368E1,1.2498694E1,4.9102015E0,3.1246736E0,8.704448E1,1.2498694E1,3.392503E1,1.6292942E1,5.5797744E0,1.361465E1,1.2498694E1,2.2319098E0,9.597212E0,4.2406287E0,6.584134E1,1.4284223E1,1.0489976E1,3.7942467E0,3.5710557E0,2.2319098E0,9.597212E0,2.0087187E0,6.6957293E0,2.1872715E1,1.1315783E2,1.0757805E2,3.682651E1,5.1333923E0,2.6559727E1,5.1333923E0,2.0087187E0,2.9014828E0,2.298867E1,3.5710557E0,2.9014828E0,2.0087187E0,4.687011E0,1.4061031E1,2.6336535E1,2.4551008E0,2.4551008E0,9.15083E0,5.1333923E0,1.0489976E1,3.3478646E0,9.15083E0,2.2319098E0,2.6782918E0,8.481257E1,2.2319098E0,8.258066E0,4.2406287E0,2.8345255E1,5.5797744E0,9.15083E0,7.1421113E0,3.1246736E0,2.4551008E0,2.4551008E0,1.1159549E1,9.15083E0,3.3478646E0,6.6957293E0,2.9014828E0,2.0087187E0,2.2319098E0,5.758327E1,8.258066E0,6.249347E0,8.034875E0,2.2319098E0,4.4638195E0,1.0668529E2,6.4725385E0,8.615172E1,2.1426334E1,3.370184E1,3.1246736E0,2.2319098E0,2.9014828E0,1.0266785E1,1.6292942E1,2.4551008E0,2.6782918E0,2.6782918E0,2.0087187E0,2.4551008E0,1.1605931E1,1.6962515E1,9.374022E0,6.249347E0,2.9014828E0,2.2319098E0,2.9014828E0,2.0087187E0,8.481257E0,4.4638195E0,4.687011E0,7.8116844E1,6.6957293E0,6.249347E0,2.0087187E0,2.2319098E0,2.0087187E0,1.9194424E1,9.15083E0,3.5710557E0,2.0087187E0,3.3478646E0,5.8029656E0,4.2406287E0,2.9014828E0,2.0087187E0,7.1421113E0,1.2498694E1,4.508458E1,5.8029656E0,2.4551008E0,4.0174375E0,2.2319098E0,2.6782918E0,5.3565836E0,6.851963E1,3.8165657E1,2.6782918E0,3.7942467E0,6.874282E1,1.7408895E1,1.2052313E1,9.374022E0,1.2498694E1,2.1203142E1,6.9189205E0,3.3478646E0,2.0087187E0,1.4284223E1,2.6782918E0,8.927639E0,2.0087187E0,1.4953795E1,7.365302E0,2.0087187E0,4.2406287E0,2.0087187E0,2.0087187E0,2.4551008E0,2.2319098E0,2.4551008E0,5.6467316E1,2.1649525E1,4.687011E0,2.0087187E0,2.0087187E0,4.2406287E0,1.3837841E1,5.3565836E0,2.4551008E0,6.6957293E0,2.6782918E0,3.1246736E0,5.1333923E0,2.0087187E0,4.2406287E0,8.258066E0,3.21395E1,1.2945077E1,2.6782918E0,3.1246736E0,1.7632088E1,5.0887543E1,6.249347E0,3.191631E1,5.959199E1,9.15083E0,1.09363575E1,6.4725385E0,5.5797744E0,6.4725385E0,2.2319098E0,7.1421113E0,2.0087187E0,1.9194424E1,3.5710557E0,3.3478646E0,2.0087187E0,1.2275504E1,2.6782918E0,6.249347E0,2.4551008E0,1.2498694E1,4.0174375E0,3.3478646E0,2.2319098E0,2.0087187E0],"tree_param":{"num_deleted":"0","num_feature":"23","num_nodes":"255","size_leaf_vector":"1"}},{"base_weights":[-1.0358789E-1,-7.039859E-1,4.7145167E-1,-8.1634957E-1,-4.2385873E-1,7.970241E-2,9.667085E-1,-4.8317257E-1,-9.276015E-1,-5.5946827E-1,4.4643766E-1,-1.5505087E-1,7.563816E-1,4.7173645E-2,1.0865562E0,-7.149185E-1,2.2122468E-1,-2.1214709E-1,-9.936869E-1,-7.2772413E-1,3.2338983E-1,1.8438586E0,-3.1020585E-1,1.4683166E0,-2.4884306E-1,9.954543E-1,-3.1210595E-1,-5.214454E-1,1.4874121E0,9.6645963E-1,2.146134E0,-8.38233E-1,1.229954E-1,7.4102765E-1,-9.3863595E-1,-5.9291464E-1,8.2978916E-1,-1.0872642E0,-5.205184E-1,-5.909511E-1,-1.4375551E0,1.2031993E0,-1.884429E-1,-9.861733E-1,6.705032E-1,4.8465854E-1,1.7079551E0,-7.1484816E-1,2.1481944E-2,-2.8188953E-1,1.0751833E0,2.0563684E-1,-9.414807E-1,-1.1125128E0,6.500217E-1,7.0565265E-1,1.5814425E0,-1.0708379E-2,1.0706122E0,2.5296946E0,1.4826673E0,-1.1435608E0,-5.458989E-1,1.2087952E0,-6.8676794E-1,1.228599E0,-7.3461634E-1,-9.663067E-1,-4.2337722E-1,-1.1718683E0,3.7611726E-1,-1.2743433E0,-9.6909344E-1,-1.0897291E0,-1.4909048E-1,-6.885781E-1,8.9491504E-1,-1.3290573E0,-1.3878955E0,4.6683478E-1,1.3138922E0,-6.884369E-1,3.237133E-1,-2.8441262E-1,-1.119388E0,-1.0905564E0,-5.3803258E-2,1.1928871E0,-1.2223282E-1,1.9024312E0,8.4714055E-1,7.1087E-1,-1.866746E-1,-1.6176286E0,-2.1293993E-1,1.0630133E0,-1.0173484E-1,-7.3853314E-1,5.095224E-1,9.690285E-1,2.2704806E0,2.1663334E0,2.601874E0,1.5265357E0,6.9939655E-1,-1.24148645E-1,-1.3406416E0,5.130853E-1,-8.0374396E-1,-7.255639E-2,1.7165687E0,-5.7677287E-1,-1.3312305E0,-1.4200759E0,-9.151332E-1,-1.0338469E0,7.873061E-2,-1.270599E0,-2.8420752E-1,7.7529997E-1,-7.2605026E-1,-7.6370484E-1,5.611849E-1,-8.753783E-1,-1.421921E0,1.0501751E0,-6.1945975E-1,5.1394415E-1,-1.2221963E0,8.253797E-1,-7.494179E-1,2.243933E-2,1.5625223E0,-4.615543E-1,3.526864E-1,1.9590964E0,1.6057991E0,6.7541E-1,1.7533032E0,-1.0819867E0,-1.2923748E0,1.1616011E0,-3.3746153E-1,1.0199224E0,-7.745174E-1,2.693924E0,7.5981885E-1,1.9265777E0,9.869292E-1,-1.5005448E0,-9.401455E-1,9.406028E-2,-1.0182737E0,8.632038E-1,1.6624644E0,-9.267666E-1,-1.0699359E0,-1.1672026E0,-1.5072196E0,-1.1544763E0,-1.650018E-1,-1.4536653E0,-9.57973E-1,-4.1312742E-1,5.062525E-1,-1.0358635E0,-8.960668E-1,1.2035637E0,-4.2236632E-1,-2.503098E-1,-1.0511887E0,-5.5464596E-1,-1.0533129E0,-1.1435201E0,-9.655758E-1,-4.5453307E-1,-1.406051E0,1.4594216E0,-6.2741286E-1,-8.492363E-2,-1.0178907E0,1.0446523E0,1.926417E0,1.2086684E-1,-8.688908E-1,5.498516E-1,-1.0787455E0,9.5620364E-1,1.5336525E0,-2.4732642E-1,8.3014977E-1,1.7407058E0,9.03563E-1,5.7006574E-1,1.1583791E0,2.3050678E0,9.72979E-1,1.5392244E0,2.692807E0,-1.0235502E0,-1.2398754E0,-1.1750491E0,-1.9226308E-1,-9.6956974E-1,-4.9537498E-1,-2.0224793E-1,-1.0690371E0,-9.8589903E-1,-1.2906119E0,-9.901177E-1,-5.2418447E-1,-1.2347739E0,-9.994339E-1,3.6247268E-1,-7.475492E-1,-1.0342523E0,4.067073E-1,-2.4377154E-1,-7.477765E-1,-8.709818E-1,-3.0378756E-1,6.624603E-1,-9.9057937E-1,-1.2252898E0,-9.573244E-1,1.778294E0,5.980462E-1,-9.9747247E-1,-2.9754663E-1,1.0932825E0,3.7626326E-1,-8.077694E-1,4.0680265E-1,-9.2209953E-1,-2.9238585E-1,8.8277495E-1,1.1595638E-1,4.704671E-1,1.1744616E0,3.034941E-1,8.4670305E-1],"categories":[],"categories_nodes":[],"categories_segments":[],"categories_sizes":[],"default_left":[0,0,0,0,0,0,0,0,0,0,0,0,0,0,0,0,0,0,0,0,0,0,0,0,0,0,0,0,0,0,0,0,0,0,0,0,0,0,0,0,0,0,0,0,0,0,0,0,0,0,0,0,0,0,0,0,0,0,0,0,0,0,0,0,0,0,0,0,0,0,0,0,0,0,0,0,0,0,0,0,0,0,0,0,0,0,0,0,0,0,0,0,0,0,0,0,0,0,0,0,0,0,0,0,0,0,0,0,0,0,0,0,0,0,0,0,0,0,0,0,0,0,0,0,0,0,0,0,0,0,0,0,0,0,0,0,0,0,0,0,0,0,0,0,0,0,0,0,0,0,0,0,0,0,0,0,0,0,0,0,0,0,0,0,0,0,0,0,0,0,0,0,0,0,0,0,0,0,0,0,0,0,0,0,0,0,0,0,0,0,0,0,0,0,0,0,0,0,0,0,0,0,0,0,0,0,0,0,0,0,0,0,0,0,0,0,0,0,0,0,0,0,0,0,0,0,0,0,0,0,0,0,0,0,0,0,0,0,0,0,0],"id":1,"left_children":[1,3,5,7,9,11,13,15,17,19,21,23,25,27,29,31,33,35,37,39,41,-1,43,45,47,49,51,53,55,57,59,61,63,65,67,69,-1,71,73,75,77,79,81,83,-1,-1,-1,85,87,-1,89,91,-1,93,95,-1,-1,97,99,101,103,105,107,-1,-1,109,-1,-1,-1,111,-1,113,115,117,119,121,-1,123,-1,-1,-1,-1,125,-1,-1,127,129,131,133,135,137,-1,-1,139,-1,-1,-1,-1,141,143,145,147,-1,-1,-1,-1,149,-1,151,-1,153,-1,155,157,159,161,163,165,-1,167,169,171,-1,-1,173,-1,-1,-1,175,177,179,-1,181,183,185,-1,187,189,191,-1,-1,193,-1,195,-1,197,-1,-1,-1,199,201,-1,203,-1,-1,-1,-1,205,207,209,-1,211,213,-1,-1,-1,-1,-1,-1,215,-1,217,219,-1,-1,221,223,225,-1,-1,227,229,-1,231,233,235,-1,-1,-1,-1,237,-1,-1,-1,-1,-1,239,-1,-1,-1,-1,-1,-1,-1,-1,-1,-1,-1,-1,-1,-1,-1,-1,-1,-1,-1,-1,-1,-1,-1,-1,-1,-1,-1,-1,-1,-1,-1,-1,-1,-1,-1,-1,-1,-1,-1,-1,-1,-1,-1,-1],"loss_changes":[2.227774E2,9.929474E0,6.3944763E1,8.341827E0,1.0674826E1,2.9238552E1,1.604068E1,9.21496E0,7.980072E0,1.1625078E1,1.8824778E1,2.0814188E1,1.2115852E1,1.3776091E1,1.6348389E1,4.389881E0,8.443916E0,7.256457E0,6.833847E0,6.3638E0,5.6491346E0,0E0,7.328081E0,5.042633E0,1.6277256E1,4.255867E0,4.3041124E0,8.364929E0,1.6059608E0,1.1775803E1,3.2622528E0,3.2926483E0,8.653127E0,8.180596E0,5.660765E-1,7.098364E0,0E0,2.829544E0,5.4006186E0,9.685493E0,4.509964E-1,1.4812179E0,3.01175E0,1.7937999E0,0E0,0E0,0E0,1.1780218E1,1.3772271E1,0E0,6.8791656E0,1.946943E0,0E0,3.3371964E0,2.5013747E0,0E0,0E0,5.725957E0,1.2703033E1,2.7915306E0,1.4658508E0,3.476532E0,6.0551653E0,0E0,0E0,4.89015E0,0E0,0E0,0E0,4.3968773E-1,0E0,2.587593E0,5.3727875E0,1.2806396E0,8.270953E0,5.687086E0,0E0,8.7231636E-2,0E0,0E0,0E0,0E0,5.9689326E0,0E0,0E0,7.1149025E0,1.0536824E1,3.8409967E0,1.1746132E1,1.648241E0,4.450922E0,0E0,0E0,5.079174E-2,0E0,0E0,0E0,0E0,4.609395E0,9.896973E0,4.24942E0,2.1186237E0,0E0,0E0,0E0,0E0,9.373379E-1,0E0,3.1342869E0,0E0,1.5506611E0,0E0,1.3402939E-2,7.4848175E-1,2.3917227E0,2.3487701E0,1.7800322E0,3.194332E-2,0E0,6.799886E0,3.1281848E0,2.999504E0,0E0,0E0,3.6883354E-2,0E0,0E0,0E0,3.9641876E0,8.085381E0,1.6374159E0,0E0,3.5781288E0,1.0087383E1,1.0832836E1,0E0,7.8076077E-1,3.7815924E0,1.395853E0,0E0,0E0,6.638384E-1,0E0,9.153633E0,0E0,3.3757362E0,0E0,0E0,0E0,1.7830467E-1,1.8950245E0,0E0,1.2724714E0,0E0,0E0,0E0,0E0,2.2342577E0,1.0470314E0,8.4658146E-1,0E0,2.1385002E-1,4.511841E0,0E0,0E0,0E0,0E0,0E0,0E0,5.1924405E0,0E0,2.9560308E0,1.6033459E0,0E0,0E0,6.5091944E0,6.06472E-1,3.345583E0,0E0,0E0,1.3493629E0,1.0338855E0,0E0,9.05848E0,4.4289684E0,6.894799E0,0E0,0E0,0E0,0E0,3.079052E0,0E0,0E0,0E0,0E0,0E0,8.70311E0,0E0,0E0,0E0,0E0,0E0,0E0,0E0,0E0,0E0,0E0,0E0,0E0,0E0,0E0,0E0,0E0,0E0,0E0,0E0,0E0,0E0,0E0,0E0,0E0,0E0,0E0,0E0,0E0,0E0,0E0,0E0,0E0,0E0,0E0,0E0,0E0,0E0,0E0,0E0,0E0,0E0,0E0,0E0,0E0],"parents":[2147483647,0,0,1,1,2,2,3,3,4,4,5,5,6,6,7,7,8,8,9,9,10,10,11,11,12,12,13,13,14,14,15,15,16,16,17,17,18,18,19,19,20,20,22,22,23,23,24,24,25,25,26,26,27,27,28,28,29,29,30,30,31,31,32,32,33,33,34,34,35,35,37,37,38,38,39,39,40,40,41,41,42,42,43,43,47,47,48,48,50,50,51,51,53,53,54,54,57,57,58,58,59,59,60,60,61,61,62,62,65,65,69,69,71,71,72,72,73,73,74,74,75,75,77,77,82,82,85,85,86,86,87,87,88,88,89,89,90,90,93,93,98,98,99,99,100,100,101,101,106,106,108,108,110,110,112,112,113,113,114,114,115,115,116,116,117,117,119,119,120,120,121,121,124,124,128,128,129,129,130,130,132,132,133,133,134,134,136,136,137,137,138,138,141,141,143,143,145,145,149,149,150,150,152,152,157,157,158,158,159,159,161,161,162,162,169,169,171,171,172,172,175,175,176,176,177,177,180,180,181,181,183,183,184,184,185,185,190,190,196,196],"right_children":[2,4,6,8,10,12,14,16,18,20,22,24,26,28,30,32,34,36,38,40,42,-1,44,46,48,50,52,54,56,58,60,62,64,66,68,70,-1,72,74,76,78,80,82,84,-1,-1,-1,86,88,-1,90,92,-1,94,96,-1,-1,98,100,102,104,106,108,-1,-1,110,-1,-1,-1,112,-1,114,116,118,120,122,-1,124,-1,-1,-1,-1,126,-1,-1,128,130,132,134,136,138,-1,-1,140,-1,-1,-1,-1,142,144,146,148,-1,-1,-1,-1,150,-1,152,-1,154,-1,156,158,160,162,164,166,-1,168,170,172,-1,-1,174,-1,-1,-1,176,178,180,-1,182,184,186,-1,188,190,192,-1,-1,194,-1,196,-1,198,-1,-1,-1,200,202,-1,204,-1,-1,-1,-1,206,208,210,-1,212,214,-1,-1,-1,-1,-1,-1,216,-1,218,220,-1,-1,222,224,226,-1,-1,228,230,-1,232,234,236,-1,-1,-1,-1,238,-1,-1,-1,-1,-1,240,-1,-1,-1,-1,-1,-1,-1,-1,-1,-1,-1,-1,-1,-1,-1,-1,-1,-1,-1,-1,-1,-1,-1,-1,-1,-1,-1,-1,-1,-1,-1,-1,-1,-1,-1,-1,-1,-1,-1,-1,-1,-1,-1,-1],"split_conditions":[1.1026316E-1,-3.1954622E-1,8.6546034E-1,-3.9756578E-1,1.0046074E-1,5.2487755E-1,-1.0299134E0,-2.933283E-1,-1.5995382E0,7.331843E-1,-2.5833508E-1,-1.4691051E0,-2.5479236E-1,-7.907102E-1,1.7824242E0,1.9449141E0,-2.4446371E-1,3.2024053E-1,7.8745097E-1,6.1882865E-1,-5.2979935E-2,1.8438586E0,4.3218657E-1,6.160035E-1,-2.6227364E-1,3.1424683E-1,-1.8727908E-1,-1.8642032E-1,-2.4976556E-1,-7.8532654E-1,-2.3572244E-1,-4.274896E-1,-2.3100343E-1,5.584686E-1,-2.0185798E-1,-9.383871E-1,8.2978916E-1,-1.0826364E0,-3.0614242E-1,3.560306E-1,-3.9784454E-2,4.8626176E-1,-3.3976766E-1,1.9328947E0,6.705032E-1,4.8465854E-1,1.7079551E0,1.6137306E-1,-2.560196E-1,-2.8188953E-1,8.639309E-1,-2.4833696E-1,-9.414807E-1,-5.0777197E-2,5.0441515E-1,7.0565265E-1,1.5814425E0,-9.219656E-1,4.5068705E-1,-1.3145722E-1,-2.4351151E-1,-1.6931428E0,-9.2135894E-1,1.2087952E0,-6.8676794E-1,-2.8800926E-1,-7.3461634E-1,-9.663067E-1,-4.2337722E-1,-6.3997763E-1,3.7611726E-1,4.20186E-1,1.153771E0,2.0297454E-1,-1.7000552E-1,1.496181E0,8.9491504E-1,-1.4178267E-1,-1.3878955E0,4.6683478E-1,1.3138922E0,-6.884369E-1,-2.803299E-1,-2.8441262E-1,-1.119388E0,-1.267415E0,-7.1477437E-1,-3.6915404E-1,4.8798072E-1,-4.5134762E-1,9.555641E-1,7.1087E-1,-1.866746E-1,4.8626176E-1,-2.1293993E-1,1.0630133E0,-1.0173484E-1,-7.3853314E-1,7.909666E-3,3.4436834E-1,5.0324696E-1,2.0912232E0,2.601874E0,1.5265357E0,6.9939655E-1,-1.24148645E-1,-5.6226784E-1,5.130853E-1,-6.9406193E-1,-7.255639E-2,8.461296E-1,-5.7677287E-1,-3.192719E-1,-1.8773972E0,-2.5737453E-1,-3.736019E-1,-2.823795E-1,-3.6968783E-1,-2.8420752E-1,1.2466474E0,-2.4833696E-1,-2.2258581E-1,5.611849E-1,-8.753783E-1,6.2531716E-1,1.0501751E0,-6.1945975E-1,5.1394415E-1,-7.655342E-1,2.507498E0,-5.765161E-1,2.243933E-2,6.0851E-1,-2.819968E-1,-2.2894242E-1,1.9590964E0,6.4230853E-1,6.1882865E-1,-4.1519213E-1,-1.0819867E0,-1.2923748E0,7.201941E-1,-3.3746153E-1,-1.4801663E0,-7.745174E-1,-7.492408E-1,7.5981885E-1,1.9265777E0,9.869292E-1,1.830557E-1,-7.045231E-1,9.406028E-2,-1.0505819E0,8.632038E-1,1.6624644E0,-9.267666E-1,-1.0699359E0,-3.537048E-1,1.6137306E-1,-1.2401183E0,-1.650018E-1,-4.037913E-1,-3.7174863E-1,-4.1312742E-1,5.062525E-1,-1.0358635E0,-8.960668E-1,1.2035637E0,-4.2236632E-1,-2.2474939E-1,-1.0511887E0,2.507498E0,1.7497551E0,-1.1435201E0,-9.655758E-1,-2.1023436E-1,-7.719124E-1,-2.7929628E-1,-6.2741286E-1,-8.492363E-2,-5.739135E-1,3.4053245E-1,1.926417E0,4.8626176E-1,1.6137306E-1,-2.4446371E-1,-1.0787455E0,9.5620364E-1,1.5336525E0,-2.4732642E-1,-2.0161724E-1,1.7407058E0,9.03563E-1,5.7006574E-1,1.1583791E0,2.3050678E0,-2.6227364E-1,1.5392244E0,2.692807E0,-1.0235502E0,-1.2398754E0,-1.1750491E0,-1.9226308E-1,-9.6956974E-1,-4.9537498E-1,-2.0224793E-1,-1.0690371E0,-9.8589903E-1,-1.2906119E0,-9.901177E-1,-5.2418447E-1,-1.2347739E0,-9.994339E-1,3.6247268E-1,-7.475492E-1,-1.0342523E0,4.067073E-1,-2.4377154E-1,-7.477765E-1,-8.709818E-1,-3.0378756E-1,6.624603E-1,-9.9057937E-1,-1.2252898E0,-9.573244E-1,1.778294E0,5.980462E-1,-9.9747247E-1,-2.9754663E-1,1.0932825E0,3.7626326E-1,-8.077694E-1,4.0680265E-1,-9.2209953E-1,-2.9238585E-1,8.8277495E-1,1.1595638E-1,4.704671E-1,1.1744616E0,3.034941E-1,8.4670305E-1],"split_indices":[21,21,21,7,0,3,6,11,20,10,21,2,1,3,21,10,1,22,20,10,20,0,22,20,0,10,7,11,0,10,6,7,0,6,1,21,0,21,11,10,22,2,7,0,0,0,0,6,0,0,3,1,0,7,22,0,0,13,0,11,0,21,20,0,0,22,0,0,0,3,0,20,10,22,11,13,0,11,0,0,0,0,7,0,0,13,3,11,22,22,6,0,0,2,0,0,0,0,11,0,20,21,0,0,0,0,21,0,10,0,22,0,7,21,1,11,7,10,0,3,1,11,0,0,20,0,0,0,10,15,13,0,21,11,10,0,21,10,7,0,0,22,0,22,0,13,0,0,0,22,3,0,21,0,0,0,0,7,6,21,0,13,11,0,0,0,0,0,0,0,0,15,6,0,0,7,20,11,0,0,3,21,0,2,6,1,0,0,0,0,11,0,0,0,0,0,0,0,0,0,0,0,0,0,0,0,0,0,0,0,0,0,0,0,0,0,0,0,0,0,0,0,0,0,0,0,0,0,0,0,0,0,0,0,0,0,0,0,0,0,0],"split_type":[0,0,0,0,0,0,0,0,0,0,0,0,0,0,0,0,0,0,0,0,0,0,0,0,0,0,0,0,0,0,0,0,0,0,0,0,0,0,0,0,0,0,0,0,0,0,0,0,0,0,0,0,0,0,0,0,0,0,0,0,0,0,0,0,0,0,0,0,0,0,0,0,0,0,0,0,0,0,0,0,0,0,0,0,0,0,0,0,0,0,0,0,0,0,0,0,0,0,0,0,0,0,0,0,0,0,0,0,0,0,0,0,0,0,0,0,0,0,0,0,0,0,0,0,0,0,0,0,0,0,0,0,0,0,0,0,0,0,0,0,0,0,0,0,0,0,0,0,0,0,0,0,0,0,0,0,0,0,0,0,0,0,0,0,0,0,0,0,0,0,0,0,0,0,0,0,0,0,0,0,0,0,0,0,0,0,0,0,0,0,0,0,0,0,0,0,0,0,0,0,0,0,0,0,0,0,0,0,0,0,0,0,0,0,0,0,0,0,0,0,0,0,0,0,0,0,0,0,0,0,0,0,0,0,0,0,0,0,0,0,0],"sum_hessian":[6.452226E2,3.1564938E2,3.2957318E2,2.2525859E2,9.039079E1,1.8402821E2,1.4554497E2,5.6413074E1,1.6884552E2,7.821073E1,1.2180061E1,1.3663954E2,4.738867E1,1.6785355E1,1.2875961E2,4.244766E1,1.3965418E1,1.4283947E1,1.5456157E2,6.5694046E1,1.2516683E1,3.286304E0,8.893757E0,7.4483724E0,1.2919116E2,3.8725277E1,8.663399E0,1.204265E1,4.7427053E0,1.1568332E2,1.3076296E1,3.7002174E1,5.445483E0,9.648246E0,4.317172E0,1.1113166E1,3.1707814E0,1.2902109E2,2.5540482E1,5.5109554E1,1.0584491E1,4.594307E0,7.9223757E0,5.7144575E0,3.1792998E0,3.7808933E0,3.6674793E0,4.7418114E1,8.1773056E1,2.118129E0,3.6607147E1,5.630167E0,3.0332313E0,8.004798E0,4.0378523E0,2.611116E0,2.1315892E0,1.1144142E1,1.0453918E2,8.252744E0,4.8235526E0,1.807221E1,1.8929964E1,2.230945E0,3.2145379E0,7.531957E0,2.1162887E0,2.149003E0,2.1681688E0,7.279535E0,3.8336313E0,4.9876904E1,7.914419E1,1.0070817E1,1.5469665E1,5.228039E1,2.8291624E0,8.522409E0,2.0620816E0,2.3024735E0,2.2918334E0,3.2364948E0,4.6858807E0,2.6668253E0,3.047632E0,3.0226517E1,1.7191597E1,8.921249E0,7.285181E1,7.880983E0,2.8726164E1,2.1206865E0,3.5094805E0,4.9551873E0,3.0496101E0,2.0175323E0,2.0203202E0,3.84735E0,7.296792E0,9.641056E1,8.128616E0,6.057603E0,2.1951406E0,2.3131397E0,2.510413E0,3.0412836E0,1.5030928E1,3.2592964E0,1.5670668E1,2.029715E0,5.502242E0,2.125244E0,5.1542907E0,3.5442547E1,1.443436E1,7.4538185E1,4.6060014E0,8.006886E0,2.063931E0,5.942393E0,9.527271E0,4.9704517E1,2.5758739E0,3.3622382E0,5.1601715E0,2.4107172E0,2.2751634E0,2.0726798E0,2.8153837E1,7.5922413E0,9.599356E0,2.156986E0,6.764263E0,4.2492393E1,3.035941E1,2.218936E0,5.662047E0,2.4176893E1,4.5492706E0,2.266295E0,2.6888924E0,4.350726E0,2.946066E0,9.404169E1,2.3688774E0,6.051547E0,2.0770688E0,3.9767013E0,2.0809019E0,1.0705343E1,4.325584E0,2.9374416E0,1.2733226E1,2.7034433E0,2.7987986E0,3.0808408E0,2.0734499E0,9.152571E0,2.6289974E1,1.0718855E1,3.7155042E0,1.1357378E1,6.318081E1,2.2441838E0,2.3618174E0,2.5568912E0,5.4499946E0,3.644325E0,2.2980678E0,5.6552567E0,3.8720148E0,2.88983E1,2.080622E1,2.4920018E0,2.6681695E0,5.4525228E0,2.2701315E1,5.505366E0,2.0868754E0,2.8604991E0,6.738857E0,4.5306573E0,2.2336059E0,1.7493147E1,2.4999247E1,2.738319E1,2.9762185E0,3.3939679E0,2.268079E0,3.2127926E0,2.09641E1,2.1313076E0,2.4179633E0,2.218431E0,2.132295E0,2.0431094E0,9.199857E1,3.6737158E0,2.3778315E0,6.3444185E0,4.3609247E0,2.212123E0,2.113461E0,6.9635653E0,5.769661E0,2.1497366E0,7.002834E0,1.4909027E1,1.1380947E1,7.626205E0,3.0926504E0,3.7425847E0,7.614793E0,2.0753388E0,6.1105473E1,2.319607E0,3.3356497E0,1.9294218E1,9.604083E0,1.751997E1,3.2862484E0,2.154544E0,3.2979786E0,7.225111E0,1.5476203E1,2.2423847E0,3.262981E0,4.3943434E0,2.3445134E0,2.5034447E0,2.0272126E0,4.5594997E0,1.2933648E1,1.3976692E1,1.1022553E1,1.0417722E1,1.696547E1,1.6653955E1,4.310145E0,2.1112974E1,7.08856E1],"tree_param":{"num_deleted":"0","num_feature":"23","num_nodes":"241","size_leaf_vector":"1"}},{"base_weights":[-1.3900086E-1,-4.701105E-1,9.092779E-2,-7.4743855E-1,-3.577308E-1,2.4340445E-1,-4.319585E-1,-2.417276E-1,-9.2581457E-1,-2.8608957E-1,-7.777014E-1,3.4443364E-1,-2.6133502E-1,-4.9621695E-1,6.4569694E-1,3.236032E-1,-7.988379E-1,-1.2570726E0,-7.637729E-1,8.0435234E-1,-3.3116338E-1,-1.4744767E0,-5.2793026E-1,5.54406E-1,1.3649738E-1,-3.969716E-1,1.3501239E0,-1.0375153E0,-3.371755E-1,1.0272307E0,-3.9634964E-1,-1.2193828E0,-2.7095418E-2,-5.349391E-1,-1.4194959E0,2.1177885E-1,-9.997367E-1,2.85064E-2,1.2110912E0,-5.414877E-1,-1.3259545E-1,-1.3022931E0,-9.523416E-1,1.5634999E-1,-1.1224931E0,5.960715E-1,-5.827028E-1,-1.615807E-1,5.3275096E-1,-5.863031E-1,7.530229E-1,-1.2935667E0,3.1406176E-1,-7.650932E-1,1.5026543E-2,3.065589E-1,1.208802E0,-1.0225167E0,-7.694739E-1,-1.5443704E0,-9.136763E-1,-4.5458946E-1,7.913537E-1,-1.1028582E0,-1.8868114E-1,-6.1788094E-1,4.4453505E-1,6.7751116E-1,-2.5569358E-1,-5.42759E-1,8.530634E-1,-1.3211478E0,-5.1390004E-1,-4.729391E-2,6.842237E-1,-2.6420146E-1,9.696978E-1,-5.9981216E-2,9.087942E-1,5.2548355E-1,-6.8386966E-1,1.0919806E0,2.2866286E-2,-1.6435927E0,-9.63476E-1,-3.9656413E-1,-1.1178167E0,-3.32696E-1,9.782547E-1,-9.7783846E-1,-1.2349061E0,-1.0303648E0,-1.0509238E0,-3.9325243E-1,-9.064701E-1,-4.8458013E-1,1.4975117E0,-4.4249102E-1,6.2448555E-1,1.3087877E0,-2.5140153E-2,-8.523415E-1,-1.1191221E0,7.871207E-1,-3.4266806E-1,-4.625096E-1,7.6037997E-1,-1.1279507E0,-5.7738047E-2,4.2801324E-1,-1.4222704E0,1.3165075E0,2.7852717E-1,-1.2198713E0,-4.6956393E-1,-1.5468649E0,-9.987571E-1,-3.05898E-1,-1.2240705E0,6.448187E-1,-7.084508E-1,-8.48233E-1,-1.3783853E0,8.04845E-1,-5.9765714E-1,1.552438E0,-1.373269E-1,-8.552223E-1,-1.1539031E0,4.875709E-1,-6.848788E-1,-1.1627277E0,-7.1866804E-1,7.043348E-1,1.6327591E0,3.6260858E-1,-6.3087577E-1,1.070139E0,5.541632E-3,-1.0603912E0,5.392055E-2,-9.9503356E-1,4.0813935E-1,6.9532627E-1,1.4546373E0,-2.3983407E-1,-1.5932341E0,8.472647E-1,-1.669194E-1,-8.505212E-1,8.23424E-1,-1.3441414E0,-7.85466E-1,1.5428962E0,6.9127715E-1,-1.2310921E0,9.976507E-1,-1.5192404E0,-2.2946498E-1,-6.153548E-1,5.7276565E-1,-7.60036E-1,-1.0742635E0,-9.377478E-1,-1.2816676E-1,-9.335961E-1,-1.91615E-1,-1.1933223E0,-9.034972E-1,1.5689336E-1,-9.3147445E-1,1.4536957E0,8.7545365E-1,-7.8144467E-1,-3.0554363E-1,-9.392427E-1,-8.334031E-1,-1.6262917E-1,1.857133E0,8.9747705E-2,-7.152617E-1,-5.601887E-1,-9.3682826E-1,4.8516712E-1,-7.069584E-1,-7.124967E-1,6.9173664E-1,-8.1993616E-1,-3.485798E-1,1.1472489E0,3.9054552E-1,-6.336081E-1,5.462809E-1,8.0970925E-1,3.2428527E-1,-1.3728896E0,-9.157935E-1,-1.877796E-1,1.0300044E0,-9.869986E-2,1.0146362E0,1.3375776E0,8.6998075E-1,1.0769335E0,-3.782886E-2,1.5498517E-1,1.2184609E0,-9.633297E-1,-1.2617016E0,-2.6955208E-1,-9.716391E-1,-2.3661341E-1,-1.0384647E0,-5.401214E-1,5.509635E-1,-1.2182885E0,-3.87161E-1],"categories":[],"categories_nodes":[],"categories_segments":[],"categories_sizes":[],"default_left":[0,0,0,0,0,0,0,0,0,0,0,0,0,0,0,0,0,0,0,0,0,0,0,0,0,0,0,0,0,0,0,0,0,0,0,0,0,0,0,0,0,0,0,0,0,0,0,0,0,0,0,0,0,0,0,0,0,0,0,0,0,0,0,0,0,0,0,0,0,0,0,0,0,0,0,0,0,0,0,0,0,0,0,0,0,0,0,0,0,0,0,0,0,0,0,0,0,0,0,0,0,0,0,0,0,0,0,0,0,0,0,0,0,0,0,0,0,0,0,0,0,0,0,0,0,0,0,0,0,0,0,0,0,0,0,0,0,0,0,0,0,0,0,0,0,0,0,0,0,0,0,0,0,0,0,0,0,0,0,0,0,0,0,0,0,0,0,0,0,0,0,0,0,0,0,0,0,0,0,0,0,0,0,0,0,0,0,0,0,0,0,0,0,0,0,0,0,0,0,0,0,0,0,0,0,0,0,0,0,0,0,0,0,0,0,0,0],"id":2,"left_children":[1,3,5,7,9,11,13,15,17,19,21,23,25,27,-1,29,31,33,35,37,39,41,43,45,47,49,-1,51,53,55,-1,57,-1,-1,59,61,63,-1,-1,65,67,-1,-1,69,71,73,-1,75,77,79,81,83,-1,85,87,-1,-1,-1,-1,89,-1,-1,-1,91,-1,93,-1,95,97,-1,99,101,-1,103,105,107,-1,109,111,-1,113,-1,-1,115,117,119,121,123,125,-1,-1,127,-1,129,131,-1,133,135,137,-1,-1,-1,-1,-1,139,141,143,145,147,149,151,153,155,157,159,-1,-1,-1,161,-1,163,165,167,-1,169,171,-1,173,175,177,179,181,183,-1,-1,185,187,189,-1,-1,191,-1,-1,193,-1,-1,195,-1,197,-1,199,-1,-1,201,203,-1,205,207,-1,209,-1,-1,-1,211,-1,-1,-1,-1,-1,213,215,-1,-1,-1,-1,-1,-1,-1,-1,-1,-1,-1,-1,-1,-1,-1,-1,-1,-1,-1,-1,-1,-1,-1,-1,-1,-1,-1,-1,-1,-1,-1,-1,-1,-1,-1,-1,-1,-1,-1,-1,-1,-1,-1,-1,-1,-1],"loss_changes":[3.873472E1,6.493473E0,2.3942747E1,5.418209E0,4.461338E0,1.1857587E1,5.6803703E0,4.949402E0,2.3669167E0,6.2382307E0,3.7476215E0,8.457008E0,1.0958332E1,5.556802E0,0E0,4.720481E0,2.535829E0,1.2496109E0,6.8830204E0,3.1926248E0,5.0854387E0,2.6308537E-1,6.4895196E0,5.3882904E0,1.1501533E1,7.939618E0,0E0,5.4956512E0,7.532341E0,1.5736504E0,0E0,1.2065315E-1,0E0,0E0,2.27005E-1,4.1224074E0,1.8448772E0,0E0,0E0,5.159563E0,6.2534037E0,0E0,0E0,4.605609E0,7.118387E-1,5.3028603E0,0E0,8.379878E0,9.318503E0,3.9602518E0,2.674619E0,1.4126873E0,0E0,2.924615E0,9.193911E0,0E0,0E0,0E0,0E0,1.3895226E-1,0E0,0E0,0E0,4.524536E-1,0E0,3.5871334E0,0E0,9.043198E0,8.952938E0,0E0,3.368588E0,1.5514755E-1,0E0,3.6989949E0,7.187401E0,9.265429E0,0E0,1.08099375E1,6.5656395E0,0E0,3.3324537E0,0E0,0E0,7.392998E-1,9.2002296E-1,4.3776684E0,7.8718853E-1,7.5852823E0,4.868599E0,0E0,0E0,3.5431862E-1,0E0,8.022469E0,1.1513844E0,0E0,1.9350147E0,6.8149805E0,2.6217968E0,0E0,0E0,0E0,0E0,0E0,3.8446655E0,4.5767574E0,5.9919586E0,3.743723E0,5.49765E0,7.469673E0,5.7092285E-1,2.1775608E0,1.4060197E1,2.2543516E0,3.7770352E0,0E0,0E0,0E0,1.680727E-1,0E0,1.0885434E0,1.3741016E0,1.786766E-1,0E0,4.285851E0,6.9545364E-1,0E0,6.230602E-1,8.134842E-3,1.1077417E1,5.2719927E0,3.9732265E-1,4.518987E0,0E0,0E0,6.438327E0,2.7707567E0,1.4170322E0,0E0,0E0,4.069252E0,0E0,0E0,7.471943E0,0E0,0E0,5.423641E-1,0E0,5.1560407E0,0E0,4.985123E0,0E0,0E0,1.0547485E0,2.3480167E0,0E0,3.7307305E0,2.0836735E-1,0E0,3.2529273E0,0E0,0E0,0E0,1.7676616E0,0E0,0E0,0E0,0E0,0E0,2.719503E0,3.4150496E0,0E0,0E0,0E0,0E0,0E0,0E0,0E0,0E0,0E0,0E0,0E0,0E0,0E0,0E0,0E0,0E0,0E0,0E0,0E0,0E0,0E0,0E0,0E0,0E0,0E0,0E0,0E0,0E0,0E0,0E0,0E0,0E0,0E0,0E0,0E0,0E0,0E0,0E0,0E0,0E0,0E0,0E0,0E0,0E0,0E0,0E0],"parents":[2147483647,0,0,1,1,2,2,3,3,4,4,5,5,6,6,7,7,8,8,9,9,10,10,11,11,12,12,13,13,15,15,16,16,17,17,18,18,19,19,20,20,21,21,22,22,23,23,24,24,25,25,27,27,28,28,29,29,31,31,34,34,35,35,36,36,39,39,40,40,43,43,44,44,45,45,47,47,48,48,49,49,50,50,51,51,53,53,54,54,59,59,63,63,65,65,67,67,68,68,70,70,71,71,73,73,74,74,75,75,77,77,78,78,80,80,83,83,84,84,85,85,86,86,87,87,88,88,91,91,93,93,94,94,96,96,97,97,98,98,104,104,105,105,106,106,107,107,108,108,109,109,110,110,111,111,112,112,113,113,114,114,118,118,120,120,121,121,122,122,124,124,125,125,127,127,128,128,129,129,130,130,131,131,132,132,135,135,136,136,137,137,140,140,143,143,146,146,148,148,150,150,153,153,154,154,156,156,157,157,159,159,163,163,169,169,170,170],"right_children":[2,4,6,8,10,12,14,16,18,20,22,24,26,28,-1,30,32,34,36,38,40,42,44,46,48,50,-1,52,54,56,-1,58,-1,-1,60,62,64,-1,-1,66,68,-1,-1,70,72,74,-1,76,78,80,82,84,-1,86,88,-1,-1,-1,-1,90,-1,-1,-1,92,-1,94,-1,96,98,-1,100,102,-1,104,106,108,-1,110,112,-1,114,-1,-1,116,118,120,122,124,126,-1,-1,128,-1,130,132,-1,134,136,138,-1,-1,-1,-1,-1,140,142,144,146,148,150,152,154,156,158,160,-1,-1,-1,162,-1,164,166,168,-1,170,172,-1,174,176,178,180,182,184,-1,-1,186,188,190,-1,-1,192,-1,-1,194,-1,-1,196,-1,198,-1,200,-1,-1,202,204,-1,206,208,-1,210,-1,-1,-1,212,-1,-1,-1,-1,-1,214,216,-1,-1,-1,-1,-1,-1,-1,-1,-1,-1,-1,-1,-1,-1,-1,-1,-1,-1,-1,-1,-1,-1,-1,-1,-1,-1,-1,-1,-1,-1,-1,-1,-1,-1,-1,-1,-1,-1,-1,-1,-1,-1,-1,-1,-1,-1],"split_conditions":[-8.743515E-3,-5.0086355E-1,3.3690806E-2,-3.2274806E-1,2.507498E0,2.507498E0,3.464863E0,8.2223725E-1,-6.171969E-1,-1.267415E0,-7.045231E-1,-3.0867037E-1,-5.1361803E-2,-6.328179E-1,6.4569694E-1,5.584686E-1,-3.576637E-1,-2.4467885E0,-6.328179E-1,-3.274997E-1,-2.6105535E-1,-6.303212E-2,-5.8341812E-2,2.3579679E0,3.3341512E-1,1.3640357E0,1.3501239E0,-6.8581516E-1,7.7674234E-1,-5.040526E-1,-3.9634964E-1,-4.8059553E-2,-2.7095418E-2,-5.349391E-1,-1.6402206E-1,-8.128181E-1,1.153771E0,2.85064E-2,1.2110912E0,1.4281147E0,-7.4476904E-1,-1.3022931E0,-9.523416E-1,-3.2646298E-1,5.538208E-1,-1.0946903E0,-5.827028E-1,3.1295218E0,-4.8941848E-1,4.8626176E-1,1.5047096E0,-1.6402206E-1,3.1406176E-1,-1.5064356E-1,1.0356432E0,3.065589E-1,1.208802E0,-1.0225167E0,-7.694739E-1,7.50247E-2,-9.136763E-1,-4.5458946E-1,7.913537E-1,-5.0008136E-1,-1.8868114E-1,-4.6996182E-1,4.4453505E-1,2.4191156E-1,9.780067E-1,-5.42759E-1,-7.492408E-1,7.295535E-1,-5.1390004E-1,-3.345772E-1,-3.3526155E-1,-5.6346184E-1,9.696978E-1,-4.9514103E-1,-6.0774547E-1,5.2548355E-1,-7.54261E-1,1.0919806E0,2.2866286E-2,1.1131353E-1,4.9600083E-1,-2.4715506E-1,3.9962375E-1,1.3858902E-1,1.6852517E-1,-9.7783846E-1,-1.2349061E0,4.2805266E-1,-1.0509238E0,8.2223725E-1,-3.0614242E-1,-4.8458013E-1,8.461296E-1,-3.2304135E-1,8.96963E-1,1.3087877E0,-2.5140153E-2,-8.523415E-1,-1.1191221E0,7.871207E-1,-3.7910882E-1,3.2820874E-1,-3.1888652E-1,1.2815675E-1,-3.8352057E-1,-7.719124E-1,1.830557E-1,1.4013119E0,-6.544054E-1,-2.3182975E-1,7.663656E-1,-1.5468649E0,-9.987571E-1,-3.05898E-1,1.9372556E-1,6.448187E-1,7.410593E-1,7.849655E-1,-2.599008E-1,8.04845E-1,-6.6437346E-1,-6.3633436E-1,-1.373269E-1,4.900646E-1,-4.5791772E-1,5.7329863E-1,-2.0643224E-1,-3.328175E-1,-2.4715506E-1,7.043348E-1,1.6327591E0,-3.8869295E-1,-6.9654983E-1,1.1350173E-1,5.541632E-3,-1.0603912E0,3.7866393E-1,-9.9503356E-1,4.0813935E-1,-4.9857455E-1,1.4546373E0,-2.3983407E-1,-2.5435638E-1,8.472647E-1,1.7911357E0,-8.505212E-1,-5.765161E-1,-1.3441414E0,-7.85466E-1,-2.899394E-1,2.9224312E-1,-1.2310921E0,7.927886E-1,-7.3639554E-1,-2.2946498E-1,3.3341512E-1,5.7276565E-1,-7.60036E-1,-1.0742635E0,1.6137306E-1,-1.2816676E-1,-9.335961E-1,-1.91615E-1,-1.1933223E0,-9.034972E-1,-7.6388484E-1,1.6890547E-1,1.4536957E0,8.7545365E-1,-7.8144467E-1,-3.0554363E-1,-9.392427E-1,-8.334031E-1,-1.6262917E-1,1.857133E0,8.9747705E-2,-7.152617E-1,-5.601887E-1,-9.3682826E-1,4.8516712E-1,-7.069584E-1,-7.124967E-1,6.9173664E-1,-8.1993616E-1,-3.485798E-1,1.1472489E0,3.9054552E-1,-6.336081E-1,5.462809E-1,8.0970925E-1,3.2428527E-1,-1.3728896E0,-9.157935E-1,-1.877796E-1,1.0300044E0,-9.869986E-2,1.0146362E0,1.3375776E0,8.6998075E-1,1.0769335E0,-3.782886E-2,1.5498517E-1,1.2184609E0,-9.633297E-1,-1.2617016E0,-2.6955208E-1,-9.716391E-1,-2.3661341E-1,-1.0384647E0,-5.401214E-1,5.509635E-1,-1.2182885E0,-3.87161E-1],"split_indices":[21,4,8,8,15,15,4,12,3,13,3,8,8,6,0,6,11,2,6,21,22,20,13,3,19,21,0,10,21,3,0,20,0,0,11,21,10,0,0,10,3,0,0,8,20,13,0,4,4,2,5,11,0,4,22,0,0,0,0,19,0,0,0,21,0,4,0,22,13,0,13,22,0,8,8,22,0,4,10,0,3,0,0,8,21,11,21,8,19,0,0,10,0,12,11,0,22,8,3,0,0,0,0,0,11,22,4,20,22,20,22,4,3,8,19,0,0,0,22,0,22,22,19,0,10,10,0,19,20,20,20,8,11,0,0,11,3,20,0,0,22,0,0,4,0,0,11,0,22,0,13,0,0,11,22,0,21,10,0,19,0,0,0,6,0,0,0,0,0,10,22,0,0,0,0,0,0,0,0,0,0,0,0,0,0,0,0,0,0,0,0,0,0,0,0,0,0,0,0,0,0,0,0,0,0,0,0,0,0,0,0,0,0,0,0,0,0],"split_type":[0,0,0,0,0,0,0,0,0,0,0,0,0,0,0,0,0,0,0,0,0,0,0,0,0,0,0,0,0,0,0,0,0,0,0,0,0,0,0,0,0,0,0,0,0,0,0,0,0,0,0,0,0,0,0,0,0,0,0,0,0,0,0,0,0,0,0,0,0,0,0,0,0,0,0,0,0,0,0,0,0,0,0,0,0,0,0,0,0,0,0,0,0,0,0,0,0,0,0,0,0,0,0,0,0,0,0,0,0,0,0,0,0,0,0,0,0,0,0,0,0,0,0,0,0,0,0,0,0,0,0,0,0,0,0,0,0,0,0,0,0,0,0,0,0,0,0,0,0,0,0,0,0,0,0,0,0,0,0,0,0,0,0,0,0,0,0,0,0,0,0,0,0,0,0,0,0,0,0,0,0,0,0,0,0,0,0,0,0,0,0,0,0,0,0,0,0,0,0,0,0,0,0,0,0,0,0,0,0,0,0,0,0,0,0,0,0],"sum_hessian":[5.08757E2,2.0849449E2,3.0026248E2,6.0092846E1,1.4840164E2,2.3248004E2,6.778244E1,1.5680777E1,4.441207E1,1.26802376E2,2.159927E1,1.937124E2,3.8767635E1,6.46054E1,3.177038E0,7.7867846E0,7.893992E0,1.4547222E1,2.9864847E1,5.0208497E0,1.21781525E2,5.675359E0,1.5923911E1,9.636871E1,9.734369E1,3.6409042E1,2.3585947E0,1.4647896E1,4.9957504E1,4.275468E0,3.511317E0,5.080204E0,2.813788E0,3.4052167E0,1.1142006E1,5.8170185E0,2.4047829E1,2.6174877E0,2.403362E0,5.9124268E1,6.265726E1,2.2408006E0,3.4345582E0,7.409717E0,8.514194E0,9.3471695E1,2.8970163E0,5.5560036E1,4.1783653E1,3.1270031E1,5.13901E0,1.2465E1,2.1828961E0,2.2544624E1,2.741288E1,2.1310077E0,2.1444602E0,2.655472E0,2.424732E0,6.6202493E0,4.5217566E0,2.9634628E0,2.853556E0,2.1117739E1,2.9300902E0,5.542049E1,3.7037773E0,8.25392E0,5.4403343E1,3.2579238E0,4.1517935E0,5.7975245E0,2.7166693E0,1.1264844E1,8.2206856E1,5.1944496E1,3.615543E0,1.62249E1,2.5558754E1,2.1836934E0,2.9086338E1,2.5667734E0,2.5722365E0,6.0137343E0,6.451266E0,1.1044738E1,1.14998865E1,2.0150675E1,7.2622056E0,2.361815E0,4.2584343E0,1.7212921E1,3.9048178E0,3.1188562E1,2.4231926E1,3.1488051E0,5.105114E0,4.488656E1,9.516784E0,2.0397837E0,2.1120095E0,3.0811357E0,2.7163887E0,2.361019E0,8.903825E0,5.113548E0,7.709331E1,1.00049305E1,4.1939564E1,1.19551115E1,4.269788E0,1.5507028E1,1.0051727E1,8.282697E0,2.0803642E1,2.3805852E0,3.6331491E0,2.0861475E0,4.3651185E0,2.1773539E0,8.867384E0,5.6912575E0,5.808629E0,3.1650033E0,1.698567E1,4.858121E0,2.4040844E0,7.180771E0,1.0032151E1,7.7544403E0,2.3434122E1,1.0207132E1,1.4024794E1,2.8912916E0,2.2138226E0,8.508068E0,3.637849E1,5.5177183E0,3.999065E0,2.3686965E0,6.5351286E0,2.7351289E0,2.3784187E0,7.3155495E1,3.9378138E0,3.6768217E0,6.3281083E0,3.484677E0,3.8454887E1,2.393184E0,9.561927E0,2.0285254E0,2.2412624E0,1.136459E1,4.1424384E0,2.7145271E0,7.3371997E0,6.2241397E0,2.0585575E0,1.8625513E1,2.1781287E0,2.3579957E0,2.0071228E0,6.199851E0,2.6675334E0,3.346555E0,2.3447025E0,2.326123E0,3.482506E0,5.2127066E0,1.17729645E1,2.2870216E0,2.5710993E0,4.9492297E0,2.231541E0,2.0186644E0,8.013487E0,5.7530217E0,2.0014186E0,6.0272374E0,1.7406885E1,2.0334697E0,8.173663E0,2.037125E0,1.1987669E1,2.556688E0,5.95138E0,9.206225E0,2.7172266E1,2.9252696E0,2.592449E0,2.8020144E0,3.7331142E0,2.8877304E1,4.4278187E1,3.6467178E0,2.6813905E0,3.645205E1,2.0028381E0,3.470578E0,6.091349E0,6.64438E0,4.720209E0,2.038322E0,2.1041167E0,3.3091366E0,4.0280633E0,2.8670707E0,3.3570688E0,1.3681449E1,4.944064E0,2.661582E0,3.5382688E0,2.074091E0,3.1386158E0,4.287933E0,7.485031E0],"tree_param":{"num_deleted":"0","num_feature":"23","num_nodes":"217","size_leaf_vector":"1"}},{"base_weights":[-8.1144504E-2,-6.187168E-1,-1.920464E-2,-7.6211596E-1,-8.6606435E-2,-6.70038E-2,5.744106E-1,-2.808951E-1,-9.51097E-1,3.0404487E-1,-8.502362E-1,1.0763961E-2,-2.4959967E-1,7.651742E-1,-1.4957847E-1,-1.0255679E0,4.093995E-1,-7.749369E-1,-1.4363775E0,-1.7636031E-1,7.3240733E-1,-3.1718093E-1,9.470481E-2,-1.14585534E-1,-1.0695314E0,1.3350645E0,6.2745595E-1,-6.267261E-1,8.4321135E-1,-9.486962E-1,-5.415149E-1,7.680422E-1,-3.5256827E-1,-9.6212274E-1,1.920412E-1,-1.3193889E0,-1.2422956E0,2.5265694E-1,-6.227417E-1,3.7115854E-1,-3.2536272E-2,-3.5061076E-1,3.031324E-1,-1.7280917E0,-7.8841496E-1,7.942043E-1,-2.4079406E-1,-3.184594E-1,-1.0515819E0,-9.133069E-1,-1.0412306E0,-8.176405E-1,5.9246284E-1,-1.2689615E0,-4.3239933E-1,6.393491E-2,7.604551E-1,-4.4135568E-1,1.361972E-1,8.5623E-1,-4.2637312E-1,-5.867832E-1,8.2507855E-1,-1.5169208E0,-1.0601151E0,-1.2754827E0,-3.9404225E-1,1.0174125E0,-3.62335E-2,-5.304022E-1,-1.1202253E0,-1.5898472E-1,-1.0345198E0,-1.4525943E-1,1.6416615E0,-1.239992E0,-5.855696E-1,-2.6878428E-1,-1.0146314E0,-9.7790815E-2,8.35692E-1,4.5101475E-2,1.0816641E0,4.1879673E-2,-7.77357E-1,1.0189413E0,-4.148817E-3,2.4516769E-1,-5.4206496E-1,1.894473E-1,-1.0525975E0,1.4252201E0,6.01249E-1,-8.1007713E-1,-1.1102971E0,3.7769574E-1,-7.5453264E-1,2.6285124E-1,1.2119231E0,-1.1985562E0,-5.999689E-1,-7.3452127E-1,8.8228893E-1,6.5926796E-1,1.963352E0,-6.3615733E-1,5.689731E-1,8.2636297E-1,-2.5395113E-1,1.2479775E0,-8.751052E-2,-2.676001E-1,4.8339716E-1,1.3329184E0,4.0260023E-1,-2.052381E-1,1.1326218E0,4.039751E-1,-9.081825E-1,1.2896608E0,-7.9345345E-2,1.977468E-1,-4.1762167E-1,-7.832118E-1,9.4418114E-1,-7.259952E-1,4.3095406E-2,-4.5784074E-1,7.021544E-1,-3.2022387E-1,-1.3432804E0,2.3210049E-1,1.1614558E0,8.934746E-1,1.3003405E0,-7.981484E-1,-9.5387745E-1,-1.1084276E-1,-8.8709307E-1,1.8602514E-1,-6.461191E-1,1.1015745E-1,1.0314652E0,-3.8799977E-1,1.9129714E-1,-6.817051E-1,4.287454E-1,5.412071E-1,1.3852779E0,7.399749E-1,-9.170232E-2,2.5583459E-2,-8.7425375E-1,-8.006915E-1,1.3157852E-2,5.4346097E-1,1.4696345E0,-4.081553E-2,3.621708E-1,-4.403022E-1,8.343986E-1,2.1252726E-1,1.2037743E0,-1.6544148E0,-4.565743E-1,-3.4515363E-1,4.5723268E-1,-8.800261E-1,-1.1585112E0,4.806607E-1,-2.3420529E-1,4.4830012E-1,1.1299386E0,1.1157563E0,-5.84302E-2],"categories":[],"categories_nodes":[],"categories_segments":[],"categories_sizes":[],"default_left":[0,0,0,0,0,0,0,0,0,0,0,0,0,0,0,0,0,0,0,0,0,0,0,0,0,0,0,0,0,0,0,0,0,0,0,0,0,0,0,0,0,0,0,0,0,0,0,0,0,0,0,0,0,0,0,0,0,0,0,0,0,0,0,0,0,0,0,0,0,0,0,0,0,0,0,0,0,0,0,0,0,0,0,0,0,0,0,0,0,0,0,0,0,0,0,0,0,0,0,0,0,0,0,0,0,0,0,0,0,0,0,0,0,0,0,0,0,0,0,0,0,0,0,0,0,0,0,0,0,0,0,0,0,0,0,0,0,0,0,0,0,0,0,0,0,0,0,0,0,0,0,0,0,0,0,0,0,0,0,0,0,0,0,0,0,0,0,0,0,0,0,0,0,0,0],"id":3,"left_children":[1,3,5,7,9,11,13,15,17,19,-1,21,23,25,27,29,31,33,35,-1,-1,37,39,41,43,-1,45,-1,-1,-1,-1,-1,-1,47,-1,49,-1,51,53,55,57,59,61,63,65,67,-1,-1,69,-1,-1,71,73,75,77,79,81,83,85,-1,87,89,91,-1,-1,93,95,97,-1,-1,99,-1,-1,101,103,-1,-1,105,-1,107,109,111,113,115,117,119,121,123,125,127,129,-1,131,-1,-1,-1,-1,-1,133,135,-1,137,-1,-1,-1,139,141,-1,143,-1,-1,145,-1,147,149,151,-1,-1,153,155,-1,157,159,-1,161,163,165,-1,-1,-1,167,169,171,173,-1,-1,-1,-1,-1,-1,-1,-1,-1,-1,-1,-1,-1,-1,-1,-1,-1,-1,-1,-1,-1,-1,-1,-1,-1,-1,-1,-1,-1,-1,-1,-1,-1,-1,-1,-1,-1,-1,-1,-1,-1],"loss_changes":[1.3827702E1,3.2726078E0,1.0567348E1,3.068327E0,3.7832692E0,4.8943653E0,3.8352757E0,4.9200506E0,2.052845E0,2.4763696E0,0E0,6.6550612E0,1.1394379E1,3.1062078E0,5.202443E0,3.266511E-1,2.7597263E0,3.4561634E0,1.3752556E-1,0E0,0E0,8.581709E0,6.771187E0,8.718984E0,2.6686954E0,0E0,3.086505E0,0E0,0E0,0E0,0E0,0E0,0E0,7.1187115E-1,0E0,3.2138824E-4,0E0,6.2684455E0,3.9352388E0,7.2554264E0,9.095184E0,6.448578E0,1.4840558E1,3.5594177E-1,1.9562755E0,3.1107483E0,0E0,0E0,2.8384686E-1,0E0,0E0,1.4392021E0,1.01241665E1,1.3808699E0,3.7867632E0,4.2365713E0,6.147746E0,6.2550344E0,1.156299E1,0E0,4.1828575E0,4.275928E0,4.9141445E0,0E0,0E0,1.5484333E-1,3.2039075E0,1.6777449E0,0E0,0E0,2.4324894E-1,0E0,0E0,6.064177E0,4.0387087E0,0E0,0E0,6.511359E0,0E0,5.3142595E0,4.746796E0,1.5788783E0,3.1405773E0,5.8067923E0,3.9381018E0,3.9049473E0,6.725501E0,7.218299E0,4.9413624E0,2.723898E0,1.3228283E0,0E0,3.4577208E0,0E0,0E0,0E0,0E0,0E0,1.7072906E0,6.498718E-2,0E0,1.4384403E0,0E0,0E0,0E0,3.0600357E0,2.2233744E0,0E0,3.4248412E0,0E0,0E0,3.0340698E0,0E0,4.313776E0,1.5705533E0,3.1660771E0,0E0,0E0,3.2684708E0,3.9459724E0,0E0,3.9714055E0,7.1704183E0,0E0,2.2923174E0,5.7923164E0,3.2068412E0,0E0,0E0,0E0,1.3760376E-1,2.3061717E0,1.3202009E0,3.7909174E0,0E0,0E0,0E0,0E0,0E0,0E0,0E0,0E0,0E0,0E0,0E0,0E0,0E0,0E0,0E0,0E0,0E0,0E0,0E0,0E0,0E0,0E0,0E0,0E0,0E0,0E0,0E0,0E0,0E0,0E0,0E0,0E0,0E0,0E0,0E0,0E0,0E0,0E0,0E0,0E0,0E0],"parents":[2147483647,0,0,1,1,2,2,3,3,4,4,5,5,6,6,7,7,8,8,9,9,11,11,12,12,13,13,14,14,15,15,16,16,17,17,18,18,21,21,22,22,23,23,24,24,26,26,33,33,35,35,37,37,38,38,39,39,40,40,41,41,42,42,43,43,44,44,45,45,48,48,51,51,52,52,53,53,54,54,55,55,56,56,57,57,58,58,60,60,61,61,62,62,65,65,66,66,67,67,70,70,73,73,74,74,77,77,79,79,80,80,81,81,82,82,83,83,84,84,85,85,86,86,87,87,88,88,89,89,90,90,92,92,98,98,99,99,101,101,105,105,106,106,108,108,111,111,113,113,114,114,115,115,118,118,119,119,121,121,122,122,124,124,125,125,126,126,130,130,131,131,132,132,133,133],"right_children":[2,4,6,8,10,12,14,16,18,20,-1,22,24,26,28,30,32,34,36,-1,-1,38,40,42,44,-1,46,-1,-1,-1,-1,-1,-1,48,-1,50,-1,52,54,56,58,60,62,64,66,68,-1,-1,70,-1,-1,72,74,76,78,80,82,84,86,-1,88,90,92,-1,-1,94,96,98,-1,-1,100,-1,-1,102,104,-1,-1,106,-1,108,110,112,114,116,118,120,122,124,126,128,130,-1,132,-1,-1,-1,-1,-1,134,136,-1,138,-1,-1,-1,140,142,-1,144,-1,-1,146,-1,148,150,152,-1,-1,154,156,-1,158,160,-1,162,164,166,-1,-1,-1,168,170,172,174,-1,-1,-1,-1,-1,-1,-1,-1,-1,-1,-1,-1,-1,-1,-1,-1,-1,-1,-1,-1,-1,-1,-1,-1,-1,-1,-1,-1,-1,-1,-1,-1,-1,-1,-1,-1,-1,-1,-1,-1,-1],"split_conditions":[-1.0826364E0,-1.4294711E-2,1.4627148E0,-4.1068307E-1,2.0128652E-1,-2.4446371E-1,2.7954748E-2,3.560306E-1,5.320396E-1,-2.5866562E-1,-8.502362E-1,-6.328179E-1,3.7380072E-1,1.4994622E0,4.501388E-1,-5.8355486E-1,5.584686E-1,3.0985904E-1,1.2523425E0,-1.7636031E-1,7.3240733E-1,1.5801026E-2,-6.6313803E-1,2.913356E-1,-4.424828E-1,1.3350645E0,-5.955552E-1,-6.267261E-1,8.4321135E-1,-9.486962E-1,-5.415149E-1,7.680422E-1,-3.5256827E-1,-7.492408E-1,1.920412E-1,-2.5737453E-1,-1.2422956E0,-7.479411E-1,3.4429595E-1,3.568495E-1,1.4633758E-1,-7.926086E-1,-7.068011E-1,-1.0939268E0,-6.8581516E-1,8.1288016E-1,-2.4079406E-1,-3.184594E-1,-1.2644917E0,-9.133069E-1,-1.0412306E0,-3.2255122E-1,4.4154534E-1,-5.765161E-1,-5.040526E-1,1.0271095E0,1.6137306E-1,2.7514221E-2,5.79931E-1,8.5623E-1,-3.777321E-1,-7.492408E-1,-1.0946903E0,-1.5169208E0,-1.0601151E0,-7.413436E-1,1.2025889E0,1.5608069E0,-3.62335E-2,-5.304022E-1,-1.9752698E-1,-1.5898472E-1,-1.0345198E0,-3.581423E-1,-3.168436E-1,-1.239992E0,-5.855696E-1,-6.4339477E-1,-1.0146314E0,-1.267415E0,1.1669044E-1,-7.929883E-1,-6.489794E-1,2.8733182E-1,-7.270261E-1,-2.5479236E-1,-1.7580144E-1,3.061249E-1,6.166857E-1,-7.8422695E-1,-1.2771161E-1,1.4252201E0,5.8239245E-1,-8.1007713E-1,-1.1102971E0,3.7769574E-1,-7.5453264E-1,2.6285124E-1,-2.3572244E-1,-3.115434E-1,-5.999689E-1,-6.022476E-1,8.8228893E-1,6.5926796E-1,1.963352E0,4.5977828E-1,-2.5866562E-1,8.2636297E-1,6.0851E-1,1.2479775E0,-8.751052E-2,-1.6596347E-1,4.8339716E-1,-7.6058614E-1,-3.13943E-1,-1.7916603E-1,1.1326218E0,4.039751E-1,2.507498E0,-2.5866562E-1,-7.9345345E-2,-3.450966E-1,-2.535013E-1,-7.832118E-1,1.1669044E-1,-3.7227815E-1,1.6137306E-1,-4.5784074E-1,7.021544E-1,-3.2022387E-1,-7.5508827E-1,1.6210042E-1,-6.263092E-1,-7.380449E-1,1.3003405E0,-7.981484E-1,-9.5387745E-1,-1.1084276E-1,-8.8709307E-1,1.8602514E-1,-6.461191E-1,1.1015745E-1,1.0314652E0,-3.8799977E-1,1.9129714E-1,-6.817051E-1,4.287454E-1,5.412071E-1,1.3852779E0,7.399749E-1,-9.170232E-2,2.5583459E-2,-8.7425375E-1,-8.006915E-1,1.3157852E-2,5.4346097E-1,1.4696345E0,-4.081553E-2,3.621708E-1,-4.403022E-1,8.343986E-1,2.1252726E-1,1.2037743E0,-1.6544148E0,-4.565743E-1,-3.4515363E-1,4.5723268E-1,-8.800261E-1,-1.1585112E0,4.806607E-1,-2.3420529E-1,4.4830012E-1,1.1299386E0,1.1157563E0,-5.84302E-2],"split_indices":[21,7,21,7,11,1,1,10,19,1,0,6,11,21,1,10,6,19,3,0,0,19,3,1,19,0,3,0,0,0,0,0,0,13,0,1,0,10,19,19,3,3,3,19,10,19,0,0,19,0,0,7,21,13,3,11,6,21,3,0,11,13,13,0,0,10,11,21,0,0,7,0,0,10,19,0,0,3,0,13,19,3,10,11,19,1,7,21,19,10,21,0,21,0,0,0,0,0,6,11,0,10,0,0,0,19,1,0,21,0,0,7,0,10,7,11,0,0,15,1,0,7,1,0,19,11,6,0,0,0,10,19,3,10,0,0,0,0,0,0,0,0,0,0,0,0,0,0,0,0,0,0,0,0,0,0,0,0,0,0,0,0,0,0,0,0,0,0,0,0,0,0,0,0,0],"split_type":[0,0,0,0,0,0,0,0,0,0,0,0,0,0,0,0,0,0,0,0,0,0,0,0,0,0,0,0,0,0,0,0,0,0,0,0,0,0,0,0,0,0,0,0,0,0,0,0,0,0,0,0,0,0,0,0,0,0,0,0,0,0,0,0,0,0,0,0,0,0,0,0,0,0,0,0,0,0,0,0,0,0,0,0,0,0,0,0,0,0,0,0,0,0,0,0,0,0,0,0,0,0,0,0,0,0,0,0,0,0,0,0,0,0,0,0,0,0,0,0,0,0,0,0,0,0,0,0,0,0,0,0,0,0,0,0,0,0,0,0,0,0,0,0,0,0,0,0,0,0,0,0,0,0,0,0,0,0,0,0,0,0,0,0,0,0,0,0,0,0,0,0,0,0,0],"sum_hessian":[4.1527103E2,4.2887188E1,3.7238385E2,3.3776527E1,9.110661E0,3.4464862E2,2.7735203E1,9.537341E0,2.4239187E1,6.665153E0,2.4455073E0,2.4171791E2,1.02930725E2,2.1950502E1,5.7847E0,4.583654E0,4.953687E0,1.7819212E1,6.4199753E0,3.7233691E0,2.941784E0,4.9250538E1,1.9246738E2,8.839626E1,1.4534462E1,2.5542264E0,1.9396276E1,3.7593849E0,2.0253148E0,2.4390562E0,2.144598E0,2.8998973E0,2.05379E0,1.5088297E1,2.7309146E0,4.383056E0,2.036919E0,1.7192114E1,3.2058426E1,6.0652935E1,1.3181444E2,5.6483986E1,3.1912275E1,4.3194127E0,1.021505E1,1.6507696E1,2.888579E0,2.183969E0,1.2904327E1,2.2668557E0,2.1162004E0,4.136585E0,1.305553E1,7.2701287E0,2.4788296E1,3.3912136E1,2.6740799E1,3.8501225E1,9.331321E1,2.695638E0,5.378835E1,1.1796634E1,2.0115643E1,2.0504577E0,2.268955E0,4.5517025E0,5.6633472E0,1.3048943E1,3.4587548E0,2.2202094E0,1.0684118E1,2.0331795E0,2.103406E0,7.6750016E0,5.3805275E0,3.9322193E0,3.3379092E0,2.1116055E1,3.672241E0,2.805025E1,5.8618894E0,8.293059E0,1.844774E1,1.5797482E1,2.2703743E1,1.2784634E1,8.052857E1,7.9015975E0,4.588675E1,4.4282823E0,7.368351E0,3.3893821E0,1.6726261E1,2.5418234E0,2.0098789E0,2.3126526E0,3.3506944E0,2.9710364E0,1.0077906E1,8.496663E0,2.1874552E0,5.329369E0,2.3456328E0,3.0936503E0,2.2868772E0,1.468219E1,6.4338655E0,3.190374E0,2.4859875E1,3.0990276E0,2.7628617E0,5.4777837E0,2.8152754E0,1.3452327E1,4.995413E0,1.3556357E1,2.2411242E0,2.0395737E0,2.066417E1,1.0304243E1,2.4803908E0,5.4114464E1,2.6414112E1,2.7590501E0,5.142547E0,3.4909477E1,1.0977273E1,2.1453414E0,2.282941E0,2.3638203E0,5.0045304E0,1.0098391E1,6.62787E0,6.3711615E0,3.706744E0,3.6133878E0,4.883275E0,2.3585591E0,2.97081E0,3.0692403E0,1.1612949E1,4.2687745E0,2.165091E0,1.6297445E1,8.562428E0,3.0938277E0,2.383956E0,6.332119E0,7.120208E0,2.337772E0,2.6576412E0,1.0890483E1,2.6658745E0,1.7445791E1,3.218377E0,5.722845E0,4.5813975E0,2.8933529E1,2.5180933E1,2.3723337E1,2.6907742E0,2.6231432E0,2.519404E0,2.3724718E0,3.2537006E1,5.8195252E0,5.1577477E0,2.9730413E0,2.0314894E0,5.7399855E0,4.3584046E0,2.6248164E0,4.0030537E0,3.9089398E0,2.4622219E0],"tree_param":{"num_deleted":"0","num_feature":"23","num_nodes":"175","size_leaf_vector":"1"}},{"base_weights":[-6.987593E-2,-9.265689E-2,5.348527E-1,3.7598976E-1,-1.1779578E-1,1.0262699E0,2.8510755E-1,-9.425801E-2,1.0925814E0,-1.290541E-1,6.8603444E-1,-1.9255072E-1,7.4956787E-1,1.5180768E-1,-6.075727E-1,3.9805096E-1,1.4288456E0,-1.9051947E-1,5.3701706E-2,3.8782597E-1,-4.6752316E-1,5.957581E-1,-3.6454514E-1,9.6763736E-1,1.1454824E0,-1.2396285E-1,-7.747493E-1,4.4850785E-1,-1.6275752E-1,-6.0270554E-1,-5.21866E-2,-9.761904E-1,5.023726E-1,2.4964802E-1,1.3966143E0,-9.6948105E-1,-2.6790315E-2,-3.6898676E-1,-1.177108E0,-2.0989524E-1,1.9810817E-1,-8.209095E-1,-1.3686962E0,5.6156975E-1,-5.9784293E-1,-1.0249937E0,-3.6052716E-1,-1.8924487E-1,7.342704E-1,2.2841626E-1,-5.662408E-1,-1.488142E0,-7.4030316E-1,-8.5449874E-2,-4.6171546E-1,6.009376E-3,7.756552E-1,-7.2334987E-1,-9.5500886E-1,-6.1501354E-1,7.522998E-1,-9.763479E-1,1.3050197E-1,-4.827065E-2,-9.7584975E-1,1.0820086E0,1.0019565E-1,-3.5263625E-1,5.7153076E-1,-6.5676564E-1,1.1175688E-1,-8.713708E-1,-2.0645973E-1,-1.7659226E-1,2.4017614E-1,-3.1940006E-2,-5.429188E-1,-1.4170426E-1,3.0788916E-1,4.0748078E-1,9.3831027E-1,-7.265694E-1,-3.4668788E-1,7.116461E-1,-2.0970489E-1,-5.5952847E-1,-8.5108954E-1,-6.98147E-1,6.6351764E-2,-3.3629656E-1,-9.942273E-1,6.306375E-1,9.919193E-1],"categories":[],"categories_nodes":[],"categories_segments":[],"categories_sizes":[],"default_left":[0,0,0,0,0,0,0,0,0,0,0,0,0,0,0,0,0,0,0,0,0,0,0,0,0,0,0,0,0,0,0,0,0,0,0,0,0,0,0,0,0,0,0,0,0,0,0,0,0,0,0,0,0,0,0,0,0,0,0,0,0,0,0,0,0,0,0,0,0,0,0,0,0,0,0,0,0,0,0,0,0,0,0,0,0,0,0,0,0,0,0,0,0],"id":4,"left_children":[1,3,5,7,9,-1,11,13,15,17,-1,19,-1,21,-1,-1,23,25,27,-1,-1,-1,-1,-1,-1,29,31,33,35,37,39,41,-1,43,-1,45,47,49,51,53,55,57,-1,59,61,-1,-1,63,65,67,69,-1,71,73,75,77,79,81,-1,-1,83,85,-1,87,89,91,-1,-1,-1,-1,-1,-1,-1,-1,-1,-1,-1,-1,-1,-1,-1,-1,-1,-1,-1,-1,-1,-1,-1,-1,-1,-1,-1],"loss_changes":[4.877668E0,4.0201254E0,2.714577E0,5.8562794E0,3.8013334E0,0E0,3.4496799E0,1.8750921E0,1.2734375E0,3.5988889E0,0E0,1.887468E0,0E0,3.2962027E0,0E0,0E0,2.3638725E-2,9.320244E0,6.8930826E0,0E0,0E0,0E0,0E0,0E0,0E0,7.395618E0,7.180893E0,8.131807E0,5.714141E0,3.7589998E0,7.390246E0,2.8740597E0,0E0,6.6424026E0,0E0,1.4832687E0,5.5173287E0,2.3560352E0,2.9042244E0,3.5983634E0,8.028953E0,8.142538E-1,0E0,4.879775E0,1.9836445E0,0E0,0E0,4.0768375E0,1.6330585E0,1.901166E0,3.4336576E0,0E0,1.063597E0,4.7973437E0,4.2896757E0,4.375491E0,1.9870214E0,9.8524666E-1,0E0,0E0,3.4581738E0,1.5600157E-1,0E0,3.8352463E0,1.0510435E0,2.7219868E-1,0E0,0E0,0E0,0E0,0E0,0E0,0E0,0E0,0E0,0E0,0E0,0E0,0E0,0E0,0E0,0E0,0E0,0E0,0E0,0E0,0E0,0E0,0E0,0E0,0E0,0E0,0E0],"parents":[2147483647,0,0,1,1,2,2,3,3,4,4,6,6,7,7,8,8,9,9,11,11,13,13,16,16,17,17,18,18,25,25,26,26,27,27,28,28,29,29,30,30,31,31,33,33,35,35,36,36,37,37,38,38,39,39,40,40,41,41,43,43,44,44,47,47,48,48,49,49,50,50,52,52,53,53,54,54,55,55,56,56,57,57,60,60,61,61,63,63,64,64,65,65],"right_children":[2,4,6,8,10,-1,12,14,16,18,-1,20,-1,22,-1,-1,24,26,28,-1,-1,-1,-1,-1,-1,30,32,34,36,38,40,42,-1,44,-1,46,48,50,52,54,56,58,-1,60,62,-1,-1,64,66,68,70,-1,72,74,76,78,80,82,-1,-1,84,86,-1,88,90,92,-1,-1,-1,-1,-1,-1,-1,-1,-1,-1,-1,-1,-1,-1,-1,-1,-1,-1,-1,-1,-1,-1,-1,-1,-1,-1,-1],"split_conditions":[1.7911357E0,-1.4691051E0,-1.0946903E0,2.3293605E-1,1.3134053E0,1.0262699E0,-2.4351151E-1,-2.210647E-2,-3.7852636E-1,-2.238922E-1,6.8603444E-1,1.9465003E0,7.4956787E-1,-3.204018E-1,-6.075727E-1,3.9805096E-1,-4.037913E-1,-2.2509746E-1,5.143167E-1,3.8782597E-1,-4.6752316E-1,5.957581E-1,-3.6454514E-1,9.6763736E-1,1.1454824E0,-9.219656E-1,4.5068705E-1,2.507498E0,-9.142213E-1,-2.5737453E-1,2.1441996E-1,6.325572E-1,5.023726E-1,4.9264356E-2,1.3966143E0,-1.2111998E-2,2.874296E0,-2.2550005E-1,-3.2841823E-1,-2.1849535E-1,-2.5608346E-1,7.365649E-1,-1.3686962E0,-3.7497863E-1,-1.1217666E-1,-1.0249937E0,-3.6052716E-1,2.683163E0,3.8283813E-1,-1.3974497E-1,-1.6402206E-1,-1.488142E0,-3.5432777E-1,-1.7572422E-1,-2.5866562E-1,4.5983246E-1,2.2764985E-1,2.3501324E-2,-9.5500886E-1,-6.1501354E-1,2.2764985E-1,-2.1354833E-1,1.3050197E-1,6.184671E-1,-1.0816745E-1,-2.565262E-2,1.0019565E-1,-3.5263625E-1,5.7153076E-1,-6.5676564E-1,1.1175688E-1,-8.713708E-1,-2.0645973E-1,-1.7659226E-1,2.4017614E-1,-3.1940006E-2,-5.429188E-1,-1.4170426E-1,3.0788916E-1,4.0748078E-1,9.3831027E-1,-7.265694E-1,-3.4668788E-1,7.116461E-1,-2.0970489E-1,-5.5952847E-1,-8.5108954E-1,-6.98147E-1,6.6351764E-2,-3.3629656E-1,-9.942273E-1,6.306375E-1,9.919193E-1],"split_indices":[22,2,13,22,19,0,0,22,11,4,0,22,0,8,0,0,13,1,4,0,0,0,0,0,0,13,0,15,19,1,22,13,0,11,0,0,4,19,8,0,1,19,0,11,0,0,0,4,19,22,11,0,11,11,1,13,8,19,0,0,8,8,0,4,22,19,0,0,0,0,0,0,0,0,0,0,0,0,0,0,0,0,0,0,0,0,0,0,0,0,0,0,0],"split_type":[0,0,0,0,0,0,0,0,0,0,0,0,0,0,0,0,0,0,0,0,0,0,0,0,0,0,0,0,0,0,0,0,0,0,0,0,0,0,0,0,0,0,0,0,0,0,0,0,0,0,0,0,0,0,0,0,0,0,0,0,0,0,0,0,0,0,0,0,0,0,0,0,0,0,0,0,0,0,0,0,0,0,0,0,0,0,0,0,0,0,0,0,0],"sum_hessian":[3.5397876E2,3.411433E2,1.283545E1,1.7354422E1,3.2378888E2,2.90108E0,9.934371E0,1.0487993E1,6.8664284E0,3.2034457E2,3.4443085E0,5.9964285E0,3.937942E0,7.839566E0,2.6484265E0,2.6052709E0,4.2611575E0,2.397202E2,8.062437E1,2.274284E0,3.7221446E0,3.8935533E0,3.9460132E0,2.1475873E0,2.1135702E0,2.1522414E2,2.4496065E1,2.854346E1,5.2080902E1,2.8042675E1,1.8718146E2,2.1516415E1,2.9796515E0,2.5084934E1,3.4585264E0,7.4952455E0,4.4585655E1,1.9954214E1,8.08846E0,1.148308E2,7.235066E1,1.8282032E1,3.2343833E0,1.834088E1,6.7440553E0,4.0308585E0,3.4643872E0,3.675425E1,7.8314066E0,4.9523287E0,1.5001885E1,2.770265E0,5.318195E0,7.686876E1,3.7962048E1,5.43066E1,1.804406E1,1.5155758E1,3.1262727E0,2.2051258E0,1.6135754E1,4.525338E0,2.2187173E0,3.118515E1,5.5691E0,4.946171E0,2.8852358E0,2.1551604E0,2.7971683E0,1.0382115E1,4.61977E0,2.7283986E0,2.5897965E0,5.600095E1,2.0867807E1,1.4885078E1,2.3076967E1,3.6657936E1,1.7648663E1,1.23538E1,5.69026E0,7.560575E0,7.5951834E0,1.345214E1,2.683614E0,2.0068183E0,2.5185196E0,4.153521E0,2.703163E1,2.3024123E0,3.2666879E0,2.6281662E0,2.3180046E0],"tree_param":{"num_deleted":"0","num_feature":"23","num_nodes":"93","size_leaf_vector":"1"}},{"base_weights":[-2.4510961E-2,1.4307124E-2,-5.264102E-1,-1.8529385E-1,8.990108E-2,-1.1534909E0,-3.6197135E-1,-2.8587672E-1,3.5414362E-1,5.172453E-2,7.7699625E-1,-5.935675E-1,-1.1020013E0,-6.990745E-1,-6.191944E-2,-2.1467029E-1,-1.3150241E0,1.0503099E0,8.7534495E-2,1.5703766E-1,-9.347856E-2,1.4083661E0,4.1427594E-1,-2.679633E-1,-9.628969E-1,2.1167228E-1,-6.032921E-1,-2.634734E-1,8.2996285E-1,-1.2877382E0,-6.033372E-1,9.05536E-1,-1.9102412E-1,6.748817E-2,5.1150197E-1,-9.8194915E-1,-4.8685383E-2,1.146465E0,-2.541957E-1,1.5202194E-1,-5.984412E-1,-2.329985E-1,5.8644736E-1,-7.0253474E-1,-1.2595184E-1,5.750509E-1,-5.8266807E-1,-3.165533E-2,5.3247446E-1,1.222618E0,2.976174E-1,-9.3512887E-1,-5.207267E-1,-1.5487209E-1,1.7354822E-1,6.405267E-1,1.0571183E0,2.4672732E-1,-6.345041E-1,1.1914335E-1,7.4738425E-1,-1.1043515E0,-2.1064737E-1,1.2559762E-2,-7.9695916E-1,-2.2586203E-1,-8.1458473E-1,-6.749971E-1,4.758003E-2,1.4887999E0,9.139538E-2,1.6620697E0,4.4171262E-1,-4.3540898E-1,5.3345275E-1,-4.233517E-2,-6.4845896E-1,1.8287132E-2,7.89363E-1,-7.2482187E-1,-1.4003627E0,-6.0509783E-1,4.6897092E-1,6.3273907E-1,-1.3257702E-1,-1.2468092E0,-6.0458373E-2,-1.5493163E-1,-1.0975376E0,-2.4454802E-1,1.473449E-1,1.6243526E0,5.0090766E-1,3.8770607E-1,-5.915247E-1,1.8836303E-1,-7.785753E-1,8.056601E-1,-2.0890628E-1,2.2413217E-1,-1.9588815E-1,-9.789746E-1,-2.6297823E-1,-4.2910492E-1,2.7081403E-1,2.279145E-1,8.190829E-1,-1.9234923E-1,-7.7642995E-1,9.1824204E-1,6.2368672E-2,-5.9079176E-1,6.475012E-3,-1.0444249E0,-8.1855595E-1,3.063204E-1,-5.6713426E-1,2.2101602E-1,-4.2487952E-1,5.856948E-1,2.0127019E-2,7.4089664E-1,7.691349E-2,4.1445607E-1,1.3189996E0,-3.0090806E-1,3.3152118E-1,-5.952365E-1,1.0003411E-2,-5.186523E-1,5.0273234E-1,-5.010123E-1,1.5556309E-1,1.1240977E0,1.8346135E-2],"categories":[],"categories_nodes":[],"categories_segments":[],"categories_sizes":[],"default_left":[0,0,0,0,0,0,0,0,0,0,0,0,0,0,0,0,0,0,0,0,0,0,0,0,0,0,0,0,0,0,0,0,0,0,0,0,0,0,0,0,0,0,0,0,0,0,0,0,0,0,0,0,0,0,0,0,0,0,0,0,0,0,0,0,0,0,0,0,0,0,0,0,0,0,0,0,0,0,0,0,0,0,0,0,0,0,0,0,0,0,0,0,0,0,0,0,0,0,0,0,0,0,0,0,0,0,0,0,0,0,0,0,0,0,0,0,0,0,0,0,0,0,0,0,0,0,0,0,0,0,0,0,0,0,0],"id":5,"left_children":[1,3,5,7,9,11,13,15,17,19,21,-1,-1,23,25,27,29,-1,31,33,35,-1,37,39,-1,41,-1,43,-1,-1,-1,-1,45,47,49,51,53,55,57,-1,-1,-1,59,61,63,-1,65,67,69,71,73,-1,-1,75,77,-1,-1,-1,-1,-1,-1,79,81,83,85,-1,-1,87,89,91,93,-1,-1,95,97,99,101,103,105,107,-1,-1,-1,109,111,113,-1,115,-1,117,119,-1,-1,121,-1,-1,-1,123,-1,125,127,-1,129,131,133,-1,-1,-1,-1,-1,-1,-1,-1,-1,-1,-1,-1,-1,-1,-1,-1,-1,-1,-1,-1,-1,-1,-1,-1,-1,-1,-1,-1,-1,-1],"loss_changes":[6.199164E0,4.4567924E0,2.34757E0,4.404248E0,5.6187887E0,5.328913E-1,1.832386E0,5.006873E0,3.6069503E0,3.104184E0,4.5682735E0,0E0,0E0,2.1944752E0,1.9775653E0,4.1682787E0,9.0626144E-1,0E0,3.2277386E0,3.7339907E0,3.3953714E0,0E0,4.1863956E0,1.2715051E0,0E0,1.3938117E0,0E0,3.7266493E0,0E0,0E0,0E0,0E0,3.1163006E0,4.3314366E0,3.6018057E0,3.025601E-1,1.9181905E0,2.982955E-1,1.5842793E0,0E0,0E0,0E0,7.361342E-1,2.9056282E0,4.3725233E0,0E0,8.330139E-1,3.948962E0,6.962516E0,3.4713564E0,3.1618352E0,0E0,0E0,3.0544803E0,2.5126848E0,0E0,0E0,0E0,0E0,0E0,0E0,2.3795424E0,3.39369E0,3.513102E0,2.588922E0,0E0,0E0,3.546704E0,2.0110042E0,2.9401712E0,2.9857104E0,0E0,0E0,1.8895674E0,3.0715675E0,1.8342135E0,2.6327462E0,2.3758554E0,7.955947E-1,8.154261E-1,0E0,0E0,0E0,2.4529696E0,2.9652514E0,8.4985256E-2,0E0,1.7967904E0,0E0,3.1274333E0,3.968058E0,0E0,0E0,1.4725454E0,0E0,0E0,0E0,2.4721518E0,0E0,2.299755E0,3.608932E0,0E0,2.67552E0,1.1945733E0,4.1134014E0,0E0,0E0,0E0,0E0,0E0,0E0,0E0,0E0,0E0,0E0,0E0,0E0,0E0,0E0,0E0,0E0,0E0,0E0,0E0,0E0,0E0,0E0,0E0,0E0,0E0,0E0,0E0,0E0,0E0,0E0],"parents":[2147483647,0,0,1,1,2,2,3,3,4,4,5,5,6,6,7,7,8,8,9,9,10,10,13,13,14,14,15,15,16,16,18,18,19,19,20,20,22,22,23,23,25,25,27,27,32,32,33,33,34,34,35,35,36,36,37,37,38,38,42,42,43,43,44,44,46,46,47,47,48,48,49,49,50,50,53,53,54,54,61,61,62,62,63,63,64,64,67,67,68,68,69,69,70,70,73,73,74,74,75,75,76,76,77,77,78,78,79,79,83,83,84,84,85,85,87,87,89,89,90,90,93,93,97,97,99,99,100,100,102,102,103,103,104,104],"right_children":[2,4,6,8,10,12,14,16,18,20,22,-1,-1,24,26,28,30,-1,32,34,36,-1,38,40,-1,42,-1,44,-1,-1,-1,-1,46,48,50,52,54,56,58,-1,-1,-1,60,62,64,-1,66,68,70,72,74,-1,-1,76,78,-1,-1,-1,-1,-1,-1,80,82,84,86,-1,-1,88,90,92,94,-1,-1,96,98,100,102,104,106,108,-1,-1,-1,110,112,114,-1,116,-1,118,120,-1,-1,122,-1,-1,-1,124,-1,126,128,-1,130,132,134,-1,-1,-1,-1,-1,-1,-1,-1,-1,-1,-1,-1,-1,-1,-1,-1,-1,-1,-1,-1,-1,-1,-1,-1,-1,-1,-1,-1,-1,-1],"split_conditions":[5.393139E-1,-4.6462154E-1,-1.9632214E-1,1.3204515E-1,2.051187E0,8.943841E-1,4.3218657E-1,2.507498E0,-6.9920754E-1,-2.8638074E-1,5.584686E-1,-5.935675E-1,-1.1020013E0,1.6137306E-1,8.6894506E-1,1.1197697E0,-6.209937E-1,1.0503099E0,-4.2969587E-1,9.73537E-1,-2.796352E-1,1.4083661E0,4.5983246E-1,3.198832E-1,-9.628969E-1,-5.8341812E-2,-6.032921E-1,-3.251921E-1,8.2996285E-1,-1.2877382E0,-6.033372E-1,9.05536E-1,-3.1160322E-1,9.555641E-1,1.1515846E0,1.7845379E-1,5.584686E-1,-3.2998243E-1,2.6567752E0,1.5202194E-1,-5.984412E-1,-2.329985E-1,1.6137306E-1,1.7394707E0,1.0788292E0,5.750509E-1,5.5383396E-1,-3.3506602E-1,-7.254283E-2,-3.1893536E-1,-3.830272E-1,-9.3512887E-1,-5.207267E-1,4.0858948E-1,2.871077E-1,6.405267E-1,1.0571183E0,2.4672732E-1,-6.345041E-1,1.1914335E-1,7.4738425E-1,6.2380755E-1,-3.8837522E-1,-3.201085E-1,5.584686E-1,-2.2586203E-1,-8.1458473E-1,-2.3106657E-1,-3.565591E-1,-3.2079282E-1,6.5805566E-1,1.6620697E0,4.4171262E-1,-1.0946903E0,1.5047096E0,-1.346547E-1,1.6137306E-1,4.1636357E-1,-4.996852E-3,-4.0576407E-1,-1.4003627E0,-6.0509783E-1,4.6897092E-1,2.4364062E-1,-7.0508707E-1,-3.2128164E-1,-6.0458373E-2,-6.92753E-1,-1.0975376E0,-2.3572244E-1,-9.364691E-2,1.6243526E0,5.0090766E-1,-6.8326104E-1,-5.915247E-1,1.8836303E-1,-7.785753E-1,-3.050532E-1,-2.0890628E-1,-7.929883E-1,-3.0232993E-1,-9.789746E-1,1.0537133E0,-6.263092E-1,-7.823573E-1,2.279145E-1,8.190829E-1,-1.9234923E-1,-7.7642995E-1,9.1824204E-1,6.2368672E-2,-5.9079176E-1,6.475012E-3,-1.0444249E0,-8.1855595E-1,3.063204E-1,-5.6713426E-1,2.2101602E-1,-4.2487952E-1,5.856948E-1,2.0127019E-2,7.4089664E-1,7.691349E-2,4.1445607E-1,1.3189996E0,-3.0090806E-1,3.3152118E-1,-5.952365E-1,1.0003411E-2,-5.186523E-1,5.0273234E-1,-5.010123E-1,1.5556309E-1,1.1240977E0,1.8346135E-2],"split_indices":[8,22,11,7,3,8,22,15,3,8,6,0,0,6,11,19,3,0,19,22,8,0,13,19,0,13,0,8,0,0,0,0,8,6,22,19,6,8,3,0,0,0,6,3,3,0,11,8,22,8,11,0,0,11,13,0,0,0,0,0,0,19,11,8,6,0,0,13,19,8,22,0,0,13,5,8,6,22,19,7,0,0,0,19,19,8,0,3,0,6,19,0,0,3,0,0,0,8,0,3,11,0,22,3,3,0,0,0,0,0,0,0,0,0,0,0,0,0,0,0,0,0,0,0,0,0,0,0,0,0,0,0,0,0,0],"split_type":[0,0,0,0,0,0,0,0,0,0,0,0,0,0,0,0,0,0,0,0,0,0,0,0,0,0,0,0,0,0,0,0,0,0,0,0,0,0,0,0,0,0,0,0,0,0,0,0,0,0,0,0,0,0,0,0,0,0,0,0,0,0,0,0,0,0,0,0,0,0,0,0,0,0,0,0,0,0,0,0,0,0,0,0,0,0,0,0,0,0,0,0,0,0,0,0,0,0,0,0,0,0,0,0,0,0,0,0,0,0,0,0,0,0,0,0,0,0,0,0,0,0,0,0,0,0,0,0,0,0,0,0,0,0,0],"sum_hessian":[3.1815945E2,2.9533548E2,2.2823977E1,8.1118744E1,2.1421672E2,4.718337E0,1.810564E1,6.837795E1,1.2740793E1,2.0295995E2,1.1256781E1,2.3128512E0,2.405486E0,8.514617E0,9.5910225E0,6.397418E1,4.4037743E0,2.5423853E0,1.0198407E1,1.17638115E2,8.532182E1,2.7333183E0,8.523462E0,4.964528E0,3.550089E0,7.039579E0,2.5514436E0,6.1729088E1,2.24509E0,2.3728344E0,2.0309398E0,2.0008013E0,8.197606E0,9.3930504E1,2.370761E1,4.0763493E0,8.1245476E1,4.0615497E0,4.461913E0,2.6493082E0,2.31522E0,2.9313338E0,4.1082454E0,1.4704713E1,4.7024376E1,2.3597703E0,5.837836E0,7.74368E1,1.6493706E1,5.4614363E0,1.8246172E1,2.0138035E0,2.062546E0,5.498075E1,2.6264725E1,2.0486436E0,2.012906E0,2.2615862E0,2.200327E0,2.053996E0,2.0542493E0,8.08051E0,6.624203E0,3.899341E1,8.030967E0,3.8086526E0,2.0291834E0,8.476186E0,6.896062E1,5.1920843E0,1.1301622E1,2.0657995E0,3.3956368E0,4.437484E0,1.3808688E1,4.4789246E1,1.01915045E1,2.0991562E1,5.273164E0,5.4654875E0,2.6150227E0,3.856926E0,2.767277E0,7.383039E0,3.161037E1,4.9222875E0,3.1086793E0,5.159957E0,3.3162289E0,1.7548374E1,5.141224E1,2.7747133E0,2.417371E0,8.482883E0,2.8187387E0,2.0951252E0,2.3423588E0,1.03513565E1,3.4573317E0,1.6370974E1,2.8418272E1,3.7035124E0,6.4879923E0,7.5688453E0,1.3422716E1,2.0950184E0,3.1781454E0,2.2453828E0,3.2201047E0,3.501795E0,3.8812442E0,5.5352435E0,2.6075127E1,2.2499828E0,2.6723046E0,2.674124E0,2.485833E0,6.6129827E0,1.0935391E1,8.094881E0,4.3317356E1,2.67863E0,5.8042536E0,8.274981E0,2.076376E0,4.271601E0,1.2099372E1,7.2825937E0,2.113568E1,4.43655E0,2.0514421E0,5.463897E0,2.104948E0,2.2012475E0,1.1221469E1],"tree_param":{"num_deleted":"0","num_feature":"23","num_nodes":"135","size_leaf_vector":"1"}},{"base_weights":[-3.1871244E-2,-1.6948754E-1,7.145243E-2,-1.2880234E-1,-7.588712E-1,4.6275478E-2,8.299721E-1,-1.7119408E-1,3.6470944E-1,-1.2159959E0,-5.1625606E-2,-9.95681E-2,2.1486904E-1,2.4911562E-1,9.216635E-1,-1.0834782E-1,-5.033456E-1,9.083381E-1,-2.7491865E-1,-6.444303E-1,-1.1207346E0,5.6776732E-2,-4.7420883E-1,3.97765E-1,-4.0457185E-2,-7.777113E-2,-8.599963E-1,-9.05637E-1,-1.4157496E-1,-7.7186436E-3,1.1260526E0,-3.7031415E-1,-4.6711173E-3,-3.2597825E-1,2.1665132E-1,6.51441E-2,-7.658364E-1,4.5126894E-1,-4.714745E-1,5.0169075E-1,-3.3546945E-1,-5.39313E-1,-1.34355035E-2,-9.457879E-1,-6.909639E-1,-6.479293E-1,5.17137E-1,5.8891296E-2,-8.368413E-1,1.0423683E-1,8.174586E-1,6.432219E-1,-3.8101113E-1,-1.0366622E0,1.4871016E-1,5.9211904E-1,8.9770615E-2,-3.757891E-2,1.0627164E0,-7.4503076E-1,3.1987193E-1,3.78016E-1,-7.702704E-1,-6.352692E-2,7.6367146E-1,-6.8767947E-1,-2.4548537E-1,-4.758113E-2,-7.378136E-1,8.441148E-1,-7.476869E-2,3.0936137E-1,-6.574661E-1,-1.1521229E0,-1.9916919E-1,-2.9759967E-1,3.4728238E-1,1.244073E0,1.2811017E-1,6.962715E-1,2.6117602E-1,-7.9966164E-1,3.4058154E-1,-4.4015276E-1,-1.2021657E0,3.4524438E-1,8.960928E-1,-9.512316E-1,4.270862E-1,3.985188E-1,-5.995434E-1,9.7398615E-1,5.481885E-1,-1.0487274E-1,-1.048817E0,-3.9025357E-1,6.892308E-1,-1.061891E0,-4.056385E-1,4.3681437E-1,-1.2539652E-1,1.1640638E0,-1.7434774E-1,-2.1397E-1,8.225413E-1,-5.688067E-1,-1.0319308E0,-8.2895154E-1,2.12472E-2,9.4932526E-1,1.6503765E-1,5.0856507E-1,1.2920022E0,-1.3992318E0,-9.441237E-1,7.775593E-1,-2.9974633E-1,6.36212E-1,1.1530348E0,1.1077447E-1,1.0295253E0,5.8395845E-1,-7.2723645E-1,-1.337994E0,-6.6219085E-1,2.5978124E-2,8.6489385E-1,-6.519152E-1,-8.9718515E-1,6.07993E-2,-6.5691525E-1,1.3773822E-2,1.0753108E0,-8.166595E-1,-6.507386E-2,1.0117693E0,2.3778223E-1,-1.0276077E0,-3.033139E-1,2.73388E-1,-5.4240084E-1,2.4513598E-1,-7.7042854E-1,-8.910326E-1,-1.2571232E0,-9.4319814E-1,-4.2081082E-1,8.004113E-1,2.1378262E-1,-8.457521E-1,6.680389E-1,9.8437196E-1,2.2839592E-1,4.3565184E-1,-6.962874E-1,-8.8468E-1,-2.7366677E-1],"categories":[],"categories_nodes":[],"categories_segments":[],"categories_sizes":[],"default_left":[0,0,0,0,0,0,0,0,0,0,0,0,0,0,0,0,0,0,0,0,0,0,0,0,0,0,0,0,0,0,0,0,0,0,0,0,0,0,0,0,0,0,0,0,0,0,0,0,0,0,0,0,0,0,0,0,0,0,0,0,0,0,0,0,0,0,0,0,0,0,0,0,0,0,0,0,0,0,0,0,0,0,0,0,0,0,0,0,0,0,0,0,0,0,0,0,0,0,0,0,0,0,0,0,0,0,0,0,0,0,0,0,0,0,0,0,0,0,0,0,0,0,0,0,0,0,0,0,0,0,0,0,0,0,0,0,0,0,0,0,0,0,0,0,0,0,0,0,0,0,0,0,0,0,0,0,0],"id":6,"left_children":[1,3,5,7,9,11,13,15,17,19,-1,21,23,-1,-1,25,27,29,31,-1,-1,33,35,37,39,41,-1,43,45,-1,-1,-1,-1,47,49,51,53,55,-1,57,59,61,63,-1,65,67,69,71,73,75,77,79,81,83,-1,85,87,89,91,93,95,-1,97,99,101,-1,-1,-1,-1,-1,-1,103,-1,105,-1,107,109,111,-1,-1,-1,-1,-1,-1,113,115,117,-1,119,-1,-1,-1,-1,121,123,-1,125,127,129,131,133,-1,-1,-1,135,-1,-1,137,139,-1,141,-1,-1,143,145,147,149,151,-1,153,-1,-1,-1,-1,155,-1,-1,-1,-1,-1,-1,-1,-1,-1,-1,-1,-1,-1,-1,-1,-1,-1,-1,-1,-1,-1,-1,-1,-1,-1,-1,-1,-1,-1,-1,-1,-1],"loss_changes":[4.3504367E0,3.144308E0,3.3365858E0,2.5692914E0,2.6667237E0,4.1598086E0,1.1348777E0,2.3589637E0,3.3832035E0,4.958949E-1,0E0,5.3138776E0,3.664611E0,0E0,0E0,3.0524075E0,2.6147108E0,2.940949E0,2.694113E-1,0E0,0E0,3.9188573E0,4.2024965E0,2.5323143E0,5.2437105E0,2.7442198E0,0E0,6.571064E-1,3.171702E0,0E0,0E0,0E0,0E0,3.7109916E0,3.0490406E0,2.4267619E0,4.5410957E0,2.2128286E0,0E0,3.496397E0,5.7028E0,2.745664E0,3.1591842E0,0E0,4.541583E-1,1.084893E0,1.5867714E0,2.5557406E0,1.4475331E0,3.720128E0,1.9536572E0,3.458388E-1,3.1165557E0,9.811373E-1,0E0,2.3419132E0,5.6600175E0,2.6230452E0,4.3997192E-1,2.5397978E0,2.5613456E0,0E0,9.779382E-1,2.3610764E0,3.956415E0,0E0,0E0,0E0,0E0,0E0,0E0,2.6219258E0,0E0,4.5888662E-1,0E0,2.4329653E0,4.0260153E0,1.1657267E0,0E0,0E0,0E0,0E0,0E0,0E0,4.7597504E-1,4.826773E0,2.3751793E0,0E0,2.9780452E0,0E0,0E0,0E0,0E0,3.3126187E0,2.5609627E0,0E0,1.7747035E0,1.1872101E-1,9.71792E-1,3.5525017E0,2.4936876E0,0E0,0E0,0E0,1.2397568E0,0E0,0E0,1.2468789E0,2.3522587E0,0E0,3.956952E0,0E0,0E0,2.8642178E-1,5.189178E-1,1.5200248E0,7.025771E0,2.2755184E0,0E0,3.7085938E0,0E0,0E0,0E0,0E0,9.0710783E-1,0E0,0E0,0E0,0E0,0E0,0E0,0E0,0E0,0E0,0E0,0E0,0E0,0E0,0E0,0E0,0E0,0E0,0E0,0E0,0E0,0E0,0E0,0E0,0E0,0E0,0E0,0E0,0E0,0E0,0E0,0E0,0E0],"parents":[2147483647,0,0,1,1,2,2,3,3,4,4,5,5,6,6,7,7,8,8,9,9,11,11,12,12,15,15,16,16,17,17,18,18,21,21,22,22,23,23,24,24,25,25,27,27,28,28,33,33,34,34,35,35,36,36,37,37,39,39,40,40,41,41,42,42,44,44,45,45,46,46,47,47,48,48,49,49,50,50,51,51,52,52,53,53,55,55,56,56,57,57,58,58,59,59,60,60,62,62,63,63,64,64,71,71,73,73,75,75,76,76,77,77,84,84,85,85,86,86,88,88,93,93,94,94,96,96,97,97,98,98,99,99,100,100,104,104,107,107,108,108,110,110,113,113,114,114,115,115,116,116,117,117,119,119,124,124],"right_children":[2,4,6,8,10,12,14,16,18,20,-1,22,24,-1,-1,26,28,30,32,-1,-1,34,36,38,40,42,-1,44,46,-1,-1,-1,-1,48,50,52,54,56,-1,58,60,62,64,-1,66,68,70,72,74,76,78,80,82,84,-1,86,88,90,92,94,96,-1,98,100,102,-1,-1,-1,-1,-1,-1,104,-1,106,-1,108,110,112,-1,-1,-1,-1,-1,-1,114,116,118,-1,120,-1,-1,-1,-1,122,124,-1,126,128,130,132,134,-1,-1,-1,136,-1,-1,138,140,-1,142,-1,-1,144,146,148,150,152,-1,154,-1,-1,-1,-1,156,-1,-1,-1,-1,-1,-1,-1,-1,-1,-1,-1,-1,-1,-1,-1,-1,-1,-1,-1,-1,-1,-1,-1,-1,-1,-1,-1,-1,-1,-1,-1,-1],"split_conditions":[8.45481E-2,1.0348334E0,1.7824242E0,1.0185815E0,7.7964216E-1,-6.209937E-1,-2.238922E-1,-6.2621E-2,3.6490008E-1,-6.361808E-1,-5.1625606E-2,-6.8326104E-1,-4.8598495E-1,2.4911562E-1,9.216635E-1,9.002659E-1,2.3385136E-1,-2.6105535E-1,9.73537E-1,-6.444303E-1,-1.1207346E0,-5.0429714E-1,3.838855E-1,2.203818E0,8.2223725E-1,-1.5128268E0,-8.599963E-1,-4.9857455E-1,3.8283813E-1,-7.7186436E-3,1.1260526E0,-3.7031415E-1,-4.6711173E-3,1.5047096E0,1.4018592E0,-2.6616445E-1,1.4627148E0,-1.9250967E-1,-4.714745E-1,2.7207637E-3,6.5921015E-1,-3.3203542E-1,-1.3145722E-1,-9.457879E-1,-1.5854903E-1,-3.145254E-1,6.032639E-1,-7.7894014E-1,-5.0658613E-1,2.3501324E-2,1.2815675E-1,1.5308623E-1,9.12906E-1,-1.5854903E-1,1.4871016E-1,-3.0614242E-1,-1.7000552E-1,5.538208E-1,6.3118264E-2,2.7423464E-2,5.965833E-1,3.78016E-1,1.6210042E-1,-1.125882E0,-5.7325107E-1,-6.8767947E-1,-2.4548537E-1,-4.758113E-2,-7.378136E-1,8.441148E-1,-7.476869E-2,-7.929883E-1,-6.574661E-1,-3.1766444E-1,-1.9916919E-1,1.5619817E-1,2.2571233E-1,-5.565956E-1,1.2811017E-1,6.962715E-1,2.6117602E-1,-7.9966164E-1,3.4058154E-1,-4.4015276E-1,-6.544054E-1,-3.5432777E-1,2.7358216E-1,-9.512316E-1,5.5263036E-1,3.985188E-1,-5.995434E-1,9.7398615E-1,5.481885E-1,3.2024053E-1,5.4718065E-1,-3.9025357E-1,-2.0638421E-1,-4.9743006E-1,4.900646E-1,6.021681E-1,-9.5509434E-1,1.1640638E0,-1.7434774E-1,-2.1397E-1,5.275022E-1,-5.688067E-1,-1.0319308E0,6.815848E-1,9.458438E-1,9.4932526E-1,1.3858902E-1,5.0856507E-1,1.2920022E0,1.2049657E0,-2.3182975E-1,5.1655614E-1,9.565726E-1,-5.031526E-1,1.1530348E0,1.026995E-1,1.0295253E0,5.8395845E-1,-7.2723645E-1,-1.337994E0,3.9772928E-1,2.5978124E-2,8.6489385E-1,-6.519152E-1,-8.9718515E-1,6.07993E-2,-6.5691525E-1,1.3773822E-2,1.0753108E0,-8.166595E-1,-6.507386E-2,1.0117693E0,2.3778223E-1,-1.0276077E0,-3.033139E-1,2.73388E-1,-5.4240084E-1,2.4513598E-1,-7.7042854E-1,-8.910326E-1,-1.2571232E0,-9.4319814E-1,-4.2081082E-1,8.004113E-1,2.1378262E-1,-8.457521E-1,6.680389E-1,9.8437196E-1,2.2839592E-1,4.3565184E-1,-6.962874E-1,-8.8468E-1,-2.7366677E-1],"split_indices":[21,19,21,20,3,3,4,11,22,3,0,3,4,0,0,20,11,22,22,0,0,4,21,3,12,21,0,4,19,0,0,0,0,5,22,11,21,11,0,4,20,8,11,0,22,22,19,3,4,19,20,20,20,22,0,11,11,20,19,20,21,0,19,19,21,0,0,0,0,0,0,3,0,8,0,22,19,20,0,0,0,0,0,0,3,11,19,0,19,0,0,0,0,22,21,0,3,4,19,22,19,0,0,0,21,0,0,21,22,0,8,0,0,21,8,19,3,4,0,19,0,0,0,0,20,0,0,0,0,0,0,0,0,0,0,0,0,0,0,0,0,0,0,0,0,0,0,0,0,0,0,0,0,0,0,0,0],"split_type":[0,0,0,0,0,0,0,0,0,0,0,0,0,0,0,0,0,0,0,0,0,0,0,0,0,0,0,0,0,0,0,0,0,0,0,0,0,0,0,0,0,0,0,0,0,0,0,0,0,0,0,0,0,0,0,0,0,0,0,0,0,0,0,0,0,0,0,0,0,0,0,0,0,0,0,0,0,0,0,0,0,0,0,0,0,0,0,0,0,0,0,0,0,0,0,0,0,0,0,0,0,0,0,0,0,0,0,0,0,0,0,0,0,0,0,0,0,0,0,0,0,0,0,0,0,0,0,0,0,0,0,0,0,0,0,0,0,0,0,0,0,0,0,0,0,0,0,0,0,0,0,0,0,0,0,0,0],"sum_hessian":[3.05924E2,1.3118631E2,1.7473769E2,1.2273661E2,8.449698E0,1.691433E2,5.5943875E0,1.1303907E2,9.697541E0,5.0718894E0,3.3778093E0,9.069441E1,7.844889E1,2.5580893E0,3.0362983E0,9.50749E1,1.7964178E1,5.2379827E0,4.4595585E0,2.3578005E0,2.7140892E0,6.400114E1,2.669328E1,4.570163E1,3.2747257E1,9.2405075E1,2.6698184E0,8.492391E0,9.471788E0,2.0950184E0,3.1429641E0,2.4227524E0,2.036806E0,1.8850788E1,4.515035E1,9.372843E0,1.7320435E1,4.346117E1,2.2404604E0,1.1535339E1,2.1211918E1,1.1287843E1,8.111723E1,3.0911427E0,5.401248E0,5.355443E0,4.116345E0,1.0760495E1,8.090293E0,3.8052483E1,7.0978646E0,4.079283E0,5.29356E0,1.3527428E1,3.7930076E0,3.12667E1,1.2194469E1,5.890517E0,5.6448216E0,1.3052312E1,8.159605E0,2.0332584E0,9.254584E0,7.622129E1,4.895943E0,3.2475944E0,2.1536536E0,2.0017984E0,3.3536448E0,2.0465415E0,2.0698035E0,8.515481E0,2.245014E0,5.191722E0,2.8985705E0,1.43396845E1,2.37128E1,4.261286E0,2.8365788E0,2.0064492E0,2.072834E0,2.8911064E0,2.402454E0,3.6988747E0,9.828553E0,1.7275928E1,1.3990772E1,2.3969064E0,9.797564E0,3.3770533E0,2.5134642E0,3.1566553E0,2.4881663E0,4.2087164E0,8.8435955E0,2.4779577E0,5.681648E0,5.1222057E0,4.132379E0,8.375378E0,6.784591E1,2.7052257E0,2.1907177E0,3.9376507E0,4.5778303E0,2.0125794E0,3.1791427E0,5.366657E0,8.973027E0,3.8606749E0,1.9852123E1,2.0262187E0,2.2350671E0,5.5258327E0,4.3027205E0,1.0340993E1,6.934936E0,1.0053651E1,3.9371216E0,7.385229E0,2.412334E0,2.0853639E0,2.1233523E0,2.97452E0,5.869076E0,2.4016442E0,3.2800033E0,2.3357844E0,2.7864215E0,2.0565095E0,2.0758693E0,5.939662E0,2.435716E0,2.507343E0,6.533857E1,2.1888888E0,2.3889415E0,2.2926893E0,3.0739672E0,6.145991E0,2.8270366E0,1.7466549E1,2.3855736E0,3.3567674E0,2.1690652E0,2.2816966E0,2.0210238E0,6.3903704E0,3.9506223E0,4.080141E0,2.8547955E0,3.223815E0,6.829836E0,5.08495E0,2.3002794E0,2.0716553E0,3.7974205E0],"tree_param":{"num_deleted":"0","num_feature":"23","num_nodes":"157","size_leaf_vector":"1"}},{"base_weights":[-1.2403109E-2,-1.3302866E-1,6.282283E-2,5.4789495E-1,-1.5942329E-1,1.42755E-2,3.7949762E-1,-3.240055E-1,1.1261693E-2,4.1826874E-2,-6.117494E-1,5.5172575E-1,-1.21238135E-1,-1.0358955E0,-2.5802138E-1,2.8066444E-1,-1.5173641E-1,-1.545117E-2,2.7690786E-1,-7.9669756E-1,5.9605487E-2,-7.2237444E-3,7.550652E-1,3.470045E-1,-6.5795666E-1,-8.9437145E-1,-6.294914E-1,4.3983012E-1,-3.4738627E-1,4.6428078E-1,-3.613994E-1,-2.9260474E-1,3.3287328E-1,2.6208225E-1,-1.1710418E-1,6.9885916E-1,9.283323E-2,3.2169172E-1,-2.9101607E-1,1.0846822E0,3.3614832E-1,-4.0961927E-1,9.7912294E-1,-1.4472279E-1,-6.657481E-1,7.976971E-1,-2.8257573E-1,-1.6115765E-1,-7.132907E-1,-7.618292E-2,6.211784E-1,8.772657E-1,1.9152991E-2,2.2381605E-1,-2.2964416E-1,1.2123326E0,3.1432286E-2,3.473684E-1,-7.119749E-1,1.239629E0,8.270337E-1,7.695576E-1,-9.383083E-2,-4.839451E-2,-6.9108224E-1,-1.0310209E0,-5.431323E-1,-1.1566841E-1,1.0939059E0,-6.8520087E-1,2.560686E-1,-3.222996E-1,5.0444365E-1,-3.0305973E-1,-8.802555E-1,1.2322555E0,3.3534628E-1,-4.1128013E-1,3.0224165E-1,3.9643124E-1,-8.881437E-1,-4.940171E-1,-7.0746824E-2,5.7308626E-1,1.1942945E0,-5.921048E-2,1.072912E0,8.8539195E-1,2.7433616E-1,1.6113284E-1,-6.31669E-1,4.702325E-2,-7.3589545E-1,5.251367E-1,1.0939971E0,-1.7588873E-1,-9.1772586E-1,6.7379165E-1,1.2022966E0,-7.9039186E-1,3.4901324E-1,1.214283E0,3.3002768E-2,5.6617475E-1,-6.181757E-1,-8.8204044E-1,-2.0549658E-1,-1.0867547E0,5.004401E-2,6.220427E-1,-5.378147E-1,1.2036972E0,4.3553033E-1,4.0172374E-1,-1.6351056E-1,-7.2717226E-1,-2.4439177E-1,-1.1177627E-1,-6.525203E-1,-2.213329E-2,-6.8471485E-1,-8.755399E-1,-1.21537745E-1,-1.8025465E-1,6.754892E-1,-6.7307435E-2,5.547161E-1,-2.874442E-1,-1.1130226E0,1.0606439E-1,-4.5523363E-1,-8.6534005E-1,-7.404534E-1,-3.1715244E-1,1.0946589E-1,-7.0419693E-1,2.0807499E-1],"categories":[],"categories_nodes":[],"categories_segments":[],"categories_sizes":[],"default_left":[0,0,0,0,0,0,0,0,0,0,0,0,0,0,0,0,0,0,0,0,0,0,0,0,0,0,0,0,0,0,0,0,0,0,0,0,0,0,0,0,0,0,0,0,0,0,0,0,0,0,0,0,0,0,0,0,0,0,0,0,0,0,0,0,0,0,0,0,0,0,0,0,0,0,0,0,0,0,0,0,0,0,0,0,0,0,0,0,0,0,0,0,0,0,0,0,0,0,0,0,0,0,0,0,0,0,0,0,0,0,0,0,0,0,0,0,0,0,0,0,0,0,0,0,0,0,0,0,0,0,0,0,0,0,0,0,0],"id":7,"left_children":[1,3,5,-1,7,9,11,13,15,17,19,21,23,25,27,29,31,33,35,-1,-1,37,39,-1,-1,-1,-1,41,43,45,-1,47,49,51,53,55,57,-1,-1,59,61,-1,-1,63,65,67,69,71,73,-1,-1,75,77,79,81,83,-1,85,-1,-1,87,-1,-1,89,-1,-1,91,-1,93,-1,-1,95,-1,-1,-1,97,-1,99,101,103,-1,105,107,-1,-1,109,111,-1,-1,113,115,-1,117,-1,-1,119,-1,-1,-1,121,-1,-1,123,125,-1,127,129,131,133,-1,135,-1,-1,-1,-1,-1,-1,-1,-1,-1,-1,-1,-1,-1,-1,-1,-1,-1,-1,-1,-1,-1,-1,-1,-1,-1,-1],"loss_changes":[2.4276175E0,2.365192E0,2.533067E0,0E0,2.8022661E0,2.465004E0,1.8901029E0,2.3804445E0,2.151858E0,1.8432524E0,1.9267025E0,1.8527565E0,2.540207E0,1.1742735E-1,2.9028192E0,2.6077862E0,2.0861015E0,3.106277E0,2.081809E0,0E0,0E0,7.4372345E-1,1.6435118E0,0E0,0E0,0E0,0E0,4.6246777E0,2.6585145E0,3.7185645E0,0E0,1.3064573E0,1.513165E0,4.4108624E0,3.0928087E0,2.7440116E0,5.0127206E0,0E0,0E0,9.820099E-1,1.7173059E0,0E0,0E0,1.909523E0,1.4080067E0,2.9173613E0,1.862498E0,2.4504828E0,8.0231595E-1,0E0,0E0,1.251421E0,2.5831215E0,4.914958E0,2.5448115E0,7.747083E-1,0E0,4.4458237E0,0E0,0E0,7.743728E-1,0E0,0E0,2.7500222E0,0E0,0E0,1.607255E0,0E0,1.1368484E0,0E0,0E0,2.0256667E0,0E0,0E0,0E0,5.439367E-1,0E0,2.81789E0,4.5913033E0,3.7346683E0,0E0,2.5428567E0,4.648597E0,0E0,0E0,4.1628404E0,1.4261718E0,0E0,0E0,2.4032207E0,6.1985874E-1,0E0,8.720455E-1,0E0,0E0,1.4274192E0,0E0,0E0,0E0,1.4327872E0,0E0,0E0,2.583446E0,1.8703637E0,0E0,2.9511704E0,1.8588736E0,6.576538E-3,1.5764328E0,0E0,2.1302624E0,0E0,0E0,0E0,0E0,0E0,0E0,0E0,0E0,0E0,0E0,0E0,0E0,0E0,0E0,0E0,0E0,0E0,0E0,0E0,0E0,0E0,0E0,0E0,0E0,0E0,0E0],"parents":[2147483647,0,0,1,1,2,2,4,4,5,5,6,6,7,7,8,8,9,9,10,10,11,11,12,12,13,13,14,14,15,15,16,16,17,17,18,18,21,21,22,22,27,27,28,28,29,29,31,31,32,32,33,33,34,34,35,35,36,36,39,39,40,40,43,43,44,44,45,45,46,46,47,47,48,48,51,51,52,52,53,53,54,54,55,55,57,57,60,60,63,63,66,66,68,68,71,71,75,75,77,77,78,78,79,79,81,81,82,82,85,85,86,86,89,89,90,90,92,92,95,95,99,99,102,102,103,103,105,105,106,106,107,107,108,108,110,110],"right_children":[2,4,6,-1,8,10,12,14,16,18,20,22,24,26,28,30,32,34,36,-1,-1,38,40,-1,-1,-1,-1,42,44,46,-1,48,50,52,54,56,58,-1,-1,60,62,-1,-1,64,66,68,70,72,74,-1,-1,76,78,80,82,84,-1,86,-1,-1,88,-1,-1,90,-1,-1,92,-1,94,-1,-1,96,-1,-1,-1,98,-1,100,102,104,-1,106,108,-1,-1,110,112,-1,-1,114,116,-1,118,-1,-1,120,-1,-1,-1,122,-1,-1,124,126,-1,128,130,132,134,-1,136,-1,-1,-1,-1,-1,-1,-1,-1,-1,-1,-1,-1,-1,-1,-1,-1,-1,-1,-1,-1,-1,-1,-1,-1,-1,-1],"split_conditions":[-2.4976556E-1,-3.9277017E-1,9.853264E-1,5.4789495E-1,-3.2001555E-1,9.002659E-1,2.3179561E-1,-7.902746E-1,-2.3603535E-1,1.06714785E-1,3.009486E-1,-2.3867264E-1,9.647185E-2,3.2024053E-1,-7.3639554E-1,-3.900299E-1,1.3526596E0,-2.3100343E-1,-4.311415E-2,-7.9669756E-1,5.9605487E-2,-2.5866562E-1,6.236939E-1,3.470045E-1,-6.5795666E-1,-8.9437145E-1,-6.294914E-1,3.3341512E-1,-3.610833E-1,8.461296E-1,-3.613994E-1,5.538208E-1,3.1199807E-1,4.8626176E-1,-4.8474026E-1,-6.9406193E-1,1.9328947E0,3.2169172E-1,-2.9101607E-1,-1.7049979E-1,-6.8251646E-1,-4.0961927E-1,9.7912294E-1,1.8519554E0,-3.8382146E-1,-7.424432E-1,1.2279272E0,-2.5866562E-1,6.6980994E-1,-7.618292E-2,6.211784E-1,1.3098073E-1,-3.90337E-2,2.7954748E-2,4.8626176E-1,-3.04105E-1,3.1432286E-2,8.992672E-2,-7.119749E-1,1.239629E0,8.96963E-1,7.695576E-1,-9.383083E-2,-2.5737453E-1,-6.9108224E-1,-1.0310209E0,-3.699483E-1,-1.1566841E-1,4.2509202E-2,-6.8520087E-1,2.560686E-1,5.584686E-1,5.0444365E-1,-3.0305973E-1,-8.802555E-1,-7.777936E-3,3.3534628E-1,9.565726E-1,1.7400958E-1,2.2975988E0,-8.881437E-1,2.7358216E-1,-1.0272726E0,5.7308626E-1,1.1942945E0,-2.3572244E-1,-2.3862995E-1,8.8539195E-1,2.7433616E-1,-5.3100973E-1,6.3264006E-1,4.702325E-2,-6.226611E-1,5.251367E-1,1.0939971E0,-3.042632E-1,-9.1772586E-1,6.7379165E-1,1.2022966E0,-2.5866562E-1,3.4901324E-1,1.214283E0,1.0905457E0,-4.361977E-1,-6.181757E-1,-1.3833421E-1,7.417743E-1,5.0389487E-1,-1.5657699E-1,6.220427E-1,-9.613895E-2,1.2036972E0,4.3553033E-1,4.0172374E-1,-1.6351056E-1,-7.2717226E-1,-2.4439177E-1,-1.1177627E-1,-6.525203E-1,-2.213329E-2,-6.8471485E-1,-8.755399E-1,-1.21537745E-1,-1.8025465E-1,6.754892E-1,-6.7307435E-2,5.547161E-1,-2.874442E-1,-1.1130226E0,1.0606439E-1,-4.5523363E-1,-8.6534005E-1,-7.404534E-1,-3.1715244E-1,1.0946589E-1,-7.0419693E-1,2.0807499E-1],"split_indices":[0,11,20,0,11,20,0,10,11,0,22,22,19,22,10,10,6,0,19,0,0,1,22,0,0,0,0,19,7,22,0,20,7,2,19,10,0,0,0,19,10,0,0,22,11,10,22,1,22,0,0,19,19,1,2,7,0,1,0,0,3,0,0,1,0,0,11,0,22,0,0,6,0,0,0,20,0,3,19,3,0,19,22,0,0,6,11,0,0,3,22,0,19,0,0,10,0,0,0,1,0,0,10,20,0,19,19,19,19,0,11,0,0,0,0,0,0,0,0,0,0,0,0,0,0,0,0,0,0,0,0,0,0,0,0,0,0],"split_type":[0,0,0,0,0,0,0,0,0,0,0,0,0,0,0,0,0,0,0,0,0,0,0,0,0,0,0,0,0,0,0,0,0,0,0,0,0,0,0,0,0,0,0,0,0,0,0,0,0,0,0,0,0,0,0,0,0,0,0,0,0,0,0,0,0,0,0,0,0,0,0,0,0,0,0,0,0,0,0,0,0,0,0,0,0,0,0,0,0,0,0,0,0,0,0,0,0,0,0,0,0,0,0,0,0,0,0,0,0,0,0,0,0,0,0,0,0,0,0,0,0,0,0,0,0,0,0,0,0,0,0,0,0,0,0,0,0],"sum_hessian":[2.674942E2,1.0273852E2,1.6475568E2,3.0061083E0,9.973241E1,1.4287251E2,2.1883171E1,5.076558E1,4.896683E1,1.368665E2,6.0060067E0,1.628141E1,5.6017604E0,4.2829375E0,4.648264E1,1.8453648E1,3.0513182E1,1.10065834E2,2.6800673E1,3.5964727E0,2.409534E0,4.3477497E0,1.19336605E1,3.1700063E0,2.431754E0,2.1996143E0,2.083323E0,5.2683363E0,4.1214306E1,1.4897513E1,3.5561345E0,2.3646915E1,6.8662653E0,2.94986E1,8.056723E1,8.124516E0,1.8676157E1,2.0258193E0,2.3219306E0,6.6620126E0,5.271648E0,2.479268E0,2.7890685E0,2.5199842E1,1.6014463E1,1.0298717E1,4.5987973E0,1.8037014E1,5.609901E0,3.6915572E0,3.1747084E0,8.337119E0,2.1161482E1,1.99905E1,6.0576733E1,4.5499763E0,3.5745392E0,1.5048193E1,3.6279635E0,2.0043201E0,4.6576924E0,2.0870543E0,3.184594E0,2.2467669E1,2.7321734E0,2.2929852E0,1.37214775E1,2.4429755E0,7.855741E0,2.2714436E0,2.327354E0,1.5145934E1,2.891081E0,3.4313192E0,2.178582E0,4.5254536E0,3.8116655E0,8.392345E0,1.2769135E1,1.7836508E1,2.1539931E0,2.2725842E1,3.785089E1,2.183301E0,2.3666754E0,9.654847E0,5.393346E0,2.5708685E0,2.086824E0,1.653959E1,5.928078E0,3.312267E0,1.040921E1,3.9224834E0,3.9332576E0,1.30743885E1,2.0715456E0,2.4978194E0,2.0276341E0,5.869927E0,2.5224185E0,2.1286418E0,1.0640493E1,1.5681386E1,2.1551208E0,9.675273E0,1.3050568E1,4.0060816E0,3.384481E1,3.3534038E0,6.3014436E0,2.5124514E0,2.8808944E0,8.280115E0,8.259476E0,2.7361803E0,3.1918979E0,2.0548515E0,8.354359E0,1.0951502E1,2.122886E0,3.6104314E0,2.2594957E0,8.104798E0,2.5356946E0,3.3929987E0,1.2288387E1,5.388914E0,4.2863593E0,7.044837E0,6.0057306E0,2.0012507E0,2.0048308E0,5.726864E0,2.8117945E1,4.1924753E0,2.108968E0],"tree_param":{"num_deleted":"0","num_feature":"23","num_nodes":"137","size_leaf_vector":"1"}},{"base_weights":[-2.9082319E-2,-4.0286403E-2,5.749202E-1,3.436901E-2,-1.832546E-1,-2.36187E-2,2.8780487E-1,-3.7696216E-1,-6.1164055E-2,-2.875695E-1,7.37728E-2,1.5492658E-1,7.787743E-1,-1.13285065E-1,-7.5971615E-1,6.882762E-1,-1.20752744E-1,-4.0319094E-1,4.2325553E-1,1.5187165E-1,-3.1608048E-1,3.980293E-1,-1.7342687E-1,5.8053274E-2,1.1171631E0,1.9965915E-1,-4.376645E-1,-1.2307127E0,-5.5383915E-1,-2.953493E-1,1.4753492E-1,-3.261975E-1,-1.0295012E0,-2.551231E-1,1.0056229E0,9.752285E-2,9.8170054E-1,-6.9361496E-1,3.1521842E-1,-5.0882168E-2,8.4620345E-1,5.8497734E-2,-7.7070504E-1,6.6891664E-1,9.954754E-1,-1.092048E-1,4.9648893E-1,-6.430841E-1,-1.616997E-1,-2.9652089E-2,-8.822363E-1,-3.7377894E-1,5.650875E-1,-4.233257E-2,4.9290997E-1,-7.216492E-1,-1.646511E-1,1.3858148E-1,-7.394415E-1,4.079041E-1,1.1724347E0,-3.610676E-1,-9.044155E-1,-1.9348565E-1,7.944748E-1,6.004965E-1,-4.780343E-1,3.7782413E-1,8.4178084E-1,-2.3926105E-1,2.9015774E-1,2.7723846E-1,-7.582616E-1,4.315165E-1,-5.224878E-1,-4.5548442E-1,4.360755E-1,-3.3457536E-1,-9.699891E-1,-8.2272816E-1,-2.939577E-1,1.5248956E-1,-6.515297E-1,6.804103E-1,1.2787408E-1,-1.3699183E-2,-1.2133942E0,2.327824E-1,-4.163425E-1,7.743979E-1,8.823357E-2,-7.406484E-1,4.3095876E-2,-5.7277125E-1,-1.0151076E-1,-4.4991758E-2,5.860431E-1,-3.8108146E-1,-8.440461E-1,-1.0349146E-1,-6.4419836E-1,-1.1270023E-1,5.942879E-1,-5.308236E-1,-1.2613857E0,-3.3665422E-1,5.7023287E-1,-1.0304754E0,-1.2686464E-1,3.025607E-1,8.636526E-1,2.3423052E-1,-3.301973E-2,-3.4672862E-1,1.400345E-1,-1.656073E-1,-6.1228186E-1,-3.0274355E-1,1.6187698E-1],"categories":[],"categories_nodes":[],"categories_segments":[],"categories_sizes":[],"default_left":[0,0,0,0,0,0,0,0,0,0,0,0,0,0,0,0,0,0,0,0,0,0,0,0,0,0,0,0,0,0,0,0,0,0,0,0,0,0,0,0,0,0,0,0,0,0,0,0,0,0,0,0,0,0,0,0,0,0,0,0,0,0,0,0,0,0,0,0,0,0,0,0,0,0,0,0,0,0,0,0,0,0,0,0,0,0,0,0,0,0,0,0,0,0,0,0,0,0,0,0,0,0,0,0,0,0,0,0,0,0,0,0,0,0,0,0,0,0,0],"id":8,"left_children":[1,3,-1,5,7,9,11,13,15,17,19,21,23,25,27,-1,29,31,33,35,37,39,41,-1,43,45,47,-1,49,51,53,55,-1,-1,-1,57,59,61,63,65,67,69,-1,-1,-1,71,-1,-1,73,75,77,79,-1,81,83,85,87,89,-1,-1,-1,91,-1,-1,-1,-1,93,-1,-1,-1,95,-1,-1,-1,-1,-1,-1,-1,-1,97,99,101,-1,-1,-1,-1,103,105,107,109,111,-1,-1,-1,-1,-1,-1,-1,-1,113,115,117,-1,-1,-1,-1,-1,-1,-1,-1,-1,-1,-1,-1,-1,-1,-1,-1,-1],"loss_changes":[2.247128E0,2.626552E0,0E0,2.376126E0,1.9960215E0,3.3830492E0,1.9617538E0,3.291782E0,3.053553E0,2.9183493E0,2.9279187E0,1.8944387E0,1.5173008E0,1.9653202E0,2.4444323E0,0E0,2.2902362E0,2.3033528E0,3.5613465E0,3.6108248E0,3.8294983E0,2.7436967E0,2.0278327E0,0E0,1.8630362E-1,1.4303551E0,1.1220549E0,0E0,1.8680236E0,2.4596384E0,1.2647231E0,1.807373E0,0E0,0E0,0E0,3.3798516E0,1.2554502E0,1.7461715E0,2.6233578E0,2.5155487E0,6.516156E-1,7.0617265E-1,0E0,0E0,0E0,2.633062E0,0E0,0E0,2.3473024E0,1.5209116E0,1.211638E0,9.837742E-1,0E0,2.0304208E0,9.2663205E-1,2.8384824E0,2.0160003E0,2.3194184E0,0E0,0E0,0E0,1.6505148E0,0E0,0E0,0E0,0E0,4.5643425E-1,0E0,0E0,0E0,8.72429E-1,0E0,0E0,0E0,0E0,0E0,0E0,0E0,0E0,3.929708E-1,1.5627604E0,1.7410997E0,0E0,0E0,0E0,0E0,1.1472716E0,2.8807359E0,2.9381301E0,7.500994E-1,2.0280724E0,0E0,0E0,0E0,0E0,0E0,0E0,0E0,0E0,1.6177619E0,6.248746E-1,7.0450234E-1,0E0,0E0,0E0,0E0,0E0,0E0,0E0,0E0,0E0,0E0,0E0,0E0,0E0,0E0,0E0,0E0,0E0],"parents":[2147483647,0,0,1,1,3,3,4,4,5,5,6,6,7,7,8,8,9,9,10,10,11,11,12,12,13,13,14,14,16,16,17,17,18,18,19,19,20,20,21,21,22,22,24,24,25,25,26,26,28,28,29,29,30,30,31,31,35,35,36,36,37,37,38,38,39,39,40,40,41,41,45,45,48,48,49,49,50,50,51,51,53,53,54,54,55,55,56,56,57,57,61,61,66,66,70,70,79,79,80,80,81,81,86,86,87,87,88,88,89,89,90,90,99,99,100,100,101,101],"right_children":[2,4,-1,6,8,10,12,14,16,18,20,22,24,26,28,-1,30,32,34,36,38,40,42,-1,44,46,48,-1,50,52,54,56,-1,-1,-1,58,60,62,64,66,68,70,-1,-1,-1,72,-1,-1,74,76,78,80,-1,82,84,86,88,90,-1,-1,-1,92,-1,-1,-1,-1,94,-1,-1,-1,96,-1,-1,-1,-1,-1,-1,-1,-1,98,100,102,-1,-1,-1,-1,104,106,108,110,112,-1,-1,-1,-1,-1,-1,-1,-1,114,116,118,-1,-1,-1,-1,-1,-1,-1,-1,-1,-1,-1,-1,-1,-1,-1,-1,-1],"split_conditions":[3.464863E0,-2.5059998E-1,5.749202E-1,8.125955E-1,-3.719693E-2,-3.2812494E-1,-2.2474939E-1,5.547987E-1,5.7443306E-2,6.5921015E-1,1.0788292E0,-3.1707788E-1,-3.080866E-1,-4.037913E-1,-3.778898E-1,6.882762E-1,7.201941E-1,-2.299103E-1,8.068067E-2,9.58471E-1,1.4281147E0,-2.3572244E-1,1.438708E0,5.8053274E-2,-3.1668684E-1,-6.775684E-1,-2.4770642E-2,-1.2307127E0,-7.3565674E-1,2.18708E0,1.0732333E-2,-3.3526155E-1,-1.0295012E0,-2.551231E-1,1.0056229E0,9.546742E-1,9.5364875E-1,-2.2474939E-1,7.4026686E-1,-3.3692348E-1,-4.090434E-1,-5.765161E-1,-7.7070504E-1,6.6891664E-1,9.954754E-1,1.3858902E-1,4.9648893E-1,-6.430841E-1,1.674287E-1,-7.6388484E-1,-1.809711E-1,-4.0986323E-1,5.650875E-1,-3.978577E-1,5.7654965E-1,-9.2135894E-1,-5.0086355E-1,-3.2499656E-1,-7.394415E-1,4.079041E-1,1.1724347E0,-5.568492E-1,-9.044155E-1,-1.9348565E-1,7.944748E-1,6.004965E-1,-3.3506602E-1,3.7782413E-1,8.4178084E-1,-2.3926105E-1,3.848362E-1,2.7723846E-1,-7.582616E-1,4.315165E-1,-5.224878E-1,-4.5548442E-1,4.360755E-1,-3.3457536E-1,-9.699891E-1,-5.6761104E-1,1.0089157E-1,-5.863038E-1,-6.515297E-1,6.804103E-1,1.2787408E-1,-1.3699183E-2,-4.2134088E-1,-2.4514274E-1,-6.68222E-1,-3.04105E-1,-5.7539356E-1,-7.406484E-1,4.3095876E-2,-5.7277125E-1,-1.0151076E-1,-4.4991758E-2,5.860431E-1,-3.8108146E-1,-8.440461E-1,-2.3106657E-1,4.7722358E-1,1.1500106E0,5.942879E-1,-5.308236E-1,-1.2613857E0,-3.3665422E-1,5.7023287E-1,-1.0304754E0,-1.2686464E-1,3.025607E-1,8.636526E-1,2.3423052E-1,-3.301973E-2,-3.4672862E-1,1.400345E-1,-1.656073E-1,-6.1228186E-1,-3.0274355E-1,1.6187698E-1],"split_indices":[4,8,0,22,20,8,0,22,20,20,3,8,20,13,7,0,22,7,22,3,10,6,22,0,8,10,8,0,3,13,4,8,0,0,0,3,10,0,20,8,7,13,0,0,0,8,0,0,8,10,0,7,0,4,20,20,4,8,0,0,0,22,0,0,0,0,8,0,0,0,20,0,0,0,0,0,0,0,0,10,7,10,0,0,0,0,7,20,10,7,22,0,0,0,0,0,0,0,0,13,20,20,0,0,0,0,0,0,0,0,0,0,0,0,0,0,0,0,0],"split_type":[0,0,0,0,0,0,0,0,0,0,0,0,0,0,0,0,0,0,0,0,0,0,0,0,0,0,0,0,0,0,0,0,0,0,0,0,0,0,0,0,0,0,0,0,0,0,0,0,0,0,0,0,0,0,0,0,0,0,0,0,0,0,0,0,0,0,0,0,0,0,0,0,0,0,0,0,0,0,0,0,0,0,0,0,0,0,0,0,0,0,0,0,0,0,0,0,0,0,0,0,0,0,0,0,0,0,0,0,0,0,0,0,0,0,0,0,0,0,0],"sum_hessian":[2.4946687E2,2.4605457E2,3.4123037E0,1.6165495E2,8.4399605E1,1.3156801E2,3.0086946E1,3.2614445E1,5.1785164E1,3.5451508E1,9.61165E1,2.3697882E1,6.3890634E0,1.932552E1,1.3288925E1,2.9286475E0,4.8856518E1,3.0498787E1,4.952719E0,8.008476E1,1.6031742E1,1.3614428E1,1.0083455E1,2.0884824E0,4.3005805E0,9.839678E0,9.485842E0,2.4527063E0,1.0836219E1,2.9595009E1,1.9261507E1,2.830851E1,2.1902778E0,2.7228625E0,2.2298565E0,7.518171E1,4.903049E0,1.00311165E1,6.000625E0,6.809797E0,6.8046303E0,7.9651403E0,2.118315E0,2.2383566E0,2.0622241E0,5.942707E0,3.8969707E0,3.698601E0,5.787241E0,4.1817803E0,6.654438E0,2.7561527E1,2.0334802E0,1.2439267E1,6.822241E0,8.191475E0,2.0117033E1,7.2477486E1,2.7042265E0,2.8671932E0,2.0358555E0,6.1603713E0,3.8707452E0,3.4113634E0,2.5892618E0,2.254347E0,4.55545E0,3.1587346E0,3.6458957E0,3.0095515E0,4.955589E0,3.8936498E0,2.0490572E0,2.440914E0,3.3463268E0,2.1487043E0,2.033076E0,3.3201883E0,3.33425E0,4.1342854E0,2.3427242E1,1.0099486E1,2.3397806E0,2.9230554E0,3.8991852E0,3.3789992E0,4.812476E0,7.8006115E0,1.2316422E1,5.2983446E0,6.717914E1,2.4349468E0,3.7254248E0,2.4355817E0,2.1198683E0,2.9206352E0,2.0349534E0,2.1093872E0,2.0248985E0,1.5190656E1,8.236587E0,7.1782265E0,2.9212604E0,2.3996968E0,2.4127793E0,3.4200082E0,4.3806033E0,2.4650292E0,9.851393E0,2.7478626E0,2.550482E0,2.4752117E1,4.2427025E1,6.7622867E0,8.428369E0,2.486665E0,5.749922E0,3.7910259E0,3.3872004E0],"tree_param":{"num_deleted":"0","num_feature":"23","num_nodes":"119","size_leaf_vector":"1"}},{"base_weights":[-4.792279E-3,-6.623222E-2,2.2365656E-1,-9.864738E-2,2.3188391E-1,-7.6826304E-2,4.251458E-1,3.233822E-2,-1.8585724E-1,-5.885038E-1,3.7332267E-1,-5.0027925E-1,1.2633057E-1,3.317005E-1,8.143025E-1,-3.6288355E-3,5.0146925E-1,-1.5824106E-1,-7.2598463E-1,1.9886763E-1,7.802534E-1,-8.886008E-1,-1.2953125E-1,3.3987105E-1,-3.3626887E-1,4.5808068E-1,-2.5170428E-1,9.001808E-1,7.649363E-2,-2.9134983E-1,1.05950534E-1,-5.446057E-1,-1.0164127E-1,-3.3553805E-2,6.2133247E-1,-3.102549E-1,1.12632655E-1,7.8383726E-1,2.355214E-2,2.6205748E-1,7.5448835E-1,-4.7737932E-1,3.1222355E-1,-1.4152369E-1,2.9866138E-1,2.7986715E-2,-8.0992144E-1,-2.2069182E-1,8.367562E-2,3.50512E-1,-5.453796E-1,7.8199065E-1,1.8454643E-1,-4.4486448E-1,3.9737785E-1,9.145445E-2,4.618694E-1,5.164721E-1,8.9608085E-1,1.3934653E-1,-7.316534E-1,-2.895612E-1,5.4510653E-1,-5.410996E-1,3.94148E-1,-1.0754403E0,-1.367622E-1,-3.857049E-1,-5.318268E-3,1.5295988E-1,-6.2222797E-1,-1.2441143E-1,7.1599066E-1,6.847104E-1,-8.112958E-2,-1.8590924E-1,6.031048E-1,1.615883E-1,6.760516E-1,-9.482551E-1,5.435528E-2,4.3526176E-1,-4.3567842E-1,-1.9746315E-1,5.5975026E-1,-5.1917595E-1,-1.2649002E0,-3.0583766E-1,-8.4049404E-1,1.9179295E-1,-4.4159442E-1,-3.8022122E-1,2.546633E-1,1.5564625E-1,-4.4074187E-1,-4.5402825E-1,-9.928966E-1,-5.135243E-1,2.6955122E-1,-6.133965E-1,3.1812552E-1,8.526691E-1,2.6478246E-1,-3.2869667E-1,3.2335177E-1,-1.11334436E-1,3.3315465E-1,3.0613037E-2,-6.175577E-1,2.4193485E-1,-2.1126044E-1],"categories":[],"categories_nodes":[],"categories_segments":[],"categories_sizes":[],"default_left":[0,0,0,0,0,0,0,0,0,0,0,0,0,0,0,0,0,0,0,0,0,0,0,0,0,0,0,0,0,0,0,0,0,0,0,0,0,0,0,0,0,0,0,0,0,0,0,0,0,0,0,0,0,0,0,0,0,0,0,0,0,0,0,0,0,0,0,0,0,0,0,0,0,0,0,0,0,0,0,0,0,0,0,0,0,0,0,0,0,0,0,0,0,0,0,0,0,0,0,0,0,0,0,0,0,0,0,0,0,0,0],"id":9,"left_children":[1,3,5,7,9,11,13,15,17,-1,19,21,23,25,27,29,-1,31,-1,33,-1,-1,35,37,-1,39,-1,-1,-1,41,43,45,47,49,51,-1,-1,-1,53,55,57,59,-1,61,63,-1,65,67,69,71,-1,-1,-1,-1,73,75,-1,77,-1,-1,79,81,-1,-1,83,85,-1,87,89,91,-1,-1,-1,-1,-1,93,-1,-1,-1,95,-1,-1,97,99,101,-1,-1,103,-1,105,107,-1,109,-1,-1,-1,-1,-1,-1,-1,-1,-1,-1,-1,-1,-1,-1,-1,-1,-1,-1],"loss_changes":[3.2352748E0,1.7557597E0,2.958389E0,1.8717749E0,2.5884066E0,1.6894896E0,1.0584412E0,1.5157373E0,2.1492815E0,0E0,1.8495371E0,1.6422286E0,1.6456009E0,2.0050247E0,1.599283E0,1.9570109E0,0E0,2.0779638E0,0E0,1.2265215E0,0E0,0E0,3.4016454E-1,2.1999261E0,0E0,